<?xml version="1.0"?>
<opencv_storage>
<mlp type_id="opencv-ml-ann-mlp">
  <layer_sizes type_id="opencv-matrix">
    <rows>1</rows>
    <cols>3</cols>
    <dt>i</dt>
    <data>
      200 150 62</data></layer_sizes>
  <activation_function>SIGMOID_SYM</activation_function>
  <f_param1>5.9999999999999998e-01</f_param1>
  <f_param2>1.</f_param2>
  <min_val>-9.4999999999999996e-01</min_val>
  <max_val>9.4999999999999996e-01</max_val>
  <min_val1>-9.7999999999999998e-01</min_val1>
  <max_val1>9.7999999999999998e-01</max_val1>
  <training_params>
    <train_method>BACKPROP</train_method>
    <dw_scale>5.0000000745058060e-02</dw_scale>
    <moment_scale>5.0000000745058060e-02</moment_scale>
    <term_criteria><epsilon>9.9999999747524271e-07</epsilon>
      <iterations>1000</iterations></term_criteria></training_params>
  <input_scale>
    5.5357432423802991e-02 -4.2712024139420957e-01
    3.2101358456651928e-02 -6.9728446523514342e-01
    2.2308255901145681e-02 -1.0013729772706006e+00
    2.7673179930917426e-02 -7.6376668182255170e-01
    4.9878688607517659e-02 -4.0596958214119983e-01
    6.7101648004084344e-02 -3.0899272875195438e-01
    4.5862528471074179e-02 -5.2044163413379996e-01
    4.4183971896338353e-02 -7.2521871513710578e-01
    4.0389102683780542e-02 -5.7235092646570263e-01
    5.7878173764808083e-02 -3.8539809243352358e-01
    1.9314769186283295e-01 -2.2052277905057599e-01
    4.4129646140415202e-02 -5.1923438252532728e-01
    2.7457845123946799e-02 -6.2466932787211926e-01
    4.3842248304498892e-02 -5.0508041947747873e-01
    9.8969671332533288e-02 -2.5460916997996252e-01
    5.8260640610050284e-02 -2.5933947378129224e-01
    3.6982903901418999e-02 -4.6469694910167381e-01
    3.0452805230761309e-02 -5.5662269145211962e-01
    4.6648938391758987e-02 -4.4821291169336475e-01
    7.3043242513168474e-02 -2.2847515969906121e-01
    2.0186679149435026e-02 -9.9412328808513617e-01
    2.2889535642219603e-02 -2.2473343291582975e+00
    1.9145049259763937e-02 -1.8767334313098654e+00
    1.9555585547472835e-02 -1.4624805562616248e+00
    2.5355176523698626e-02 -6.2431292251786963e-01
    2.6288623691601853e-02 -4.3286915738980331e-01
    2.9681933623180355e-02 -4.7505547675739768e-01
    2.4145252763774192e-02 -7.2720184848135683e-01
    1.9982328780867545e-02 -8.2748480565175986e-01
    5.4368725262967176e-02 -3.3584776096380980e-01
    2.9582898158088875e-02 -4.2998524483562317e-01
    2.1810932317286504e-02 -5.2532344835260170e-01
    2.7154204538122843e-02 -6.6492428272969684e-01
    2.4440988436875727e-02 -7.8846446472183485e-01
    5.0797511992854628e-02 -3.5870678493047026e-01
    3.8737159100667946e-02 -3.8055949490491042e-01
    2.0748124830348311e-02 -5.5288982712109702e-01
    2.3449825450081757e-02 -6.6475193781000663e-01
    2.8550704248258067e-02 -5.2611719913677346e-01
    1.5523632448740399e-01 -2.0055855195893735e-01
    3.2317113741712936e-02 -4.9497732659329058e-01
    2.7481384325095608e-02 -5.0304351952597404e-01
    1.9963130030524589e-02 -5.9974647261443659e-01
    3.3076836999140907e-02 -5.4323810602427902e-01
    1.8732043571005871e-01 -1.3945566402768375e-01
    1.9405140376854393e-02 -5.7499592560651180e-01
    1.9475644822510543e-02 -6.3323956599009790e-01
    2.8329711885164127e-02 -4.4319415380734373e-01
    2.8264786633775334e-02 -3.9314784935755154e-01
    1.4002176725862994e-01 -1.4376750666582760e-01
    1.8611360197931946e-02 -1.0253747024194952e+00
    1.8547523620731317e-02 -9.9812135543889013e-01
    2.4497136393975088e-02 -6.2227904275428914e-01
    2.1996494943828639e-02 -7.1082592028603886e-01
    7.4061992575797306e-02 -3.8724132840999254e-01
    1.6512689463696044e-02 -1.2766229403238623e+00
    1.4968742628633269e-02 -1.1855514515492729e+00
    1.7907858917565616e-02 -8.5361382265217312e-01
    1.6378083079187963e-02 -1.0006017647823653e+00
    4.2880761112532848e-02 -4.5375432015025791e-01
    1.5207631155284505e-02 -1.1965306043272319e+00
    1.5705653046960127e-02 -1.1975243265170807e+00
    1.7304713841177159e-02 -8.9159474905586789e-01
    1.7445499376313893e-02 -8.4415299715993164e-01
    4.9192119380933201e-02 -3.4034210498523676e-01
    1.6114186479027393e-02 -1.3902536941800314e+00
    1.5778479414778036e-02 -1.0803786701191769e+00
    1.7923431458831983e-02 -9.3261250724334166e-01
    1.7334992438999851e-02 -8.6229595386402991e-01
    5.6631342052935039e-02 -3.2180921945944641e-01
    1.8534649071754252e-02 -1.3450424189455341e+00
    1.8089348075129498e-02 -9.3449690594085444e-01
    2.2788509062245232e-02 -6.6254660282416566e-01
    2.6226586039741592e-02 -5.9131556516625006e-01
    1.0468478850616171e-01 -2.3657638061675881e-01
    2.7740842671984713e-02 -5.9623026484193098e-01
    1.5986936052444063e-02 -8.9619402807128112e-01
    2.2717464328208457e-02 -6.6967315202336286e-01
    2.2868504266869337e-02 -5.5481761535681307e-01
    7.4255653516865971e-02 -2.9536551436806302e-01
    2.4401937944109272e-02 -6.0967564175624400e-01
    2.1259992157438241e-02 -8.1635036322364507e-01
    1.8335031785552430e-02 -8.4195260686871454e-01
    2.1088467517884256e-02 -7.6483515142630609e-01
    5.9147005463184549e-02 -2.8961274061693404e-01
    2.9851320373682721e-02 -5.4214366437593853e-01
    1.8739402534841194e-02 -7.3380283723508344e-01
    1.9626752077472446e-02 -8.3129730112375333e-01
    2.3082761237191218e-02 -6.9639519189938892e-01
    7.5415386885287206e-02 -2.7333145397968545e-01
    2.4015833293368566e-02 -5.8765876756679636e-01
    2.0528056888535005e-02 -6.4298810780222049e-01
    2.3799655512603598e-02 -8.3553243491723683e-01
    2.2879226958408563e-02 -8.1873130390589277e-01
    5.9286566240051061e-02 -3.1485522287597578e-01
    2.4023257180609641e-02 -5.5108102903855494e-01
    2.6939431975064689e-02 -5.5169665727104567e-01
    2.2651783276945284e-02 -8.0787550304031563e-01
    2.6319167163396020e-02 -6.6389240100023017e-01
    9.2657075937891617e-02 -2.3624910231603266e-01
    2.1575891956374216e-02 -7.7136359806701738e-01
    2.1575181365834823e-02 -1.8669287189976875e+00
    1.8864073607483677e-02 -1.8998864790074599e+00
    2.2175303958699513e-02 -2.0868858074618695e+00
    2.0106394766833315e-02 -9.2774040927954327e-01
    6.0685618148692826e-02 -2.2412355680538373e-01
    4.7541063998714529e-02 -4.6354399677050423e-01
    2.9583534191875458e-02 -6.3374636714067456e-01
    3.7453485586072782e-02 -5.3217597194154442e-01
    6.2671874296315877e-02 -2.6300002453665999e-01
    1.7084224528923539e-01 -1.9010708606447246e-01
    5.9382214363513194e-02 -4.8961968917806509e-01
    3.3231810771809284e-02 -6.5788394263972283e-01
    4.6105457490116408e-02 -5.1506788298506145e-01
    9.9028478679576995e-02 -2.5796863429619676e-01
    6.7034243811626454e-02 -3.3479840253940435e-01
    4.9757779105532758e-02 -5.8204768824291031e-01
    3.9299723194245545e-02 -6.5989541047212186e-01
    5.0722371051625734e-02 -4.9596282135059022e-01
    6.5418733025751005e-02 -3.4811474446372909e-01
    4.8273628887752745e-02 -4.3269599140785092e-01
    2.9961617007916976e-02 -8.1070718875570857e-01
    2.2168965259988748e-02 -9.4218826314932036e-01
    3.1166946088323755e-02 -6.1602260652704011e-01
    6.8886918723346430e-02 -3.7607204650796183e-01
    8.2543413079087469e-02 -2.0543063964718219e-01
    2.4984362344064447e-02 -3.9146132971275688e-01
    3.3710961203145054e-02 -4.6398814203370120e-01
    1.7412074906067294e-02 -6.5116074823029035e-01
    2.0552937605636156e-02 -5.7900092343960563e-01
    7.0795211191551272e-02 -2.1043956829392196e-01
    2.4565854434342404e-02 -5.9397033226119256e-01
    2.0505115883043247e-02 -6.3161369724510774e-01
    2.8528021552687025e-02 -5.5655212492088990e-01
    3.5380915847489709e-02 -4.6077374533625681e-01
    7.6839269636271620e-02 -2.6055516762201664e-01
    2.5325105864064754e-02 -6.4866257144636685e-01
    2.5433758086307625e-02 -6.5764509215566369e-01
    1.9765127429251860e-02 -5.8690112496884539e-01
    4.1990559551295978e-02 -3.7513114290293215e-01
    5.1860448530537347e-02 -3.8028915548443032e-01
    2.1987176490173385e-02 -8.2133430569971011e-01
    3.1394063655574872e-02 -6.4484050077560173e-01
    2.1422975638346262e-02 -4.8657940705139707e-01
    3.6298904055935714e-02 -4.1122109982979821e-01
    6.5061545472418006e-02 -3.4421151223776447e-01
    1.9327715316832209e-02 -8.2814489634861721e-01
    2.5780518837414203e-02 -6.6257907491348789e-01
    2.7285193314892205e-02 -4.1422499494037485e-01
    3.0519960491692973e-02 -3.6935939444950455e-01
    6.9704056884144217e-02 -3.1235714847414842e-01
    1.8929191548539021e-02 -7.2142267804975724e-01
    2.1507566617652536e-02 -6.7552975952115857e-01
    1.7418708496615760e-02 -9.2108490479286831e-01
    1.8829262723806910e-02 -1.2637164291986176e+00
    4.1341128425592670e-02 -4.2291152759571332e-01
    1.4836559367641822e-02 -1.0755928364379350e+00
    1.8453110191140074e-02 -9.5146835547845854e-01
    1.4929240760286478e-02 -1.0824840269138551e+00
    1.6667063196700197e-02 -1.2021646361312985e+00
    3.5878593725104775e-02 -4.5730067482148851e-01
    1.5452682944422527e-02 -1.0041415936870546e+00
    1.6657269287896542e-02 -8.8332829867146156e-01
    1.5349701673509384e-02 -1.1829362727933379e+00
    1.6917820670313558e-02 -9.5702021098553469e-01
    3.6530010607130611e-02 -4.9617681988511297e-01
    1.4802362749579074e-02 -1.0793125651344977e+00
    1.5697514966097181e-02 -8.1323738305113591e-01
    1.4809076899601582e-02 -1.1023991294453706e+00
    1.7060760721429858e-02 -9.8771984133078461e-01
    5.7040812599161099e-02 -3.8360435555889594e-01
    1.8115743718175155e-02 -7.5207768607826830e-01
    2.0616694183869220e-02 -6.4259647114724172e-01
    1.9561591806196394e-02 -9.7551623883261074e-01
    2.0825163415594927e-02 -8.4056591306316797e-01
    8.8187925127732922e-02 -2.2603094661144435e-01
    2.5047671180484288e-02 -7.5155427572631128e-01
    2.3227795815259664e-02 -8.4851286977214768e-01
    2.6274899418900606e-02 -5.6735212523723044e-01
    2.1628486360275801e-02 -5.8138409090150811e-01
    6.1203064187295493e-02 -3.3305751580652482e-01
    2.1029796818976453e-02 -8.7410150817905030e-01
    2.2441033996040270e-02 -8.8262099010964479e-01
    1.7272629801014738e-02 -7.5222504294647563e-01
    2.3491609653880870e-02 -6.7611217370543675e-01
    8.0411160822088656e-02 -3.3929971887815380e-01
    2.2186770426048844e-02 -7.8440978535241412e-01
    2.0404374436996487e-02 -8.7381482772691599e-01
    1.7967791227957920e-02 -8.2279816402172401e-01
    2.8384342234803465e-02 -5.6800228257715668e-01
    7.4656930229592591e-02 -3.1057386805238196e-01
    2.2891493986805959e-02 -7.3554829046464654e-01
    1.9215090731116796e-02 -7.2796176189267869e-01
    2.1967103514268085e-02 -7.8659404325135673e-01
    2.7629989937909188e-02 -5.9193598746253429e-01
    7.3989631924537294e-02 -2.9705165547671020e-01
    2.6421982456823374e-02 -5.3213028729466960e-01
    2.2208082769672923e-02 -6.6402275483645468e-01
    1.5176898409757528e-02 -8.7374267286029228e-01
    2.7617451048799375e-02 -5.6938828053434054e-01</input_scale>
  <output_scale>
    1.0526315789473684e+00 0. 1.0526315789473684e+00 0.
    1.0526315789473684e+00 0. 1.0526315789473684e+00 0.
    1.0526315789473684e+00 0. 1.0526315789473684e+00 0.
    1.0526315789473684e+00 0. 1.0526315789473684e+00 0.
    1.0526315789473684e+00 0. 1.0526315789473684e+00 0.
    1.0526315789473684e+00 0. 1.0526315789473684e+00 0.
    1.0526315789473684e+00 0. 1.0526315789473684e+00 0.
    1.0526315789473684e+00 0. 1.0526315789473684e+00 0.
    1.0526315789473684e+00 0. 1.0526315789473684e+00 0.
    1.0526315789473684e+00 0. 1.0526315789473684e+00 0.
    1.0526315789473684e+00 0. 1.0526315789473684e+00 0.
    1.0526315789473684e+00 0. 1.0526315789473684e+00 0.
    1.0526315789473684e+00 0. 1.0526315789473684e+00 0.
    1.0526315789473684e+00 0. 1.0526315789473684e+00 0.
    1.0526315789473684e+00 0. 1.0526315789473684e+00 0.
    1.0526315789473684e+00 0. 1.0526315789473684e+00 0.
    1.0526315789473684e+00 0. 1.0526315789473684e+00 0.
    1.0526315789473684e+00 0. 1.0526315789473684e+00 0.
    1.0526315789473684e+00 0. 1.0526315789473684e+00 0.
    1.0526315789473684e+00 0. 1.0526315789473684e+00 0.
    1.0526315789473684e+00 0. 1.0526315789473684e+00 0.
    1.0526315789473684e+00 0. 1.0526315789473684e+00 0.
    1.0526315789473684e+00 0. 1.0526315789473684e+00 0.
    1.0526315789473684e+00 0. 1.0526315789473684e+00 0.
    1.0526315789473684e+00 0. 1.0526315789473684e+00 0.
    1.0526315789473684e+00 0. 1.0526315789473684e+00 0.
    1.0526315789473684e+00 0. 1.0526315789473684e+00 0.
    1.0526315789473684e+00 0. 1.0526315789473684e+00 0.
    1.0526315789473684e+00 0. 1.0526315789473684e+00 0.
    1.0526315789473684e+00 0. 1.0526315789473684e+00 0.
    1.0526315789473684e+00 0. 1.0526315789473684e+00 0.</output_scale>
  <inv_output_scale>
    9.4999999999999996e-01 0. 9.4999999999999996e-01 0.
    9.4999999999999996e-01 0. 9.4999999999999996e-01 0.
    9.4999999999999996e-01 0. 9.4999999999999996e-01 0.
    9.4999999999999996e-01 0. 9.4999999999999996e-01 0.
    9.4999999999999996e-01 0. 9.4999999999999996e-01 0.
    9.4999999999999996e-01 0. 9.4999999999999996e-01 0.
    9.4999999999999996e-01 0. 9.4999999999999996e-01 0.
    9.4999999999999996e-01 0. 9.4999999999999996e-01 0.
    9.4999999999999996e-01 0. 9.4999999999999996e-01 0.
    9.4999999999999996e-01 0. 9.4999999999999996e-01 0.
    9.4999999999999996e-01 0. 9.4999999999999996e-01 0.
    9.4999999999999996e-01 0. 9.4999999999999996e-01 0.
    9.4999999999999996e-01 0. 9.4999999999999996e-01 0.
    9.4999999999999996e-01 0. 9.4999999999999996e-01 0.
    9.4999999999999996e-01 0. 9.4999999999999996e-01 0.
    9.4999999999999996e-01 0. 9.4999999999999996e-01 0.
    9.4999999999999996e-01 0. 9.4999999999999996e-01 0.
    9.4999999999999996e-01 0. 9.4999999999999996e-01 0.
    9.4999999999999996e-01 0. 9.4999999999999996e-01 0.
    9.4999999999999996e-01 0. 9.4999999999999996e-01 0.
    9.4999999999999996e-01 0. 9.4999999999999996e-01 0.
    9.4999999999999996e-01 0. 9.4999999999999996e-01 0.
    9.4999999999999996e-01 0. 9.4999999999999996e-01 0.
    9.4999999999999996e-01 0. 9.4999999999999996e-01 0.
    9.4999999999999996e-01 0. 9.4999999999999996e-01 0.
    9.4999999999999996e-01 0. 9.4999999999999996e-01 0.
    9.4999999999999996e-01 0. 9.4999999999999996e-01 0.
    9.4999999999999996e-01 0. 9.4999999999999996e-01 0.
    9.4999999999999996e-01 0. 9.4999999999999996e-01 0.
    9.4999999999999996e-01 0. 9.4999999999999996e-01 0.
    9.4999999999999996e-01 0. 9.4999999999999996e-01 0.</inv_output_scale>
  <weights>
    <_>
      8.2577625868176252e+00 -2.4711026145790974e-01
      2.1283716836145486e-01 7.0712483737987913e-02
      -5.5788054604258730e-01 3.5717548900220047e-01
      -1.8419516618727297e-01 2.6991649158081421e-01
      -4.7524044216068856e-01 -2.7431210091746672e-01
      1.2084868128052275e+00 3.6459447947332341e-01
      -6.2217936840741868e-03 -1.1743617137264696e-01
      1.5847630683219818e-01 -4.1613010927592009e-02
      -8.1815979896337376e-02 -3.3936290137672276e-01
      -9.5147043193034631e-02 4.6807472616513596e-01
      -9.8181872701629452e-02 2.1240614198044738e-02
      2.1758997137412620e-01 1.1174457002445820e-01
      1.9715414317815677e-02 -3.4407412066613091e-01
      -1.3285024143649060e-01 4.0152382612744220e-01
      -2.7658457542721654e-01 1.8461214831192788e-01
      4.2145950259998005e-01 -4.1344761623114193e-02
      -5.0251927661338911e-03 -4.4185647507975673e-01
      -1.1768012084187294e-03 5.6061612647689774e-01
      -1.6922108426540374e-02 4.0974994719246954e-01
      5.9596832689691008e-02 -2.1695590428214440e-01
      7.0674243867433295e-01 -6.3240513137320398e-01
      -1.2710616573400657e-01 1.0233830786107111e-01
      1.2698470983801283e-01 -6.3336136883565888e-02
      -3.5509037795164206e-01 -1.7821641717344150e-01
      1.6984246391540539e-01 5.1573420269816739e-01
      3.1799959646175852e-02 -1.4861269641521146e-01
      2.2862787704421364e-01 1.8452833036450036e-02
      -1.8753935313568634e-01 -7.6271626716909374e-02
      -6.6974825015303524e-02 5.1236684589076587e-01
      9.3062871143021295e-02 -1.8093304020465033e-02
      -3.3306008865547021e-01 4.8375379500080834e-02
      6.0729774680190661e-02 -1.2783720581039852e-02
      -8.9844971521627115e-01 1.6624795744590787e-01
      -1.7000391621615002e-01 4.4548620738184802e-02
      -8.7440032221974592e-02 -1.0823693914058875e-01
      -4.9430758547028547e-01 3.7601425262620697e-01
      1.3422842039553773e-01 -3.5022089386177555e-02
      -7.4895046430174542e-02 3.4241519065883164e-01
      1.7773460263908170e-01 -3.1913353676322043e-01
      -6.7993253938354814e-01 2.2510446279221469e-02
      -4.4826946899925757e-01 1.0203961026608027e-01
      -1.4793078764060141e-01 2.3933820588222235e-01
      8.5961634077423452e-02 -1.6366518886770884e-01
      3.3647473685756774e-01 1.8710795118861190e-01
      -9.8628519339351434e-02 1.6033454898469376e-01
      2.1042997029346275e-01 -8.1210432923726217e-01
      8.9254356948867819e-01 1.8579187381417217e-01
      -2.2022133697475843e-01 5.6438104024866764e-01
      -7.7903700305471724e-02 5.1228845829150452e-02
      -3.9067940877768673e-02 4.2520946809936296e-02
      1.8476501061647180e-01 2.1113774491711906e-01
      1.0786504322572026e-01 -3.5819527977378018e-01
      -2.9903018102784436e-03 2.0405755363325048e-01
      1.9329441316049775e-01 6.3396885382149615e-01
      -7.8852811815260115e-01 4.4930536451898889e-01
      1.8235626619280362e-01 3.9580610553142180e-02
      -6.5453266770014937e-02 -1.2530415799370648e-01
      -1.0361847749433082e-02 9.2693499062457788e-02
      1.6875386201822012e-01 5.6549343650479450e-02
      -1.2417810744045985e-01 2.2862413956534162e-02
      3.1703192011137765e-01 -1.0728385107557514e-01
      4.5225475336489296e-01 9.4166977776491204e-03
      9.8546279886460614e-02 1.1573672929637169e-01
      -1.8612150702321076e-01 8.2603963914158740e-01
      -2.0881687369156160e-01 9.4581636189421711e-02
      -4.1441154139324882e-01 2.3189308957114668e-01
      6.7849123631457287e-02 3.5302515133297019e-01
      -3.0517038923183876e-01 -3.0755193988977268e-02
      6.4569969497543855e-01 2.3129949445340273e-01
      1.3735986501716332e-01 -2.7980069589148278e-03
      5.6597400303219816e-02 -9.4598784107880612e-02
      4.6584846890728365e-01 -1.5780200684863069e-01
      3.4100073032517941e-01 2.6924413864024549e-01
      6.7671302309455394e-02 2.0895751082080569e-01
      -3.5887427658355969e-01 -6.1716004810589542e-01
      1.0335548369771256e+01 2.9729217856969847e-01
      3.8442161985039927e-02 1.2779999751711363e-01
      6.0421207520364906e-01 -9.6533165406753801e-02
      9.0150014323015448e-02 1.5650428719834578e-01
      -2.0310643226837999e-01 -3.4880860734473240e-01
      2.2446267056862984e-01 1.0244626809757689e+00
      -1.0274680616125438e-01 5.2426439635923872e-01
      -1.4371004530484249e-01 7.1774752517868273e-02
      4.7494476826466270e-01 -6.0591910719826336e-02
      -3.7194362904124068e-01 -1.0338792391789735e-01
      -2.2658649763084424e-01 1.0620686197873687e-01
      1.4073145855333579e-03 5.0248895180856223e-01
      -1.1096570162471361e-01 4.4913786355198015e-01
      -1.0441523130255187e-01 4.6795406545921792e-01
      -3.8889884939324493e-01 -7.2548295592181150e-02
      -7.8662244882699156e-02 3.1963537369780243e-01
      1.1275696804161293e-01 -5.4193140991624567e-01
      -1.3760861914813546e-01 2.2946920469757401e-01
      -4.6298772671996713e-01 7.7328213871548562e-02
      1.7156113364316897e-01 3.4543256349143148e-01
      7.1901650792920901e-01 4.6027934966113587e-01
      3.9879334939124444e-01 -1.6155935109351580e-01
      1.3156852887128856e+00 -4.7340013557849681e-01
      3.6460258403455525e-01 -3.2764956059163103e-02
      3.5467879945654834e-01 1.9489823493923203e-01
      -7.0217792136716126e-02 8.4628760501186923e-02
      -4.0079599745431388e-01 6.4980838709384914e-01
      3.8615132748758141e-01 3.6408738289520348e-01
      9.1981501562795276e-02 -3.6715393636926080e-01
      -2.3912563241877133e-01 -2.9388815728475615e-02
      2.3991543862468639e-01 -2.1272864494444901e-01
      -5.9227097822296793e-01 6.5774261841238213e-01
      -1.1597230952993925e-01 9.7081331168997670e-02
      3.2749847158717309e-02 3.2792413447600965e-01
      5.3696217560258622e-02 2.6796751821797549e-01
      3.9714707261820775e-01 -1.2584554346725574e-01
      7.4826852037749447e-01 4.7235537603594291e-01
      4.4875071294600083e-02 1.0557542590695279e-02
      -2.0130488032304944e-01 -1.6866972796066131e-02
      -8.6622607778162986e-01 -8.7115364634014800e-02
      -2.5320981731614217e-01 -5.9377087663474415e-01
      1.9976386423415499e-01 -5.3937665838142523e-02
      -2.9688101402496847e-01 3.6647317926304185e-01
      -1.2398083156431311e-01 -5.8005405027129386e-01
      -1.2189666960732946e-01 1.5299900000381117e-01
      -5.4315345598653009e-01 1.2609326665611495e-01
      9.5640886202262965e-01 3.5802221966011344e-01
      -6.5107389709969321e-02 -5.3873032032052015e-01
      -1.0255110435612962e-02 2.7307855323463626e-01
      -7.3619666496232550e-01 -8.0647042893713161e-01
      1.5932630222822597e-01 2.6297729579673396e-01
      -2.7274978670013267e-01 4.0678797555633095e-01
      4.3404205901248061e-01 -4.3222826012748528e-01
      1.3326091492010086e-01 5.5823643107088550e-01
      -2.1853555289262219e-01 7.7977295182171902e-01
      7.1642346766097972e-02 5.9716137714894346e-01
      8.8758740950511103e-02 -1.3429046738731791e+00
      -2.8656743236057353e-01 3.2777008443014032e-02
      -3.0029187284931658e-01 1.4397172051129523e-01
      1.1773426710932237e-02 4.0020027557377291e-01
      -3.6049063272931670e-01 1.4201153463936876e-02
      3.4762731318079748e-01 4.2607143711345392e-02
      -5.9106293953544178e-02 -2.4259164424266302e-01
      -5.2978408851546888e-01 3.6155106079462385e-01
      -2.4115310390424949e-01 -1.2082850521677955e-02
      -4.3836543200747680e-01 -6.5017108197530440e-02
      3.7604533030754084e-01 1.8733304477265669e-01
      1.9667869757113116e-01 1.4051842010672194e-01
      8.5511448798813428e-01 1.9098932299012245e-01
      1.6354760084518041e-01 5.9064471319792498e-02
      -1.3819364568161038e-01 1.0458763183096864e-01
      -5.0713736728043302e-01 4.7864724789953558e-02
      -6.0389220183554748e-01 5.0000283939119772e-01
      2.1609607921564103e-01 1.7779803148843074e-01
      4.9733989713359283e-01 7.2103301724001356e-01
      6.8916951929294390e+00 -3.7028710271905330e-01
      3.9223432318988616e-01 -8.0862080698468142e-01
      7.0252838002440420e-04 1.2496912980167058e-01
      6.4984388281171968e-01 -4.2064105677021135e-01
      -8.1041459856259679e-01 8.1220600468573961e-02
      1.9022823134560180e-02 -9.8685085047098675e-01
      -2.7158826488173537e-02 9.5114291655471569e-02
      1.8797321531633937e-01 -6.1172891967346288e-01
      1.0604878267640457e-02 1.8569298382781325e-02
      -1.5662825450649914e-01 -3.9867945800457788e-01
      -3.6890878712105313e-01 7.1386145199452314e-02
      -8.1724983306985133e-01 6.3049189668844308e-01
      -1.4253509319028609e-01 -9.1671165464205520e-02
      -2.9926943210742551e-01 -1.1017271021245365e-01
      5.4563741564691515e-01 -4.2383897571231299e-01
      -1.2586590609648990e-01 3.4887020560650334e-01
      1.6894957774646228e-02 9.2455025138356531e-02
      5.7038025011047078e-01 -4.5357386896601326e-01
      8.3084558149946020e-01 6.3983728743361323e-01
      2.5670392548754705e-02 -3.4093213910593156e-01
      4.7936599528538176e-01 4.3782703553925828e-01
      2.8398490479556682e-01 -8.6865456734532137e-02
      -3.3911817923471926e-01 -2.8183040952936250e-01
      -5.7741966078965723e-01 -4.2502593030917503e-02
      7.8270496562394387e-01 -2.2629673285839952e-01
      -2.0140734612120254e-01 2.6114983583228218e-01
      8.0048997037730385e-01 -9.3069147530963792e-01
      1.1549128575863863e+00 6.6687925753845900e-01
      7.8594405699182290e-01 -6.4952005926533529e-01
      4.9860008102796138e-01 5.3934603404117520e-01
      -4.4962338337430086e-01 2.0096167147459698e-01
      -6.2487818933108813e-02 6.4075403455437899e-02
      2.3053420788675907e-02 -9.5588774857871894e-01
      3.2852438209411750e-03 -3.2840553972965070e-01
      2.1745344392124419e-01 2.0919554400381021e-01
      -2.3195188072066303e-01 -8.2711992221461195e-02
      -5.8138014933047411e-01 5.3073773503588739e-01
      1.6631390712131214e-01 -2.0867798009415370e-01
      -1.4425285629603626e-01 7.3130825167067270e-01
      6.4867264532729940e-01 1.8407787363432254e-01
      8.1342470964310798e-01 -1.8142685553651228e-01
      -4.4085969733894331e-01 -4.9388589555355689e-01
      -2.1561417777805521e-02 -1.4566339210060006e-01
      3.5119852137394619e-01 2.9203420540243069e-01
      1.1622132043783768e+00 1.9788036482451168e-01
      2.5737026283624581e-01 -3.1457107958972308e-01
      -9.0603452948337582e-01 -2.0252867517185480e-01
      1.9820409737744424e-01 8.0239716160389474e-01
      -3.3415845214350592e-01 -5.5576498153606969e-02
      2.0248970560389593e-01 -1.7029573933568673e-01
      2.4500710365580308e-01 1.9121245247744351e-01
      -3.6707942733568488e-01 6.9819646074299940e-02
      5.6949505221432539e-01 -6.6892749245148742e-01
      4.5729617269006295e-03 1.1393622936049950e+00
      -8.6719234540383372e-01 -3.3769733790433160e-01
      -1.0638439741818023e-01 1.7105801791420622e-01
      -5.0564958083410294e-01 -9.8142560861138817e-01
      1.9813464837628206e-01 3.7426245780681294e-01
      -3.8094388176605337e-01 -1.4459605988388041e-01
      -2.2815927290736210e-01 9.8552581680455431e-01
      3.4214822449455345e-01 -2.7841507367302598e-01
      -1.7527589499228882e-01 -2.6013075074803049e-01
      3.0439757295496245e-01 -4.5677069936016251e-01
      -1.6097826996253151e-01 -5.5937158985803981e-01
      -1.5076893307969286e-01 1.2937619778053747e-01
      -7.6487330156618016e-01 -1.5271329799479716e-01
      -6.8258313929493303e-02 2.0637082549648320e-01
      -2.2509283296879820e-01 3.7420917872189147e-01
      4.7816859958766479e-02 -1.0395404420051114e-01
      -4.0450136016317334e-01 -2.7034565400252947e-01
      -2.3218572828865919e-01 2.5264579094566941e-01
      -4.2341875015750902e-01 -1.1270780537849916e+00
      -5.3451479552252479e-01 3.7056387074039282e-01
      2.5500024522463866e-01 1.5509888947942579e-01
      8.6241645846026249e-01 1.8002377764946427e+00
      5.0510616976549372e+00 -1.7696667837741764e-01
      1.1304964259483009e-01 -2.8067272015335182e-01
      5.4018194537491715e-01 7.4142430849201288e-02
      2.7836224917302765e-01 4.3332797810436735e-01
      -3.1187916231459473e-01 -8.3876064580489695e-01
      2.7918219395658822e-01 -1.2768070407963572e+00
      -2.7357193323376644e-01 4.7421514617960986e-02
      3.3176258843310008e-01 4.5390058373563513e-01
      -1.6102898939885599e-01 1.2197099946867399e-01
      5.1010412876572375e-01 -1.0009587095794705e+00
      -1.8158104929604352e-01 7.1789647329465411e-02
      -1.8333927640098668e-01 -6.5264766737450652e-01
      -1.8356623795827412e-01 5.3226311787550142e-02
      1.3307706957100765e-01 4.9369445226257741e-01
      -2.7769733884012532e-01 5.1179197283745215e-01
      -5.9292496127347671e-01 1.8233428889054243e-01
      -2.6243277300302337e-02 3.1752384110713927e-01
      -1.7390522600787836e-01 1.2925765069339631e-01
      2.2965721466191893e-01 -7.5222366840120169e-01
      1.2419467261347303e+00 -7.2987069446612751e-01
      -4.1572257780047833e-01 7.2068490476153280e-01
      -6.2312458080431794e-02 4.2105427023453607e-01
      5.0840236441618702e-01 6.6777572938261004e-02
      4.3851162196564686e-01 3.4029305913088737e-01
      6.5301104255549280e-01 7.2699516792379271e-01
      1.1994850747289575e-01 -3.8469009864851056e-01
      3.6838173349787379e-01 3.7549665134896554e-01
      -1.0662611879717207e-01 -3.3412283341281618e-01
      1.1831389632399997e-01 -1.4426342561681479e-01
      -4.6932700224604185e-01 -2.7487184255734148e-01
      1.3148946456196436e-01 1.9770874040829145e-01
      -8.9969543514747535e-02 -6.0092150189965471e-02
      -2.9238764696646113e-01 8.9619245272504078e-03
      -1.8449603306037737e-01 -1.1817264297983868e-01
      2.2326731067586747e-01 3.8848563401382340e-02
      4.4315591922376990e-01 -5.2352421910670999e-01
      3.3035411685901163e-02 5.7321663704104950e-02
      -2.7537889012413480e-01 -3.7923699014039564e-01
      -4.7277791229068394e-01 -6.1043444284484917e-02
      7.3540440887872538e-01 -3.2048728082297051e-01
      2.2473051654111195e-01 -2.0705471924561966e-01
      1.3362890713945191e-01 -7.2461396163892444e-01
      3.6106609519847394e-01 4.7930178843219741e-02
      5.0328536611901209e-01 -3.9489273012990844e-01
      3.3820591718398774e-01 6.8676888650627932e-01
      -7.1365298629688365e-02 9.3438909702986739e-01
      8.7671956130095496e-01 -1.2456792581375378e-01
      -1.8353589748693503e-02 1.4236962950169999e-02
      2.7316891827022599e-01 -8.0402869284170370e-02
      1.5451386318258589e-01 -9.7495709808690045e-02
      1.7662911719529711e-01 -1.0853888435249075e-01
      6.5717658931720505e-02 2.7536379837718955e-01
      -1.1588265821226247e-01 -4.3901213099292496e-01
      1.4044735396094388e-01 -1.2398260338379576e-01
      2.8858823205338818e-01 6.1180467425649265e-01
      1.6645876795013045e-02 -4.7544918313181771e-03
      4.1223493463232426e-03 4.8134469926447548e-01
      3.4606484202480525e-01 -1.3903155799528133e-01
      3.6436549778337962e-01 -8.0164625994262537e-02
      6.3334093115810197e-01 -5.2208466502335382e-01
      -4.2369701010597077e-01 3.6484652070556178e-01
      2.0696313220642870e-01 3.6367902595031043e-01
      -2.1006878210131957e-01 1.7138601957183429e-04
      6.4315216828108279e-01 -2.0627535711440029e-01
      2.0948733631518715e-01 1.8806922755988581e-01
      2.2491528212591455e-01 -1.9632952186172645e-01
      2.9084455506203344e-01 -5.6568562980744010e-02
      1.2764296823066168e-01 4.5271053326007266e-01
      8.2342033832782424e-01 1.3147877034139918e-01
      -1.4173898093606266e-01 2.2722212089076765e-01
      -2.6523141807993234e-01 -2.6161136358914427e-01
      3.9210045168466351e-02 -3.2175732316753269e-01
      2.5251393070642703e-01 -6.9061436054897629e-01
      -2.3789344363198092e-01 2.4937881916984531e-01
      6.6352717229279254e-02 1.1599640974162981e+00
      6.3060827733040954e+00 -7.6496368671588863e-02
      -2.2270586632945560e-01 -5.8279930956903793e-02
      -6.8146464233275446e-03 3.0880683444823681e-01
      -3.7882241320753907e-01 -1.9168686477902766e-01
      -2.5756244738368406e-01 -5.9671836445871929e-01
      -5.0785873046839602e-01 -8.1866978145092251e-01
      1.4558593891178775e-01 -3.0514842481530791e-01
      2.5132121233078836e-01 5.7710654919937425e-02
      -5.2483396477912725e-01 -4.6092032471116854e-03
      1.6548578399292624e-01 4.2379712612582338e-01
      6.0426762185596138e-02 1.3425619792704557e-01
      1.5118341421271511e-02 -8.0245188303572001e-01
      -1.2326288666308872e-02 -2.8175210852097515e-01
      1.5929928127517225e-02 5.8250562745985612e-02
      -2.5933022098546199e-01 -6.5659578719411568e-02
      -1.2113871415001231e-04 -5.0190698427045866e-01
      -4.7407297516221532e-02 3.2543212042797737e-01
      -2.8874411697957625e-01 4.8501908401736860e-01
      -5.8419615513127066e-01 3.8548871558560599e-02
      -4.1711827206208578e-02 7.8155181034729085e-02
      -6.8774341080218709e-02 1.0530861197271907e-01
      -7.5087138134372025e-02 4.5637545820754272e-02
      -2.3416809801371133e-01 -1.3410799943774640e-01
      -4.3326130208267713e-02 -1.5666775665493174e-01
      -8.2782608422887788e-02 -1.8060609356942901e-02
      6.2937771842875453e-02 7.4288610869591126e-02
      2.3049592238411243e-01 2.4099797675688581e-02
      -1.7025301964548031e-01 -3.6961435359910255e-01
      -1.0472847872714748e+00 4.5182580775565845e-01
      -3.0706074862523114e-01 -1.2534270626001345e-01
      -9.2808330355341126e-02 -1.6977996031697826e-01
      4.3575134604330812e-01 1.1367274238452590e-01
      -5.0627788034389019e-02 3.6603529388182515e-01
      -3.0821778557555995e-01 -1.6967632769567983e-01
      -4.6874206784400146e-01 9.1279105304257382e-02
      2.2766412632737668e-01 3.3591230178818759e-01
      1.8281284914868864e-01 7.4733113570456045e-01
      3.4244646910611887e-01 3.7870167349452405e-01
      -4.6365222449174603e-01 3.2147071762456182e-03
      8.6826424563272650e-02 -1.7173453432642322e-01
      -2.4284007585754785e-01 -1.9037143312949867e-01
      -3.2691096012452550e-03 2.9122025888817227e-01
      -3.4562100294243392e-01 -1.4021733443688056e-01
      -4.0155171012930485e-01 -7.6402008573498575e-02
      1.2592280109815840e-02 -4.9956985885919132e-02
      1.6401663642357323e-01 3.6700021893158347e-01
      7.0873598518972403e-01 2.4770987498604621e-01
      -2.1493317987904140e-01 5.6636073897387831e-03
      -3.7479618051720837e-01 2.1549043310665247e-01
      -3.3339271781144841e-01 2.7082082813265423e-01
      8.0582559440251653e-02 -1.3161879403531984e-01
      3.8210054388627396e-01 -2.1391325319436202e-01
      1.7117161004602061e-01 2.6797599840282976e-01
      2.7138782210028006e-01 -4.4405212121914422e-01
      -6.3324612360908294e-01 -2.4692961267569677e-01
      7.7217733637529529e-01 -1.0322886181488909e-01
      1.7323384745011883e-01 -4.4255181905752422e-01
      -9.8437345150033953e-02 1.1618541208974009e-01
      1.5914605823679265e-01 -2.4936712809412279e-01
      -3.4225956271986030e-01 -1.0052445859784036e-01
      -1.0032397619446161e-01 -1.7588118051433616e-01
      -2.0601499648425980e-01 -2.2434450511327940e-02
      -1.2432019344944725e-01 1.6440906405143993e-01
      -2.5383750156871349e-01 4.2841242774902949e-01
      -2.0311576868538558e-02 -2.1961722971084882e-01
      -1.4392192745170124e-01 1.1622465851737003e-03
      -7.0998218052667289e-02 -4.0856645334399555e-01
      3.4514362567158213e-01 -2.5415696154789208e-01
      5.0845925407606007e-01 -7.7921280532511916e-01
      1.4092885627160193e-01 -1.3703606364739557e-01
      3.6730009486796583e-02 1.0705881923788981e-02
      2.0116207434622210e-01 4.4353663150704908e-02
      1.1483670824313001e-02 2.9415695560160682e-01
      2.5763193506792598e-01 -1.6778042051586478e-01
      -1.8669177009861648e-01 -5.4643132324894006e-01
      4.6112710782612218e+00 2.2676042969799618e-03
      -1.4668016816746962e-01 -5.0516571126670240e-01
      -6.0821073355190334e-03 2.2747205464191356e-01
      -2.9130293733049598e-02 2.5813618396276811e-01
      -8.4877193518884497e-01 2.2048270921531316e-01
      1.0761201566792138e+00 -1.1800946696452404e-01
      -8.0269896394582027e-02 3.6727183597937685e-01
      4.2960593311098449e-01 -3.6698923584016198e-02
      2.0399716951061936e-01 -4.8251622703218577e-01
      -5.1588764059373970e-01 -2.3074205444281809e-01
      -2.6952260813707926e-02 4.3209199130135864e-02
      2.0497657806573649e-01 1.9248145700078836e-01
      -3.0597218103479973e-01 -1.0521198437299789e-01
      -5.2367907470726779e-03 -1.5226978947056419e-01
      -3.7514078488245173e-01 -7.1669774211686146e-02
      1.4754919610569880e-01 -1.2291387254147976e-01
      -1.6954806073494399e-01 -4.4625202460995861e-01
      -5.5678803118565989e-01 3.5267252031851437e-01
      -2.1935105781083691e-01 9.6004983200053362e-01
      4.2103086831582176e-01 2.8735956050667633e-01
      5.2297400615990797e-01 -6.4546892490347940e-01
      2.2384242542672383e-01 1.1223198197685719e-01
      3.4674306894365342e-01 -1.7587068186091057e-01
      -2.3521679378609814e-01 -3.9234103091734857e-01
      1.7337646625411227e-01 -3.0727199013123824e-01
      -9.1927127907583481e-03 -2.6985981185920649e-01
      -3.5374598412801611e-01 1.8505287851674737e-01
      -3.4312573523523604e-01 -2.1360351535906205e-01
      -6.1244866026714551e-01 3.9322743529388271e-01
      -1.7627805256215848e-01 -1.2249978451487618e-01
      5.5207662552784509e-01 1.6852631002349125e-01
      1.8942116693717145e-01 -8.4039594381883340e-02
      -8.4986008649643327e-02 9.0198561260029120e-02
      -1.3529840734369281e-01 -6.3346917588202045e-01
      -2.3479748003695639e-01 -4.4286972555382942e-02
      8.8788894578824089e-04 -4.8137733034297261e-02
      -4.4666238454122498e-01 -6.4794752971593900e-02
      6.0064495903101878e-01 1.7405138749671648e-01
      -2.0391737800341500e-01 -5.4468468492853306e-01
      -9.8124283106372182e-02 -9.8616702796642614e-02
      -4.0187042697663072e-01 4.0666269736771271e-01
      -4.1933666034058231e-01 1.0649398949955786e-01
      -5.6373770995982869e-02 -3.7033801959049550e-01
      -5.6284507749665397e-02 -1.4442851771075843e-01
      -2.0656262539091902e-01 1.5503925672172739e-01
      1.2254295182878935e-01 -6.3119564757658786e-02
      1.2308380648405139e+00 1.4829204542560973e-01
      -1.0630545905637516e+00 6.1045620043027077e-02
      1.7425250190359837e-01 -2.4410485029048171e-01
      1.5739705511447716e-01 -8.2528360399004663e-01
      4.9712834475767520e-01 -9.9980687967866161e-02
      -2.5808123660211529e-01 1.3723117381451433e-01
      -5.0119534680699540e-01 6.6788038730733440e-02
      3.2233162081377603e-01 3.0055894976653530e-01
      -3.5382705427478733e-01 6.6284650639710307e-01
      1.7345492113271008e-02 -1.9022925728807849e-01
      -3.5491183934918469e-01 -2.9848384910362796e-01
      -3.9954380924756983e-01 -3.1584311668878134e-01
      5.3924817067439179e-01 -4.1733797890135194e-01
      -5.7661852082412302e-01 -2.3669448696223083e-01
      -8.5949460874847269e-02 -2.6263329124157692e-01
      3.2270995452945656e-01 -9.2717876703427238e-02
      -1.1286260418968964e-01 1.5951836583383741e-02
      -1.3981133468730569e-01 6.1112024633393669e-01
      -1.9161949883858645e-01 -2.9588690826714663e-02
      -6.0255485482958715e-01 -2.1914302651306039e-01
      1.2378486796231288e-01 -3.2505428696275370e-03
      1.9134472639692451e-01 1.2152274966184119e-01
      7.9275731968547247e-01 -6.1240804749851274e-01
      2.5354217704003784e-01 1.0563386151215871e-02
      -8.5101674192098867e-02 -1.5061667148168184e-01
      -3.3806293890547351e-01 1.7220876820441972e-01
      -1.8828048466093647e-01 4.0688883221998978e-01
      1.9725666003332673e-01 -1.3066968806458815e-01
      -1.2654322171540772e-01 2.4418967506530098e-01
      6.9436572846783644e+00 3.6782328965475736e-01
      3.0547248887898454e-01 -1.4816272011221219e-02
      5.4544856921447005e-02 1.1035731094652554e-01
      1.4169564876387952e-01 3.2605065265569205e-01
      -8.1271039241453680e-01 -5.3645564101823051e-01
      -2.9474002876044680e-01 1.5873588884948342e-01
      -3.4275331283355737e-01 4.4726462915097404e-01
      3.8502657551179065e-01 3.1442052939455367e-01
      6.2118343883407236e-02 -6.0474430200527833e-02
      -2.3492188340281372e-01 5.8631299265234760e-01
      3.5894324873620126e-02 -3.7483866030319279e-02
      4.8007261651705530e-01 3.1427563865981201e-01
      -1.2264876428727931e-02 3.7420524691925000e-01
      8.2795128106692747e-02 5.9610214094467495e-01
      -6.3456488899776164e-01 -1.9826380268887644e-01
      1.0837277185769323e+00 2.3797668204056030e-01
      7.6924776647795443e-02 1.8364532366168326e-01
      1.4623830114131101e-01 1.5449734236741799e-01
      -3.1262605467790816e-01 1.8773149880864599e+00
      -2.4418327546570895e-01 -3.7498803925437618e-01
      3.8740345918222463e-01 -1.0164084618548421e+00
      -1.0795565119450502e-01 1.5679162374507130e-01
      7.5521875778568626e-01 -3.5450693437834985e-01
      9.6456437748460910e-01 1.5983563796216443e-01
      7.0944770334731233e-02 1.3195602444359819e-01
      -6.8974619386982253e-02 3.5008997969845795e-01
      -3.2092687217383242e-01 -8.2611675154010092e-02
      -1.3675522922120484e-01 2.6718532402517918e-02
      -7.2280163984744827e-01 -6.4243793668944749e-01
      2.4949730519358079e-01 -1.3513873102398238e-01
      1.9751713171751689e-01 -1.8220083646254082e-01
      8.4279610377958158e-01 2.1681101048026830e-02
      -4.7060453155312137e-01 -2.9383393459748847e-01
      3.4870775131445148e-01 -2.1707352722719137e-01
      -9.8457514501112775e-01 7.3656558437931219e-01
      8.4672064953377524e-01 -5.4152892769300720e-01
      6.4910216946760912e-01 3.2181391578990065e-01
      -4.7749691462138484e-02 1.0789640095273234e-01
      1.9260159668737656e-01 -7.9851721641814333e-01
      5.5697992980729927e-01 -1.6808368625871992e-01
      1.6913555731136322e-02 3.4540079976834986e-01
      4.3956787390633628e-01 4.0373594886341879e-01
      1.8482294580067317e-02 3.3984749849299212e-01
      -3.3632109033463076e-01 3.4036039858053713e-01
      -2.2025903006932204e-01 2.7211652443187073e-01
      -1.1587394518728523e-01 4.2869025770209607e-01
      3.9506237716911302e-01 6.8726987825223640e-01
      -9.6528040614975030e-01 1.5927805534444198e-01
      1.5867318043275758e-01 1.9165172873603652e-02
      2.9772195086304126e-01 -4.9206708032782059e-01
      -1.6756562949085763e-01 1.9708013334981062e-01
      -6.4244386971658574e-01 -4.2627717613458382e-01
      -6.6460040954033905e-02 -7.3511136014716050e-01
      2.8658983105594493e-01 -1.8613123879174048e-01
      6.4023362482944979e-01 -6.8001811853482130e-01
      5.9226883143375497e-01 4.3724465408255836e-01
      1.9664676631176892e-01 -1.1467470551692451e+00
      -2.7360448765044521e-01 9.1240799693518032e-02
      1.9822390460572187e-01 -4.4231529213749654e-01
      4.1460551557550474e-01 2.6103904109983289e-01
      -3.2408213321089985e-01 2.7262549017043769e-01
      -1.4443995973989548e-01 -5.2190662657224374e-01
      1.7912409530221515e-01 3.4731327733265593e-02
      -4.5694023302363029e-01 2.4527658919445416e-01
      -4.9145454088578275e-02 2.7741578679009027e-01
      -3.4449170043398836e-01 -2.4598275604877035e-01
      -4.0399821015882847e-01 2.7070718641633709e-02
      -3.5306935044734222e-01 3.9706721607474393e-01
      3.6980244441596988e-01 -1.8520824686645590e-01
      2.6588337489662428e-01 7.9560088167028434e-02
      -1.4959166491035283e-01 5.0925412620824850e-01
      -2.4282115894657033e-01 7.9384579699989555e-01
      -3.8852606201293716e-01 -2.5068136618177535e-02
      1.8811816670060688e-01 -1.0589064267534458e-01
      1.4041636744840995e+00 -5.6346786178435293e-01
      5.7619236435908592e+00 -4.9447595476811318e-01
      2.5525466787823764e-01 -3.4408647651376029e-01
      -5.2234214148453129e-01 4.3553003789431305e-01
      4.5082918299113833e-01 -2.5728965934832232e-01
      -6.1713712395287423e-01 4.2492371233631543e-01
      -6.9464034583666034e-01 1.1455167671108124e+00
      -4.3800172713781321e-01 1.3142594233780530e-01
      -1.1973743482364048e-01 5.9060566356780787e-02
      2.9407389231634001e-01 2.8224185371051336e-01
      2.7209650444415773e-01 2.4918028916641796e-01
      9.0903462070089674e-02 1.7342713856195549e-01
      -3.1193064277287086e-01 -6.3496124996291492e-01
      3.2781020292410035e-01 3.5915194659580107e-01
      -1.0152935668936732e-02 -1.3125690065437062e-01
      5.9430798837530685e-01 -3.0635049751397847e-01
      4.0425239062608437e-01 4.9829452555563747e-01
      -2.6436648234291843e-01 -2.6682333000938296e-01
      -2.7828531301485260e-01 4.8014500797320769e-01
      -5.5061836305881538e-02 1.8263925607406244e+00
      -9.0084165021981866e-01 4.0012184401130170e-02
      -5.0111490219074233e-02 1.7541160320441898e+00
      2.3495041745427159e-01 1.1439681490733521e-01
      -1.3246248565030003e-01 3.9654895169343901e-01
      9.0150336626119727e-03 1.9796916542453216e-01
      7.0284925818212063e-01 -5.1802019173499789e-02
      5.5724464644203275e-01 2.5469732922866678e-01
      7.7951696754604871e-01 -6.1937949726732755e-01
      -3.4682167772239419e-01 -1.2036643825006212e-01
      6.8648759693083072e-01 -1.5850991144479500e+00
      -9.2074419445202393e-01 1.1983898318433668e-01
      -1.2834434693879568e-01 -6.6451027965305012e-02
      -4.2508508781781601e-01 5.8082443581459309e-01
      -6.7170207242632296e-01 -7.9710943089615605e-01
      -2.0438003826618253e-01 -2.4151514591325765e-01
      1.3038114551319499e-01 5.8671679920057818e-01
      3.2348929695385342e-01 -1.0270050636104771e+00
      -1.3062804099742811e-01 -4.0963656042546037e-01
      5.4250344940493822e-01 -4.9275332004266170e-01
      -3.4186898059383558e-01 -1.5235910575906791e-01
      6.2198214995328148e-02 -1.4527346052616366e-01
      7.0064111605693824e-01 -2.7325694479369406e-01
      -4.7986711947126126e-04 -1.3845988575497396e-02
      -1.3853500705526495e-01 -7.8163281724237879e-02
      -4.1196629894049419e-01 -9.1872392789964386e-01
      4.4128230959363260e-02 -1.0979430509687593e-01
      -1.3556676593215192e-01 -1.9736299080158703e-01
      1.1861279773500820e-01 6.8134524231433955e-03
      -7.2465399158631273e-03 8.1745755347011939e-01
      -1.1784326098915739e-01 1.6310945056059178e-01
      -2.0716152525688170e-01 -2.3293886157506591e-01
      1.4677086771392725e-01 1.3775595171219188e-01
      -9.7843446681515109e-02 -5.1933858804721511e-01
      -3.4302680943009965e-03 -6.4641409233151106e-02
      2.1659998553999180e-02 1.7877646097971880e-01
      9.5258326845250485e-01 -4.3211579227162805e-01
      -1.0012653337748535e-01 1.4533924840163903e-01
      4.6677099800150762e-01 -4.0645059297841463e-01
      7.8465863303250172e-02 4.5734101025347196e-02
      3.4867584536403790e-01 -6.1938751270412033e-02
      2.2053363122003589e-01 -3.2459589858801247e-01
      2.1748226774947677e-01 -3.3249327826257125e-01
      -1.6013970505931552e-01 -5.4373719325194803e-01
      5.1875103809106193e-01 2.0117491997354997e-01
      2.9392169146706532e-01 3.2396783316951105e-01
      4.5285656180153039e-02 3.0219614397229276e-02
      -1.3843366814169580e-01 3.0675420500695216e-02
      9.3074486470074783e-02 5.8385067894662612e-01
      1.0000507340349027e-01 1.2647442056851976e-01
      -3.0328744132366009e-01 -9.5335914394460458e-02
      -3.2069748372761941e-02 4.4457435678407958e-01
      -2.1890089016638262e-01 2.1981326029447290e-01
      -3.1940457670438899e-01 -1.1373030334781822e+00
      -3.9384997800675547e-01 -3.9938176725438851e-01
      -2.6339916154461990e-01 -8.7664336697181405e-02
      4.9309159782210793e-01 -1.8827327002602241e+00
      4.7092809418605448e+00 5.5349367366134372e-01
      1.9316541608039642e-01 2.3978167434745790e-01
      -7.8284154602080513e-01 3.4337054850427880e-02
      -5.1701962144784863e-01 5.0299560917765929e-01
      -8.7965468718776085e-01 1.3534946266164645e+00
      -1.2935001949832425e-01 9.7004905574282030e-01
      1.2374534666753641e-02 1.0497826092027597e-01
      1.6944652123761328e-04 -1.2480359562538089e-01
      -1.3908605697794779e-01 -3.2577333160453337e-01
      5.1730339515773118e-04 4.5024551223001114e-02
      1.1430393461505770e-01 -8.0995501518962745e-02
      -5.1082098004143539e-02 -6.0351781391636805e-01
      -5.8384376887527956e-01 -1.1718593366544955e-01
      1.8138411346201835e-01 -2.0707984872323518e-01
      -2.0726874816186400e-01 3.8529130335228379e-01
      -4.0407004600490332e-01 1.4051517444711184e-01
      4.2407462253090600e-01 5.5499090613927204e-01
      4.5880136320187220e-01 -6.7370676754581860e-01
      2.0152808116921322e-01 -8.2185964103828935e-01
      1.9110956840990859e-01 -9.0205268161182073e-01
      -9.0692632447743360e-01 2.3910901009105948e-01
      -2.3387885919421375e-01 2.9490774502016054e-01
      3.1226012410582432e-01 -5.9243462929043011e-01
      3.2101662275834003e-01 -9.2527246720531212e-02
      -4.1398211240976319e-02 1.5280452969873429e-01
      1.4364581845383570e-01 -1.8144270678745678e-01
      6.5061281978249216e-02 1.4260578530315815e-01
      -4.0480297211600069e-01 4.5355163804552923e-01
      -2.2899281532737992e-01 4.4377752896150330e-01
      -1.5522435671321730e-01 -1.1133643065866093e-01
      -1.1924343271661057e-01 2.0613428834843764e-01
      -2.5842947141325107e-01 -1.7473553816087545e-01
      -2.2653373330822060e-01 3.4557291422746184e-01
      -1.8791855122985396e-01 2.9533119931585078e-01
      -2.7173717584320173e-01 -7.2533146417358207e-01
      1.0069816095994250e-01 6.0441278625371642e-01
      6.3976369651814702e-01 -9.4862715672686445e-03
      -5.8027705899360493e-01 -3.0066634381217389e-01
      -8.2324662160435033e-02 -3.0728801836885589e-01
      1.6474405084458226e+00 4.7929194141002412e-01
      5.7876096312041247e-01 -6.1380470975170312e-02
      -1.9077442165726341e-01 -4.6275948314491827e-01
      -3.5214809999765617e-01 2.2448290615274769e-01
      -6.1801627541384940e-01 -8.7630136980429618e-01
      -3.6893297874100561e-01 -2.7078092208028520e-01
      -4.0429211648278518e-01 8.3877454882351343e-01
      6.0011160499339300e-01 4.4599523000415753e-01
      9.5318052551224317e-02 -4.7646530243944818e-01
      -2.9116870103636910e-01 -1.1752709181984550e-01
      5.3641143369365185e-01 3.6746354233815892e-01
      -4.4238962365762363e-01 -1.5651216905603171e-01
      -4.8366577599061727e-01 -8.8465573509101947e-03
      -7.7808479667755337e-02 4.2298979259739278e-01
      -3.0684846549310701e-01 -6.8174346318358514e-01
      7.3164514676277964e-02 7.5893430356046332e-01
      1.7820021032680801e-02 5.7008032853683122e-01
      1.6992018805337267e-01 9.1923756191985029e-01
      4.4785984954229952e-01 1.7656982434541771e-01
      -1.2782124068571687e-02 4.1256264843821278e-01
      2.1045019717095642e-01 5.0582113365655068e-01
      2.6183906827865733e-01 2.6708093475069278e-01
      3.3130274285597094e-01 -2.6824178533106389e-02
      -4.9575558587769758e-01 -4.7258970139455153e-01
      -2.5213777737703014e-01 4.8055963937169549e-01
      -4.2125170695848879e-01 1.3369200712767487e-01
      3.1518808151278904e-01 4.0864873177031989e-02
      4.5836612390244835e-01 -1.2758746443837005e-01
      -1.4707130961547349e-01 -1.1371095667418961e-01
      1.0525985462887235e+00 -3.1182133341923764e-03
      1.6125441741685259e-01 -1.2530445650972843e-01
      3.0719632482082171e-01 1.3592916999873397e-01
      6.9591513235909661e-02 -3.0027490641308502e-01
      4.8086534285124083e-01 2.5929997764495072e-01
      -7.7092035884647719e-02 1.0080067041845274e-01
      -2.7642827118604724e-01 -5.4343356043919899e-01
      5.5421736567959723e+00 2.1947845470975327e-01
      -1.8800305264891490e-01 1.5187404341260574e-01
      -4.9432954642733096e-01 -1.9794710318680978e-01
      1.6432786804374053e-01 2.7924731148190668e-01
      -6.5314818133847807e-01 -9.3844483351412333e-01
      3.8922595253319276e-03 3.7441208557857780e-01
      6.5904139552599952e-02 -2.0322466842749199e-03
      1.4314456727525279e-01 -1.7281618630417545e-01
      -1.0890106001672957e+00 1.4438876095737033e-01
      -3.9323530668427281e-01 -1.5255072774511869e-01
      -7.8973110514695777e-01 8.7114820214342345e-02
      -2.7676237486742161e-01 2.7453777992674361e-01
      -2.9156718066800629e-02 2.2025222825562538e-01
      -5.6761627153845105e-02 1.0378966327221313e+00
      -1.7573902441922645e-01 4.8654551423042806e-02
      5.7327232648383415e-02 -2.6690088376758131e-01
      1.3686528096688030e-01 2.7714874515319704e-01
      2.7213510012921255e-01 -5.4653907908811616e-01
      -4.0794803037019950e-01 1.1964051561045213e+00
      4.6355652760836796e-01 2.0649006352418852e-02
      1.0024979185562539e-01 3.0121573030391696e-01
      -2.8371683474584569e-01 6.1314224633605495e-02
      1.8799207286287270e-01 -8.8952592325918012e-02
      -2.5590625417871232e-01 6.3665934344424868e-01
      1.5826132825658867e-01 2.9894374859190465e-01
      -4.1318811220055324e-01 1.1133248878884398e-01
      6.5922921286778335e-01 -2.1254997200928505e-01
      6.8641904406091125e-01 1.0205959780979014e-01
      1.3813251244416236e-01 -8.4390821276456321e-02
      3.7592611455858743e-01 -5.4018027476845559e-02
      2.4426229422641740e-01 -1.9825749694262274e-01
      1.3284504555267912e-01 -2.7725096676739969e-01
      4.4154090995747175e-01 -1.0960736156273210e-01
      -3.8113575744178407e-01 -2.0506970017695481e-01
      1.5276616243717836e-01 -2.5718199689332244e-01
      -2.3064557377932496e-01 -7.5222389435692372e-02
      1.0404118854081410e+00 1.5861298988834532e-01
      -4.2313734146192500e-01 2.2879368388193716e-01
      5.4704205461698197e-01 5.9533826128985952e-02
      -7.8003526811533708e-01 -7.0690074275527981e-01
      -5.1263572786860634e-01 -2.9558344569070233e-01
      -8.9905234326155425e-01 -1.7964847015615160e-01
      1.3669455996650207e-01 8.2848872148484340e-02
      1.4792417967543423e-01 1.5937246435461475e-01
      -2.8384454801780240e-01 4.9307687504822495e-01
      -4.9750052445120221e-02 -3.2141169204699677e-01
      7.9293288715364452e-01 -2.2157964097436086e-01
      -3.7549591312267899e-01 1.2153146756207209e-01
      -5.9948485295423315e-01 -9.4755491793350494e-02
      -8.9145749852761094e-02 -6.7860851347180354e-02
      -8.3871891244157282e-02 -1.1366872605923721e-01
      5.7355318671072096e-02 4.4334092100629746e-02
      5.3814098555992973e-01 3.7815515869836575e-01
      -8.6107713945151720e-01 1.5560484475097798e+00
      -2.1107885172378196e-01 2.6899194273386950e-01
      -7.4880880940742522e-01 1.0607253884652672e-01
      -2.8615111218178346e-01 1.5894912732676358e-01
      4.2185500183861019e-01 -4.9898072036222686e-02
      7.4413653018357298e-02 -5.5653540278169178e-01
      -2.4611284659100444e-01 1.9013963580669943e-01
      -2.7762364903915882e-01 2.7393355401464686e-02
      1.5614256698664366e-02 -3.5745780749589862e-01
      -1.9000348114337115e-01 -3.1888609554453967e-01
      -3.2464442468390020e-01 3.7365332358622098e-02
      1.0312072301476014e+00 -1.1579173041018993e-01
      3.6813724889560179e-01 -3.0125750108277721e-01
      8.6974077949819401e-02 6.1598102799442345e-01
      1.5301955280719440e-01 -1.4549035816578576e-01
      -3.7403036970916281e-01 1.3534857735316727e-01
      -4.2880980320879385e-02 -3.2805901037824542e-01
      -1.5167690782028340e-01 -1.2353144467233287e-01
      2.2168753232297253e-01 2.3368075679546605e-02
      -1.6853816469793038e-02 8.8351130655979493e-02
      -3.0754139052724611e-01 4.0291354286447333e-02
      -3.6395381339819466e-01 -5.7933911744580548e-02
      4.0405796386638233e+00 4.2508966434421869e-02
      3.9409355552936215e-01 9.9883686041864539e-02
      8.7835896566707067e-02 2.7561923974161934e-01
      -5.4560978055404559e-02 1.4273698872612451e-02
      3.4861337531185055e-01 -1.4139127554584000e-01
      -4.5349407862824298e-01 -1.6952681121761490e-01
      -4.5853962330262826e-01 -1.0693089527907046e-03
      -3.0101244149614553e-01 2.0697191164511106e-02
      -4.0533098608495521e-01 -2.6839978019473582e-01
      4.3664924426519081e-01 -1.4251075452793088e-01
      1.2099311737822163e-01 -1.7072293228984095e-01
      -2.9640201020353774e-01 2.6190524514009583e-01
      2.4929733393378763e-02 5.3536297601493599e-01
      -1.6908612820288882e-01 -1.4667345895055978e-01
      -2.2482530463496309e-01 -1.1359509587016456e-01
      4.7762444763987877e-01 9.7529044470341924e-03
      -6.5434841903201058e-01 3.0313427154022959e-01
      -9.6204893838360020e-02 2.2622127317970192e-01
      -1.7044031003203136e-01 -2.6616222277751234e-01
      3.6742750994134565e-01 3.6319449327093856e-02
      1.8281306589501506e-01 5.4391457315138880e-01
      -1.4230688038067468e-01 -1.3309811254629059e-01
      -2.4048963228265030e-01 2.4968749254840852e-02
      9.0091646470782868e-02 7.3174862665626547e-02
      3.0625587219477207e-01 3.8810363950194932e-01
      4.0186423920141989e-01 2.1975884246657559e-01
      -5.7249481727763873e-01 -3.5441179907004322e-02
      2.6785655741315711e-01 3.4211245159007408e-01
      5.1583806556974560e-02 -3.5405566829846907e-01
      -1.0668028657686116e-01 -3.4202976902511684e-01
      -2.2281636670525548e-01 -9.2175123998681996e-02
      1.7835388306769742e-01 1.8517821685159283e-01
      2.4852214990117485e-01 1.7645974038908893e-01
      2.8106312327021793e-02 4.4973648300341318e-01
      -5.7567010780451167e-01 1.9164781571035791e-01
      2.7475150455836161e-01 2.0589045316787383e-01
      -4.4650523699971267e-01 5.0127893098579035e-01
      2.0512673709886872e-01 1.3222094691637929e-02
      -3.6389731076522108e-01 -5.8682567554286504e-02
      2.0239835854216015e-01 -2.2597744875636502e-01
      -3.4979734085331032e-01 9.6229562623516410e-02
      3.6541057631348295e-01 -2.3598003032341452e-01
      -1.2522543028355623e-01 1.3082041904943650e-01
      -3.2181573099130051e-01 -1.7053323407230814e-01
      1.6156305635956383e-01 -2.8401149216771404e-01
      9.9757374220375700e-02 -2.4769770347969397e-01
      -4.9968320028493796e-01 -7.4215026856345916e-03
      -2.7581319677711651e-02 2.3464625338755282e-01
      -2.6789684003778436e-01 2.0240039047419223e-02
      1.5272835121840081e-01 -7.4272525504150388e-01
      4.2222055573485134e-01 5.9562897611369381e-01
      2.1283553171530115e-01 -3.4045859739858397e-01
      4.2704925841494001e-01 4.5875255852057428e-02
      1.0264079216750875e-01 -4.8726577912151586e-01
      2.9593571477253066e-02 -4.7259266736369182e-01
      1.7787181156550932e-01 -2.5928208128376212e-01
      3.2906470160670936e-01 5.1306753887212309e-03
      2.4061261518169737e-02 1.5596669191496965e-01
      2.1665479514714792e-01 -1.8457471459568820e-02
      -4.2509852966266470e-01 -3.8592656695535338e-01
      2.1008799864424324e-01 -1.9195593754507556e-01
      -5.2975372191884795e-01 -1.9948990842722639e-01
      2.2826468373786143e-01 -1.8643286489120489e-01
      -1.7788122673331092e-01 1.7575483427221070e-01
      -1.5840694137543087e-02 2.2213036290180421e-01
      -2.9549619443180780e-01 -1.2415583128377379e-02
      1.3404842336693068e-02 3.4330701754343995e-02
      -6.7962823076727838e-02 -3.3811968989260854e-01
      -3.3360314995023746e-02 -2.5385552313368664e-01
      2.1598240633409377e-01 -2.0965245340473537e-01
      1.9646353996851985e-02 9.7838732026378980e-02
      1.0303819283132203e-01 -3.2538239015606936e-02
      -3.2664139486515897e-01 -2.5510531869690950e-01
      2.6879977843167230e-01 -5.0888177867931685e-02
      2.3776828128291266e-01 -9.3429665629221989e-02
      4.7185415693685000e+00 -1.9450004102170723e-01
      1.1766267766511460e-01 -2.2518434170092685e-01
      -3.0171843875546678e-01 1.9282008440323564e-01
      -4.7482985651627679e-01 7.2527465498363863e-02
      2.2652759875886028e-01 4.2642948008736442e-01
      -1.3371480326564980e-01 -3.5035239787045702e-01
      -4.5198893941856916e-02 3.0699563291356552e-01
      1.8062168375011980e-01 1.3357249886539427e-01
      3.5118401723558923e-01 1.0633782619368083e-01
      5.4718170551080714e-01 -7.0774194552584074e-02
      -4.1287384236048508e-01 -3.4649726015690246e-01
      -3.4667539913211526e-01 -2.1069542617206510e-01
      2.1930018635633003e-01 -1.0740583032810272e-01
      -1.0279264876779123e-01 -6.6297555737206881e-01
      -1.0026788466432809e-02 -3.7626601056792952e-01
      -3.3521015889532330e-01 7.5991185104550361e-03
      -1.6393514902506959e-01 2.3879408565288421e-01
      -3.0206398830436565e-01 9.8131711759724446e-02
      4.0743945354140504e-01 -2.9294781144773052e-01
      6.4654687050608928e-01 -3.0413398292838334e-01
      8.0289343145292860e-03 1.4881994707118851e-01
      -4.0795682517435128e-03 4.3767264360791847e-01
      -2.4611565498648236e-01 3.4185339796015357e-01
      4.0651144913588905e-01 -2.5364519400776175e-01
      3.1925359008886472e-01 2.5399843944798833e-01
      1.7331887094402040e-01 1.0716617652105319e-02
      4.5522375561157408e-01 -1.6921487769485082e-02
      1.4384195496157598e-02 9.9078621538839978e-02
      -2.2465275525598605e-01 -6.2412926276699554e-01
      -2.5177715358369984e-01 3.4540598357375574e-01
      -3.7274708093396969e-01 -1.6486211230231591e-02
      -4.0251351761527882e-01 5.6096953329923493e-01
      -1.6420564144471922e-01 3.0355417691240633e-01
      -8.8727734122510185e-02 4.6464402215229739e-01
      1.8910605485861701e-01 -3.1066852271462891e-01
      1.8318522228214060e-01 -4.3330079200487476e-01
      -2.1514475966940932e-01 2.0074199704942222e-01
      -1.0679332177985566e-01 -3.2105778511207034e-01
      6.5145248577896275e-02 1.2632266037803541e-01
      8.1158008068637089e-01 -3.5371730348378518e-02
      9.7458877184881409e-01 1.4564687410754992e-01
      2.7125446217557786e-01 9.8852809883572423e-02
      1.5678622777382650e-01 3.3213157567955187e-01
      5.1992223821042705e-01 -2.5873456410634987e-01
      5.3449054355271496e-02 1.4019555395206465e-01
      -1.4999753238348982e-02 -1.8549100551249559e-01
      -2.1356467596072481e-01 -3.2229019472669090e-01
      2.5542209221024098e-01 2.7919837556627430e-01
      2.8921503670446069e-01 2.3069792757994875e-01
      -1.0526322448210479e-01 5.0154015836774679e-01
      3.8554152759988020e-01 1.6968244700013849e-01
      1.2789374076845052e-02 1.6851257654654669e-01
      2.4233946351954144e-01 6.2044053813549793e-01
      1.3932251114155908e-01 2.4788541503267991e-01
      1.0191865016037588e-01 -4.9901527577687305e-01
      -8.4474089235982708e-02 -2.8647040211705288e-01
      1.1307615522301086e-01 -2.3645320775897545e-02
      1.5001278206421556e-01 -2.1951633292874215e-01
      2.3039136140887290e-01 -2.0915231546868385e-01
      3.3310819740261349e-01 -9.1055512225194743e-02
      -1.1409448739371716e-01 -5.7375821719224208e-02
      -6.9318286518784955e-01 3.1477325837114983e-01
      4.1924177685218944e-01 -1.3162329297919861e-01
      -3.7220143034200293e-02 -2.2829650034609494e-01
      2.3570310922786452e-02 -3.2758559271427590e-01
      1.6465181936189963e-01 -4.7151210485843459e-01
      -7.6488988745113506e-02 -5.9125947572670000e-02
      -1.6315793984923990e-01 -1.9060498427730541e-01
      -2.2033102222666484e-01 -1.0160577014514347e-02
      -4.1543323197363430e-01 -2.1665752178963615e-01
      -1.7793135020218620e-01 2.7163087571552486e-01
      -1.0646378674315329e-01 -4.8055483766125190e-01
      -2.3249224680485653e-01 1.9933285207565588e-02
      2.0230014884620098e-01 -4.0317502726000704e-01
      -2.9966193741323029e-02 2.7379862296344881e-01
      6.8821475578603355e+00 -4.4171173708085813e-02
      -2.8351595823955894e-01 4.3835496214429792e-01
      -2.5650003804164179e-01 1.7398103215018845e-01
      4.2995972088668749e-01 -9.4449555263700816e-02
      -5.6992645643007800e-01 1.0765657199871169e-01
      -2.5585802841537697e-01 -3.5847449954186239e-01
      -8.2865759898436711e-02 -1.6053737215823571e-01
      3.8988357133806906e-01 -4.4655669100376555e-01
      -4.3089127768710135e-02 8.1618387880366305e-01
      -7.8090172211487688e-02 -2.0511945046269289e-01
      -5.5951620761668541e-02 2.6749975342414534e-01
      8.0228452708664366e-01 -1.4374751543630684e-01
      1.5915394375012723e-01 5.3376014622825430e-01
      2.6036658376031099e-02 1.8507365553634261e-02
      -5.2158314496141711e-01 -2.0283849465404075e-01
      -2.2739621797089871e-01 -3.2172259839534451e-01
      2.7889719311846028e-01 3.2600050025715571e-01
      4.3637356246098657e-02 6.0493363843601411e-01
      -1.3345711889264483e-01 2.0033274006252308e-01
      4.7456026014590208e-01 -5.3245215999636650e-02
      1.3761688911474956e-01 2.5185299938828942e-03
      -1.4049647822000375e-01 1.7223768270127643e-01
      4.4797185226218422e-01 2.8803887932021893e-01
      5.6678930010539232e-02 -2.4802560608490967e-01
      -3.7402363195958505e-01 7.3398282466803522e-01
      1.0062728837982642e+00 4.0072990160351307e-01
      3.9665116632013542e-01 -4.0970700696331214e-02
      3.1221769788490317e-01 9.3351682960602450e-02
      -3.5427793387353435e-01 -5.7820301728361057e-01
      3.7266645355890693e-01 2.5642098122337154e-01
      1.1254864017693461e-01 -2.7145321064684724e-01
      -2.3691640659136637e-01 -3.4959966727895392e-01
      4.2594291916620952e-01 -1.5926746232266040e-01
      1.5836261289381795e-01 -4.1569976205101133e-01
      -4.4423172732706701e-01 -9.0121762318933721e-02
      -9.7104476692607911e-01 -9.2253511714124792e-01
      6.2318170420958918e-01 -3.7425028454484965e-01
      3.3819507120517867e-01 2.2706754200674620e-01
      4.9917546261276963e-01 -6.0694024293763671e-01
      9.6266392347049745e-01 8.7302930376672611e-02
      6.5234935021907459e-01 -3.4899752329487133e-01
      1.5903603858597118e-01 -5.6085458052234849e-01
      8.3661277085764774e-01 3.2190516965182903e-01
      5.3241799546642488e-01 -1.2725016426175015e+00
      -3.3204876526923971e-01 5.4610363793206340e-01
      6.6016479103428116e-02 -7.0433916855204615e-01
      7.5764604482114573e-01 -1.6026581702688833e-01
      2.0721935513447250e-02 1.6679333325063977e-01
      4.2845213412478994e-01 -1.8834132351378452e-01
      3.7990297167135659e-02 6.3624198131538046e-01
      3.8013827978580839e-01 7.0225426157418391e-03
      -3.5664038919489344e-01 2.8827978012926786e-01
      1.4186181571629283e-01 1.1258516237783785e-01
      9.0497691600787897e-02 8.6012808135755325e-01
      3.5481619623058663e-01 -6.9590505123062904e-02
      -5.2044730878374157e-01 -1.1364760741729873e-01
      3.0961599411195934e-01 -8.4124091510941168e-01
      6.5856785546816496e-02 -2.4862966650433790e-01
      -3.6318686203934014e-01 5.4534496251339759e-01
      2.4807490628830195e-01 -6.8848163727002709e-01
      1.8015856539117345e-01 -4.9934638763244460e-01
      -5.6314693555356155e-01 -1.1466179306294196e-01
      -8.1677805552016508e-02 3.5594479776221427e-01
      2.4757115091248333e-01 5.6180071961342337e-01
      -1.2536744481028556e-01 1.4894820638228001e-01
      -2.4186830633743883e-01 -1.4294799435368329e-02
      2.9550860681887597e-01 2.3230480740749085e-01
      2.1059774833389283e-01 -6.9918529978313895e-02
      1.8212224538417157e-01 2.4286369332828081e-01
      2.2443817760944701e-01 -1.1759462243019568e-01
      -4.8090419344548260e-02 -6.8288379863737358e-01
      -6.6505847422813485e-02 7.9247750967177777e-01
      6.4788021742656576e-01 -7.0111907299731990e-01
      -4.4368903762065887e-01 4.1736712655432412e-02
      1.1900883586163026e-01 4.0406259206652684e-01
      4.8079339337448346e+00 -5.4718458393190017e-01
      6.5580712166034949e-02 3.0722922093618744e-02
      -2.3565365693002974e-01 -1.2090949525532275e-01
      1.4873654970974479e-01 -6.8906520617772127e-01
      -1.2970251387790999e+00 -5.2879504038493641e-01
      -2.4285874005637942e-01 5.0049369627200058e-01
      -2.2858053577441939e-01 7.2946750885933354e-01
      1.9745868396259827e-01 -7.3938492693755783e-02
      -9.1360560672830338e-01 4.7322076175412159e-01
      1.2456870803553619e-01 -2.6778602065768259e-01
      3.8906236534616867e-01 7.5946059839426439e-01
      8.3367696172907324e-01 7.5409240961253426e-02
      2.8379107331532966e-01 7.2223329024192401e-02
      -1.1916272299451962e-01 -1.1393029740475081e-02
      -2.7153719441736186e-02 -4.6492867296975817e-03
      -2.3035586327860397e-01 -2.2836092612142894e-01
      -2.4688323496881590e-01 3.7482903179227861e-01
      -2.9560224069075575e-01 5.2989906358876437e-01
      -9.6923527261762898e-02 4.8060506524419744e-01
      -1.0880142296044477e-01 -2.6526509673457262e-02
      1.1910932959322408e-01 1.8286028391887382e-01
      -2.2637748926037315e-01 8.9948966084927154e-02
      8.2950335764533881e-02 -3.1483497706164382e-01
      1.4436021698589499e-01 -1.0037921981787312e-01
      -1.3497120066241411e-01 7.2783619069802297e-01
      4.6357229089954927e-01 2.8598530055478177e-01
      1.2870414599416066e-02 3.4652307088578649e-01
      6.8204378745347949e-01 -1.2872651668573726e-01
      -2.2573782523278960e-01 -3.3213519373362582e-01
      -1.9157416357658860e-01 5.4528581878347714e-02
      2.3087580393436569e-01 -5.2584899705285770e-01
      -2.6521748564685776e-01 -1.0540647707494256e-01
      -9.0744016412665045e-03 1.0321613609049732e-01
      -2.1024010307712587e-01 -6.5230498443797039e-02
      -2.2535413560867348e-01 1.1947007742138684e-01
      -7.1534390327285113e-01 -2.5978335956623307e-02
      -1.3779624157537870e-01 -2.5003980290653244e-01
      -3.6321038475037979e-03 -2.2021506661820120e-01
      3.3828166320268521e-01 1.1291758882715600e-01
      6.9858235660296064e-01 2.4017441039653628e-01
      2.4526433993944033e-01 4.0952646834142536e-01
      -2.3219111212972712e-01 1.3488353506677639e-01
      5.8842146286600761e-01 -9.8119387390914387e-02
      5.6757744033138757e-01 -3.8071966063209434e-01
      2.1464384392767749e-01 2.3053530123848500e-02
      1.0498375673557861e-01 -7.8447244703853239e-02
      6.4014781916228369e-01 1.3905186526550298e-01
      -1.6346741513798035e-01 2.5347934294903229e-01
      -6.7567674373905451e-01 9.2156057985783149e-02
      1.0032160342267921e-01 1.0691122638996313e-01
      3.5161967061790733e-01 -3.3507763827339687e-01
      -1.5542368292974010e-02 1.4079715016609390e-01
      -2.6839520921647583e-02 3.0828184064858033e-01
      -4.0952510605013792e-01 5.0356428081790805e-01
      6.5350871350761452e-01 1.3720947158965288e-01
      -1.6709189795534382e-01 3.5086703174468076e-01
      9.0711173238818860e-02 -3.8461073707894666e-01
      8.2246717431782065e-02 -2.9624779522735040e-02
      -5.5912989925260892e-01 5.7496534416418521e-01
      -5.3576147719650447e-01 1.4969478877931092e-01
      -1.1710141424941298e-01 -1.2189709572710265e-01
      -5.3777227536946659e-01 6.6852198212677205e-01
      -3.3457842924364051e-01 4.7602330736054937e-01
      2.1604212171423734e-02 1.4465198278051336e-01
      -5.7747430558381045e-04 2.2500761714555695e-01
      1.7084049025847553e-01 7.5022271474975685e-02
      -1.0645037401295561e-01 -6.2341135797721292e-01
      -2.0695021994087187e-01 4.9034741061512793e-01
      6.0655317094082717e-01 -2.1312078496688862e-02
      -1.1981636676821773e-01 1.2756553118141212e-01
      -1.2127675553083041e-01 -1.6171001703314675e-01
      5.7622321297249408e-03 -3.3518404538464379e-03
      2.4728083952193999e-02 3.9745861614479006e-01
      -1.1134892496331444e-01 -1.5755393312019189e-01
      1.6126893837987169e-01 6.2454060146292734e-01
      1.2323088265816839e+00 2.2746229785183644e-02
      2.4330635604889211e-01 -4.2845351942460547e-01
      -3.2054163104186478e-01 1.3044887406968392e-01
      -9.3112343919185026e-01 -2.9970936960331446e-01
      2.6104645003437943e-01 -2.5305247735421404e-01
      -2.6683337013398462e-01 -1.3752792906807246e-01
      -1.8111022929348247e-01 -3.6763638976499569e-01
      -4.7479319326283026e-01 8.4015575265697598e-02
      -5.0719305560696026e-01 -1.7773459689155902e-01
      4.6047269923886400e-02 -2.3515403006036120e-01
      -1.8022750470791087e-02 -1.8856243558648283e-01
      3.8049637483997989e-01 2.2044555411062414e-01
      -1.8687799761565121e-01 2.7992014125568859e-01
      4.0415209761510201e-01 1.9114457439361188e-01
      -1.7233053983527070e-02 -1.0831343948646203e-01
      9.6744979291831817e-02 -4.0842906790173272e-01
      1.5792158299398135e-02 2.8487147403124147e-01
      2.8966270341187123e-01 -3.3313802491860645e-01
      -4.2519182875614753e-01 4.7293775563657997e-01
      1.1778559511744725e-01 2.5838843576700044e-01
      2.7114495828436735e-01 3.3592702108152569e-03
      -1.9553670393359759e-01 -7.3382548588293919e-02
      -3.3925240039731391e-01 5.1764533038649238e-02
      2.2458839396597739e-02 -1.5158675643295602e-01
      2.0663025695341269e-02 5.3747532198336634e-01
      1.5647905177220994e-01 -1.0676217554742179e-01
      -3.3899710342465339e-01 -2.1310996896474221e-01
      3.7268919764613462e-01 -8.4843247252339660e-02
      3.3529413983676017e-02 -1.8890361773475561e-01
      2.2161125202896997e-01 1.5460175496762826e-01
      -4.6827363953223555e-01 -1.6835075195330529e-01
      2.1558589048270491e-01 -2.5631002710549372e-01
      1.8120907666963237e-01 1.9173877687241264e-01
      -9.2480882089605500e-03 5.6124383684370512e-02
      -2.0568711444849935e-02 -1.6706571633504996e-01
      -2.5556683423814336e-01 5.1133675714605953e-01
      -6.1828909833218704e-02 3.6259812752721060e-01
      2.2629531457321403e-01 -2.8287821679964015e-01
      2.6137301985080225e-01 3.6377210618021194e-01
      1.3929019581956013e+00 1.4999458456722908e-01
      3.9379424792199369e-01 -7.4538020955818171e-02
      -3.7715756931233735e-01 1.2027280996075404e-01
      1.6265514475908763e-01 3.8375817372345494e-02
      -2.2031503007609082e-01 -4.1027483764274275e-01
      5.8972674850670737e-01 1.4240940441073675e-02
      -4.9444091398798337e-02 3.6873217855406720e-01
      -9.2815534897828719e-02 -1.2983549425827376e-01
      -1.9892626136546915e-01 3.8964002268872916e-01
      -3.3757517526843728e-01 -7.4652794946324513e-02
      -1.8739363125432915e-01 -4.4679930552266572e-02
      -2.6619015079459851e-01 3.1594252619839902e-01
      4.8535499149883976e-01 -2.2657664557258245e-01
      4.9398838654981818e-03 4.1851958928675231e-01
      -1.5754795838073335e-01 -9.2399617058088898e-02
      2.4886481623420900e-01 2.9470548245648259e-01
      1.4289457057077834e-01 1.0144056066270406e-01
      -7.5502353684394022e-02 2.8939215307768096e-01
      -7.1669865341272773e-02 -3.5729379933033149e-02
      -3.4700863845607072e-01 1.1978692571472806e-01
      -1.7116545252787524e-01 1.9651813845851890e-01
      -3.0031362304721343e-01 1.6573915727275343e-01
      -1.2945771426544414e-01 5.3975568251369205e-02
      -3.6960443801572856e-01 2.3952945454515848e-01
      1.0515949540694353e-01 4.9996357777062528e-01
      1.7668453247444807e-01 2.4961004855854245e-03
      -5.5970675017045926e-03 5.0003511805407053e-01
      5.0303861222770934e-03 -4.7144595765549074e-01
      -1.9425438238487014e-01 1.7905751815586182e-01
      1.1422801241394300e+00 -5.8100668734184391e-01
      -3.1597575349697642e-02 5.4514694593600954e-01
      1.7103464683424408e-01 -2.0489155382075117e-01
      2.1067701538514347e-01 -3.5193740806146047e-02
      6.9033382442249713e-01 -2.4713139549414356e-01
      1.5873427672060073e-01 -1.4551369303603726e-01
      1.3652889550179306e-01 3.9632786320569963e-01
      -3.4710073512774067e-02 -1.6240888333391146e-01
      -9.8755235715854511e-02 3.0902719932275691e-01
      -5.5446258058471454e-01 -1.9662884695802765e-02
      9.0517409460898160e-02 4.2946615181737181e-02
      4.0752864509174491e-01 -5.4756485291615864e-01
      1.2286613568535231e-02 -1.0669857370566682e+00
      4.2148026372315883e-01 -4.6899797150617684e-01
      4.1501219756543105e-02 2.4728273524434879e-01
      -3.3293742593625653e-01 1.6475010802971066e-02
      -3.8718503545901806e-01 7.9899874688082476e-02
      -2.0433790297882298e-01 -2.5695418155843325e-01
      -4.3294984138607551e-01 6.3672286601665251e-01
      -2.2774545741576502e-01 7.4395986235295952e-01
      -6.1725912211899991e-01 8.9011977537917653e-01
      5.4481024427896242e-02 4.2494924571808868e-01
      -1.7667818463687801e-01 -2.1634081042773953e-01
      2.4263336923743866e-02 -4.2131397071054372e-01
      -2.3836710128502880e-01 -3.7108648150581564e-01
      2.2982726753725410e-01 -4.1938654328794245e-01
      1.4005045418160425e-01 -2.2613805368178519e-01
      7.2851972815415822e-01 3.6549601684251326e-01
      -7.5124552215455043e-01 -2.7233206144944538e-01
      3.0874866043076354e-01 -3.2535174928552291e-02
      -1.4489438422060472e-02 5.2663412340698146e-01
      9.8973808163454691e-02 3.8008621449470903e-01
      -3.6135260892223764e-01 -3.0817840869435471e-02
      5.4251378970683528e-01 5.4751981334914879e-01
      -5.7911738039239868e-01 5.7461582006129019e-01
      -4.1239546320407539e-01 -8.5215093957906884e-01
      -3.7032324413455109e-01 2.3736419195991437e-01
      -3.0325532975208436e-01 3.8043710787462059e-01
      6.0028343457362787e-01 2.1280462239465808e-01
      -1.9547650536384875e-01 -9.0607735811822743e-02
      1.5280399833091049e-01 -1.4497855595134621e-01
      2.6108442655916192e-02 2.2387191019389491e-01
      4.4608515989182895e-01 -1.8305715217048820e-02
      3.7809232961178640e-01 4.3434315474058660e-01
      -1.7528256324747110e-02 2.2400360772465835e-01
      4.7944102933661370e-01 -3.0843287183147355e-01
      7.8570310580657998e-01 -6.3301161326976241e-01
      -5.0957082123219055e-01 2.8488703814727334e-01
      1.1257333146937398e-02 2.0321990496943249e-01
      -3.4063805963752325e-01 -5.4440392366546721e-02
      1.9442526423862594e-01 2.0248582136809828e-01
      -1.4063632189334631e-02 2.5150745767930460e-01
      -6.2181196249691006e-01 -1.8957782493393271e-01
      6.0514339468244124e-02 5.0012491610830621e-02
      1.3358846424516349e-01 3.5753919623366343e-01
      -9.9023927149618396e-01 -5.0289783504226038e-01
      -3.2114183163905952e-01 -1.3317386935030520e-01
      -1.0852279147533325e-02 3.4063536691591884e-01
      -3.7816771136788735e-01 -9.5557372976799382e-01
      4.8267400587241127e-03 6.2726798850596635e-02
      -4.9301356311518152e-01 -3.3736752865422448e-01
      -7.2279025806128161e-02 4.0463120976305322e-01
      -8.8434933706048868e-01 -1.5597911167295497e-01
      5.1138573382502295e-01 -8.9880305018563408e-02
      -2.0544927581647188e-01 1.1065512425422531e-01
      5.7933891856744161e-04 -7.3716334667225172e-02
      -3.2311589593572165e-01 1.6095379947060209e-01
      -2.0613883951260933e-01 4.5893081934725910e-02
      2.1175430533342673e-01 1.5991995819331264e-01
      5.8842859627729303e-03 3.4871724311979285e-01
      -5.3072356983999913e-01 -6.3136466957900039e-02
      2.4348501789776564e-01 -2.5962300156700973e-03
      1.0979027726499011e+00 -5.1345606868722560e-01
      7.5445778845162792e-02 2.2812070952352731e-01
      -4.3401449382055243e-02 9.6152137915684485e-02
      1.4605776087106484e-01 -3.1091451094865989e-02
      -8.9581214407942044e-03 -2.6404991534592498e-01
      4.4635116126913277e-01 3.8938098065931198e-01
      -2.4402918809861240e-01 1.6098317512968163e-01
      -9.0315097428060820e-02 1.3715466902738177e-02
      2.3556477396201560e-02 2.2000238826721011e-01
      -4.1929140686393190e-01 2.1551010426241579e-01
      5.2532401481402546e+00 -4.1740224361400879e-01
      -3.1559479828866900e-02 2.2200077070342566e-01
      -6.9235668386121496e-01 -6.3274028823627360e-01
      -8.6140124318180036e-02 -2.4020596968531782e-01
      4.2550910107035378e-01 -9.4931089536399527e-01
      -2.0162113469483059e-01 -3.1039215868476949e-01
      4.2347520426475438e-02 -2.3350342297512888e-01
      -1.1080729485590282e-02 -9.6813230890462204e-03
      -4.5572059616129845e-01 -3.4579715131197902e-01
      -3.8077498876908933e-01 -1.1639416993853061e-01
      1.9719017951348985e-01 -2.4978709996158774e-01
      -3.1352532009623740e-01 7.0042326706507108e-01
      1.3989828148271741e-02 -7.1713860132396268e-01
      -3.8997312239136211e-01 5.6351030857304996e-01
      5.5050589148304940e-01 9.1559448184311765e-01
      5.6683138537114330e-01 1.9563466135151600e-02
      -7.3277034539697428e-01 1.9037986924444548e-02
      -1.0256702940999058e+00 -1.6978210429039220e-01
      -2.8713202502996094e-01 -1.1790218477241977e-01
      -4.3887356823382900e-01 -4.7897333211549853e-01
      4.9865768751692713e-01 -1.8700200087099134e-01
      -4.6259581323181675e-01 -2.1178278354938136e-02
      5.7998305526015681e-01 -2.5507155547312550e-02
      -5.7816370379884641e-01 1.4753330226357436e-01
      -4.7607472473262052e-02 1.8227034072197751e-01
      -1.4324760606887049e-01 -7.8486662672214669e-01
      -9.3991134448256422e-02 3.1348933778657267e-01
      -1.1513632836054326e+00 4.2096439000936187e-01
      -4.9178536022985719e-01 9.2134038962066189e-01
      4.1640580132883454e-01 2.9129722289713367e-01
      -1.0751884665025932e-01 -1.7118264488338222e-01
      -2.5196472166010359e-01 8.4552718920647629e-01
      -1.0598453832260461e-01 3.0157367402567886e-01
      1.2220466360686934e-01 -4.6986136314676206e-02
      -2.3936583989356358e-01 3.6022374337894306e-02
      9.8005555610905584e-02 4.2755165899953451e-01
      7.6236145101908981e-01 -3.5735265436055152e-01
      -1.9246087558270869e-01 6.8426479167080734e-01
      1.1625346537722785e-01 1.9370327196815024e-01
      1.9035783085754171e-01 -2.4051197661863030e-01
      -3.0949136691420093e-01 -2.2382552786596197e-01
      2.3546961303672201e-01 4.2340785226410638e-01
      -2.0765880883292959e-01 4.0112074420404370e-01
      1.5192399388546432e-01 -6.2265489010868313e-02
      -1.8609065028273764e-01 7.8433427279266527e-02
      4.6875300903954142e-02 1.0964508944433020e-01
      4.1233161022376569e-01 -2.0801410981621424e-01
      6.9933661943424175e-01 -1.2953499582491032e-01
      -2.5179072063541608e-01 5.7837595916564004e-02
      -1.6911043181720262e-01 -7.4148949795629482e-01
      3.4354392002138534e-01 -2.7846041661579276e-02
      -4.2207285130303618e-01 -2.9727714166611990e-01
      1.8418462462591337e-01 4.6337239197284857e-01
      6.3723646888533589e-02 -3.6531407224066767e-02
      -4.9018494868328188e-01 -4.9190624536631028e-01
      6.9916452352468705e-01 4.3986815696298692e-01
      3.7300012380128846e-02 -2.9028697568976747e-01
      -4.0427625920486943e-01 3.8905897403380563e-01
      -3.8498428490539548e-02 -9.0389789937914222e-01
      -5.4159539588381278e-01 3.8699823747043893e-01
      3.7076924187727522e-01 7.4535351932668595e-02
      -2.1316032492307399e-01 2.7656331290951791e-01
      -3.0346125535314183e-01 5.9061296521181070e-02
      -1.0375745947475620e-01 4.2344638659556594e-01
      1.4950032295187149e-01 3.2533476055829841e-01
      1.5975016448685320e-01 -4.1469891519664165e-01
      -1.5653086154164253e-01 -8.4422851655076833e-02
      -4.9989571598812912e-02 -1.7343312490610543e-01
      -2.3875451017621757e-01 3.7731730593377677e-01
      3.2701954547351114e-01 -3.3462390436632389e-01
      7.6828053870349550e-02 4.0351585634220151e-02
      5.1052806469879974e-01 -8.6832970975327856e-02
      5.3125004055306579e-01 1.7285333594685418e-01
      1.0875877380234088e-02 -1.0614028169387046e-01
      7.7488651093182270e-01 3.9804002776817277e-01
      6.5509090209852863e+00 -2.6862158122417365e-02
      -1.8001557013391942e-01 1.0621236009511748e+00
      1.8628409529345197e-01 -4.8789007801806084e-01
      3.3561917082331122e-01 6.9987403577922558e-01
      4.0920217873515358e-01 3.1023973681080697e-01
      6.4218066652241734e-01 -7.7673633573924761e-02
      -4.2590713619621162e-01 3.0311083779891268e-01
      2.2245930293199984e-01 7.6231305917225795e-02
      -5.4729485525537225e-01 1.0634262524339801e-01
      4.1914284985129951e-01 -6.4783111375304472e-02
      -1.8279286135250501e-02 -2.6690092548588207e-01
      1.0428106697580874e+00 9.3960789213287779e-02
      1.6878006590350642e-01 -4.5138342881917876e-01
      -2.9933786883235805e-03 -3.6184639956475467e-01
      -2.4475418241006205e-01 -3.3220071075413138e-02
      5.7091977486146406e-01 -1.5767527565829112e-01
      4.2663052781934496e-01 -8.4448885618804800e-02
      -7.9921077881581093e-01 -8.1582489556781168e-01
      -5.8218281390240628e-02 5.4875271276709922e-02
      5.8006653617417712e-02 -5.0794872407196240e-02
      3.5219950902674418e-01 4.1209454510335386e-01
      2.5818831429760453e-01 4.1603096285562954e-02
      -3.0462075415354728e-02 4.6069024044845525e-01
      -6.4426659766083327e-01 -2.8431811213316210e-01
      -8.9349316483303617e-02 1.1937868238532330e-01
      4.8181294336609379e-02 -4.2617920888803423e-01
      -9.2933581708831636e-01 -3.6092966410035465e-01
      -1.3203861754759711e+00 -2.3844201947016658e-01
      -5.4134880649100670e-01 1.2161393549711625e+00
      1.7441915668099658e-01 -1.0827981083436992e-01
      -2.6029251276596244e-01 -1.1857326284873519e-01
      -4.8444954573646315e-01 -5.0274696085769244e-01
      8.6510955683774364e-03 -3.7347629067426996e-01
      1.4698300486468169e-01 2.4327797627115733e-01
      -8.2115387189074809e-02 -1.9059533970996481e-01
      -5.8059356274005824e-01 -2.2424666771237564e-01
      -6.4697136613169437e-01 -9.9312085372283487e-01
      1.7119021502831322e-01 -1.0194243762919585e-01
      8.3228847314823939e-01 -3.3796385303594573e-01
      1.2629940517692370e-01 -2.0896515326510310e-03
      -8.4470600534160567e-01 -4.5599823333643839e-02
      1.0909811151617239e+00 7.0863608263842026e-01
      -1.6918657719602109e-01 2.5414490159697450e-01
      7.8417771406408932e-01 1.0765065226777086e-02
      -1.0141794162906742e-01 -1.0671739750630604e-01
      -4.0229639651960025e-01 -3.4659464266543305e-01
      -6.4050500628630491e-01 -6.6455468109560947e-02
      3.6254830565852525e-01 1.9180849310717735e-01
      1.4721469393402606e-01 -2.2312865354578615e-01
      -2.4382755572380871e-01 -5.3153082804174279e-01
      1.9597618542022932e-01 5.0539250110265421e-01
      2.4429887414133301e-02 -3.3806293402254312e-01
      3.3117130072726642e-01 -9.1055583907027518e-02
      -2.2824038682577608e-01 -2.5403525499051216e-01
      1.0409528176493356e-01 -3.1463959953011722e-01
      -3.0804297655585744e-01 5.2995425971022980e-01
      -2.9050369481584210e-01 5.8162616226962442e-02
      -3.3412599524933799e-02 6.3881443995638110e-03
      -4.1747745089999633e-01 -1.2187389553847581e+00
      -6.5372076588613348e-01 -6.8726311500329706e-01
      9.8749574390930284e-01 -2.1287027072655010e-01
      -1.2469136277529236e-01 -3.8876931583200303e-01
      -4.6827005827832230e-01 3.1846366929856368e-01
      -1.2660987352340913e-01 4.8653780704681387e-01
      5.1666095592934036e-01 7.6505109607733934e-02
      3.4289445128397228e-01 2.6429211517352819e-01
      -2.8069842808795376e-01 -1.3332096088262371e-01
      -1.9724875972879752e-01 3.3707413479941140e-01
      4.8771188442090674e-01 4.0537076440753261e-01
      -1.8385660130479314e-01 -5.5974628947010097e-01
      1.1796537450872124e-01 -3.6193281127381316e-01
      -8.1264545276381961e-01 5.4413589864152323e-01
      -3.1376089245717470e-01 5.0558459106539577e-01
      -5.1155163030473816e-01 3.1004889586664491e-01
      9.4504744442220595e-02 -1.9073911474573235e-01
      4.0210906480532262e+00 -7.2747428682092252e-01
      -3.6871294854106756e-02 4.7094690127979921e-01
      -5.5687596875186179e-02 2.5404159076857519e-01
      1.6237119433225172e-01 1.1532964616123326e-01
      2.1764447471994000e-01 -4.2429096796990647e-02
      2.7978861836079189e-02 3.5944266525966190e-01
      7.5218408084480992e-02 -3.4966175730548950e-02
      1.4927548921812567e-01 -3.0876607871906725e-01
      -1.4843815708439381e-01 1.6435924921106029e-01
      -1.4996358106418770e-01 -1.7066447511622865e-01
      -2.6107812740066558e-04 3.0281460311623226e-01
      1.6572113276989861e-01 8.5811004655575607e-01
      5.3240231718143394e-01 -9.7972217733529754e-01
      3.6036312663093012e-01 -7.4324820884408505e-02
      1.9662155677842444e-01 -2.2852038315607301e-01
      -4.6420672286290110e-01 4.8174416325465147e-01
      4.8817575142594688e-01 1.6972864547998684e-01
      2.8289559897417904e-01 -9.8847683682401627e-02
      2.7893053302215631e-01 4.8769031753762199e-01
      4.2426870444986170e-01 1.5906488620347581e-01
      -6.9521857259580155e-02 -4.8788099398581075e-01
      5.8613424835327943e-01 3.2040764213197799e-02
      -2.9031875181396871e-01 3.0150645057178793e-01
      2.2712991152347528e-01 1.4155868045853066e-02
      -1.6672791187684616e-01 2.2838190171109735e-01
      -7.4375567109176338e-02 -7.2613688116683880e-02
      -3.4927440671110543e-01 -5.8071524559653498e-01
      3.5543120110264427e-02 2.2536014889274777e-01
      -4.3958531420089475e-01 4.0291932322094620e-01
      4.1443909440946303e-01 2.6872413537282114e-01
      -2.4496029772827241e-01 2.8656688424332083e-02
      4.5722990437965866e-01 -1.8153991184830510e-02
      6.3540698690191411e-01 -4.4121293916058013e-01
      1.2106267050969884e-01 2.5800852878305769e-01
      3.0363715406155456e-02 -2.9777737329249010e-01
      -5.3401529805655323e-01 -4.4855976311714935e-01
      -3.2193150946102767e-01 5.0942861944597462e-01
      -1.4322138343203056e-01 -1.1185849164611576e-01
      1.9254202114173688e-01 3.1503186648227738e-01
      6.2661751413523459e-01 -5.2227354556998373e-01
      -3.7719434364902882e-01 -3.8797764010753778e-02
      -1.0113106462445785e-01 -2.6540229240629321e-02
      8.7596999326064004e-02 8.3206432771358349e-02
      -5.4072461958261452e-02 -3.2074912932365235e-01
      2.1367038445127465e-01 -2.8482177719938084e-01
      3.0704069205777595e-01 -9.9089306992784776e-01
      4.1487775300348939e-01 6.1978368036531742e-02
      3.0240600880910606e-01 3.7481034034152638e-01
      1.7137456184912352e-02 -5.7528571922006844e-01
      5.9578709383044415e-01 -4.8720562839602133e-01
      -1.3699138980135125e-01 -4.8570835000180429e-01
      2.3235352080925965e-02 -8.6831603149074332e-01
      8.5345034662521219e-02 5.5893556287696176e-02
      -2.0405228330214431e-01 -9.9467814975228996e-02
      -2.0953164881050887e-01 2.7539560409299252e-01
      5.5717498383786390e-01 2.0386908372756915e-01
      -4.8533277302346661e-02 6.2727979163342784e-01
      2.0284265874608681e-01 -3.8079912489255313e-01
      2.4892680054330565e-01 -4.1601183684816362e-01
      2.0588659766960757e-01 1.8304828364655887e-01
      -1.9959838113062442e-01 -2.7386268339322672e-01
      -1.1592385125590747e-01 -2.9849126096263046e-01
      -2.7608740820297623e-01 2.3457649664967517e-01
      -8.0591621798199287e-02 4.5856302225178391e-01
      4.4865385180466605e-01 6.3162690723732137e-02
      6.1470473493237143e-01 -2.3621751943277078e-02
      9.1168519359451326e-03 3.8410230706160918e-02
      9.1171744675918931e-02 -1.0176109157326441e-01
      4.9673402861380811e-01 -2.3875998338138308e-02
      3.2451407001701832e-01 -1.8416003620037363e-01
      1.6113940393136170e-02 -1.0206832024457554e-01
      5.0154004665430507e-01 1.6839026416492495e-01
      3.2134605855410991e-01 3.9516423098917025e-01
      -2.6464174921502592e-01 2.3385598568727149e-02
      8.1044179554396456e-01 -4.9739421520679694e-01
      4.9370392048091277e-01 -5.5509265535495733e-02
      -1.8925050111295127e-01 -3.1127374850739681e-01
      -9.0631982616535392e-02 5.9869667555434415e-02
      -8.7977620732905193e-01 -6.7759128709092245e-02
      2.9868005926822649e-02 5.4228650834631999e-02
      8.2157211744861458e-02 -5.2144862376510748e-01
      4.4494137279957907e-01 -4.4564913953751267e-01
      1.1990617825880046e-01 3.4482588776016049e-01
      -1.9085220224176200e-01 2.0290568848461973e-01
      -6.6613555023229998e-01 1.3845935400132028e-02
      -2.0874748464234161e-01 4.3956868475335711e-02
      1.3585737737479461e-01 5.8282165910025191e-02
      -5.1855907000873773e-02 6.3783264187968147e-01
      -2.1219415299699354e-01 -7.1405480567807494e-03
      -1.0941837648115839e-01 1.6178735394552144e-02
      2.6281542776150535e-01 -3.1875507924060525e-01
      4.9348076287840437e-01 -4.7818916289511892e-01
      -6.4288761630859129e-02 -3.7255618387024042e-01
      7.2095480633939124e-01 -3.8772063742420804e-01
      -2.9741733256130154e-01 1.1931475305115470e-01
      1.5635960651122319e-01 -1.2234427666266041e+00
      -5.1196235519201028e-01 4.2664106074889568e-01
      -7.8969409890749270e-02 -2.5361297271569821e-01
      3.1489762761262635e-01 -3.5842388453594380e-02
      6.2716954558873425e-02 1.1930220771172359e-01
      1.5111153771334462e-01 4.0687725311138173e-01
      4.0318820620524543e-01 -1.7402108961045323e-01
      1.0258375420790360e-01 8.9904532795810191e-02
      -4.3398204852314359e-01 -7.9970808247337558e-02
      3.0816983251207569e-01 3.1638096787140146e-01
      2.2354764561038351e-01 2.0764365210342223e-01
      2.7221408233273164e-01 7.1448444594645930e-02
      -8.0169490111459207e-01 -1.1312391354223431e-01
      9.5627396776046536e-02 -3.4022976982124795e-02
      -1.2421870654377164e-01 -3.3563622675613897e-01
      1.3047572496459978e-01 1.8577026667744170e-01
      2.9554366633972473e-01 8.9757095805656939e-01
      -2.2284511953100227e-02 3.3065292851131922e-01
      6.9256515504582561e-01 -2.3588235751347936e-01
      2.0991916752139778e-01 -8.8730062638934937e-01
      2.8066708550688799e-02 -2.4487079924683613e-01
      1.7406711649850057e-01 -3.3201481591074451e-02
      -1.3884290986336914e-01 3.8077044482701233e-01
      4.0487407129331598e-01 7.3140073104764614e-02
      -8.8447082748780506e-02 1.9348880269105162e-01
      1.1892608107328086e-01 -9.3508866827174297e-02
      -2.0439950225700396e-01 2.2828585883480781e-01
      -4.3537059772241465e-01 2.3418072993683922e-01
      -3.0797929623935505e-01 -1.3442395785419742e-01
      -1.7322653368365252e-02 -1.3188021163709004e-01
      2.3321242071543893e-01 -4.2567826669151227e-03
      -1.4677061971712477e-01 -5.9826028649928653e-01
      -3.4267312796316168e-01 -5.4028325246597853e-01
      -8.7557497236322904e-02 -1.1665893608260271e-01
      -4.7940154647219024e-01 1.2838763507414565e-02
      -1.0059754026247674e+00 1.1331634017459669e-01
      -3.3326966621545066e-03 7.5192027024756436e-01
      1.9083239287222464e-01 2.4429947645754066e-01
      3.1552425498591680e-01 -1.8668230286712831e-01
      -1.8494559005616595e-01 7.0247844168494988e-01
      9.2962062968728096e-02 2.4922587304187466e-01
      3.4827283487381439e-01 -2.7519156630859870e-01
      9.1879382986386926e-02 -8.3081680169441258e-02
      -8.2485456238997959e-02 5.6116703604255180e-01
      -9.2766356368053485e-02 8.4717991021755756e-02
      2.8243898693142444e-01 4.5696415879953522e-03
      3.4426628418161902e-02 1.8327102975269091e-01
      -1.9691889015890027e-01 3.2127952362928938e-02
      5.3173641711552733e-01 -2.2649885921512469e-01
      -7.5152779053730048e-03 1.6612184120515713e-01
      -1.1475806300845661e-02 8.7435394312251793e-02
      -2.0388393713040015e-01 2.8372661289433604e-01
      -2.6652491333259543e-01 4.7115183235576633e-02
      6.5473741717600037e-02 2.0627361394480207e-03
      -5.4467874289410234e-01 6.8855819071611835e-01
      1.1960466533961757e+01 -4.0331040580086025e-01
      -6.0771637687139035e-01 1.2904364525759854e-01
      -1.5234959538222184e-01 -8.1954762898862041e-02
      -2.2418127825311257e-01 1.7590104204821952e-01
      2.3902623113293284e-01 1.8846216847028143e+00
      1.3560621187741895e+00 -9.3049514093624286e-01
      7.7159474524550339e-02 -4.6016662959396309e-01
      2.7260051950852010e-01 -4.3779345835187139e-01
      1.3057110753328335e-01 5.7699322536232844e-01
      -1.0945790338648696e-01 -3.3318453201476295e-01
      -1.4467102034475160e-02 -7.2763307700938462e-01
      2.4066309604779476e-01 9.5319840318797966e-01
      -2.4299446782542206e-01 6.4361976631863271e-01
      -1.0260980257504451e-01 4.3055047704124128e-01
      -4.4273945787206592e-01 1.1529970084619412e-01
      -2.8173204867102553e-01 -2.7278120769441688e-01
      -1.5113419129564662e-01 -2.8784776327678174e-02
      -1.3196012074816502e-01 -4.4297027830081948e-01
      -3.9449937253188311e-01 8.8734747781014434e-01
      1.1297790063476383e+00 7.1355116906664087e-02
      1.9723125561567431e-01 -5.9406053327323527e-01
      -6.9124695416039761e-01 2.7274167701185009e-01
      2.5795751723708488e-01 3.1391066880242080e-01
      5.5460286594441133e-01 -2.5732253099832370e-01
      3.9485831250509407e-01 -7.9318279918103488e-02
      6.1313212526878866e-03 1.2785944154948456e-01
      -1.6995696608473265e-01 -2.6927499740300309e-01
      2.9415001682421660e-02 4.0252562893918382e-02
      -4.3978144112500211e-01 -3.1846369630220972e-01
      -3.1651645109674537e-01 -9.7346000892036766e-02
      4.9088443091196576e-01 1.8464589424543090e-01
      -7.0979550572538908e-02 -9.6451265834513369e-02
      3.4176962470339295e-01 -5.5621141952255704e-01
      -1.2426748339567216e-01 -9.7176655619732411e-01
      1.3800417471727092e-01 3.1012739682578505e-01
      -9.5265723313491735e-01 -2.4250830028902390e-01
      5.1150127753743024e-01 3.8174369301377403e-01
      4.0806970811626386e-01 5.1095378627231444e-02
      1.6340347513204301e-01 -3.8424846054318107e-01
      -2.6241429114367792e-01 -1.3795364306346602e-01
      -7.9920364378833808e-01 -3.4171200957217596e-02
      2.2746644811081512e-01 -1.1574483593648170e-01
      1.7902977688396537e-01 -1.3530067120873665e-01
      -9.5617008626636579e-02 -3.4254829570563206e-01
      -6.8527261098579595e-01 1.9146148764986354e-01
      -3.8464589644425196e-01 -1.1842814936105733e-01
      4.6853620843510124e-01 1.6533472445357425e-01
      -1.5431213840538041e-01 5.9652055604940191e-01
      -3.6590591479898310e-01 5.8319439722992229e-02
      6.3394396488896476e-01 4.0190077107712346e-01
      7.0035422140641224e-01 -1.6204944835206483e-01
      -2.8277362500060860e-01 -8.2712737237910061e-01
      -5.4075188648367500e-01 4.8383411482878069e-01
      -3.7551459449075608e-01 -8.5325385490446048e-01
      4.6236521361044874e-01 3.4632439571115631e-01
      -3.1856938649461181e-01 5.7926240102498339e-01
      1.7498637415226240e-01 3.8373326633687660e-01
      2.1920465494870721e-02 -1.0823554527332301e-01
      7.2445798191975630e-01 -2.1363663126284788e-01
      -1.8935590706631807e-02 -2.0762655325750969e-02
      5.9367073992450038e-02 -4.5857898565130251e-01
      -5.0292176201218119e-02 2.8828889480078324e-01
      -2.5556041509632393e-01 -2.9379859272735714e-01
      -4.8387386430915252e-02 -2.6394654567784603e-01
      2.4943163648053487e-01 2.1710874979867678e-01
      9.3169722671247013e-01 -4.1298756329781283e-01
      6.7726020491461966e-02 3.8545030771202365e-01
      -4.2201806590233043e-01 1.2217713411697097e-01
      9.6185136468245314e-01 -2.0333310796652676e-01
      -9.8227432780532871e-03 -7.7543565575113482e-01
      -1.4709450228261775e-02 1.2818616800981386e-01
      3.5978908436518581e-01 1.0761771653123774e-01
      2.4958438483045567e-01 1.2373194744802416e-02
      -4.5862554977848308e-01 3.4194899909777948e-01
      -1.0829305072059872e+00 -1.8309188849183303e-01
      1.0908270838697616e+01 -8.8957527645039924e-01
      2.0574835985055875e-01 3.1929050674023202e-01
      8.7016958687649293e-01 1.9127365160775744e-01
      -5.4601911022650584e-01 -3.0717172382387531e-01
      1.4266639141455650e+00 4.4975500210821456e-01
      8.8245991910073235e-02 -1.5086850133837874e-02
      -2.8141303771560350e-01 1.8764383718059841e-01
      5.1819544028314257e-01 -7.4013103037547423e-01
      -9.3532072589383541e-01 2.0538437740141195e-02
      -4.0314039843781002e-01 4.0956027293601822e-02
      4.9117723776215988e-01 -1.3599981908286904e-01
      -1.1523133382118163e-01 -5.6105819512463684e-01
      -2.6315172186988472e-01 6.3418361071639159e-02
      -1.1915274920040278e-01 4.9826205382098498e-01
      1.4290656656413561e-02 2.0512880363164271e-01
      -2.2157344353320063e-02 9.8625032471721982e-02
      6.6070167021619741e-01 4.6253559899306372e-02
      6.5419255117488606e-01 -3.0568855801589567e-01
      2.2125032392581678e-01 5.4351661431671017e-01
      1.9592673769677655e+00 -1.3084140688653823e-01
      -3.0872278749030585e-01 -6.0454446439186560e-01
      6.8868047603170757e-01 -2.5282256006080438e-02
      -8.8185948742095521e-01 5.9470706055554168e-01
      1.7057076737260304e-01 -1.4650167958137225e-01
      -5.4901080566238353e-02 6.7100984134986030e-01
      3.9268920952374908e-01 4.4460354649381688e-02
      7.7071572846902070e-01 2.6137475289936651e-01
      -4.8215998597313187e-01 6.0650431721645370e-01
      1.3958505409590594e+00 9.0519824509113847e-02
      1.3154625355723755e+00 -2.2377997404821555e-02
      -2.7618586807556816e-01 -9.0207627012067970e-02
      1.7834163160583880e-01 -2.6955878779188119e-01
      1.6596944087931839e-01 7.4724151525204119e-01
      3.9286025681468750e-01 1.2417073531653851e-01
      3.5731480146648825e-01 -1.9021862980201490e-01
      3.3925801671658151e-01 8.1321728495105550e-01
