<?xml version="1.0"?>
<opencv_storage>
<mlp type_id="opencv-ml-ann-mlp">
  <layer_sizes type_id="opencv-matrix">
    <rows>1</rows>
    <cols>3</cols>
    <dt>i</dt>
    <data>
      200 100 62</data></layer_sizes>
  <activation_function>SIGMOID_SYM</activation_function>
  <f_param1>5.9999999999999998e-01</f_param1>
  <f_param2>1.</f_param2>
  <min_val>-9.4999999999999996e-01</min_val>
  <max_val>9.4999999999999996e-01</max_val>
  <min_val1>-9.7999999999999998e-01</min_val1>
  <max_val1>9.7999999999999998e-01</max_val1>
  <training_params>
    <train_method>BACKPROP</train_method>
    <dw_scale>5.0000000745058060e-02</dw_scale>
    <moment_scale>5.0000000745058060e-02</moment_scale>
    <term_criteria><epsilon>9.9999999747524271e-07</epsilon>
      <iterations>1000</iterations></term_criteria></training_params>
  <input_scale>
    5.5357432423802991e-02 -4.2712024139420957e-01
    3.2101358456651928e-02 -6.9728446523514342e-01
    2.2308255901145681e-02 -1.0013729772706006e+00
    2.7673179930917426e-02 -7.6376668182255170e-01
    4.9878688607517659e-02 -4.0596958214119983e-01
    6.7101648004084344e-02 -3.0899272875195438e-01
    4.5862528471074179e-02 -5.2044163413379996e-01
    4.4183971896338353e-02 -7.2521871513710578e-01
    4.0389102683780542e-02 -5.7235092646570263e-01
    5.7878173764808083e-02 -3.8539809243352358e-01
    1.9314769186283295e-01 -2.2052277905057599e-01
    4.4129646140415202e-02 -5.1923438252532728e-01
    2.7457845123946799e-02 -6.2466932787211926e-01
    4.3842248304498892e-02 -5.0508041947747873e-01
    9.8969671332533288e-02 -2.5460916997996252e-01
    5.8260640610050284e-02 -2.5933947378129224e-01
    3.6982903901418999e-02 -4.6469694910167381e-01
    3.0452805230761309e-02 -5.5662269145211962e-01
    4.6648938391758987e-02 -4.4821291169336475e-01
    7.3043242513168474e-02 -2.2847515969906121e-01
    2.0186679149435026e-02 -9.9412328808513617e-01
    2.2889535642219603e-02 -2.2473343291582975e+00
    1.9145049259763937e-02 -1.8767334313098654e+00
    1.9555585547472835e-02 -1.4624805562616248e+00
    2.5355176523698626e-02 -6.2431292251786963e-01
    2.6288623691601853e-02 -4.3286915738980331e-01
    2.9681933623180355e-02 -4.7505547675739768e-01
    2.4145252763774192e-02 -7.2720184848135683e-01
    1.9982328780867545e-02 -8.2748480565175986e-01
    5.4368725262967176e-02 -3.3584776096380980e-01
    2.9582898158088875e-02 -4.2998524483562317e-01
    2.1810932317286504e-02 -5.2532344835260170e-01
    2.7154204538122843e-02 -6.6492428272969684e-01
    2.4440988436875727e-02 -7.8846446472183485e-01
    5.0797511992854628e-02 -3.5870678493047026e-01
    3.8737159100667946e-02 -3.8055949490491042e-01
    2.0748124830348311e-02 -5.5288982712109702e-01
    2.3449825450081757e-02 -6.6475193781000663e-01
    2.8550704248258067e-02 -5.2611719913677346e-01
    1.5523632448740399e-01 -2.0055855195893735e-01
    3.2317113741712936e-02 -4.9497732659329058e-01
    2.7481384325095608e-02 -5.0304351952597404e-01
    1.9963130030524589e-02 -5.9974647261443659e-01
    3.3076836999140907e-02 -5.4323810602427902e-01
    1.8732043571005871e-01 -1.3945566402768375e-01
    1.9405140376854393e-02 -5.7499592560651180e-01
    1.9475644822510543e-02 -6.3323956599009790e-01
    2.8329711885164127e-02 -4.4319415380734373e-01
    2.8264786633775334e-02 -3.9314784935755154e-01
    1.4002176725862994e-01 -1.4376750666582760e-01
    1.8611360197931946e-02 -1.0253747024194952e+00
    1.8547523620731317e-02 -9.9812135543889013e-01
    2.4497136393975088e-02 -6.2227904275428914e-01
    2.1996494943828639e-02 -7.1082592028603886e-01
    7.4061992575797306e-02 -3.8724132840999254e-01
    1.6512689463696044e-02 -1.2766229403238623e+00
    1.4968742628633269e-02 -1.1855514515492729e+00
    1.7907858917565616e-02 -8.5361382265217312e-01
    1.6378083079187963e-02 -1.0006017647823653e+00
    4.2880761112532848e-02 -4.5375432015025791e-01
    1.5207631155284505e-02 -1.1965306043272319e+00
    1.5705653046960127e-02 -1.1975243265170807e+00
    1.7304713841177159e-02 -8.9159474905586789e-01
    1.7445499376313893e-02 -8.4415299715993164e-01
    4.9192119380933201e-02 -3.4034210498523676e-01
    1.6114186479027393e-02 -1.3902536941800314e+00
    1.5778479414778036e-02 -1.0803786701191769e+00
    1.7923431458831983e-02 -9.3261250724334166e-01
    1.7334992438999851e-02 -8.6229595386402991e-01
    5.6631342052935039e-02 -3.2180921945944641e-01
    1.8534649071754252e-02 -1.3450424189455341e+00
    1.8089348075129498e-02 -9.3449690594085444e-01
    2.2788509062245232e-02 -6.6254660282416566e-01
    2.6226586039741592e-02 -5.9131556516625006e-01
    1.0468478850616171e-01 -2.3657638061675881e-01
    2.7740842671984713e-02 -5.9623026484193098e-01
    1.5986936052444063e-02 -8.9619402807128112e-01
    2.2717464328208457e-02 -6.6967315202336286e-01
    2.2868504266869337e-02 -5.5481761535681307e-01
    7.4255653516865971e-02 -2.9536551436806302e-01
    2.4401937944109272e-02 -6.0967564175624400e-01
    2.1259992157438241e-02 -8.1635036322364507e-01
    1.8335031785552430e-02 -8.4195260686871454e-01
    2.1088467517884256e-02 -7.6483515142630609e-01
    5.9147005463184549e-02 -2.8961274061693404e-01
    2.9851320373682721e-02 -5.4214366437593853e-01
    1.8739402534841194e-02 -7.3380283723508344e-01
    1.9626752077472446e-02 -8.3129730112375333e-01
    2.3082761237191218e-02 -6.9639519189938892e-01
    7.5415386885287206e-02 -2.7333145397968545e-01
    2.4015833293368566e-02 -5.8765876756679636e-01
    2.0528056888535005e-02 -6.4298810780222049e-01
    2.3799655512603598e-02 -8.3553243491723683e-01
    2.2879226958408563e-02 -8.1873130390589277e-01
    5.9286566240051061e-02 -3.1485522287597578e-01
    2.4023257180609641e-02 -5.5108102903855494e-01
    2.6939431975064689e-02 -5.5169665727104567e-01
    2.2651783276945284e-02 -8.0787550304031563e-01
    2.6319167163396020e-02 -6.6389240100023017e-01
    9.2657075937891617e-02 -2.3624910231603266e-01
    2.1575891956374216e-02 -7.7136359806701738e-01
    2.1575181365834823e-02 -1.8669287189976875e+00
    1.8864073607483677e-02 -1.8998864790074599e+00
    2.2175303958699513e-02 -2.0868858074618695e+00
    2.0106394766833315e-02 -9.2774040927954327e-01
    6.0685618148692826e-02 -2.2412355680538373e-01
    4.7541063998714529e-02 -4.6354399677050423e-01
    2.9583534191875458e-02 -6.3374636714067456e-01
    3.7453485586072782e-02 -5.3217597194154442e-01
    6.2671874296315877e-02 -2.6300002453665999e-01
    1.7084224528923539e-01 -1.9010708606447246e-01
    5.9382214363513194e-02 -4.8961968917806509e-01
    3.3231810771809284e-02 -6.5788394263972283e-01
    4.6105457490116408e-02 -5.1506788298506145e-01
    9.9028478679576995e-02 -2.5796863429619676e-01
    6.7034243811626454e-02 -3.3479840253940435e-01
    4.9757779105532758e-02 -5.8204768824291031e-01
    3.9299723194245545e-02 -6.5989541047212186e-01
    5.0722371051625734e-02 -4.9596282135059022e-01
    6.5418733025751005e-02 -3.4811474446372909e-01
    4.8273628887752745e-02 -4.3269599140785092e-01
    2.9961617007916976e-02 -8.1070718875570857e-01
    2.2168965259988748e-02 -9.4218826314932036e-01
    3.1166946088323755e-02 -6.1602260652704011e-01
    6.8886918723346430e-02 -3.7607204650796183e-01
    8.2543413079087469e-02 -2.0543063964718219e-01
    2.4984362344064447e-02 -3.9146132971275688e-01
    3.3710961203145054e-02 -4.6398814203370120e-01
    1.7412074906067294e-02 -6.5116074823029035e-01
    2.0552937605636156e-02 -5.7900092343960563e-01
    7.0795211191551272e-02 -2.1043956829392196e-01
    2.4565854434342404e-02 -5.9397033226119256e-01
    2.0505115883043247e-02 -6.3161369724510774e-01
    2.8528021552687025e-02 -5.5655212492088990e-01
    3.5380915847489709e-02 -4.6077374533625681e-01
    7.6839269636271620e-02 -2.6055516762201664e-01
    2.5325105864064754e-02 -6.4866257144636685e-01
    2.5433758086307625e-02 -6.5764509215566369e-01
    1.9765127429251860e-02 -5.8690112496884539e-01
    4.1990559551295978e-02 -3.7513114290293215e-01
    5.1860448530537347e-02 -3.8028915548443032e-01
    2.1987176490173385e-02 -8.2133430569971011e-01
    3.1394063655574872e-02 -6.4484050077560173e-01
    2.1422975638346262e-02 -4.8657940705139707e-01
    3.6298904055935714e-02 -4.1122109982979821e-01
    6.5061545472418006e-02 -3.4421151223776447e-01
    1.9327715316832209e-02 -8.2814489634861721e-01
    2.5780518837414203e-02 -6.6257907491348789e-01
    2.7285193314892205e-02 -4.1422499494037485e-01
    3.0519960491692973e-02 -3.6935939444950455e-01
    6.9704056884144217e-02 -3.1235714847414842e-01
    1.8929191548539021e-02 -7.2142267804975724e-01
    2.1507566617652536e-02 -6.7552975952115857e-01
    1.7418708496615760e-02 -9.2108490479286831e-01
    1.8829262723806910e-02 -1.2637164291986176e+00
    4.1341128425592670e-02 -4.2291152759571332e-01
    1.4836559367641822e-02 -1.0755928364379350e+00
    1.8453110191140074e-02 -9.5146835547845854e-01
    1.4929240760286478e-02 -1.0824840269138551e+00
    1.6667063196700197e-02 -1.2021646361312985e+00
    3.5878593725104775e-02 -4.5730067482148851e-01
    1.5452682944422527e-02 -1.0041415936870546e+00
    1.6657269287896542e-02 -8.8332829867146156e-01
    1.5349701673509384e-02 -1.1829362727933379e+00
    1.6917820670313558e-02 -9.5702021098553469e-01
    3.6530010607130611e-02 -4.9617681988511297e-01
    1.4802362749579074e-02 -1.0793125651344977e+00
    1.5697514966097181e-02 -8.1323738305113591e-01
    1.4809076899601582e-02 -1.1023991294453706e+00
    1.7060760721429858e-02 -9.8771984133078461e-01
    5.7040812599161099e-02 -3.8360435555889594e-01
    1.8115743718175155e-02 -7.5207768607826830e-01
    2.0616694183869220e-02 -6.4259647114724172e-01
    1.9561591806196394e-02 -9.7551623883261074e-01
    2.0825163415594927e-02 -8.4056591306316797e-01
    8.8187925127732922e-02 -2.2603094661144435e-01
    2.5047671180484288e-02 -7.5155427572631128e-01
    2.3227795815259664e-02 -8.4851286977214768e-01
    2.6274899418900606e-02 -5.6735212523723044e-01
    2.1628486360275801e-02 -5.8138409090150811e-01
    6.1203064187295493e-02 -3.3305751580652482e-01
    2.1029796818976453e-02 -8.7410150817905030e-01
    2.2441033996040270e-02 -8.8262099010964479e-01
    1.7272629801014738e-02 -7.5222504294647563e-01
    2.3491609653880870e-02 -6.7611217370543675e-01
    8.0411160822088656e-02 -3.3929971887815380e-01
    2.2186770426048844e-02 -7.8440978535241412e-01
    2.0404374436996487e-02 -8.7381482772691599e-01
    1.7967791227957920e-02 -8.2279816402172401e-01
    2.8384342234803465e-02 -5.6800228257715668e-01
    7.4656930229592591e-02 -3.1057386805238196e-01
    2.2891493986805959e-02 -7.3554829046464654e-01
    1.9215090731116796e-02 -7.2796176189267869e-01
    2.1967103514268085e-02 -7.8659404325135673e-01
    2.7629989937909188e-02 -5.9193598746253429e-01
    7.3989631924537294e-02 -2.9705165547671020e-01
    2.6421982456823374e-02 -5.3213028729466960e-01
    2.2208082769672923e-02 -6.6402275483645468e-01
    1.5176898409757528e-02 -8.7374267286029228e-01
    2.7617451048799375e-02 -5.6938828053434054e-01</input_scale>
  <output_scale>
    1.0526315789473684e+00 0. 1.0526315789473684e+00 0.
    1.0526315789473684e+00 0. 1.0526315789473684e+00 0.
    1.0526315789473684e+00 0. 1.0526315789473684e+00 0.
    1.0526315789473684e+00 0. 1.0526315789473684e+00 0.
    1.0526315789473684e+00 0. 1.0526315789473684e+00 0.
    1.0526315789473684e+00 0. 1.0526315789473684e+00 0.
    1.0526315789473684e+00 0. 1.0526315789473684e+00 0.
    1.0526315789473684e+00 0. 1.0526315789473684e+00 0.
    1.0526315789473684e+00 0. 1.0526315789473684e+00 0.
    1.0526315789473684e+00 0. 1.0526315789473684e+00 0.
    1.0526315789473684e+00 0. 1.0526315789473684e+00 0.
    1.0526315789473684e+00 0. 1.0526315789473684e+00 0.
    1.0526315789473684e+00 0. 1.0526315789473684e+00 0.
    1.0526315789473684e+00 0. 1.0526315789473684e+00 0.
    1.0526315789473684e+00 0. 1.0526315789473684e+00 0.
    1.0526315789473684e+00 0. 1.0526315789473684e+00 0.
    1.0526315789473684e+00 0. 1.0526315789473684e+00 0.
    1.0526315789473684e+00 0. 1.0526315789473684e+00 0.
    1.0526315789473684e+00 0. 1.0526315789473684e+00 0.
    1.0526315789473684e+00 0. 1.0526315789473684e+00 0.
    1.0526315789473684e+00 0. 1.0526315789473684e+00 0.
    1.0526315789473684e+00 0. 1.0526315789473684e+00 0.
    1.0526315789473684e+00 0. 1.0526315789473684e+00 0.
    1.0526315789473684e+00 0. 1.0526315789473684e+00 0.
    1.0526315789473684e+00 0. 1.0526315789473684e+00 0.
    1.0526315789473684e+00 0. 1.0526315789473684e+00 0.
    1.0526315789473684e+00 0. 1.0526315789473684e+00 0.
    1.0526315789473684e+00 0. 1.0526315789473684e+00 0.
    1.0526315789473684e+00 0. 1.0526315789473684e+00 0.
    1.0526315789473684e+00 0. 1.0526315789473684e+00 0.
    1.0526315789473684e+00 0. 1.0526315789473684e+00 0.</output_scale>
  <inv_output_scale>
    9.4999999999999996e-01 0. 9.4999999999999996e-01 0.
    9.4999999999999996e-01 0. 9.4999999999999996e-01 0.
    9.4999999999999996e-01 0. 9.4999999999999996e-01 0.
    9.4999999999999996e-01 0. 9.4999999999999996e-01 0.
    9.4999999999999996e-01 0. 9.4999999999999996e-01 0.
    9.4999999999999996e-01 0. 9.4999999999999996e-01 0.
    9.4999999999999996e-01 0. 9.4999999999999996e-01 0.
    9.4999999999999996e-01 0. 9.4999999999999996e-01 0.
    9.4999999999999996e-01 0. 9.4999999999999996e-01 0.
    9.4999999999999996e-01 0. 9.4999999999999996e-01 0.
    9.4999999999999996e-01 0. 9.4999999999999996e-01 0.
    9.4999999999999996e-01 0. 9.4999999999999996e-01 0.
    9.4999999999999996e-01 0. 9.4999999999999996e-01 0.
    9.4999999999999996e-01 0. 9.4999999999999996e-01 0.
    9.4999999999999996e-01 0. 9.4999999999999996e-01 0.
    9.4999999999999996e-01 0. 9.4999999999999996e-01 0.
    9.4999999999999996e-01 0. 9.4999999999999996e-01 0.
    9.4999999999999996e-01 0. 9.4999999999999996e-01 0.
    9.4999999999999996e-01 0. 9.4999999999999996e-01 0.
    9.4999999999999996e-01 0. 9.4999999999999996e-01 0.
    9.4999999999999996e-01 0. 9.4999999999999996e-01 0.
    9.4999999999999996e-01 0. 9.4999999999999996e-01 0.
    9.4999999999999996e-01 0. 9.4999999999999996e-01 0.
    9.4999999999999996e-01 0. 9.4999999999999996e-01 0.
    9.4999999999999996e-01 0. 9.4999999999999996e-01 0.
    9.4999999999999996e-01 0. 9.4999999999999996e-01 0.
    9.4999999999999996e-01 0. 9.4999999999999996e-01 0.
    9.4999999999999996e-01 0. 9.4999999999999996e-01 0.
    9.4999999999999996e-01 0. 9.4999999999999996e-01 0.
    9.4999999999999996e-01 0. 9.4999999999999996e-01 0.
    9.4999999999999996e-01 0. 9.4999999999999996e-01 0.</inv_output_scale>
  <weights>
    <_>
      7.3685545314432659e+00 -4.6125161731969067e-01
      2.5464898021196286e-01 1.6684352099899123e-02
      1.0979625441929751e-01 -3.0678119610275745e-01
      -3.5588233706318606e-01 -6.1333800670368713e-02
      -2.2426469232164264e-01 -2.5507844814734965e-01
      1.4134996835180649e-01 3.2776511421461402e-02
      6.5422954787010712e-02 -2.6577495712106031e-01
      -3.9783909114595617e-01 -3.6055035889728981e-01
      -1.4015303774974299e+00 -2.0420780903136510e-01
      -2.4602140428643307e-01 -3.2493548044390141e-01
      1.2438182343670995e-01 2.6621428840477640e-01
      -4.9529889863493448e-01 1.1243648420244644e-01
      -7.9073474027913065e-02 -3.3483653547923603e-01
      9.0151318499029874e-03 -4.8111421523487702e-01
      4.3759880865159911e-01 -5.4176330529256034e-01
      2.5814972701252387e-01 2.8085652976882963e-01
      -9.7805234108156713e-01 -6.3389333220853250e-01
      8.4188337876537156e-01 -8.5438351369813467e-02
      2.2106311747701474e-01 -1.3796253066295130e-02
      3.5795022566324913e-01 6.3231360421752758e-02
      -3.1084287822122081e-01 1.2855095595504462e-01
      1.6630377738008395e-01 1.7768495612908091e-02
      9.1285524442268798e-02 5.9434258763713610e-01
      2.0654396135653608e-01 6.5700947536468657e-02
      1.2072734335040783e-02 1.0730479783073642e-02
      3.8033258304424118e-02 -6.5488064242845978e-03
      -1.4623830773197444e-01 7.4276779854021202e-02
      3.4491124020464692e-01 -1.9571165356480600e-02
      -2.1117093133712986e-01 2.3039081920608315e-01
      -1.6555355598545066e-01 9.3339962086291889e-02
      -6.3622836583562504e-03 3.0239445487775418e-01
      1.8187355699677263e-01 5.3389722932328494e-03
      -1.7259299972445248e-02 -7.7793381414620089e-01
      -3.9896721549472429e-02 3.0658701797007704e-01
      4.4095564567891855e-02 2.0829366159353011e-01
      9.1090528367367071e-02 2.6149458434968204e-01
      2.1375536368744485e-01 2.9247479501963627e-02
      6.0313993705159719e-02 -1.6432041830622968e-01
      -9.2169875767212278e-02 -8.4736677569877294e-02
      -2.4632732045526642e-01 8.5143704137754267e-02
      -2.2340071627565977e-01 2.7224422610647125e-01
      -8.4738010291709034e-02 3.9721209052964662e-01
      4.8548375586858379e-02 -6.4637955821750706e-02
      5.0145982546839352e-01 4.5759940770071006e-01
      1.0270161798941503e-01 -3.3189608528105430e-02
      4.9130141770738256e-01 -4.0397249615925501e-01
      7.8600737962991596e-01 3.3183359205059471e-01
      1.8808739514110684e-01 1.4702237311208766e-01
      9.9563066022625857e-01 5.1605534106434559e-01
      -3.8455175841014522e-01 -1.8600996329748876e-01
      1.2105356409541521e+01 5.8134356287888334e-01
      3.5633554162640019e-01 -4.3385856622880570e-01
      -4.2801121482923102e-02 3.2139840836904776e-01
      -6.8518065934909456e-01 3.0509416834148528e-01
      -1.0516437961153001e-01 7.1422719236992116e-01
      -2.5210847087367017e-01 1.5771197291978212e-01
      -3.7489145830826970e-01 4.4686523186854915e-01
      6.7132650623396284e-01 -2.3040018660990164e-01
      -9.2706648504809544e-02 -8.9747641683165336e-01
      -6.5063571213174665e-01 -4.1329642546804790e-01
      -3.2374597821825143e-03 -3.3129138458883084e-01
      -7.9396012798828219e-01 -6.7417372316426055e-02
      7.4463442023716367e-02 4.3933201644646153e-01
      4.5991082777458731e-01 3.8839540585110610e-01
      1.3783977145346990e-01 5.3487129343322315e-01
      -5.3835128434604729e-01 2.9910964052749428e-01
      1.2326408341981896e+00 -1.2168174623257026e+00
      1.6768253288992474e-01 4.0498422501278591e-01
      1.1470467964345034e-01 -1.8878049619493353e-01
      -3.0425503143150051e-01 -1.7744642501439895e-01
      -4.0546617758585396e-01 -1.1830682154626975e+00
      -2.2946737064068037e-01 -8.0307129653720791e-02
      -8.0573614342547206e-01 -4.8641892767208911e-01
      -7.8141605909977963e-01 4.5502793929527725e-02
      4.6941616696538618e-01 3.3219812966231910e-01
      2.2418469095145521e-01 -4.1643387870367393e-01
      5.0506023157841015e-02 -2.2403892609837744e-01
      1.1298465461654124e-02 -5.0736951430212666e-02
      -4.2424075782946616e-02 -8.2064996431369913e-02
      1.5200940731228066e-01 -7.5488623930941412e-01
      3.1079831865843105e-01 4.3336818169613406e-01
      -9.8068670670772495e-01 -3.2520733259353243e-02
      8.6721209830048593e-02 3.9087618548720654e-01
      -6.0634113912154941e-01 -6.4786271251654495e-02
      -1.9759347218702633e-01 -4.9718739025716435e-01
      -2.2339353687225791e-01 -7.0297067612147013e-01
      2.5699912501152927e-01 -9.1947874952817155e-01
      6.1833936204035578e-01 -4.8697136861896702e-02
      -1.0425467428392751e-01 2.2002444885427000e-01
      -1.0924385832702126e-01 2.4150287051847438e-01
      -3.8079785884769213e-01 -2.4011183610079170e-01
      -7.2037830683939347e-02 3.8141973153063648e-02
      -8.3624388474048808e-02 5.8926363556693628e-01
      4.2814648510401471e-01 1.5441311840159844e-01
      3.5640873639738768e-01 -2.4289788199748547e-02
      8.7636368962375519e-02 -4.6138263190984008e-01
      -1.9692394457644721e-01 2.2262364173345356e-01
      6.7971517753883037e-01 5.0053589426261069e-01
      1.0860837656340766e-02 1.8855022967174209e-01
      3.8679504595140235e-01 7.9410915120791115e-01
      1.5148855959784220e+00 5.5965563119590311e-01
      2.4991769943245176e-01 4.0812695562600193e-01
      -1.0296359664294044e+00 -2.1670372625451287e-01
      2.5939696315231153e-01 -2.6291563445128430e-01
      4.8649025590510347e-01 -2.0961922801238561e-01
      -1.0168808194061808e-02 8.4769601290924490e-01
      -8.6697725313325658e-01 3.2358494296623347e-01
      5.7722209901392274e-01 2.1178098387674982e-02
      -4.6674772805499970e-01 -2.1618093660625437e-01
      -6.4853337609594475e-01 -3.6234741953797361e-01
      -9.8502103042823863e-02 -1.7365189458291233e-01
      -5.5694840182466043e-03 -2.0583634622602695e-01
      9.7027262348141230e-01 1.6577273045349919e-01
      6.3081694135551247e-01 -5.7114352944679514e-01
      -3.2170139388660784e-01 -1.1145587720152005e-01
      2.6977517443348442e-01 -1.1480092323398572e-01
      8.1739423398799060e-01 2.8833771991427853e-01
      2.3597139677777285e-01 8.4849910435029141e-01
      -4.5186495680079664e-01 2.3387813691891197e+00
      2.3195081345146532e-01 -1.3206007100876588e-01
      2.7124378253236525e+00 -5.6393517963342443e-01
      -5.9513614052443387e-01 1.6279176253913777e-01
      -8.0541791730721191e-01 1.4051252386979612e-02
      4.6422068022144547e-02 3.1592779389159725e-01
      6.8954406657802969e-01 -1.2592831182263303e-01
      9.2818817944320398e-02 5.0680468231175990e-01
      -5.7451053402242755e-02 -3.8553024649574591e-01
      -9.3643182495148580e-01 1.1916544446066586e-01
      -1.2215922821021230e+00 -8.3647786610024633e-01
      -4.0575910552323807e-01 4.9519777208418730e-01
      1.1730421778392479e-01 1.0983498091444975e-01
      8.1103705140342250e-02 -5.9568056785574941e-01
      -1.0887614540304038e+00 -1.6012043207558138e+00
      3.2139343168659337e-02 2.1497745736857801e-01
      -2.4865692662030583e-01 8.1301194517210040e-01
      2.8006525290863354e-01 1.5516493100311249e-01
      -4.4332258267096653e-01 3.5868035777623036e-01
      2.6792346957558749e-01 -3.4845721441524513e-01
      -1.7711005425214599e-01 9.1669103962377918e-01
      1.5171126538593982e-01 3.4594100703102343e-01
      -3.5417313999574307e-01 -4.0290686020777050e-01
      4.8813059064194836e-01 -7.4799083286540113e-01
      -1.3809051017001006e-01 1.3789060011605969e+00
      -5.5690274336623567e-02 1.1857163591776414e+00
      -8.0084649091093174e-01 4.2097070360411082e-01
      -6.4654842017663222e-02 -2.8703038615904425e-01
      -1.3453214564261978e-01 -1.0240911224889505e-01
      2.6489017546221898e-02 -3.5523126029525942e-01
      -7.6347508005160836e-01 -3.7935888123049416e-01
      1.4060760121332416e+00 -1.1129878311224828e+00
      6.2834175985455003e+00 -5.8790131072178217e-02
      -3.2599844836709541e-01 4.3800226348258925e-01
      -2.3729921130241891e-01 -1.2072527519328453e-01
      1.9547919603620956e+00 -8.2769710165882054e-02
      -4.7706882853645649e-01 8.8445361627385713e-02
      3.1632366831034436e-01 -4.0205255840429038e-01
      -1.5355476038430699e-01 -2.4481137931602140e-01
      1.0700798686949599e-01 -2.3930639037353141e-02
      -6.0037723867070188e-02 3.0553997823837487e-01
      3.7209314564954077e-01 -4.0809639400079095e-01
      1.0820540182273140e-01 1.2795034759168024e-02
      -2.0339546456907168e-01 -7.1348759494630509e-01
      -6.3952460973912190e-02 1.2477047454072240e-01
      -1.2722996488394281e-01 1.0807540547521035e+00
      -1.3891586678721737e-01 6.3837917188459339e-02
      2.1765145830850371e-02 8.7223257841275281e-01
      1.9438766004422077e+00 1.0353357444554303e+00
      -1.5165737517207514e+00 3.8708768993784037e-01
      -4.1385370236484426e-01 -4.3698015686532460e-01
      -6.4253550642812921e-02 9.6654700241395927e-02
      1.0759836751849837e-01 -7.0295428614827987e-02
      -4.0726866892815655e-01 1.7993747602367674e-01
      -7.7051099822365232e-01 7.9931087853314917e-02
      9.6716655421758324e-01 -3.2845153550920830e-01
      -1.6524009805061884e-01 2.8279923812079261e-01
      -4.9636085587801226e-01 -1.7177353715259081e-01
      1.2729286829971434e-01 6.3188011819004142e-01
      -9.6415403642951181e-01 -1.1960668950509883e-01
      1.0210533124897505e+00 4.6445342364231423e-02
      5.3664138056454765e-02 4.7644894477602129e-01
      -2.7952534255470202e-01 4.7254098526186721e-02
      7.2907868863003200e-01 1.9934634845645341e-01
      1.2396730368141540e-01 9.3732565412991942e-01
      6.3484039714779367e-02 -2.2700298584214726e-01
      3.2611174301785939e-01 6.2546356930660119e-01
      -4.3227288730843683e-01 7.1361368872689357e-01
      -3.4232597429302869e-01 -7.2582325911750978e-01
      3.5017712096640724e-01 -8.0798505957108385e-02
      1.9007060529509182e-01 5.6758282209821043e-01
      -2.2094222076647507e-01 3.0002471715719442e-01
      2.2733629282971032e-01 1.0256829339582260e-01
      5.9528175932901195e-01 1.0627966404372706e+00
      -1.4543788499115387e-01 6.0105151151766090e-01
      -1.5311003126826350e-01 -1.1890068977674211e+00
      -9.9023897668655186e-02 -6.9317626259457965e-01
      1.9968750506861299e-01 2.6733441864544211e-01
      -4.2654214469498236e-01 4.0730914930623963e-01
      2.7007122796345545e-01 -4.0954273345714237e-01
      -3.1858981000535169e-01 -5.2881896589853516e-01
      -2.8080743702802113e-01 9.4892908455603386e-01
      9.1034176035568350e+00 -2.2735628866677512e-02
      3.0611914056260137e-01 -4.9928167889168917e-01
      7.9389184250585787e-01 1.4361814157985631e-01
      3.7200252341103685e-01 3.6345366353757236e-01
      -7.2409158921908023e-01 -6.3796922935860381e-02
      -3.0555076420445509e-01 -1.4756344580240099e-01
      7.6928611287202420e-01 -1.0049314029433087e+00
      -8.9380498426483879e-02 -4.5464077394003981e-02
      -6.7138425349089059e-01 3.6410041428499469e-02
      2.3020466865903674e-01 -3.9559738514997433e-01
      -2.7834970148539179e-01 2.8928900975697152e-02
      -1.0237746728346717e-01 5.8956350626576148e-01
      -1.1812000588655025e-01 -6.4106303664387548e-02
      -4.7372744713867754e-01 -2.5557867152592362e-01
      -5.5598271612126815e-01 6.1803792028474158e-01
      2.8881834714727245e-01 3.7307820811601922e-01
      -2.5951605831012494e-02 -9.4244107369269547e-01
      4.1848979382853740e-01 -7.0134547164091010e-01
      4.0181580627250124e-01 2.8524264523018883e-01
      -7.7173517551670373e-02 -8.2890774037575066e-01
      -4.7340682534300932e-01 -2.7376524414832837e-01
      7.1494581442512140e-01 -7.5953048591474975e-02
      -1.6821137175548131e-03 2.9985789640171312e-01
      -4.1532369587235517e-02 -4.5854072958530494e-02
      -1.5752451728231107e-01 -2.9888561793924573e-02
      5.5568214563591393e-02 -1.2219556730439741e-01
      3.2824157929656944e-01 -9.0336042328893626e-02
      6.4320324502546725e-02 4.8037168322667895e-01
      9.8862871923456330e-01 8.1624427498266228e-01
      3.3920430508631499e-01 -3.1582723763439968e-01
      -9.5022496783772323e-02 5.6040360530300770e-01
      4.7767126827020456e-01 -1.9724747898198555e-01
      5.1023270120747734e-02 6.5030774584267448e-01
      -2.4418299322540490e-01 -9.3712700418114844e-02
      -2.5570345929555249e-01 -2.4082758136871441e-01
      3.1688319207350130e-01 4.6747264276384581e-01
      -3.5197065801181350e-02 -4.3825596235737357e-01
      -1.8052334712357265e-01 -5.9327317575250435e-02
      5.8724908109823448e-01 -8.6664424967017972e-01
      1.6939729007910578e+00 2.4226888530474960e-01
      -1.0594079343849194e+00 5.2217572548881397e-01
      2.2567088685013087e-01 8.8638270483798853e-01
      6.4658588507763970e-01 -5.4641178141618996e-01
      3.8617466549034432e-03 -6.1327106081340843e-01
      2.9334681808221702e-01 1.5037771483331402e-01
      2.5914137815674704e-01 -5.7654911708392853e-01
      -2.8312882452618909e-01 8.3888822820303866e-01
      -2.2655259322381713e-01 -1.8593107353539525e-02
      7.1994337875355241e-01 2.0806083223933292e-01
      -4.7462811747565053e-01 -2.0533405726963583e-01
      7.0289010258878450e+00 1.2225101040826584e-01
      1.3863431570389370e-01 1.3893745580939043e-01
      1.8240284265869286e-01 7.8457901940878885e-02
      -9.0776390121194733e-02 -3.2691057776268906e-02
      3.2362292125373011e-02 -3.6172407925986821e-01
      -2.8322197435206786e-01 1.4234634461393314e-01
      -4.6895212908905526e-01 2.6338495201312118e-01
      4.3061012092974021e-01 -2.4441553278024292e-01
      -2.4158882452847852e+00 -3.3080992135194004e-01
      1.1781960737301682e+00 -3.5042213870930278e-01
      2.9332212482778369e-01 3.3585416439560319e-02
      -4.9729159383909000e-01 1.9833909074290532e-01
      3.3612571270420838e-01 -1.7803236337740411e-01
      3.4801741681625997e-03 1.8301954278227481e-02
      -6.0264142737366348e-02 -2.0300440758492999e-01
      -5.4034737451794178e-02 7.6670353035018790e-01
      -1.4682543061954625e-01 -6.8595141945571958e-01
      2.0811675766873033e-01 4.0945460790116039e-01
      2.8529790070719258e-01 3.4610626870453748e-01
      7.3018574135174130e-01 1.0544772339154675e-01
      -4.3942864738692750e-01 -4.0355496766492466e-01
      4.6986067539361920e-01 -2.9798091787169567e-01
      2.3944030738425495e-01 -1.4435118672664660e-01
      -3.7692246466443824e-01 -6.4116681476912449e-02
      -6.6883152322436704e-02 7.2696917699194272e-02
      -3.4427657148142519e-02 4.8734486419803685e-02
      6.2986255879593545e-01 7.9570910066049660e-01
      3.1234039192532426e-01 1.0236142034956594e-01
      6.0625193036048364e-01 5.7946782926439289e-01
      1.0271646603825087e-01 -3.6854638428756115e-01
      1.6412334973387663e-01 4.2264596472365179e-01
      -2.1564955946834188e-01 -1.3414087571861841e-01
      2.8249532666094856e-01 8.0555632048414294e-01
      -1.3707107765481749e-01 -2.0364353373199517e-01
      -2.9166240284312711e-01 4.2684381946567623e-02
      -2.5581734055764773e-02 8.4178212935854912e-01
      1.5403794312695057e-01 -1.4118142196190164e+00
      -4.0573037199307299e-01 9.7528162450148850e-02
      1.5968183741614023e-01 -2.1137189649908583e-01
      -1.6309672419251978e-02 1.5652573290326754e-01
      4.9471722937360640e-01 4.5142031641004732e-01
      1.7411090241363669e-01 -1.0873079454835700e-01
      2.6747156999355991e-02 1.7166649272926443e-01
      -7.6491912270180940e-01 8.0694355310251209e-01
      1.0626142630307736e-01 -1.2281133566227428e-01
      -1.3144051434397619e-01 -3.3916011003853802e-01
      -2.1881384351122476e-01 2.9092200026150478e-01
      5.1797701325603651e-01 3.1232342820617642e-01
      9.2375726248632950e-01 3.4307189610858746e-01
      -4.1683385862867334e-01 -1.7442095266387414e-01
      9.8926424891405649e+00 6.3440071630090089e-01
      1.6661210677091362e-01 7.1576810371385510e-02
      -3.1792802431089606e-01 -3.0354033649656098e-01
      1.5773086740056137e+00 3.7305679681047293e-01
      4.8544086631670402e-01 -3.4807964296232796e-01
      3.2830487872800251e-01 5.1602600724383385e-01
      4.5964155773453153e-01 3.0259391793227119e-01
      -6.9151428365557210e-02 -7.9257264807916139e-01
      -7.2585723774070576e-02 -7.1033285780077027e-01
      -5.9879961861084774e-01 -2.7345691493450511e-03
      -3.7262679003340093e-01 3.6924933687290329e-01
      -1.0799401447999517e+00 -1.0607949180154913e-01
      5.9727257865955330e-01 4.4046068900512120e-01
      -7.6531200168546316e-03 -1.1994348001112813e+00
      -4.5934075180206685e-01 1.1350479667185968e-02
      -3.7444943850465368e-01 1.5607387986673091e+00
      -5.4221682398642967e-01 -1.6320059754669063e+00
      2.1617118938489344e+00 -1.4671736876685137e-03
      2.0922260634974210e-01 4.4132487722414526e-01
      3.1807533384083614e-01 -6.3008652750875679e-02
      -4.8280596151340310e-01 -1.7715667998221420e+00
      1.2707309607457897e+00 -8.5564517077118407e-01
      -3.3407530348178299e-01 -6.0327850631266133e-01
      8.6172265219658806e-01 2.4880036851454151e-01
      -1.7986885172649428e-01 1.7896840442205078e-01
      1.6438370626083647e-02 7.4348725916449726e-02
      3.2478276632969710e-01 3.4266654590507201e-01
      -7.0348196654149786e-01 -5.5081127745099301e-01
      6.5594972812931052e-01 4.6572457201694661e-01
      -1.2424754626548126e-02 -1.0961916324146173e+00
      -4.6845781222578015e-01 1.1681497106949388e+00
      -5.2709539487507107e-01 4.5965651380657385e-01
      -2.6645053469630320e-01 -5.5585841771349731e-02
      -7.8668744936686896e-01 -1.6340350974324619e-01
      -6.0549404884124136e-01 -7.4108551464455674e-01
      2.8244014229194769e-01 -4.4848085117916636e-01
      1.2823812626633405e-01 7.8783344699498603e-01
      8.7267484026530773e-01 3.0445137145496587e-01
      -3.1618176040768650e-02 2.6247836854516676e-01
      5.2933345159651768e-01 4.0803724795425822e-01
      -8.8145216917888247e-01 -1.1050738448147757e+00
      -3.5034018510280873e-01 -4.0534878213633890e-01
      5.2759567968608811e-01 -1.5264843219583626e-01
      1.7616868111688375e-01 2.3641859619988576e-01
      9.4717782106100989e-01 -1.3958190076143071e-01
      6.3750265294452535e-01 -2.5407637537748684e-01
      7.0226553457814067e-01 7.3671591938470615e-01
      5.2570869189707792e-01 -5.6965939111995745e-01
      -2.4983746769997525e-01 -5.9595165945838402e-01
      4.6945384924255262e-01 1.7789020103652406e-01
      6.3159197339419615e+00 3.1344451082430475e-01
      4.6560432525371154e-01 -3.3874069214922559e-02
      2.3100576663648989e-01 5.8789138426770404e-01
      -2.0874063020741454e-01 -2.8188915588253816e-01
      6.8141871772048834e-01 1.4435727459146189e-01
      -1.9938701172468973e-01 8.0104692820846524e-01
      -2.9130208581363798e-01 1.0265020236536238e+00
      3.4755529263105978e-01 -1.7336411621544111e-02
      -2.1198365183436318e-01 4.6008296991881370e-01
      1.0889539851634196e-01 -7.5871239206215835e-01
      2.2705555048326800e-01 1.3151532217890424e-01
      -7.5946167998558300e-01 1.5946620976905856e-01
      1.7136416079385863e-01 3.7411908128379939e-01
      6.0895214096668260e-01 3.1468262769814587e-01
      3.3882782103630861e-02 1.2443878051608812e+00
      7.9733463477665328e-02 -1.2626515839520255e-01
      -1.9365576384234764e+00 -8.7994547688592925e-02
      8.9588248244181490e-01 4.0786561588159487e-01
      -4.9096323202318881e-01 4.1188819918175085e-01
      -3.0253702880919997e-01 1.7814965529920184e+00
      1.1876783753251101e-01 -9.8183901169254861e-01
      -3.7988433225950236e-01 2.8510449244606367e-01
      6.9022905081041130e-01 7.1569955636955881e-02
      4.0446217594836398e-01 -5.0207597243865865e-01
      -2.0286656074971321e-01 -5.6687211846841723e-01
      -5.1513913641646747e-01 -9.0812922164048526e-01
      2.1095658547121116e-01 -4.5126422928037196e-01
      -3.8774743101936870e-01 4.2943631898026596e-01
      6.7721680381250954e-02 -6.9613365223535217e-01
      -5.7390557451947644e-01 6.0753886626890319e-01
      -1.2474192074875166e-01 -1.2854703138998858e-01
      -1.1823745160233585e+00 4.0028945466934857e-01
      -4.9255255347519639e-01 -4.2945684247453181e-01
      -4.0419775896408328e-01 -1.2575316805335404e-01
      -4.9026940254719563e-02 1.0632009306477634e-01
      -1.4093710742639226e-01 2.2868189773658294e+00
      -2.9379388762531788e-01 1.5083500866509805e-01
      -3.4309735805331942e-01 -6.8334751367554092e-01
      -1.2279481862011291e-01 6.1899107522334529e-01
      -3.5444513194520882e-01 -4.3571247618803453e-02
      1.6687141831378555e-01 -7.1952556305241344e-01
      -2.2609079329845852e-01 2.8916021431826011e-01
      -2.9480901970396939e-01 1.2806875459317335e+00
      2.7328523586095566e-01 1.0204764609367689e+00
      -3.5567501734524110e-01 -1.6032546154802321e-01
      -2.0002814584526177e-01 -7.8815147897992976e-01
      -4.3249635349622839e-01 -7.2448752506538294e-01
      4.9670118658190299e-01 3.4990622625700124e-01
      9.7175693806727337e-01 4.4084395156432399e-01
      -5.9515463832258919e-01 -9.0084105944377546e-01
      9.4030569570461076e+00 4.4484124114854146e-01
      4.2938180194523293e-02 -1.4066728946120208e-03
      3.5758823151840097e-01 -3.3013795591832379e-01
      1.9673343071956515e+00 3.4252731380436285e-01
      -2.3189227323812207e+00 9.1025729268326958e-02
      -1.8377314711517333e-02 -9.3862500515639014e-01
      1.0559118939008758e+00 2.6690875122920926e-01
      -3.2755588936974706e-01 5.2362688589481121e-01
      -1.3864166700036407e-01 -5.0240813446786825e-01
      -3.6113216217539063e-01 6.1568278921141462e-01
      -1.8992467748418962e-01 -8.1780933871684378e-02
      2.1537168951895093e-02 -3.8305048119238805e-01
      1.4412933627671815e-01 4.3464313235484420e-01
      -1.4256650853651873e-01 -8.1101062436959720e-02
      -5.1853041578691153e-02 6.6411425466725005e-01
      -1.4801305285663549e-01 -5.3706201228285788e-01
      1.6603000819925709e-01 5.7917434195907480e-01
      -1.0275913045884584e+00 1.7833170581275709e-01
      3.0053395652727338e-01 -4.3742916763690487e-01
      8.6032963777993365e-01 -6.8578875253773597e-01
      -1.6517804397198052e-01 2.3070277398128045e-01
      7.6605870275640475e-02 7.3071632685700483e-01
      -4.3076643159947309e-01 1.1743450790168977e-01
      -5.5160702984085053e-01 -5.5430154710362389e-01
      -2.4607943488787018e-01 7.9578084460754572e-01
      -3.5389295492366329e-01 4.2555706936714255e-01
      -5.6405789853911625e-01 9.9033738045443620e-01
      7.6253820014734019e-01 1.6231346872222996e-01
      -6.9265023802674308e-01 1.0296374547907201e+00
      -1.1955667556709904e-01 -2.1824827578099765e-01
      -1.5955992682258546e-01 2.7539974989380694e-01
      -3.8145831460313578e-01 7.5759723025433656e-01
      1.7364851324479930e-01 1.1801245557884630e+00
      3.3873075303748201e-01 -6.7993764450545321e-02
      5.1621937994405254e-01 -2.0635197464553406e-01
      9.7930121417149130e-02 1.3953799492998973e+00
      8.0778069205713088e-01 -3.4351813758858751e-01
      -5.7914488036458156e-01 -1.6186231387537908e-01
      1.0162550155130246e+00 -2.3571784481641572e-01
      6.0042400566621723e-01 6.1606958412638224e-01
      7.5330173655726265e-02 -6.5830245765144257e-01
      1.2203369172529239e+00 -3.8205683684462599e-01
      2.1666591379463829e-01 1.2174228565933017e-01
      -6.1055452091097939e-01 -1.2582578818634691e+00
      7.4102681670312409e-01 1.1815580757848945e+00
      -2.7634261560483969e-01 9.3593742529413423e-02
      3.9771518332139061e-01 1.5539537581315368e+00
      -7.6430892846697873e-01 -4.3571497099811574e-01
      -1.4700521923143642e-01 1.7777398766504640e-01
      -5.8334326111187174e-01 -8.0955402264728493e-01
      8.8369187910983733e+00 1.0666911305933859e-02
      -5.3238222171129190e-01 4.0702114632057135e-01
      1.0948845133384730e-01 -2.3399073708142434e-01
      4.1546775227155025e-01 -7.7551502948011816e-02
      -1.1569923790835414e-01 -2.2621943578594875e-01
      7.7456999792807360e-02 7.6503833810601968e-02
      -2.4991955019927470e-01 5.6488962105575757e-01
      1.3590176717604913e-01 -1.1858181334970369e-01
      3.0453865440902084e-01 -9.2638064120539113e-02
      2.1788658123642260e-01 2.3576499896448801e-02
      8.7703400186381286e-01 -1.8077428549727426e-01
      -1.1249485456932031e+00 4.1464005741881821e-01
      -5.1152667465161972e-01 -2.6232730986764924e-01
      5.2497084172599340e-01 6.3344840181716344e-01
      -2.0810774226071721e-01 8.5954352121810518e-02
      -1.6247434282347339e-01 -6.3723040066113679e-01
      -2.4662154642200987e-01 -3.0574809063541186e-01
      -4.4948774923793750e-01 8.8105293953528285e-01
      -9.7024649793018294e-02 -4.0774569749821488e-01
      -5.7957165784965525e-01 2.3640198773459650e-01
      4.8396270224306981e-01 2.0939429363620621e-01
      -4.2402976234213885e-01 1.6915126812901810e-01
      4.1881673015917337e-01 -2.5548622485054995e-01
      5.7249115157438657e-01 4.5055312137438358e-01
      -4.2837017991032156e-01 -3.1257887169643406e-01
      5.1094947339636509e-01 1.1595299648482489e+00
      -1.8325971194786669e-02 -2.3350297715416430e-02
      1.8006458087162794e-01 1.6740135031288972e-01
      -5.8255039604062109e-01 -7.4395996826286048e-01
      -5.3772888375135587e-02 6.4537962587808088e-03
      1.4265331180186455e-01 -8.2816952654785314e-01
      -4.3309584012473434e-01 -3.6847479125326654e-01
      1.5582184407377478e-01 -1.2887749616518849e+00
      7.5808200435214423e-01 9.3157110947765287e-01
      5.2581865581079501e-01 4.0728619528139443e-01
      -2.1590433984314050e-02 -1.0276418993253151e+00
      -4.3532587955771679e-01 -4.0028884574278362e-01
      5.6450160195736299e-01 -1.2762930218070609e-01
      -9.9987105029030049e-02 1.4413180501191284e-02
      -2.1148932867518974e-01 7.6949040480908082e-01
      -4.0877883697947559e-01 1.0411108059444543e+00
      1.6494795776092605e-01 3.5631652117967555e-01
      -4.4569009534686183e-01 7.0443396209140963e-01
      1.0421188518818656e+00 -1.6846084549119386e-01
      -6.0313397193461493e-01 -8.4975094717584868e-02
      -9.8658782303692794e-02 2.0257730229939940e-02
      2.9340665093865213e-02 -6.3433907443937865e-01
      1.3274770022742663e-01 3.2712969103420156e-02
      -1.5398126902875936e-01 -8.8327855067221503e-02
      1.4346881245578558e+00 2.1762710532859891e-01
      1.1648410074644826e+00 -6.4495618093768012e-02
      2.8143410013908199e-01 4.5753262641181819e-01
      2.3948286175423239e-01 2.8633442442388368e-01
      5.1490177108509860e-01 1.5008774168918962e-01
      2.0391934351777530e-01 5.5159925098206913e-02
      2.0029253423757803e-01 -7.7383764544206951e-02
      -4.3932057431009119e-01 -2.1026338460520558e-01
      6.9902637991049524e-02 -4.9441757779920475e-01
      5.3618856432683693e-01 1.5930980515191542e-01
      -5.0367543944643189e-01 -4.5076481886680141e-02
      -6.2831226144152985e-01 -4.3252969710975350e-02
      6.3743388601510376e-01 -1.1611294869955564e-01
      2.8138225400452632e-01 1.7694352393600069e-01
      -1.3613542011583188e-01 -2.2388263772912423e-01
      -3.0219795800692911e-01 -6.9602887251390422e-01
      -1.7077127117154198e-01 6.8521867986331320e-01
      -2.2124219657534416e-01 1.4802603348309418e-01
      2.3937416661579136e-01 -2.0976865251754023e-01
      3.0239462540045114e-01 -8.4934733519769229e-03
      -5.9011518864038470e-01 -2.7056302731976561e-01
      -2.9279983459380043e-01 9.9299194143186620e-01
      -4.5264563956344367e-01 -7.7146292868192046e-01
      3.0711158051176568e-01 -7.4825684554138827e-01
      3.5589097887434844e-03 3.2741402722953762e-02
      -1.6086848061340639e-01 -1.8414280029182613e-02
      -4.1743315062724246e-01 -1.7031069726456030e-01
      4.5883263757172260e-01 -6.2387319763841965e-02
      -4.8686580023403930e-01 -7.7711542872729311e-01
      1.1166329075590023e-02 -1.6265107021884032e-01
      -1.4998980414631993e-01 2.8751428403783080e-01
      -1.9424508002649785e-01 1.5227857751536683e-01
      1.6108382070343438e-01 -1.9703404480485076e-01
      2.2369379487601640e-01 1.5343652248371098e-01
      -4.1151625362308447e-01 3.8411897985673078e-03
      -2.5628484456366396e-01 -1.5186691775864649e-02
      -1.2649834896838411e-01 -1.5684050035802741e-01
      -7.0074149953567422e-01 2.4771000131744333e-01
      -1.7336610853190909e-01 -1.1863201499323950e-01
      2.4642702509648914e-01 7.6463233909820139e-01
      -2.2692779040764730e-01 4.9624896562047945e-02
      -2.5074849388534171e-01 -2.6151750021287584e-01
      1.3324947849964353e-01 -9.8675512278172187e-03
      4.4352508261780993e-01 1.6815499594216651e-01
      -1.4314802333756401e-02 -3.8568320836286873e-01
      6.1331219252468518e-02 -1.1942847612582679e-01
      4.7299063297813337e-01 -3.1371271500539399e-01
      1.0109225847896053e-01 5.1169656885617490e-02
      2.0186021426020384e-01 -3.3088907280445540e-01
      -3.7203024785585503e-01 -1.4517424152932584e-01
      4.8051601151546497e-01 -3.4529223363841849e-01
      1.6513237296187303e-01 -3.0979768979267264e-01
      -5.0152557814046117e-01 7.0060566293847371e-01
      -1.2584360565347741e-01 -2.6585893159941787e-01
      -1.7491119488307204e-03 2.4173982865310098e-01
      -6.8091744911868268e-01 6.8592502079708557e-03
      2.2455202260566171e-01 -3.1140233935146716e-01
      -5.6661842838964172e-01 4.2069181445932197e-01
      6.6302402379572273e-02 -4.2995212543564665e-01
      1.1765804544406009e+00 4.5704764813747395e-01
      2.8859477396624650e-01 -1.7859625646265234e-01
      -2.5220441234140290e-02 -8.5600350556565050e-02
      6.6401271563114017e-01 -4.0448500701745821e-01
      -3.3259287533677689e-01 1.3250295973838155e-01
      5.8600408197278164e-01 6.7936877328493961e-01
      -2.7911066963997744e-01 -2.4720800484303088e-01
      -1.6193296671724794e-01 -2.5306500532489135e-01
      -2.8916179440639767e-01 7.4724105358100212e-01
      -7.0073685537011499e-01 -1.1216435131120142e-01
      -6.5680518895674234e-01 -5.3534112950312218e-01
      5.0274429500525797e-01 3.7904698243683671e-01
      4.9664360448601402e-01 2.9703811994954843e-01
      -3.1162052870005286e-01 -1.5992605895700956e-01
      -1.2126033723382347e-01 -3.5808680327917353e-01
      -7.5504640675288337e-02 2.2313216907883879e-01
      -2.3703791858110687e-01 -2.5321965098631721e-01
      -2.1913390252077961e-01 -2.6443602943916394e-01
      2.6890242938727366e-01 5.3393517433606194e-02
      -8.4930516919327081e-01 -3.2150378037880284e-01
      -9.0649496579751521e-01 3.0686387577484470e-01
      2.5218504243005718e-01 8.2729121021060548e-01
      -2.3693219847779415e-01 7.1013385612746360e-01
      -9.9288576913554394e-01 6.4221866976183783e-01
      -3.9561905336835934e-01 8.0118664872228007e-01
      4.7874479457712282e-02 -5.5879436758440509e-02
      -6.9065632593754744e-01 3.1224561964358777e-01
      5.0018975932585030e-01 7.1488514449976426e-01
      -8.5037646811001455e-01 2.5524587979325063e-02
      -7.4045611059609862e-01 -7.8290211922622033e-02
      3.3157307673755926e-01 -8.2012723048315106e-01
      -3.8899655077720591e-01 -3.5581188695301524e-01
      -2.6839477322546068e-01 8.5218500312583434e-02
      -2.9751184776205875e-01 3.4432630950622700e-01
      -4.3767495771261644e-01 8.7339816207541077e-01
      -8.5552900790789099e-01 -2.3903997805813196e-01
      -5.8312542828961489e-01 -5.9603546789878126e-01
      7.1487956013485099e-01 -2.8379628023755665e-01
      -2.9498355877049215e-01 2.8486829062141245e-01
      2.1061564439745406e-01 1.0178219437905420e-01
      -4.8000693827128810e-01 1.5983975928784330e-01
      -3.6912111483410337e-01 -2.2512273892011206e-01
      6.3025116826152763e+00 4.5508837378034878e-01
      -4.6973108126176333e-01 -1.1313808386644586e+00
      -9.9389104580722398e-01 1.0163670167705074e+00
      -2.0957050090136398e-01 3.8252911648333769e-02
      3.3343366698052057e-01 6.2048026204584195e-01
      -1.4784762442266267e-01 5.8534362410084806e-01
      -5.6372106029595059e-01 4.6856086692345317e-01
      4.1031383350599210e-01 -2.4589617953061085e-01
      8.5953185263852072e-01 2.0973758661675823e-01
      8.5790056771045553e-01 1.7461683378512524e-01
      9.0158416288118673e-02 4.4148318567538247e-01
      -3.3853926900307579e-01 2.6545670855107350e-02
      -2.7410314908748790e-01 3.2958619025804919e-01
      5.5876849244453308e-01 7.5820323767121200e-01
      -7.9429346173995385e-01 -4.5185648649608584e-01
      3.5324268375154144e-01 3.0307459786490165e-01
      4.4204095865182458e-01 1.2778845755608026e-01
      -3.9302086393090123e-02 8.0706039182179654e-02
      4.9038268400964535e-02 -1.2802275011960598e+00
      4.2003671785504459e-01 4.1663104986506855e-01
      1.2031568670336838e-01 3.1095292585803697e-01
      -4.7017690287545710e-01 -5.2391936119581706e-02
      -3.2369941425437077e-01 4.5705609046650741e-01
      3.4203822987871134e-02 4.4823744217052913e-01
      2.7777214183598375e-01 1.0353458927107985e-01
      2.5166042909611486e-01 1.1290306940643721e-01
      6.5317963561348946e-01 -6.2426241109001204e-02
      2.8126429936254371e-01 -5.4732141849545624e-01
      -4.1880816252739039e-01 -5.2400785595533594e-01
      7.0660173586036035e-01 -1.4462414717561673e-02
      -3.7904128740230830e-01 -1.4920816951671542e-01
      -7.0412024263385375e-01 -2.2154360294491016e-01
      3.2985184033946457e-01 -6.7134200465351135e-01
      2.0012259477856301e-01 -1.6590359652514630e+00
      3.3801558974745333e-01 -7.7853066417597616e-01
      1.4974070169947626e-01 7.9503657562182961e-01
      -2.9602565658792840e-01 1.9289611432485079e-01
      6.0036814778638548e-01 1.6991637651035157e-01
      -1.3061141803555976e-01 -3.9937417647795369e-02
      5.3442225676641397e-01 4.1109673827883574e-02
      4.1318938927791410e-01 4.2746302971048478e-02
      4.6438591584799532e-01 -8.9780720427071625e-01
      8.2938480860482930e-02 5.7852137055870412e-01
      -7.8224789927126004e-01 1.7812857719679085e+00
      1.6082053219491304e+00 2.5313935787548020e-01
      4.4227490546214293e-01 -3.5426943578487152e-01
      -9.4608413221713950e-01 6.6921962144133063e-01
      7.1612992399166198e-01 2.0266413147088973e-02
      -9.0233685472028446e-01 -4.4105653886475160e-01
      2.3246709962057574e-01 3.4498408200086950e-01
      7.6760248447429626e+00 4.8280936576925598e-01
      -5.5548344763639845e-01 -5.0715192266477183e-01
      -3.3351290329616862e-01 1.1001420217414848e-01
      -1.8882647355080079e-01 4.2349330636300764e-01
      7.3058984566138130e-01 5.2401072543733052e-02
      1.8526440549445031e-01 6.7366219109956527e-01
      8.7254859527537598e-01 -1.6966103862460716e-01
      -8.3661891126281432e-02 3.3848292479068703e-01
      4.0027395853126835e-01 -2.4536037950756462e-01
      3.0151773261290693e-01 1.0324692026497275e+00
      2.2550381768045136e-01 -1.1553545700843396e-01
      -5.5107415076667166e-01 -8.1518512894135131e-01
      5.3749263103207212e-01 -2.9841911521269793e-01
      4.1179850133556545e-01 3.2856745989930752e-01
      -6.5248943505626644e-01 -5.1975202114043113e-02
      -3.6446713084039478e-01 -9.2409081631914608e-02
      7.1292804306302271e-01 4.4728874933048207e-01
      8.0374203652459575e-01 1.0303203420620516e-01
      9.6339331603314107e-02 -6.3249396400842606e-01
      1.5312715069223048e-01 1.9082069140418967e-01
      3.6782890898715018e-02 -7.4256344846206107e-02
      1.5569749407151107e-01 -5.8353414313297547e-01
      -1.0446185680148434e+00 1.0138746279221547e-01
      4.5730529830524663e-01 7.9477288265786816e-01
      -2.8800902270742401e-01 -3.4242723536360437e-01
      6.3835089011432555e-01 -1.0983874733680239e+00
      8.2886976623264785e-01 -4.9395788514089392e-02
      6.5159830311629086e-01 -2.5245077334362465e-01
      -3.1093325402831973e-01 -3.1492469777546245e-01
      2.5553094056009656e-01 4.3759945460809202e-01
      -1.5203816685540988e-01 4.4011097221633666e-01
      -5.8701626303507518e-02 -7.1908676947577699e-01
      -3.1128437306119666e-01 -3.6710895068797328e-01
      -1.0063852360221129e-02 -5.1001566251704267e-01
      5.9439831881997673e-01 -2.0663975555622580e-01
      1.1608758434790699e-01 -2.9989632672540112e-01
      -1.4169128538889333e-01 1.5189078535529945e+00
      -1.7834826280238587e-02 -6.3416541527710457e-01
      -7.8590989280406520e-01 -1.4426618193963270e-01
      1.9177730971122170e-01 4.0452074625953094e-01
      -9.0567955660738031e-01 -1.1475619196072730e-01
      -1.9791258062311365e-01 -9.1611046009123664e-01
      -4.3435185738271556e-02 1.2415000185365035e+00
      -1.5445408039801007e-02 3.3894482032739387e-01
      7.2137974446636577e-01 -1.0415121671990333e+00
      2.4239576931470386e-01 6.9752257287844577e-01
      -2.7093665771734471e-01 4.7226483260215019e-01
      3.5053332488250100e-01 -2.2458164699256755e-01
      -8.1781244328102709e-01 -9.0643390830111659e-01
      -4.7071275216292174e-01 -1.6195705668811813e-01
      1.4061668141426660e+00 -2.7310569300127835e-01
      5.2179925165350705e-01 -9.2597979939638392e-02
      -5.1515146045980964e-01 -2.6357530609567498e-01
      -2.4371824732443165e-01 4.0631040573707095e-01
      -6.0377130171632709e-01 3.3046864046720337e-01
      -1.5313993704884671e-01 -1.9975001892391375e-01
      -3.2234947799320679e-02 -3.4603752829288054e-01
      -8.0333655788752706e-02 1.7521886359584380e-02
      -4.0205237171725383e-01 4.3690051388535267e-01
      3.9872713162576168e-01 -1.6344424329520446e-01
      4.2862436798244330e-01 -7.0526547167669373e-02
      6.2770058783177440e-01 1.1407037907641414e-01
      -9.4135570734982882e-02 -5.3735669838114108e-01
      7.8300659337683010e-01 -3.7792971084086135e-02
      -4.3535397563240680e-01 1.0060574123418962e-01
      -2.5485881207757976e-02 -3.1486579708034462e-01
      9.6801538209762517e-01 3.5879623259218946e-01
      -3.2183521617205108e-01 2.1984456676002032e-01
      -5.9221779846365852e-01 -4.1587646968305308e-01
      9.6697767267903231e-02 7.7506406774532813e-02
      8.5702970167007453e-01 -1.8754190762503345e-01
      -3.5542442786610962e-01 -4.2461240113124521e-01
      -2.9332533150502632e-01 1.4529801848515511e-01
      1.7482385274127044e-01 -3.1427532775722543e-02
      -6.9532958014111346e-01 8.8376551514821988e-02
      8.4509857832891125e-02 -8.6781942616322938e-01
      6.9313398241394886e-01 -8.5353273344647387e-02
      1.5322627675235660e+00 2.1412155021800210e-02
      -6.8028725018799363e-01 2.8526976009005861e-01
      -2.5936539310953621e-01 5.5404710000448021e-01
      3.6060670982561849e-01 -1.0190983273966599e-01
      -5.4343818671305355e-01 -7.7495327081295073e-01
      -2.9764657870648309e-01 4.3737443516907093e-01
      5.4924033028016093e-02 3.0975784769401893e-01
      -4.7643926044994972e-01 -1.8338388166949837e-02
      -7.8637996585594339e-01 -8.6821255121646390e-01
      9.1962303086981001e-02 1.1976245823765215e+00
      -9.7090174795528306e-01 1.7018639378940055e-02
      1.3610800420222383e-01 -5.2610253350183778e-01
      1.3090873112527586e+00 2.6260720442458507e-01
      1.0538720050013888e-01 -4.9631525948829797e-01
      -3.8777736621823194e-01 -9.5403707948948133e-02
      -1.9950063985121488e-01 -4.4451729586237151e-02
      2.8830854349575058e-01 4.0725510931739028e-01
      2.7607902396796546e-01 -3.3879757700279295e-01
      -3.4946357153454410e-01 6.1551133711563810e-01
      -7.2045184318240174e-01 4.0507411058285564e-01
      2.1871922401916222e-01 2.4712473400749994e-02
      -4.2361857808860348e-01 -6.6507529001280341e-01
      4.2195109230285660e-01 -3.7940301394512499e-01
      2.6079263412565261e+00 1.1427082258969150e+00
      -1.1953996002957556e-03 -3.5597565653463371e-02
      -7.8543519147179974e-01 -1.2457734192877522e-01
      8.4354149015250213e-01 -2.4178509537220738e-01
      -5.2007615030123508e-02 -1.1736685445279809e+00
      -1.9779931015301797e-01 6.0207335933551009e-01
      5.5557302884647508e-01 -1.0777681459185759e-01
      -3.1190149921165944e-01 -3.1264303571077939e-01
      -8.0396546200953156e-01 -1.1018777991726952e-01
      -6.8513849864078302e-01 -2.2809603492026706e-01
      1.8516569539110173e-01 1.7978637389749200e-01
      1.4908446885795192e+00 -5.7707771851813416e-02
      5.1943553381653906e-01 8.9225511215892117e-01
      -2.5078925274354125e-01 9.3368308134786263e-02
      -2.5718164914052111e-01 1.0112521639822891e+00
      5.7659544751884340e-01 8.3052566487050361e-01
      -1.2413480071646774e+00 4.4506004235805596e-01
      1.2894996731980632e-01 1.1978176331389739e-01
      1.8390114292773077e-01 6.1392403204182350e-02
      -9.8562205595091346e-01 -1.6048626182755962e-01
      -7.4489050363314147e-01 -3.2455787548739767e-01
      1.6047857557217771e-01 -3.1465897279927074e-01
      -9.5698624203949467e-01 -2.2791624900505525e-01
      -5.4059782966919179e-01 -5.6639297645918563e-01
      1.1799100622880279e+00 -1.8834715782243835e-01
      -3.9257576236819575e-01 5.8739013558938569e-01
      -5.8262601075057141e-01 -5.3297935132105401e-02
      -4.5778547375589057e-01 1.1550152655888496e-01
      -7.1997059809277708e-01 6.2256610264554896e-02
      1.7134422822537859e-01 -3.5495266414174259e-01
      -1.7255500644708324e-01 -8.9059327608697469e-01
      2.8652709229052420e-01 -3.8820941995964542e-01
      5.2756019541742072e-01 -1.7961328498212237e-01
      4.4360205578846490e-01 -1.4184007883362346e-01
      5.0583573149035055e-01 -2.1613835256270103e-01
      3.9870475739158706e-01 5.6687284167337837e-01
      -4.9944086968533169e-01 6.6485520048400781e-01
      -2.0473802859263515e+00 5.5751809814685738e-01
      3.5610390288177446e-01 2.1433451282124164e-02
      -6.4144081926625951e-01 -4.6989036910297030e-02
      -1.2604646422335805e-01 5.7775529950834459e-01
      8.1028491898966204e-01 2.0233083463750925e-01
      4.1566730373334460e-01 3.0716011121546910e-01
      -3.3855013445962684e-01 6.8848522603645157e-01
      3.2717284094665167e-01 3.7662367759745397e-01
      -1.1362735833800544e-01 3.4148542586994063e-01
      5.6666654509840930e-01 6.8958389877315807e-01
      -3.4547748870852640e-01 1.9741061987069530e-01
      9.1596837169937539e-01 6.4383163411287370e-01
      -3.9214953499216726e-01 7.3150876253687547e-01
      1.0133495790061859e+01 3.1239924124350604e-01
      -2.2078091688268103e-01 2.5338942741939441e-01
      9.7085835096215889e-01 -2.1587230737981145e-01
      4.9841239447975860e-01 7.4906188288653941e-01
      4.3637642493639545e-01 -7.2332969649769552e-01
      1.7237679514866758e-01 -3.9140206081981460e-01
      -2.3372209210475819e-01 -8.5457520950602983e-01
      -7.2281573736427485e-01 -3.5283999651901582e-01
      -1.0058097156268773e+00 4.3039153790965989e-01
      4.9681575362559363e-02 4.0825944778717449e-01
      2.5485256757554059e-01 -1.0393849052077632e-01
      1.0836448081943371e+00 -3.3423286782278888e-01
      7.2633663977717444e-01 -3.6118773485519523e-01
      -3.4833903528147564e-01 8.8809262272582801e-01
      2.0894721987102594e-01 2.0851834597203933e-01
      5.1972396237237206e-01 8.3019401446936336e-01
      -6.3161357760988593e-02 4.1704519050667449e-01
      6.0173656823433153e-01 -1.3114743491880898e-01
      -3.7012765771771372e-02 -2.7930933332491048e-01
      4.5621263370012305e-01 -6.7516642697675733e-01
      -3.1682280261629953e-01 -3.2962078719122129e-01
      1.0789288413421896e+00 -3.9346372588402417e-01
      -3.1112821920431943e-01 5.5896722349020944e-01
      1.9797372410408415e-01 -8.7520525995081422e-02
      -1.9184491095714482e-01 3.9362760300722083e-01
      8.3758829091563125e-01 1.1069463001742443e-01
      -2.8661499938576956e-01 -8.9014950713376351e-01
      4.4825324968396793e-02 4.2690854551485713e-01
      9.5492938849273276e-02 1.9159657223383408e-01
      -2.9124205678817883e-01 -1.3084799574987704e-02
      5.2740424463561197e-01 -1.1055092944264204e+00
      3.7963917364206973e-01 -6.3375441989500531e-03
      -3.8855678579015995e-01 8.8099615360259709e-01
      -2.1036447322896301e-01 -4.4189260364658539e-01
      5.3128049958579127e-01 -8.5677395836355730e-01
      5.1404045203838533e-01 2.4790063586479649e-01
      -1.0125851097632606e-01 4.5533058038146829e-01
      -4.8746009346437175e-01 -4.8046074194824157e-01
      2.7521031811723995e-01 -5.4495394243428308e-01
      -5.0200067213312334e-02 8.9673494574738902e-02
      -2.5945343229003476e-01 -1.9695896612863148e-01
      -4.2945190398628368e-02 -1.1049089803179160e+00
      4.1713463028484299e-01 1.1103559838820782e+00
      5.1538113974139887e-01 4.8972650418911262e-01
      -5.1348663496214941e-01 4.9447487771447735e-01
      6.8008165019216554e-02 5.4744739473801030e-01
      6.9043695569210514e-02 -4.2706705055175714e-01
      6.8646064362177517e-01 -1.7218130879375005e-02
      -8.9079436764103437e-01 -4.2150477283204690e-01
      -1.4049135520128550e-01 2.0231106817067712e-01
      9.3319192859290947e+00 -7.0466581010208607e-01
      -4.7894002792087159e-01 -7.2381005536185331e-02
      8.5727321859451433e-01 7.3943954829971503e-01
      9.1356920653869333e-01 3.6531479250969284e-01
      5.2181770870928101e-01 8.2205291839707872e-01
      -1.2157151341457992e-02 1.2440206163603076e+00
      2.5580664185971946e-01 2.6135276240034777e-01
      7.3684186007493735e-01 -7.1654017914683843e-01
      1.2330916760873223e+00 -2.4263296131742784e-01
      8.9876739739653888e-01 -9.4617188432416122e-01
      6.8461957457732392e-01 7.1416979480884235e-01
      3.3895391283616655e-01 -2.0902832134450813e-01
      -5.8538812376701232e-01 -4.1726096214634090e-01
      -1.1364932800247485e+00 4.4751328466934248e-02
      1.0283044772714690e-01 1.3361571387436679e+00
      2.3205619444404427e-01 -6.6890887848498326e-01
      -4.1151661158335662e-01 1.3452096696302754e-01
      -4.8593410118888722e-02 -1.9179213913882479e-01
      1.3335048497213191e+00 -3.8107173488618634e-01
      8.6582881620570185e-01 -7.6033032045384352e-01
      4.6375502594384121e-01 1.2145301211610648e-01
      1.6074551706118461e+00 -7.8158946124067696e-01
      1.2700456715499817e+00 1.4896182307935210e-01
      -3.3207327508876633e-01 -3.5888331994168654e-01
      3.5459061558366721e-02 2.2236379776354540e-01
      2.4683154335016613e-01 -1.1912205862451246e+00
      6.2428435374833025e-01 -5.9736074391875149e-01
      3.7932945344143043e-01 -1.4075084310189812e+00
      9.7053154512934248e-01 -1.8389894720506555e-01
      2.0928496380423971e-02 -1.9283197237048949e-01
      3.5232076932598144e-01 1.3320014609248301e-01
      -2.2144009118022637e-01 -9.1178144799521832e-01
      5.5195097122561576e-01 4.5938369575179760e-01
      -1.4067587761117328e-01 -5.6409708212577692e-01
      8.6378032785905612e-01 -4.1472628587599103e-01
      5.1375790224318119e-01 -1.6324515808001845e+00
      5.2579764286187303e-01 3.4072478610413592e-01
      -4.1531965373067781e-01 4.3297907578427153e-01
      3.5609997891276812e-01 -4.2032072855260433e-01
      1.1881759554904932e+00 -1.8869199218977817e-01
      2.5860787921317541e-01 -7.7130160935822689e-01
      7.4613337182383666e-02 6.9887087868550399e-02
      1.2173128693328492e+00 1.2224546909818903e+00
      1.7526883189625722e-01 3.5443461844380303e-01
      1.5735107887433837e+00 4.7997005059578768e-01
      -3.4235651235962616e-01 6.7585360908141323e-01
      -1.7431263162834959e-01 6.1617704380728489e-01
      2.2693786252922238e-01 -7.5879198125742298e-01
      -2.8133203471810092e-01 4.5459116268719624e-01
      -3.2163176512392816e-01 -5.0419703072280875e-01
      1.1753687712584062e+01 -8.3883638871431643e-01
      -2.2311811993094516e-01 -4.8647220507465794e-01
      1.8862198999584975e-01 -3.5333759717848184e-01
      7.2419613544448747e-01 -1.9421174921757259e-01
      -2.9153423394489165e-02 -1.3623053524170214e+00
      4.4421688354493377e-01 1.3728052737246901e-01
      -2.0460343045913756e-01 -1.0412705622194929e+00
      1.5201948321989142e-01 -3.9699308907110015e-01
      8.9758836564066379e-03 -1.3869559477912501e-02
      3.1363052615024967e-01 7.2049174354867285e-01
      2.2501831392936954e-02 4.3606750797313250e-02
      5.2076808035644662e-01 5.0698667973809552e-01
      -5.7425096269446809e-03 1.8656368953415536e-01
      -8.8220708169989570e-01 6.6903180505561721e-01
      3.6283722498957405e-01 -3.4422079233558217e-01
      -4.6297564110475163e-02 2.0041958374633734e-01
      4.0986848407917958e-01 7.7764818439358771e-02
      7.5339407567391881e-02 -4.3741507734358931e-01
      -9.9207882865339880e-02 4.1194144184251141e-01
      1.5630405511027810e+00 7.7629185177052606e-01
      1.3516891377569964e+00 -3.0532573863105883e-01
      -2.4339882610148209e-01 -7.4132829842525139e-01
      1.7260439862822476e-02 -2.9877674877635563e-01
      7.0136962193301333e-01 4.8903451124553937e-01
      1.5581379127038797e-01 2.4727357128995783e-01
      1.4724923559399425e-01 -8.6156696082536607e-02
      -2.7982910982565767e-01 4.1274897722527093e-01
      5.3458628302567313e-01 -1.1599077705121345e-01
      -3.7016359314887171e-01 -2.1530837011727580e-01
      -9.2571669330371573e-02 3.2207896177509115e-01
      -2.0963618113498880e-02 7.6991922199172308e-02
      -1.2034240396819537e-01 -3.8297735999213067e-01
      1.3382723571990257e-01 -3.3381387559252412e-01
      4.8735772087884704e-01 5.7236346081457756e-01
      -2.6280559014102600e-01 1.4406769002476660e-01
      -5.5738250235094246e-02 -6.2486487673458635e-01
      -6.0997164695023964e-01 4.9392366443064878e-01
      1.4055707078017023e+00 -4.6591476679992233e-01
      -3.2762146278012760e-01 3.5679719280689387e-01
      -1.5584487984843798e-01 -4.3799127279459732e-01
      1.9297345938235977e-01 -1.0859950351911671e-01
      5.8426532792765185e-01 2.5518451285603799e-01
      1.7572348170331120e-01 1.4051621098346107e-01
      2.8996286071236943e-01 1.8128548276051034e-02
      1.3986151059289759e-01 1.1795192031887836e-01
      -7.7270066899470835e-01 2.3267360129658039e-02
      4.0246672388450605e-01 1.0279823910291714e+00
      5.8942016038083589e-01 -4.3554489764456139e-01
      1.3679504273888961e+00 5.2326111921945173e-01
      -1.0293419763492786e+00 2.0620081489744624e-01
      5.2168061967869965e+00 5.3361862555064965e-01
      2.9773766086428638e-01 -1.4601195423814836e-01
      -4.8225742565807966e-01 9.3038327367425422e-01
      1.4882983494446445e-01 -5.9725566590159296e-01
      -1.8612408361125030e-01 -1.1447990956917460e+00
      5.5078013659993919e-01 -3.1412179229629461e-01
      3.3344003864142097e-01 5.9615791343033009e-01
      -6.3184025385563580e-01 2.3287612434520957e-01
      -2.5048292012887530e-01 -2.7947317548503124e-02
      -1.1105768991577896e+00 6.6890113914086724e-01
      -3.6634989341056523e-01 -2.6848769902340047e-01
      3.1705580802319172e-01 -5.1686453259402743e-01
      -3.3928600564368705e-01 1.7514522532998300e-01
      -5.0948700401795444e-01 -4.9887664587325187e-01
      -2.1406771435236624e-01 -2.5662043652006533e-01
      2.9225561730150523e-01 -4.3919894831971944e-02
      1.7477915343963468e+00 1.0223779207129312e-01
      1.8818563234463384e-01 -1.4731568921502711e+00
      -4.5972657340537965e-01 -1.5333417836926219e-01
      -5.8395478127907297e-01 -7.6369550098134764e-01
      1.4672173201067662e-01 -2.2046454987453984e-01
      3.2254943129522498e-02 -5.3496677601266573e-01
      1.3962426101715270e-01 -6.2408040442248625e-01
      -6.7460984501010846e-01 2.2893714974607901e-01
      2.9743802073040304e-01 -7.0433980004491825e-01
      -5.4203442093775686e-02 -2.1789934177624909e-01
      -2.4908965735278527e-02 7.1031246130569847e-01
      -3.1597469413509682e-01 -5.8123977615444682e-02
      2.0891842325253918e-01 2.8583908702149474e-01
      1.0662503118009818e+00 -3.8309156012523549e-01
      -7.7723239732069960e-02 -3.5338192512416527e-01
      -1.4958624153153748e+00 -3.3235568845898233e-01
      5.4087517396544260e-01 -8.5957842693846576e-01
      4.5303961257263387e-01 2.3722606014596251e-01
      1.3946680254489227e-01 -1.3593063737011662e-01
      4.3034182842100288e-01 -1.0542468418435377e-01
      -3.9430478774600602e-01 1.7236997442950613e-01
      -1.5834856459211685e-01 4.4379963018000579e-01
      -3.4738827036200343e-01 -1.4050394567790805e-02
      -1.7601389437646654e-02 7.5839223578103110e-01
      4.5241200202469511e-01 7.5863420226639361e-02
      6.5792151711721880e-01 -2.6767356610885573e-01
      -2.2227190350245063e-02 -6.5462990798217124e-01
      -1.6520933478156705e-01 1.6956429790691291e-01
      -2.6557463685382369e-02 -7.5462040282337384e-04
      -2.8931180197736667e-01 4.4063729912202249e-01
      5.8453956800156981e-01 6.4993372944988403e-01
      -8.6904138195169744e-01 9.3294304475148842e-03
      6.1900453679008149e-01 -7.2258803622367626e-02
      -6.0039838192527106e-01 4.8382945057795723e-01
      1.2078311075153831e+01 2.4564219313453309e-01
      -4.9342722755234220e-01 -4.3739181274637701e-01
      -3.7092879212487734e-01 4.7140005391913951e-02
      2.2541882555222756e-02 -1.4818237840282253e-01
      -1.0134698969976641e+00 -3.9279992309521677e-01
      -3.7419031284910550e-03 8.0399872366910230e-01
      5.2934612415527127e-01 4.8612372988902647e-01
      -2.1948974551597672e-01 -7.2185041811624051e-02
      -1.4142577225581529e-01 3.3169180822639394e-01
      -6.1659360972829969e-01 5.9736481950511833e-01
      -1.3465080497298254e-01 -1.2903888274931255e-01
      4.4734347350268577e-01 -2.3244350129012235e-02
      1.3650170581538162e-01 -5.3691905783631935e-03
      4.7502186046242019e-02 1.5784166766970081e-01
      -7.9336393806468752e-01 1.9841191643202413e-02
      -5.5267606414682158e-01 -1.0427477375940093e-01
      -4.5445948624885874e-01 1.1008294444599536e+00
      -2.5182340984289625e-01 6.7729818462156921e-02
      7.0027673030439264e-01 4.3214185476967086e-02
      -1.1172708859135920e+00 -3.3145533248418735e-01
      -3.9386195871455976e-01 3.9884695471983678e-01
      -1.1886546769009192e-01 -1.3900271083130664e-01
      2.7766856440594140e-01 -5.8781405686557919e-01
      -6.5000833676835035e-01 1.1278511580527241e-01
      9.6703461883230424e-02 -3.0822865000731758e-01
      -3.7140221394698203e-01 8.3434251543519869e-02
      -4.6465359585509841e-01 1.2700990740317530e+00
      -1.2903316082773258e-01 3.6656832495305725e-01
      -5.7455720975677016e-01 7.9319123787954346e-02
      -5.7917506657046247e-01 7.2049017827006567e-01
      -1.9341297462162699e-01 -6.8784305328972184e-01
      -1.2425378079141079e-01 -8.6323775301856073e-02
      4.4925649386612870e-01 -1.4381019438191620e+00
      3.2878595585826736e-01 -1.0074497268027464e-01
      -3.7690150939846068e-02 3.7959122207929058e-01
      -2.4461780484816648e-01 -2.9581795416248998e-02
      3.6282758053738168e-01 -9.2379069219699628e-01
      1.1691001983817459e+00 1.7194148415838173e-01
      3.3497404051495600e-01 7.0649893021276811e-01
      -8.2581080744404034e-01 -7.3272044642584455e-01
      4.2868352818218475e-01 1.1382855273234879e-01
      -6.3724558662034225e-01 2.7311850049988967e-01
      9.5592708727922152e-02 -2.8179039741795980e-01
      -1.1957497479576302e-02 3.1221175145788804e-01
      5.2335928429844913e-01 -3.0738945581819777e-01
      -4.2051834651520908e-01 3.4149826024540436e-01
      3.3293489851194175e-01 3.7335505224315313e-01
      7.0763718147566368e-01 5.9299574130384569e-01
      9.5731990778652387e-01 3.5595487153978428e-01
      6.7470766413590866e-01 1.6081193566571358e-01
      1.5062442467722175e+01 4.8545377568406101e-01
      -5.5072496112641733e-01 9.2413380970709891e-01
      2.1079156026751547e-01 1.0299406761394960e+00
      -3.9344520909970404e-01 1.0103356853345173e-02
      -1.6320812591370162e-01 3.1699875283558121e-01
      -1.2981396217081684e-01 -4.2585846372401148e-02
      8.1064572270959323e-01 1.0564283949898625e+00
      -2.7181657008515164e-01 9.2972649934389717e-01
      -4.7424097101494495e-01 -1.7738439751045845e-01
      -8.1553679793871459e-01 -9.5700603592984579e-01
      6.8699943895639395e-02 -2.4905524446696933e-01
      4.4317171467196814e-01 -8.0265561047412548e-01
      -3.6597933605608074e-01 -4.7929551990747149e-01
      -1.0707944457307581e+00 -4.5126393969551104e-01
      -5.2289916302291761e-01 1.9354433946475991e-01
      -2.3256592491109865e-01 -6.3973185675726929e-01
      -1.2374827701543463e-01 3.9662610708066631e-01
      1.0126160008444736e+00 1.9390820543266278e+00
      -5.1029816469783917e-01 5.2867304356541700e-01
      -7.1506583372763455e-01 5.7941808547759033e-01
      7.2250869053195332e-02 -5.5350701436810268e-01
      4.2383275463665471e-01 1.3246558395254898e-01
      -6.6968512044789363e-01 -4.6365571716485077e-01
      9.2004165477078736e-02 -1.5833285575041220e-01
      5.0903723980149321e-02 -3.1115617606996421e-01
      6.1499641990488108e-01 5.1171307923179121e-01
      -3.5443551278920338e-01 9.9128468968289030e-02
      -6.2006375078779874e-01 -2.3764092157926447e-01
      3.1626599611816480e-01 2.5692226503159499e-01
      4.0446031643175329e-01 -1.5503385941517303e-01
      2.4042239827478107e-01 -2.2734483837659503e-01
      8.3730296359200729e-01 4.0714517121635319e-01
      -1.2565622492289150e+00 -1.3479720855413869e-02
      -5.0115853805044533e-02 1.5214395002791717e-01
      -6.1889556135264400e-03 4.7436836741073185e-01
      -9.8905770137596760e-01 -2.0458038346078247e-01
      1.5663957420766025e-01 3.5241638943213927e-01
      -1.0139339241086880e+00 1.7634466409213059e-01
      -2.1685904155198571e-01 -6.6342332214843047e-01
      1.0520094177687296e+00 -1.1132018276130771e+00
      4.7680744129526453e-01 -2.8985634298942009e-01
      -3.0715043881967996e-01 1.4878374755315074e+00
      6.6791221312114202e-01 -1.0333766491800764e+00
      3.8007471581613150e-01 7.0986798991699263e-01
      -6.7573804908176571e-01 -1.9356200515060273e-01
      2.9652362936955567e-01 3.6914954016289742e-01
      3.3998668579566915e-01 2.6687701223610177e-01
      4.7417662119406212e-01 -1.7560769189456599e-01
      4.4356239669223502e-01 4.9808408459088606e-02
      1.5265577939375222e-01 8.8573449958803707e-01
      -6.2584013393226980e+00 1.2218490151050210e-01
      -4.6062375624229834e-01 -6.8742564587584487e-01
      -6.4794070062656317e-01 3.0159111745221440e-01
      -1.0051608682273696e+00 1.4044560043845866e-01
      -1.2254634585473612e-01 1.3762686330866214e-01
      8.8729503968294920e-01 -1.5817091759370125e+00
      -2.3218972833510262e-01 -1.1889328447962305e-01
      -8.2618406618570117e-01 -3.3232965340632931e-01
      -7.0537151367005099e-02 -4.5521452706271670e-02
      -2.2980200849812366e-01 7.0019584893529752e-01
      -4.5229864055952662e-01 -6.9676524438540599e-01
      8.9192973850447915e-02 -1.0724002272166868e+00
      1.1919751510322337e-02 -5.4813947902562865e-01
      2.8876894167864403e-01 -7.0228626000296224e-02
      -6.0339188394800111e-02 4.6863992833402290e-01
      -1.6095208297633997e-02 -9.7078768472292820e-01
      7.7012117590186402e-01 2.9615059671020353e-02
      3.2396436896493125e-01 -1.1852103007678678e-01
      -1.7246219701349346e+00 8.4506764730217721e-01
      3.7619277072951907e-01 2.3424609813116443e-01
      -2.4007361265640009e-01 6.2880938428914027e-02
      3.3138200642197069e-01 3.8315329596958284e-02
      1.8269170621781564e-01 4.4761803747778400e-01
      -8.7218210037067512e-01 -3.6207935851947132e-01
      -1.7526211152067864e-01 9.2948680868546119e-01
      5.6960358590309623e-01 -4.1247387698824717e-01
      -5.5034398471001322e-01 -5.3866170200639540e-01
      1.1104051640405856e+00 -1.0932645381974055e+00
      1.6817969273382121e+00 2.2402692514730338e-01
      7.8776783747176204e-01 -6.0902077532924492e-01
      2.9483867075199921e-01 -3.5662272978373938e-01
      1.1860881362486349e+00 7.9001024015349874e-01
      -1.8100977217291606e-01 1.3727545720850918e+00
      -4.1714878163812634e-02 7.9669545302682154e-01
      -7.1777989694367672e-01 -5.4112910902348155e-01
      3.0514673404134740e-01 3.0587096135055419e-01
      1.0432428006699406e+00 6.4130693755057433e-01
      -1.5700783892201717e+00 -6.5928086736286362e-02
      -8.1279440672927283e-01 -2.6310277852761682e-01
      1.0952411301446602e-01 1.9614353429759898e-01
      9.4992710532380153e-01 2.1215430411053968e-01
      1.5738731397921865e-01 -1.9681142028424498e-01
      5.4427012258746787e-01 -3.4909722947035357e-02
      -1.9746136299211631e-01 -6.0441516088428859e-01
      -1.5540465106505197e+00 -2.2521517620754142e-01
      -2.6433631361453425e-01 7.8122929688849929e-01
      -9.3162370809362138e-01 -1.6374862893641465e-01
      -2.3375301133127793e-01 -6.4348551889158379e-01
      4.3411270404812702e-01 -6.8864901275608326e-01
      -7.0993655801902733e-01 1.2508002246049532e-01
      1.3949300946062113e+01 1.2878593472233526e+00
      1.3469014823492301e-01 6.5109295024151070e-01
      -3.7741636384411481e-01 2.7850163727002336e-01
      -3.5566121868293932e-01 3.9031562852425894e-01
      -6.4322386091037909e-01 -4.7183358651842483e-01
      -6.1331088824123736e-01 -5.6980837933404804e-01
      2.8728553194279061e-01 -6.6056176811427403e-01
      -1.3455203748020035e-02 -1.5265424890840615e-01
      2.6040293588976371e+00 5.8344802899905061e-02
      -4.1094032210553855e-01 -6.6713297217929468e-01
      6.1307036018795358e-01 3.8831483602982569e-01
      1.5843949591876214e+00 4.1342770281027519e-01
      -9.4169192109890842e-01 -4.6793573237439595e-01
      -3.2274002095341497e-01 -5.0801767161722378e-01
      -1.4967841472124002e-01 9.9452131777747355e-01
      2.4669991766402832e-01 7.3839418029406834e-01
      -8.9127356316437911e-01 5.1107800942444093e-01
      1.3971473541517085e+00 1.7897374264869637e-01
      -6.3985440612330780e-01 -1.6656368307543093e-01
      -9.7158526763098152e-01 1.1836410941656637e+00
      -9.7673128769302536e-02 -1.2369900236212619e+00
      -2.5087504546885564e-01 2.2534646379170470e-01
      -7.3411492513294818e-02 -5.3849401974197175e-01
      -2.3895550658240211e-01 -8.6648695836480361e-01
      7.6200906157056159e-01 -6.9429265948477092e-02
      -9.0960933844152303e-01 -6.3883328435992690e-02
      -2.1318573913218097e-01 -1.6918447916302390e-01
      5.4995149478847749e-01 1.7747790125834575e-02
      -4.6060584074460381e-01 -3.4666853345661069e-01
      -3.1018062290232690e-01 5.5214323409092658e-01
      -1.0377882210356468e-02 -5.8450831099417966e-01
      3.3636910930567127e-01 6.8117570387718152e-01
      4.5797820552804791e-02 -2.0697364999558916e+00
      2.0392139702015552e-01 -4.0970950605471157e-01
      6.4485314668287186e-01 -1.3667858672753183e-01
      6.9809373577177214e-01 -1.0906096224486375e+00
      -7.5363918143665776e-02 -1.2901203221679585e+00
      -4.8149746885426609e-01 2.2364642425179279e-01
      -1.1957295905979017e+00 3.9184696949698838e-01
      4.3164975501233860e-01 -3.3422891548523015e-01
      6.5779135638255870e-01 -8.7010882511161358e-01
      -5.0242702080495449e-01 -2.2722645772174793e-01
      -7.5357426629495561e-01 -5.9908431876058199e-01
      4.8911732033466621e-01 2.5477471015409409e-01
      7.6244811320557537e-01 4.5462816772348708e-01
      2.3403558480792699e-01 -9.4431723381268262e-02
      -9.3691662184202906e-01 -1.9367172660947396e-02
      -8.4651173621388839e-02 6.0914484513160028e-01
      3.2604144310158384e-01 2.0180247383418054e-01
      -3.7173879424033723e-01 8.2596774042894938e-01
      1.3669338423290103e+01 1.0625295533315945e-01
      2.6283457163531330e-02 -7.7307426932427381e-01
      -9.8329121973694134e-01 -2.8124188913926657e-01
      -1.1202406672935632e+00 -7.4713413691339225e-01
      -9.0142497615010519e-01 -5.9514014834710027e-01
      3.3254527816526130e-01 6.1344837355060688e-01
      5.4661259692372755e-01 2.5903045149746040e-01
      1.6677876026845975e-01 8.5682115187093399e-02
      5.6917737850608452e-01 -2.5296276785869076e-01
      -1.1461399453248224e+00 4.6565629646373496e-01
      3.2247057873323126e-01 3.4522342630759345e-01
      7.1533278373380949e-01 4.1936543315886339e-03
      -5.6091923213170025e-01 -1.4526420642134194e-01
      2.1104641243267763e-01 -6.3900659565132578e-01
      2.5072868978475472e-02 -1.8912749764526660e-01
      8.2504546815021262e-01 1.2247417114402370e+00
      -8.4286813108812153e-01 -1.8294588625780889e-02
      -1.6073307835657244e-01 4.6320067504894508e-01
      -5.3351710709399336e-01 2.9636676529661548e-02
      -9.2107565748482234e-01 -5.3884662975659048e-01
      -1.1950909074477989e-01 -1.3544442885387448e-01
      4.0508520301460915e-01 7.4307619161035865e-01
      -5.2772163399079941e-01 -7.1495084792861896e-01
      -7.4428396863607083e-01 -1.9182925113286808e-01
      1.1190791288722517e+00 -3.4089131164072022e-02
      -5.6006982534500460e-01 2.0768084467605566e-01
      -3.8229790326294338e-01 5.1148407038914390e-01
      -5.0011658883347221e-01 8.9051403899777393e-02
      -3.7285253761891674e-01 -3.2986497319282859e-01
      -1.2171090321159697e-01 1.4800835165341036e-01
      -3.9522497875907647e-01 -3.6471779228283335e-01
      -5.4334632337547251e-01 -4.5715558082622787e-01
      -2.5237267706315247e-01 -1.0693598362823722e+00
      1.8702174033811919e-01 2.4785298199930750e-01
      -7.6977088262149967e-02 -6.0989642511368192e-01
      -4.3890560367913883e-01 8.3567187486330874e-01
      -7.8947041564039547e-02 -2.8317428531105598e-01
      -2.4985221722750927e-02 3.0331532347831008e-01
      -3.8829817278372469e-01 -2.0523686997352319e-01
      3.2684210915381873e-02 -3.2884194568607433e-01
      -7.7859782466842331e-01 -1.5061885777332454e-01
      2.2336714987623726e-01 -6.2915393132897823e-01
      -1.0104922471707649e+00 3.6300511677535752e-01
      -9.3504446438844747e-03 4.8960076667179847e-01
      3.8214526485054234e-01 3.4886717594317489e-02
      -2.5402624822585940e-01 -3.7087897154993016e-01
      -3.0664162293233904e-01 -4.5999376557991911e-02
      4.6129258268941037e-01 5.1256420008496972e-01
      2.9328373698596072e-01 8.6531079152040236e-01
      -7.9494670180873894e-01 6.0306747063492949e-01
      9.0116819966424035e+00 -7.6389883507922829e-01
      8.8242547074919200e-02 -4.3565279514227473e-01
      -1.1155270889655282e-01 -5.5157329319903947e-01
      5.0227537911427933e-01 -1.3889372233924380e-01
      1.7437866783382294e-01 1.2194517328598091e+00
      -9.9362464600555339e-02 -4.3940117322200173e-01
      2.8478029221099993e-01 -5.7470251303388997e-01
      3.5612462689482149e-01 -6.3505657273813898e-01
      2.3039129763701993e+00 8.5265170785399780e-01
      -7.2563227625566573e-01 -2.1253066848861304e-01
      -3.7700077396824255e-01 1.5630257706832998e-01
      2.9815587698096068e-02 -2.7316343692984379e-01
      1.2336455702168821e-01 7.7562437219720795e-02
      3.6680534124968006e-01 4.3139192463603493e-01
      -1.1320107065746109e-01 -1.0386580290110268e+00
      -2.8184753231606458e-01 -2.6255271392071267e-01
      -6.9549809498928095e-01 3.4596461811862028e-01
      1.1331685490288068e-01 1.3476730127851186e+00
      5.5240019186886848e-02 -1.9694089157712424e+00
      -2.0215099387081475e-01 -1.8601604005556985e-01
      -4.2246233792775090e-01 -4.5646846692195947e-01
      9.0639556853143866e-01 1.3205371524906701e-01
      2.1459015842868410e+00 -1.0127186759328506e+00
      1.6351698111747093e-01 -7.0450096542288010e-01
      -1.3010946519602078e+00 -6.3444582653371362e-01
      -2.7690173645566291e-01 -3.6413245551864742e-01
      -7.8558215272490888e-03 -2.4798761538410247e-01
      -9.8562855011807782e-02 3.2573097766536613e-01
      1.0613865194017327e+00 3.3078417011075317e-01
      3.2408941205876002e-01 4.3996961574347421e-01
      -1.7698727455066190e-01 2.2162892485299512e-01
      9.4694686306792797e-01 -1.5636822506136072e-01
      1.9487735997743175e-01 4.7721934636991686e-01
      4.0965250360409639e-01 1.2647679247494620e-01
      -3.7522340582500080e-01 -3.4814682450405082e-01
      -2.4370753851026730e-01 -3.1356292087473553e-01
      -7.7161085996208534e-01 -1.2394755420550121e+00
      -2.5409287257263385e-01 -2.1017691275711206e-01
      -2.4903744110893820e-02 -7.8512670775274018e-01
      5.1039555393785052e-01 4.1650052844273068e-02
      7.0453848136370023e-01 -3.1011369276691747e-01
      -6.1024446812867628e-01 1.2653816169073381e-01
      -5.9597382674145205e-01 3.3378163028495905e-01
      -1.2394660926879507e-01 6.4881755916238015e-01
      -5.5836687434948384e-01 -1.6812155191901421e-01
      1.0693338976002831e-01 4.5411761808887352e-01
      -4.8778648094931550e-02 4.2770489598080697e-01
      3.9147597737465550e-01 -8.8237873795453496e-03
      9.1094407746404416e-01 -3.8755420581192296e-01
      -4.6559959127692607e-01 -1.0054504298096838e+00
      7.3574771825661918e+00 -6.0803428152091576e-01
      -2.4062050893005560e-01 -1.4193254980608475e-01
      -7.2939951388128005e-02 1.5168074148800861e-01
      1.3326010013290537e+00 1.4283833786725686e-01
      -4.6066863821342846e-01 -2.8953529533461353e-01
      -2.5926494726387395e-01 -7.3456782563262335e-01
      -1.6163153256286034e-01 4.5387261823805952e-02
      -1.0706850023685538e-01 -1.4229944717211526e-01
      -8.2092199647695197e-01 -1.3254869329540950e+00
      -4.9775711085030289e-01 -3.5177604211346120e-01
      -1.2561062415113269e-01 3.2895125392790808e-01
      3.8510215788813745e-01 -3.0678699233184598e-01
      8.8247409603783877e-01 -5.6695967057711316e-01
      1.6081028963185992e-01 8.1119632378692866e-02
      2.9643270439313141e-01 3.6895968652655198e-01
      -4.3306991123078215e-01 6.2788006752269321e-01
      4.4230084222000815e-01 3.9735049802830530e-01
      -1.1377188669584561e+00 -6.3486763505257937e-01
      5.9968237562668135e-02 -2.5948184453095707e-01
      -2.3669411082826150e-01 8.9351005825584973e-01
      -1.7002400934260860e+00 6.0217022491807304e-01
      5.4046701854157511e-02 -2.0069386885687029e-02
      -1.6075796963621830e-01 8.4880632783878501e-02
      -2.0413525968138815e-01 -1.0344297560724282e-01
      6.8219787877568272e-02 2.0376575080442064e-01
      -1.3642757536630634e-02 2.8681137788623173e-01
      -2.1689806612445656e-01 1.1269636056768179e-01
      -1.7154452019558830e-01 7.0699622526386882e-02
      -7.8324316969254226e-01 1.8883582563206960e-01
      -2.0557825063291569e-03 2.5149107898776296e-01
      2.6111215758086154e-01 -8.1683646842988167e-01
      4.2707212438818071e-01 -1.2110711191210058e-01
      3.2116536809283736e-01 -4.2349627527322098e-01
      3.2238688411090061e-01 1.8287847878975017e-02
      -2.2616791302658837e-01 5.3415666023402031e-01
      -3.0319524675201392e-01 -6.5969173258233293e-01
      -2.0680993753276624e+00 -1.1183886639575407e+00
      -4.8181987177301666e-01 3.6296343801517569e-02
      2.4054890373113855e-01 -1.5009784913837018e-01
      2.9584747374631443e-01 1.5241466691811265e-01
      3.3047892810749391e-01 -1.7033429520055224e-01
      -1.2171326132040165e-01 1.2570324765266580e-01
      9.8819166070076148e-01 -9.6569978754344157e-02
      3.6439278807180570e-01 -6.0769216446720320e-01
      -9.4233975040423232e-02 2.1741686785796141e-01
      -3.6305864409094651e-01 -5.6204052375035729e-01
      -3.3817129457464579e-01 -1.9290115965532650e-01
      2.4598967677601608e-01 2.5951066405147216e-01
      2.6642741618092097e-01 -4.1656389076952000e-01
      -1.1299159440779027e-01 -6.0541702508434325e-02
      5.4333033292747226e+00 9.4435008826738276e-01
      -3.7230360462087320e-01 2.0760771503190117e-01
      4.3552111913273456e-01 -1.5779734631803048e-02
      9.0462024451745615e-01 6.7486424492815333e-01
      2.6792902396866686e-01 1.5997592470940314e+00
      1.8912674881386612e-01 1.1162211228595444e+00
      1.2325462305504713e-01 4.0264916563479225e-01
      4.9950827845336787e-01 2.0628002772846477e-01
      1.3278967615278964e-01 -2.0975703281843433e-01
      7.8897624280739087e-01 -3.4768334469156642e-01
      5.3720179613391927e-01 2.7646065160782968e-01
      -6.7755269822035569e-01 -7.2036568210749574e-01
      8.5922929218922972e-01 -4.6678879209837244e-02
      -2.2650975433049086e-01 1.1063020674373100e-01
      -2.8854980617649129e-01 -5.3136910200042875e-01
      4.6930215414940513e-01 4.3224225362109853e-01
      3.2409584737268227e-01 -6.1273479592870517e-01
      5.8325962067694204e-01 -2.9156453760990358e-01
      -5.9148580581534260e-01 -1.4706099250718276e+00
      -2.6826174823583526e-01 -7.2618252428094832e-01
      9.9047124686949384e-01 -4.9200812849361203e-01
      1.0042565895255013e+00 1.6569211847636559e-01
      -6.2286909641085098e-01 4.8173005864107660e-01
      8.1460456838533390e-01 3.6214649061333809e-01
      -8.3015373287031025e-01 1.9994575930026592e-01
      -6.4430120628139420e-01 -6.4414414272228981e-01
      -1.5289023841987867e-01 1.9961191631851630e-02
      6.4591785782092515e-02 -8.7514104138078630e-01
      -8.7900472236917146e-02 -9.2662263639206197e-02
      -3.5599755613400108e-01 -5.7654577625366177e-01
      -1.8421267382457501e-02 -8.3167092189162226e-02
      -4.5083803713924270e-01 -2.0876252787953672e-01
      1.0111903119616884e-02 5.3288109424263053e-01
      1.5437137956055252e-01 1.4295572964720971e-01
      -1.3428940210721868e-01 1.9589648556223888e-02
      -4.6152463258694221e-01 -7.2742442626164772e-01
      1.4514023070990691e+00 2.7716663335556008e-01
      -9.5620542445923895e-01 1.4791067608553937e-01
      3.4646521817173363e-02 -4.9699049120096095e-02
      -2.1828018385170891e-01 -3.9593381482418977e-01
      3.8248316289635437e-01 6.8385018599511027e-01
      7.4620956346696488e-01 -8.7064057639388270e-01
      -1.6789698596329489e-01 6.8776522794772876e-01
      -2.7229929284086163e-01 6.3079763160490776e-01
      5.0279507554507685e-01 -6.0901349082569684e-03
      -5.8573942950784053e-01 4.6552384673914587e-01
      6.2720867962500615e-01 7.1913943569664029e-01
      1.4773387252516690e+00 -2.1484633608139561e-01
      1.4228861255304177e+00 2.9324674889829411e-01
      2.1563113770783704e-01 -4.6685912443467970e-01
      5.1211304553704391e+00 -2.5381060023277122e+00
      6.3568659716492670e-01 -4.0597844471289785e-01
      4.2448688536667817e-01 3.1977031789217214e-01
      -3.7269708856729189e-01 -1.1911144963769489e-01
      7.1578186935460886e-01 -9.6274508142254089e-01
      -7.0387430028878831e-02 4.9481241041252128e-01
      -2.8410710456422766e-01 3.7852515823063793e-01
      2.4052103319696219e-02 -1.5433561264753373e-01
      -1.2166357977162356e+00 1.2163953017264618e-01
      -3.5089154643987791e-01 3.6431775084026424e-01
      4.0936284954563823e-01 -2.1777949096074670e-02
      2.3439028211116328e-01 4.8278365842538945e-02
      -8.8524420298922823e-02 -2.7394022923820618e-02
      -5.7501423095229787e-01 -1.1616261422788926e-01
      -1.2122103578414552e-01 1.0651675629885207e-01
      -4.5215470584574584e-03 -2.9489039856487936e-01
      -6.4960547548446890e-01 3.5478853425306107e-02
      -9.0447614935184509e-02 -1.3884982250191313e-01
      -5.9412179106880458e-02 1.4895645196861917e+00
      -3.7718797519125991e-01 2.5261177157485509e-01
      6.5845221427636980e-01 -5.6730454669980868e-01
      -2.3259610239806297e-01 -2.3534993974473850e-01
      -3.0923312922870518e-02 1.6079017780845919e-01
      -4.9707767085638743e-01 -1.7641733767375969e-01
      4.0610108799255756e-01 -5.6421745493888298e-01
      -1.1614203884898570e-01 -3.5382701464333777e-01
      -4.5820532006426146e-01 6.4358506179142780e-02
      -5.0104010406592969e-01 -1.4869050777235246e-01
      -2.2174021273812122e-01 -3.2181433615795861e-02
      3.3042593056489616e-01 -4.3630302042317132e-01
      2.2583462075573540e-01 -7.2047130581053653e-01
      7.6712563110169973e-01 -2.7024743127472162e-01
      -3.6078659520235867e-01 -1.1529361406151508e+00
      -2.0534951240090030e-01 1.9605099245892454e-01
      7.1662395483594210e-02 -1.1693558412539062e+00
      -2.2745921641698233e-01 9.2473600412750900e-01
      -4.0154957523173673e-01 3.1043525956446688e-01
      -5.5923224860474086e-01 1.8471765817784827e-01
      -8.4170511452476046e-02 5.0464104303428325e-01
      -3.0243862572966290e-01 -3.5395926316301535e-01
      -3.4153728188241826e-02 5.7982123625894111e-01
      -5.9722155943877708e-01 -3.3995109715904838e-02
      -1.7830866071169457e-01 5.2000091230803558e-01
      2.1520518309718231e-01 4.8513054244496777e-02
      7.9981902065165728e-02 -1.4037552924892041e-01
      2.9510340734070450e-01 -3.4105915333477366e-01
      2.2013377999342362e-01 -1.7497856992060837e-01
      1.0063694102710516e-01 5.7079721854838494e-01
      6.2066125450534204e-01 -1.1862010057447087e-01
      7.1585905119519999e-01 1.0646408094673403e-01
      6.8752790730442825e+00 -8.9903399302019671e-01
      1.1230196956905238e-01 -9.5324534236300107e-02
      -4.6929264978925422e-01 2.3973895833117823e-01
      6.3586959442063151e-01 2.4619771886886018e-02
      -7.8152710824825966e-01 -4.3699650423842440e-01
      4.5566533192817629e-02 1.9636486737827549e-01
      3.8047593052032486e-01 -8.4314085218143886e-01
      -4.2196558209404891e-02 -1.3201761513493662e-02
      -6.3175318948449133e-01 1.6568914450933109e-01
      2.2014838550274371e-01 -3.1801013032289477e-01
      3.1194793382432257e-01 -1.1088639495939415e-01
      1.1425914765329444e+00 -3.8611728382094607e-01
      2.6072620270398678e-01 -5.5193500019904793e-02
      1.4819648756237114e-01 -4.9328510842456583e-02
      5.2689754465942741e-02 3.9016251848593630e-01
      4.4952488585179459e-02 -5.7798772650782759e-01
      -6.4327174368377515e-01 1.6486464499476772e-01
      5.1338899415977268e-01 3.6992890057932659e-01
      -1.7439702411784158e-01 1.5567010385092597e+00
      3.3257362527709794e-01 1.5639724134553061e+00
      -7.5228289782185473e-02 -5.9527437676138861e-01
      2.8173240805143312e-02 2.6972672825186221e-02
      9.1828818512065935e-01 1.2559541972288030e-01
      3.7277301471423281e-02 7.4877146561919225e-02
      -5.8014748492286834e-02 -2.0984489673696527e-01
      3.4080825034268775e-01 2.3493952785780292e-01
      -6.1480008038350430e-02 4.6528446539217150e-01
      2.7490507050300644e-01 3.7911370941931638e-01
      -1.3087571571270593e+00 -2.4876844595878361e-01
      -4.2379008110355626e-01 2.2788253415486781e-01
      1.9500038697765822e-02 -4.4833149109478926e-01
      2.7249141886157607e-01 -1.0097024880215096e-01
      -1.0049225557498427e-01 -3.2945005968327518e-01
      -6.0086163694991902e-02 1.9090075975587903e-01
      4.2429190195971002e-02 -3.0054415323189115e-01
      -1.2645172666236787e-01 5.3103775591465197e-01
      -3.4314034571627167e-01 7.3788944216929420e-01
      3.4796875911045883e-01 -4.0571714394235389e-02
      -1.7448325088227543e-01 1.7581884133543607e-01
      -1.2570504126772020e-01 3.0800071373473431e-01
      4.2197662627256993e-01 -6.2812286248361798e-02
      -1.6907431893768274e-01 -5.4289739536119341e-01
      2.6022209067645896e-01 6.7217648424399856e-01
      4.6448329889107570e-01 5.7966044872117906e-01
      5.6989271493895766e-01 4.9560199509863595e-02
      -4.8644012387586683e-01 -1.8793537016940626e-01
      9.7782038185706729e-02 -1.1062825241211563e-01
      -4.6556712737507056e-02 -1.6276345704541209e-01
      2.6294494579036060e-01 -4.6769581490014273e-01
      4.3862720203373656e-01 -8.4526534082316723e-02
      1.2383183891378899e+01 -5.9913192114842484e-01
      6.1541572658785049e-01 -7.5309466357489607e-01
      -1.7508347736726365e-01 -3.1948963628743154e-01
      -7.3912238296191446e-01 2.1355359636176197e-01
      -2.3578869889401499e-01 -4.5286972262961533e-01
      -1.7781448301117075e-01 -2.3629350245730973e-01
      2.8795062185700913e-02 6.5859931057180543e-01
      2.0049684687270386e-01 5.1787173960728172e-01
      -1.2250100127713242e+00 -4.8210744419360524e-01
      -2.8330306089956886e-01 3.0900507820817569e-01
      -3.2592312527240130e-01 1.3342478923003462e-01
      -9.4533737468090595e-01 1.1125169845932549e-01
      -5.9626837061370133e-02 4.1658543725992446e-02
      -7.3639159179439029e-01 3.4265453788475075e-01
      4.6243012396492794e-01 2.9725375557869549e-01
      1.3432915739358831e-01 4.5448734286605833e-05
      4.8847556065707598e-01 -3.7852013785184496e-01
      -2.1557041067971738e-01 -4.6047274095078794e-01
      3.6550887807140653e-01 5.7374255484350441e-02
      -2.8142479321494029e-01 -1.3216704521380643e-01
      -1.6357963903760922e-01 1.2389468597501339e-01
      3.5702419274292141e-01 -4.5471323085175747e-01
      1.0069319024881080e+00 2.7092745912927946e-01
      -1.7073590761379995e-01 -2.4570657277800897e-01
      -3.9540095642614081e-01 4.2731818516847714e-01
      -7.8666872408241328e-01 9.8218845885416906e-02
      3.3469458910554062e-01 3.4575096713210063e-01
      2.1929148950493363e-01 2.4364931960652583e-01
      -1.3613755193129112e-01 -1.5357808939113318e-01
      1.7213182358607623e-01 -4.0657935569164599e-01
      -2.1915327822718361e-01 2.1960884712787612e-01
      5.1520448882951353e-01 -7.8474359146807049e-01
      -3.3986194423642113e-01 6.2556764100375395e-01
      -5.5700494468343166e-02 1.4260046784132888e-01
      7.8940841083026653e-02 -4.9663723048408237e-01
      4.1276314272118336e-02 -9.8690893179901540e-01
      7.5219720774534804e-01 7.8194213822621850e-01
      -4.9625276004628616e-01 2.6924353910067985e-04
      1.5093975161503104e-01 -2.7442885541087725e-01
      -3.7361990781796728e-01 2.3814669760754525e-02
      -8.4329830379385948e-02 2.5168177956891391e-01
      1.4010175481558190e-01 3.7187503326884963e-01
      7.4079926594235124e-01 1.7560906581466806e-01
      -1.5296277054401070e-01 2.3334405671007175e-01
      -5.5699279946498836e-01 1.6395576600775999e-01
      9.1992215100861349e-02 1.5769619238576862e-02
      -6.7561241735783345e-02 3.0773500854976027e-01
      -3.6871377917665810e-01 -3.5148657052304189e-01
      -6.4837915205247643e-01 7.3269106671853643e-02
      3.2093198721286964e-01 -9.4132082288434027e-01
      8.1651462503009427e+00 -1.0840937508668145e+00
      -4.3083814891440517e-02 -7.1370963639494356e-02
      7.4534926337886909e-01 -3.3979679656978801e-01
      -1.1081233196365610e+00 -2.2128678361263129e-01
      -3.1709856284809512e-01 2.1502409234470590e-01
      4.5688203578139225e-01 3.4610040706650419e-01
      -1.2456206218950223e-01 7.5816906754289526e-01
      2.5739713617586790e-01 5.3024317348912509e-01
      -8.2666486690204391e-02 8.8861358646462607e-02
      -1.2531205457646241e-01 2.3140229903413037e-02
      -3.9391893662683286e-01 -1.1270744525177583e+00
      -6.0221181846777161e-01 6.9949674833680323e-02
      1.6519666302689096e-01 2.9315053313776718e-01
      -2.4357598598897154e-01 9.6089897670488233e-01
      -1.9572617239571566e-01 1.8122321680107728e-01
      2.7795150852948003e-01 -2.9037728862153867e-01
      -1.5842633936701700e-01 -1.4831547989192324e+00
      8.1526746205229284e-01 8.1782385386787615e-02
      2.2555971370592751e-01 -6.2847914984016434e-03
      2.0311452441881411e-01 -1.3159564671620072e+00
      -1.2225282040325649e+00 2.3511552751982662e-01
      -3.6600311571768390e-01 -1.7309884745795567e-01
      -1.6241657515927339e-02 -1.2356800853409163e-01
      -1.5236572901745653e+00 -3.1652487430593146e-01
      -1.2166080774631725e-01 -2.4557994360664440e-01
      4.1208342230389777e-01 -1.8118638279874660e-01
      1.8344182565445685e-01 -2.5938848041212653e-01
      -1.1959363302672712e+00 -7.0542254451551045e-01
      -4.9582639533228645e-01 -7.0193688715104063e-02
      -7.5508321547999768e-01 3.8975315466115608e-02
      -1.4975910567828031e-02 -4.4832303080164448e-01
      -4.2423730842634938e-01 6.8999533419092596e-01
      7.3485740401417787e-01 6.9309225942564723e-01
      -3.1281996091078873e-01 -2.5358067760776826e-01
      3.2020267797714205e-02 -7.3708917521083375e-03
      -3.0786680950880912e-01 4.0128381784088540e-01
      -4.2456274394874882e-01 5.0628253379695576e-01
      -1.6288885266386260e-02 6.3364067995640164e-02
      -5.3813285741151351e-01 6.7211680715214939e-01
      -3.6925146683088217e-01 -6.5390588697230334e-01
      -8.8316695106527177e-02 -4.0719802013771096e-03
      -1.6916325301269239e-01 -6.0578073958739120e-01
      2.2529285178329397e-01 5.5684192232264236e-02
      8.0194521223049264e-02 6.6168865787328734e-01
      3.9984277828988737e-02 9.9781609563222573e-02
      -1.2460305962096690e-02 -4.6457908713097085e-01
      -3.1359215058419021e-01 4.3326787548093754e-01
      6.7836267541539527e-02 -5.1981719793417458e-01
      4.8987289560090758e-01 -3.8766783594432208e-01
      -6.7445464776997821e-01 1.0925375819014325e-01
      5.5642453265965086e+00 -8.6828791823305596e-01
      -4.2959577894254369e-01 4.9809616577269927e-01
      3.7729386534853898e-01 8.1768500023490776e-01
      -3.1595483047349371e-01 3.9589223031195242e-01
      -3.9843611696328257e-01 8.0581907137226083e-01
      2.3379028037878327e-01 3.4249640035525114e-01
      -2.4553787540733304e-01 -3.2877338804103606e-01
      -3.0261813793534494e-02 9.8767916034969941e-02
      -1.6287188370720476e-02 -2.6861417419238870e-01
      -3.7504947950347550e-01 -2.8735648726555901e-01
