<?xml version="1.0"?>
<opencv_storage>
<mlp type_id="opencv-ml-ann-mlp">
  <layer_sizes type_id="opencv-matrix">
    <rows>1</rows>
    <cols>3</cols>
    <dt>i</dt>
    <data>
      256 128 62</data></layer_sizes>
  <activation_function>SIGMOID_SYM</activation_function>
  <f_param1>5.9999999999999998e-01</f_param1>
  <f_param2>1.</f_param2>
  <min_val>-9.4999999999999996e-01</min_val>
  <max_val>9.4999999999999996e-01</max_val>
  <min_val1>-9.7999999999999998e-01</min_val1>
  <max_val1>9.7999999999999998e-01</max_val1>
  <training_params>
    <train_method>BACKPROP</train_method>
    <dw_scale>5.0000000745058060e-02</dw_scale>
    <moment_scale>5.0000000745058060e-02</moment_scale>
    <term_criteria><epsilon>9.9999999747524271e-07</epsilon>
      <iterations>1000</iterations></term_criteria></training_params>
  <input_scale>
    2.1001010413840246e+00 -1.3703723838321458e+00
    2.0494696436588566e+00 -1.2485236845321779e+00
    2.0187024967359766e+00 -1.1464276598398988e+00
    2.0006774628035418e+00 -9.7430841172443450e-01
    2.0378457122082261e+00 -8.2346496628801225e-01
    2.0722928400011584e+00 -7.6485431971010498e-01
    2.1212348254169227e+00 -7.0719232002206112e-01
    2.1212348254169227e+00 -7.0719232002206112e-01
    2.1103554364259822e+00 -7.1842852814243663e-01
    2.1110825960009758e+00 -7.1765458357603074e-01
    2.1508027733910113e+00 -6.7981556477235250e-01
    2.2244450344762750e+00 -6.2535607985357211e-01
    2.1553734396731747e+00 -6.7592974589320587e-01
    2.0796394176205593e+00 -7.5481966173959114e-01
    2.0138029234716557e+00 -8.8921308658455422e-01
    2.0030855859074483e+00 -1.0571122640466404e+00
    2.1978191519993580e+00 -1.5545434819195458e+00
    2.0346490624887257e+00 -1.2042715875773324e+00
    2.0090142141231704e+00 -9.0945697219984378e-01
    2.0807038602965982e+00 -7.5341615586546185e-01
    2.1881675906854721e+00 -6.5021517600637657e-01
    2.1456473554118651e+00 -6.8430000603780561e-01
    2.0984384957742748e+00 -7.3163299167183715e-01
    2.0513075650593082e+00 -7.9769395796096643e-01
    2.0348574426026897e+00 -8.2991551395612928e-01
    2.0386356506882923e+00 -8.2181129617531268e-01
    2.0768845485074423e+00 -7.5850950204360512e-01
    2.2033152475496465e+00 -6.3943525302542970e-01
    2.4448681329796216e+00 -5.1933731147325191e-01
    2.4737133006894099e+00 -5.0897316138378346e-01
    2.0783861398777432e+00 -7.5648785843937205e-01
    2.0376278538658261e+00 -1.2137031716655640e+00
    2.2506258758476396e+00 -1.6413838712835069e+00
    2.0207712351818414e+00 -1.1548816252679019e+00
    2.0354023824154130e+00 -8.2871517430279162e-01
    2.1268729536270308e+00 -7.0163937868040116e-01
    2.1183496968715416e+00 -7.1010270752656246e-01
    2.0474216191307666e+00 -8.0465871160461844e-01
    2.0051017649142597e+00 -9.3107870664325065e-01
    2.0061900251184337e+00 -1.0818325780611771e+00
    2.0188228285375787e+00 -1.1469301521051931e+00
    2.0111055320836151e+00 -1.1110817444995285e+00
    2.0001226728649240e+00 -9.8898538829777982e-01
    2.0575954564467573e+00 -7.8708557379670308e-01
    2.2483847893967162e+00 -6.1056943931412977e-01
    2.3405682995604997e+00 -5.6236557692128353e-01
    2.0885307208456672e+00 -7.4344956466232048e-01
    2.0922445723076724e+00 -1.3533222822276132e+00
    2.2260032130965444e+00 -1.6016452151005942e+00
    2.0191558150538760e+00 -1.1483134522387044e+00
    2.0467332400775020e+00 -8.0592872313589381e-01
    2.0878971660579557e+00 -7.4423431241743254e-01
    2.0254978416513234e+00 -8.5256035496173177e-01
    2.0001021699281520e+00 -1.0101591281884441e+00
    2.0423932774678524e+00 -1.2281811187353724e+00
    2.1837478222478435e+00 -1.5302671567300212e+00
    2.2472699030657246e+00 -1.6360366536243536e+00
    2.1746891231416567e+00 -1.5143319098349859e+00
    2.0597637339349575e+00 -1.2761675951541103e+00
    2.0003830907321869e+00 -9.8061790437075702e-01
    2.0783861398777432e+00 -7.5648785843937205e-01
    2.1237302995477476e+00 -7.0471308649509135e-01
    2.0178714158676061e+00 -8.7495338542861523e-01
    2.1365122590526062e+00 -1.4439836348682964e+00
    2.1287293113944039e+00 -1.4288809383203835e+00
    2.0069989454052428e+00 -1.0872323319302810e+00
    2.0459048063662810e+00 -8.0747242922230478e-01
    2.0525013423287377e+00 -7.9562014398872039e-01
    2.0058871945309513e+00 -9.2615909820601128e-01
    2.0063961907711976e+00 -1.0832382014905573e+00
    2.0645299516138031e+00 -1.2883332875473879e+00
    2.1909238046843345e+00 -1.5427166166640176e+00
    2.2103983802795431e+00 -1.5758001356186420e+00
    2.1263457079960237e+00 -1.4241943457104551e+00
    2.0432333418876962e+00 -1.2306636090950462e+00
    2.0000149845596602e+00 -9.9613649553552108e-01
    2.0533408338409505e+00 -7.9417924508880633e-01
    2.0507932943674629e+00 -7.9859655005932983e-01
    2.0008496682122257e+00 -9.7127266958538627e-01
    2.1051125288482178e+00 -1.3809990901616103e+00
    2.1145152415035291e+00 -1.4004684548431170e+00
    2.0100320148150268e+00 -1.1053014756735535e+00
    2.0398820723284534e+00 -8.1924296130610463e-01
    2.0210897352263473e+00 -8.6493947808611427e-01
    2.0034430827972622e+00 -9.4301850483279737e-01
    2.0046342096939940e+00 -1.0704315575634811e+00
    2.0367632243626543e+00 -1.2109980913025051e+00
    2.0842208875905892e+00 -1.3353580815815620e+00
    2.0805036452011576e+00 -1.3268244214718350e+00
    2.0439876506028609e+00 -1.2328762071028760e+00
    2.0149825548043325e+00 -1.1301235490171397e+00
    2.0025589553158860e+00 -9.5067718147522973e-01
    2.0193693009246005e+00 -8.7017445951132655e-01
    2.0136239065621475e+00 -8.8989185548069105e-01
    2.0095798863486287e+00 -1.1027839731161533e+00
    2.1881675906854721e+00 -1.5379524146790955e+00
    2.1023184895418443e+00 -1.3750971367616169e+00
    2.0141126130512612e+00 -1.1260622076946272e+00
    2.0312877465090473e+00 -8.3807000896292627e-01
    2.0188529743108261e+00 -8.7179715535830937e-01
    2.0079354759920820e+00 -9.1479813029875812e-01
    2.0011264452217645e+00 -9.6699594030393654e-01
    2.0000001040582807e+00 -1.0003226326910852e+00
    2.0011192299381375e+00 -1.0340191891900774e+00
    2.0014834849652812e+00 -1.0392649192362735e+00
    2.0000141636375637e+00 -9.9624361430656061e-01
    2.0012756326188437e+00 -9.6491612222181666e-01
    2.0094315430117096e+00 -9.0748521297303009e-01
    2.0141905892177996e+00 -8.8775991668857634e-01
    2.0032803851426468e+00 -9.4434206542638310e-01
    2.0544539688748791e+00 -1.2621637366845830e+00
    2.2781258543115350e+00 -1.6844658534594914e+00
    2.1033221433683242e+00 -1.3772236765635926e+00
    2.0161008957223583e+00 -1.1351948753172183e+00
    2.0240023810942462e+00 -8.5661003999859708e-01
    2.0221588125543351e+00 -8.6180929608162449e-01
    2.0116868097444405e+00 -8.9758004484242537e-01
    2.0051793050621707e+00 -9.3057568609121821e-01
    2.0066941250947794e+00 -9.2146099582981233e-01
    2.0018155806030591e+00 -9.5828849084352896e-01
    2.0028505270122428e+00 -9.4801591611912828e-01
    2.0105617926730361e+00 -9.0237472286207010e-01
    2.0077052556089399e+00 -9.1598853758588517e-01
    2.0090142141231704e+00 -9.0945697219984378e-01
    2.0098369408916046e+00 -9.0561523664583532e-01
    2.0001110509874862e+00 -1.0105937450096987e+00
    2.0793746016273369e+00 -1.3242038793696669e+00
    2.3008879950183792e+00 -1.7192334061701846e+00
    2.0968672302331277e+00 -1.3634146388408306e+00
    2.0049180813472840e+00 -1.0726311735207970e+00
    2.0246225871819425e+00 -8.5491321503908480e-01
    2.0122350306414205e+00 -8.9533640395636538e-01
    2.0027704702606766e+00 -9.4873175341219462e-01
    2.0003072623759661e+00 -9.8262405679189258e-01
    2.0000000115620304e+00 -9.9989247889867316e-01
    2.0007880826266180e+00 -1.0284696160211342e+00
    2.0000796555851919e+00 -9.9111474115745768e-01
    2.0021114323307359e+00 -9.5509326554143115e-01
    2.0000277610127273e+00 -9.9474499016821183e-01
    2.0003461298382939e+00 -9.8156769500183383e-01
    2.0060208356300460e+00 -9.2535799837127930e-01
    2.0002567380618883e+00 -9.8410480698948066e-01
    2.0707367242682526e+00 -1.3036734968377008e+00
    2.3036502391489764e+00 -1.7234028536429036e+00
    2.0840155742608326e+00 -1.3348904060077182e+00
    2.0011048690922322e+00 -1.0337965960810354e+00
    2.0246572876991191e+00 -8.5481901506995606e-01
    2.0080713642357479e+00 -9.1410431403140202e-01
    2.0000002890508202e+00 -1.0005377790117140e+00
    2.0099450735738817e+00 -1.1048214210870628e+00
    2.0146366433122562e+00 -1.1285214616489461e+00
    2.0216694337225678e+00 -1.1584383239040390e+00
    2.0113130406421380e+00 -1.1121696033873327e+00
    2.0087887888846323e+00 -1.0982458706541842e+00
    2.0070534527327135e+00 -1.0875855779619903e+00
    2.0046489377300905e+00 -1.0705471988426338e+00
    2.0001806812046450e+00 -1.0135324150727838e+00
    2.0011924287309628e+00 -1.0351329224097092e+00
    2.0670214209519076e+00 -1.2945555125090737e+00
    2.2531652435528713e+00 -1.6454163173751961e+00
    2.0602141085758228e+00 -1.2773327473170102e+00
    2.0000255410141654e+00 -1.0050665984870648e+00
    2.0346490624887252e+00 -8.3037747491139324e-01
    2.0187927078967629e+00 -8.7198820512056952e-01
    2.0000936590239680e+00 -9.9036895696831961e-01
    2.0135984310107653e+00 -1.1236095761000393e+00
    2.0218970973163328e+00 -1.1593297066063810e+00
    2.0437039467443809e+00 -1.2320458255292874e+00
    2.0369783624006566e+00 -1.2116735807312293e+00
    2.0376713710336070e+00 -1.2138386446802347e+00
    2.0233567532224854e+00 -1.1649530897989031e+00
    2.0083268451538605e+00 -1.0955099016629608e+00
    2.0008002140741490e+00 -1.0286909917844671e+00
    2.0017699615567128e+00 -1.0429651987874249e+00
    2.0594832203294944e+00 -1.2754401728481422e+00
    2.2655678400263763e+00 -1.6649487529742224e+00
    2.0352342233770848e+00 -1.2061498303379359e+00
    2.0041893431842048e+00 -9.3733565034190314e-01
    2.0678035563604569e+00 -7.7131296096929292e-01
    2.0418843394555872e+00 -8.1521683359124675e-01
    2.0000097237383891e+00 -9.9688656713863466e-01
    2.0294655313449304e+00 -1.1870191137366395e+00
    2.0757211966248983e+00 -1.3156278057532755e+00
    2.1371587022730467e+00 -1.4452248471607734e+00
    2.1084307403617504e+00 -1.3879368809134018e+00
    2.0746319471189549e+00 -1.3130412516927064e+00
    2.0288207699724845e+00 -1.1847876991097379e+00
    2.0070534527327135e+00 -1.0875855779619903e+00
    2.0000936590239680e+00 -9.9036895696831961e-01
    2.0018339914090166e+00 -1.0437519381013249e+00
    2.0630724613578133e+00 -1.2846508197551716e+00
    2.2568674465606295e+00 -1.6512746817335273e+00
    2.0250757054941144e+00 -1.1713865330866224e+00
    2.0221588125543351e+00 -8.6180929608162449e-01
    2.1524814375237491e+00 -6.7837882724538812e-01
    2.0838788631974241e+00 -7.4930009876690173e-01
    2.0007404850326398e+00 -9.7315586925216624e-01
    2.0440350324657404e+00 -1.2330146808744951e+00
    2.1269609633822828e+00 -1.4254069036860300e+00
    2.2089187015633538e+00 -1.5733201590489954e+00
    2.1408906148939320e+00 -1.4523525687490124e+00
    2.0507932943674629e+00 -1.2521967443081332e+00
    2.0059872828569385e+00 -1.0804290644978929e+00
    2.0005547572662428e+00 -9.7672245971692206e-01
    2.0086468517544591e+00 -9.1123452339269495e-01
    2.0005855848654202e+00 -1.0244934245076949e+00
    2.0883896967594762e+00 -1.3447657740907659e+00
    2.3459751652381207e+00 -1.7860943180073670e+00
    2.0059371318334445e+00 -1.0800785148017176e+00
    2.0850451062411524e+00 -7.4781375826530794e-01
    2.3215073802546353e+00 -5.7139036488202799e-01
    2.1897719924652610e+00 -6.4904370937962275e-01
    2.0389895777525679e+00 -8.2107698587993194e-01
    2.0000166957808019e+00 -1.0040944035054371e+00
    2.0081495420220326e+00 -1.0944415004020078e+00
    2.0211537396960786e+00 -1.1564041988089069e+00
    2.0059872828569385e+00 -1.0804290644978929e+00
    2.0011924287309628e+00 -9.6605950632125348e-01
    2.0233230293456335e+00 -8.5849813696751287e-01
    2.0575954564467573e+00 -7.8708557379670308e-01
    2.0356976998592966e+00 -8.2806929016857200e-01
    2.0009135750574405e+00 -9.7022793190554057e-01
    2.0883192349153910e+00 -1.3446081267390713e+00
    2.4500928645003395e+00 -1.9326754036531710e+00
    2.0104280406032058e+00 -1.1074648227967983e+00
    2.0621495998777850e+00 -7.7984732717958816e-01
    2.3904934654626149e+00 -5.4055997396428812e-01
    2.3613101079007759e+00 -5.5300359301160107e-01
    2.1740385504115158e+00 -6.6086096580788767e-01
    2.0764956155507068e+00 -7.5903729516823959e-01
    2.0366344672731911e+00 -8.2604142048972862e-01
    2.0211537396960786e+00 -8.6474954088717171e-01
    2.0288962302436393e+00 -8.4384630307337594e-01
    2.0572110544549029e+00 -7.8771274891547405e-01
    2.0945755891613547e+00 -7.3614196915848251e-01
    2.1062903356059648e+00 -7.2281995764370288e-01
    2.0435624721290018e+00 -8.1193154134587764e-01
    2.0000815866777621e+00 -1.0090734198593614e+00
    2.1197868100971213e+00 -1.4111398001409976e+00
    2.4337004042540960e+00 -1.9101931291239542e+00
    2.0003035029945719e+00 -9.8272975324539769e-01
    2.0197381492580231e+00 -8.6903034454365380e-01
    2.0883192349153910e+00 -7.4371110817631991e-01
    2.1778569649562574e+00 -6.5792356376823713e-01
    2.2271770159368698e+00 -6.2360956446232363e-01
    2.1856654489036007e+00 -6.5205685892290755e-01
    2.1499190180107157e+00 -6.8057651494876859e-01
    2.1040982601553915e+00 -7.2523515837936636e-01
    2.0752715701745683e+00 -7.6070976158334447e-01
    2.0639446788867826e+00 -7.7708626807764192e-01
    2.0318020860657335e+00 -8.3686213878223570e-01
    2.0073850090109260e+00 -9.1767713610859702e-01
    2.0116632665881569e+00 -1.1139855723579577e+00
    2.0910203875199902e+00 -1.3506192976164064e+00
    2.1928930589997897e+00 -1.5461075040711421e+00
    2.3057761786877329e+00 -1.7266048718689646e+00</input_scale>
  <output_scale>
    1.0526315789473684e+00 0. 1.0526315789473684e+00 0.
    1.0526315789473684e+00 0. 1.0526315789473684e+00 0.
    1.0526315789473684e+00 0. 1.0526315789473684e+00 0.
    1.0526315789473684e+00 0. 1.0526315789473684e+00 0.
    1.0526315789473684e+00 0. 1.0526315789473684e+00 0.
    1.0526315789473684e+00 0. 1.0526315789473684e+00 0.
    1.0526315789473684e+00 0. 1.0526315789473684e+00 0.
    1.0526315789473684e+00 0. 1.0526315789473684e+00 0.
    1.0526315789473684e+00 0. 1.0526315789473684e+00 0.
    1.0526315789473684e+00 0. 1.0526315789473684e+00 0.
    1.0526315789473684e+00 0. 1.0526315789473684e+00 0.
    1.0526315789473684e+00 0. 1.0526315789473684e+00 0.
    1.0526315789473684e+00 0. 1.0526315789473684e+00 0.
    1.0526315789473684e+00 0. 1.0526315789473684e+00 0.
    1.0526315789473684e+00 0. 1.0526315789473684e+00 0.
    1.0526315789473684e+00 0. 1.0526315789473684e+00 0.
    1.0526315789473684e+00 0. 1.0526315789473684e+00 0.
    1.0526315789473684e+00 0. 1.0526315789473684e+00 0.
    1.0526315789473684e+00 0. 1.0526315789473684e+00 0.
    1.0526315789473684e+00 0. 1.0526315789473684e+00 0.
    1.0526315789473684e+00 0. 1.0526315789473684e+00 0.
    1.0526315789473684e+00 0. 1.0526315789473684e+00 0.
    1.0526315789473684e+00 0. 1.0526315789473684e+00 0.
    1.0526315789473684e+00 0. 1.0526315789473684e+00 0.
    1.0526315789473684e+00 0. 1.0526315789473684e+00 0.
    1.0526315789473684e+00 0. 1.0526315789473684e+00 0.
    1.0526315789473684e+00 0. 1.0526315789473684e+00 0.
    1.0526315789473684e+00 0. 1.0526315789473684e+00 0.
    1.0526315789473684e+00 0. 1.0526315789473684e+00 0.
    1.0526315789473684e+00 0. 1.0526315789473684e+00 0.
    1.0526315789473684e+00 0. 1.0526315789473684e+00 0.</output_scale>
  <inv_output_scale>
    9.4999999999999996e-01 0. 9.4999999999999996e-01 0.
    9.4999999999999996e-01 0. 9.4999999999999996e-01 0.
    9.4999999999999996e-01 0. 9.4999999999999996e-01 0.
    9.4999999999999996e-01 0. 9.4999999999999996e-01 0.
    9.4999999999999996e-01 0. 9.4999999999999996e-01 0.
    9.4999999999999996e-01 0. 9.4999999999999996e-01 0.
    9.4999999999999996e-01 0. 9.4999999999999996e-01 0.
    9.4999999999999996e-01 0. 9.4999999999999996e-01 0.
    9.4999999999999996e-01 0. 9.4999999999999996e-01 0.
    9.4999999999999996e-01 0. 9.4999999999999996e-01 0.
    9.4999999999999996e-01 0. 9.4999999999999996e-01 0.
    9.4999999999999996e-01 0. 9.4999999999999996e-01 0.
    9.4999999999999996e-01 0. 9.4999999999999996e-01 0.
    9.4999999999999996e-01 0. 9.4999999999999996e-01 0.
    9.4999999999999996e-01 0. 9.4999999999999996e-01 0.
    9.4999999999999996e-01 0. 9.4999999999999996e-01 0.
    9.4999999999999996e-01 0. 9.4999999999999996e-01 0.
    9.4999999999999996e-01 0. 9.4999999999999996e-01 0.
    9.4999999999999996e-01 0. 9.4999999999999996e-01 0.
    9.4999999999999996e-01 0. 9.4999999999999996e-01 0.
    9.4999999999999996e-01 0. 9.4999999999999996e-01 0.
    9.4999999999999996e-01 0. 9.4999999999999996e-01 0.
    9.4999999999999996e-01 0. 9.4999999999999996e-01 0.
    9.4999999999999996e-01 0. 9.4999999999999996e-01 0.
    9.4999999999999996e-01 0. 9.4999999999999996e-01 0.
    9.4999999999999996e-01 0. 9.4999999999999996e-01 0.
    9.4999999999999996e-01 0. 9.4999999999999996e-01 0.
    9.4999999999999996e-01 0. 9.4999999999999996e-01 0.
    9.4999999999999996e-01 0. 9.4999999999999996e-01 0.
    9.4999999999999996e-01 0. 9.4999999999999996e-01 0.
    9.4999999999999996e-01 0. 9.4999999999999996e-01 0.</inv_output_scale>
  <weights>
    <_>
      -1.7017472403718315e+01 9.1623957800496603e-01
      4.0562542838646842e-01 8.7737175667546674e-01
      -5.9311956923357345e-01 9.0110474468624824e-01
      1.8719573959924921e-01 3.6681092937550336e-01
      -1.1433128833281336e-01 -2.7417991009950871e-01
      -7.4790517817230270e-02 1.6586621606760443e-01
      -2.0394437013621786e-01 -4.2339196079155650e-01
      1.6732598465567530e-01 -6.5660043773130505e-01
      -8.4634693605675243e-02 -5.5713399678912023e-01
      -9.7882938575437381e-02 -1.4745151686738722e+00
      8.7921332233679150e-02 -5.6928003273291818e-02
      -6.0263653873285172e-01 -4.4014197081708334e-01
      3.9951310784186461e-01 3.5729758559248009e-01
      4.3392501414300144e-01 -4.6497026947129666e-01
      1.0281178512812428e-01 -6.3649414616386180e-01
      7.9172178391179293e-01 -8.6394139238336476e-01
      -3.6715312923374466e-01 1.4765436841672328e-01
      -8.6602342125192711e-01 -2.1996586454108802e-01
      2.5838953472530518e-01 -1.5612492313142198e-01
      -3.5489122642042770e-01 -8.4462661467206601e-01
      2.2440954533877660e-02 2.6693883463316648e-01
      -1.9501222477244676e-02 1.4457605773861304e-01
      -2.9209708914375486e-02 5.3284310193802042e-01
      9.8456507304540003e-03 9.3041268145533148e-03
      7.1432650805623543e-01 6.9054909747472290e-02
      1.9596696845376105e-01 -8.8675397989582838e-01
      4.7037296998470046e-01 -3.5211606272144015e-02
      2.9527705851888072e-02 -1.9647488649686390e-01
      -4.2432678898173970e-01 -1.1823154019809274e+00
      1.3146822693574216e+00 5.8770565229213290e-01
      8.1122984317951730e-01 4.0851154735584497e-02
      6.0606141808414904e-01 1.2542115288457680e+00
      7.6257132355170154e-01 3.0702395174851765e-01
      4.0825574344230675e-01 -4.8957124807156704e-01
      -1.8026085893089203e-01 -3.5509924953080224e-02
      5.6587978030555841e-01 3.4453070570572469e-01
      2.8377803063484214e-01 -2.9244945553295032e-01
      6.2697238927900878e-01 7.0778848027633479e-01
      -5.9044012878196195e-01 -2.1851430076321288e-01
      -7.2057061710482831e-02 -2.2048698129412875e-01
      -3.1601000511406324e-01 2.6032994797014691e-02
      -2.5229006401292503e-01 -1.8632421831180621e-01
      -3.3651548089943439e-01 -2.1078283674342696e-02
      -3.0081457630630676e-01 -4.2108180931997787e-02
      2.5121390786016499e-02 2.2146283979556933e-01
      -3.9460994312887071e-01 4.2458371986985527e-01
      -2.2086756688890868e-01 -9.3055243723410022e-02
      -1.6164215222811387e+00 -9.6162017803783373e-01
      -4.8947675345469760e-01 -6.2179364268343362e-01
      1.0248046707508836e+00 6.8809682265732741e-01
      1.8977475289117554e-01 -6.0645304476889195e-01
      4.1685154993880133e-02 4.0206149335364111e-01
      1.1883244880833421e+00 -7.9503928820833991e-01
      2.0818018287573944e-02 -6.4620488798539910e-01
      5.2539492619504469e-01 9.5951774579226143e-02
      -2.4380740122198172e-01 -1.9590902621822445e-01
      2.0486393375502074e+00 1.5757837670648327e+00
      2.7651197992522392e-01 2.8824962960900785e-01
      1.4131589583933685e-01 -2.3606141230088007e-01
      -4.0414225792686231e-01 -2.0997913280338526e-01
      -2.2004866161491005e-01 -4.1249807459611620e-01
      -7.6387002041669150e-02 1.0448737682983295e-01
      -2.7579616267589163e-01 3.4376832895872850e-01
      -9.2723872473539493e-01 1.4835480632858256e-01
      -1.8403050907952327e+01 2.8682015143560746e-01
      2.3326017791009487e-01 8.6336720486435570e-01
      -3.0624275732006900e-01 1.3027909294515221e+00
      -4.1495932916454703e-01 3.8488426166221912e-01
      7.1144943438703856e-01 -2.7577545677853205e-01
      -9.0730685498087549e-02 6.6457999040134641e-01
      -6.7064737593648213e-02 -1.5039451680741223e-01
      2.1433642840448847e-01 -3.2803321493820931e-01
      -5.2731158142965606e-01 -6.5326291239720291e-01
      -3.0827200557501135e-02 -3.0497265264937345e-01
      2.1493575746057766e-01 6.6557369505708980e-02
      -9.8427492201729194e-02 2.1805265929679624e-01
      8.3286373444737841e-02 3.1690203316711664e-02
      7.9606645508875876e-02 -5.1598579348463969e-01
      2.6596649750624279e-01 1.0907045368219901e+00
      -4.0465351869389717e-02 4.6554536063245355e-01
      -1.1488517509537675e-01 3.4233413902275223e-01
      4.6144805024559227e-01 2.6399497520394000e-01
      6.9110683339493473e-01 -3.3321727851861666e-01
      -4.2673105117064902e-01 5.2349871945344717e-01
      1.3344117029983646e-01 6.5563354323265421e-01
      -8.8140931232076336e-02 -3.8343051553987140e-01
      -6.3920157003113057e-02 7.8850676488885940e-02
      4.8642229806317122e-01 -4.4697765320935745e-01
      5.7846883222141465e-01 -7.0858251836559949e-01
      -3.5096914830097914e-02 -7.0001723765749757e-01
      1.3545574563838653e-01 -1.7399708067833092e-01
      -3.5976500571568415e-01 -4.5495324522076530e-01
      -3.7585351061123673e-01 3.0037179527592867e-01
      6.4379868399361562e-01 -3.0234665017819140e-01
      4.9489743422273531e-02 2.8133442984507895e-01
      2.9816597391738364e-01 9.7863503620136227e-01
      -5.2764658190442543e-02 -9.6416612512233624e-01
      -6.5229143824249847e-01 -6.1293755351950752e-01
      1.8112559965905714e-01 2.2807875527395688e-02
      -2.9956735880817370e-01 4.2414064935005838e-03
      -3.4518562336646724e-01 1.7393167303054267e-02
      1.7582407613107065e-01 2.0959847340325438e-01
      5.6572672569843982e-02 -4.3695008180622474e-01
      4.0084149120138961e-02 -7.9164956808696096e-01
      6.3557569512543310e-01 5.7882577257014567e-01
      2.6142888204352349e-01 -1.3328063997615012e+00
      2.2227525067400247e-01 4.1619799635708910e-01
      -2.5759655074400784e-01 1.4675173357288188e-01
      -4.3395079671347747e-01 6.7211321798534701e-02
      -1.5703019805413590e-01 8.9252985202424917e-02
      -2.3823070187638792e-01 -1.0375118788398250e+00
      2.8859527511408195e-01 -6.0091793720832043e-01
      -5.7184082785708079e-01 9.5230277874575753e-01
      -7.3767234897642267e-02 7.2656793617290338e-01
      3.7128170521120898e-02 1.0978768438361808e-01
      -3.6987262941106552e-01 3.0775370346211595e-01
      8.2096898602088908e-02 -8.4445932321855699e-01
      8.5286031965828110e-02 5.2864175996631603e-02
      -2.9611083833194940e-02 -2.3389191566115525e-01
      -2.5877142152699351e-01 -3.1131972218800769e-01
      -4.9001413587922815e-02 1.4431391849790973e+00
      3.6089775246550082e-01 -4.9448578802848159e-01
      -4.4255459480384035e-01 -4.7500694808871685e-01
      -5.0510693437232834e-01 3.3823657619181069e-01
      -2.5361485074037776e-01 -2.4200119680931445e-01
      -2.3598779236681908e-01 5.3645048931296435e-01
      2.7540256555467424e-01 -2.6630818063580308e-01
      -7.7256400337428943e-01 -8.8876462999618891e-02
      -1.5685466492591761e+01 -6.2041150090771324e-01
      7.8567980758532108e-01 -8.2195694354437937e-02
      3.3038700208116872e-01 8.2584734047175534e-01
      -1.8593542612862746e-01 2.3977639527001779e-01
      8.7880379758571114e-01 -3.7857935184967551e-01
      -1.2130526836998432e+00 6.4855193682620638e-01
      -1.7817417756516657e-01 1.6697608564155847e-01
      -3.0786433019915027e-01 -7.8366416432650998e-01
      -1.6144858530655544e+00 -7.7115045588822950e-01
      2.1434916826666102e-02 -7.7020235110842605e-01
      5.5690811818604864e-02 3.5322343909208254e-01
      -1.8855378325044305e+00 -4.4658432186653985e-01
      3.6326607565173330e-01 -4.1237299023697221e-01
      1.5586004008848584e-01 -2.3878564876516076e-01
      -3.4945092924318716e-01 1.5448091626297700e+00
      -4.5164098164932803e-01 -8.9379495620944160e-01
      1.0529619264159258e-01 2.9004449076566546e-01
      -3.1642022003237208e-01 -6.3731851220595381e-01
      8.2192574986167100e-01 2.2259166827282142e-01
      -9.8704620218962424e-01 -1.5663702040118712e-02
      2.1527006745425506e-01 -2.9399244051745227e-01
      -1.5310162108549935e-01 -3.0174660683351623e-01
      -3.8172201355645578e-02 2.1178882082260087e-01
      1.6962234418169821e-02 4.2486124254923391e-01
      -9.2380161234453584e-02 -3.9795364480024054e-01
      1.9156355003810832e-01 -3.8899509605893395e-01
      6.0868999252859257e-01 2.1082849442676940e-01
      -2.9694869173181176e-01 -1.2300788428689417e-02
      -3.7246839865882053e-01 -1.2184568886079197e+00
      4.7562205189701362e-01 1.5917414995696313e-01
      -9.0034708303671551e-02 1.2198533149168203e+00
      8.4297923380015061e-01 6.9063446409694917e-01
      -6.7715599869626641e-01 -4.1134099598571089e-01
      -6.3107901801193422e-01 -1.2264731632901080e+00
      -6.0978203903388895e-01 -2.9372765899280101e-01
      -3.9299720993922627e-01 3.9100724983127472e-01
      -2.5260048052626705e-01 2.3648812009284945e-01
      3.6948836762371268e-01 4.4766419717666406e-01
      6.3466897903996899e-01 -5.6506266423705520e-01
      -1.7627893940890864e+00 -4.7168578396212796e-01
      5.8380355174327969e-01 -1.4907665184699195e+00
      7.5275167647245095e-02 -4.9702851646705565e-01
      1.3847111086173064e-01 -9.7349938741858044e-01
      -6.5949501405434471e-03 -4.7958962216612284e-02
      4.7475443179428017e-01 -9.1265252606146957e-02
      -6.7143370964945562e-02 -1.8203656260090842e-01
      3.4127765487351741e-01 -3.6010792993834856e-01
      -6.9990881446411102e-01 -1.1538473981911986e-01
      -8.9067890547778239e-01 1.2142106169217550e+00
      9.2488737729376058e-01 -3.1338600985277361e-02
      1.1463303527713014e+00 5.3054162294674900e-01
      -3.5854359542764358e-01 6.7568922777697671e-01
      1.5616219968298536e-01 -3.5899405965292736e-01
      4.6615973483806006e-01 -4.3157073147944808e-01
      6.8752348446624156e-01 2.5954371294128514e-01
      -1.0009918848822592e-01 -2.1058721608706407e-01
      5.9568552743979053e-01 -1.8041856812020132e-01
      3.0755247475238323e-01 2.9596159786866305e-01
      -5.2071222454521038e-01 -1.0630283187111362e+00
      -2.0653451615372839e-01 6.1398600494190980e-01
      1.7662764499982295e-01 7.6878845489179670e-01
      1.7584386630191801e-01 5.7925712088364534e-01
      1.2041749803606093e-01 3.0868398590613794e-01
      -2.0359609202501264e-01 -6.2692238520883048e-01
      -1.2195403915760634e+01 4.5207135335807519e-01
      -2.6715457462088193e-01 5.7356917243865868e-01
      -5.4206065271811099e-01 -5.6811672007092029e-01
      3.3687826949219435e-01 -5.6938636495196482e-01
      -1.0929268339129109e-02 -2.2915695733092500e-01
      -1.3118128311556024e-01 4.0218090497554836e-02
      -1.2656468373255392e-02 1.9735179711791218e-01
      -2.4651526994640682e-01 -1.0824376154501389e+00
      -2.2989115654869582e-01 -2.8559837203233240e-01
      -2.9827744487389778e-02 -5.4406285054038972e-01
      1.6583816954830854e+00 3.5205161132771799e-02
      2.7488387231459405e-01 -1.0756099401840804e+00
      1.5889992619978507e-01 2.8347914577031197e-01
      1.3214497885455181e-01 1.0967124819217193e-01
      1.0740251214276081e-01 8.8436493021597540e-01
      1.5635406465047488e-01 -4.7555554806106409e-01
      5.2274103372734637e-01 4.7734464035010815e-01
      -2.5709590184678438e-01 -7.0645163895299207e-02
      2.2691718621119388e-02 -1.4925998199137883e-01
      -4.2478398466233008e-01 -4.1370942839816083e-01
      -1.0513196725177594e+00 -5.4178557067714607e-02
      -1.8930381665516913e-01 -1.7740909212253400e-01
      1.7999784820871156e-01 1.7287688635920967e-05
      -1.9247931563412715e-01 5.5097739676001722e-01
      -4.0155666136471219e-01 1.6117093521785658e-01
      -8.3578444675836208e-02 -3.9301559348072984e-01
      6.0035052372014786e-01 -2.6608560495037098e-01
      4.1011665759716966e-02 2.9016767452730419e-01
      -5.2573098061083567e-01 7.6129572412250079e-01
      2.0167993279782895e-01 9.4564675392704889e-01
      -2.9091449733816777e-01 -1.6872336973587956e+00
      1.5718343122462092e-01 1.4598247475233006e+00
      5.8983434666187251e-01 2.0342191359740613e-01
      -3.7421945835252685e-01 -2.6577799913913663e-01
      -4.7854699479364826e-01 4.2313107924840737e-01
      3.1429650137473020e-01 6.0326583007926038e-02
      1.0463606206984293e+00 9.5382416812430509e-02
      -5.2684964616365570e-02 1.0703052114525213e-01
      4.2246287821309481e-01 -2.6056607782017382e-01
      -1.5045171429457999e-01 1.2307895309895454e-01
      3.5703385345345479e-01 -2.5691611787756652e-01
      1.0898325424414876e-01 -2.8664557243828587e-01
      -9.8580864547583080e-01 -3.2602339187136797e-01
      -9.1377913118425025e-02 -2.6090700411137546e-01
      1.0961107295718994e-01 -1.6847326117560679e-01
      -1.1070766610285537e-01 -1.1809382980923211e-01
      -3.1101533877325171e-03 1.0795840232930067e+00
      -4.2871021727973085e-01 2.7562614137264430e-01
      -1.5536081200570953e-01 1.2635933572730984e+00
      -1.7492295904920246e-01 3.8585952121982842e-01
      2.0545856733404025e-01 1.7254983989953260e-01
      -1.0599345126046529e-01 7.3332912344346535e-01
      7.2219442666940181e-01 7.0631985890551552e-01
      6.1285150905437891e-01 -3.1678614977880054e-01
      4.6597111612816239e-01 3.7729714807614834e-01
      -2.5616622687834104e-02 3.3692030161390646e-01
      2.6370917157835394e+00 -1.0399080140656298e+00
      6.5911743936067368e-01 1.4588869201553456e+00
      -1.7417187310010621e-01 -4.0780949374231351e-01
      3.0492486663293505e-01 -1.4333678569991723e-01
      8.4138976708372459e-01 -4.1844453453558965e-02
      -7.3090072764348604e-02 2.7518307593099345e-01
      4.7465651886317556e-01 -8.0581533497102828e-02
      -5.8169813747279386e-01 -8.2986818240412263e-01
      -1.7469629948542590e+01 2.8105491829944657e-01
      1.8361763878824988e-01 2.9190225354663224e-01
      1.5190278961413266e+00 7.9310775139213907e-01
      -2.3333940928871508e-01 4.4826304649961027e-02
      4.2981205466747574e-01 -2.1098689678531210e-01
      -2.2296001227362477e-01 5.7961374542932187e-01
      -6.4001901496021252e-02 -9.1843975402263678e-01
      1.8064281405792798e-01 -1.4060454397621328e-01
      1.9896835680060745e-01 -8.4237061632355703e-01
      -7.1987004455860160e-01 2.9909279474482103e-01
      -9.7353246430264551e-01 4.9325536326787095e-01
      -9.6166090077313382e-01 3.7447195228146363e-01
      4.7310677294516462e-01 1.8109484482191510e-01
      -8.9465366760538623e-02 2.3560224552050446e-01
      7.4366097246644745e-03 -3.8042704290346246e-01
      1.2664535794665482e-01 -3.6391349007122148e-01
      -3.6533822733165757e-03 1.2417127452941257e+00
      -8.1800918039694892e-01 -3.9333201166747933e-02
      1.0117175160751934e+00 -9.4107778336189241e-01
      -1.6805343857531874e-01 -8.2062145590175850e-01
      2.0793587959808596e-01 -4.0830465164451923e-01
      -1.6085261660561781e-01 -9.5769318700558526e-01
      3.6248158607369735e-01 4.1738747067759215e-02
      -3.8520853947046280e-01 7.7799562235657149e-02
      3.8856910255378674e-01 -7.6252221089908123e-01
      -8.5166799350708089e-02 3.5600797068889978e-01
      1.5061006606177157e-01 -4.5276977907931171e-01
      -1.8630835223348252e-01 2.6954738425381719e-01
      -6.2776006602237044e-01 -8.0495739332704219e-01
      2.7262845155337129e-01 -4.3290454249720517e-01
      1.8567295819315627e-01 5.1715997137419134e-01
      2.0274417433333605e-02 9.9974790864906227e-01
      7.3035370801427202e-01 -8.2318918527964302e-01
      2.2158843820862106e-01 2.7365766529477503e-01
      -2.1823774783952793e-01 -5.5567276501824436e-01
      -1.1813166459349762e-01 -2.0290530680389388e-01
      2.9068252078517837e-01 8.3478967605713306e-01
      -8.5771820270884991e-01 1.7101747081628282e-01
      1.4984970440816048e-01 -4.0603885417988017e-01
      -2.1506338560192198e-01 -2.1176623674342024e-01
      2.6727002404484562e-01 8.7529066385704091e-01
      -2.5480056570044840e-01 -3.1151196495776323e-01
      -2.0999548308464794e-01 -3.1430185063934812e-01
      -3.0957017375639946e-02 -7.5647418269779676e-01
      -7.4401528011981477e-01 -8.3040817778201059e-01
      1.9437545363798981e-02 -2.8474202188948999e-01
      6.6051435995857877e-01 4.5014345977469683e-01
      4.4026746136317052e-01 -1.1987811689156649e+00
      -1.0475900924937456e+00 7.2043979625774779e-01
      -9.9174226147271713e-02 -4.6258343930971380e-01
      5.0076419629596547e-01 1.4960378123990573e-01
      -4.1508613006565181e-01 5.9851641806463474e-01
      -3.1694671862552798e-01 -7.8924014358402697e-02
      -1.3413309419084238e+00 -8.9588967924849758e-02
      -1.9950133142593710e-01 7.7868414547257492e-01
      -5.6385672201125031e-02 1.3957011762714436e-01
      -1.0937743388657950e+00 -1.0286635474339856e-01
      -8.9859476994903861e-02 1.4502274695471397e-02
      7.8886412722222146e-02 -4.9678108356354250e-01
      4.2121692398178867e-01 3.1279557566671951e-01
      -6.7393206317184529e-01 -9.2100533743266114e-02
      4.4371607523875900e-01 -1.2874548407681334e+00
      -2.8186537412518464e-01 -1.1418591420320502e-01
      -2.4929606547601479e-01 -5.5646336272147867e-01
      -1.7683780965609856e+01 4.4195067166323360e-01
      4.6474620986510023e-01 4.1785071507986760e-01
      2.6186717690748701e-01 2.0235949731039046e-01
      -2.3384149643512406e-01 3.1446551271905931e-01
      -2.4889367918689145e-01 3.7453619911580867e-02
      -3.7120895957795502e-01 3.5513432896529640e-01
      -9.6817350792110360e-02 -1.4208307127836026e-01
      -2.0716950451015431e-01 1.7374277969532306e-02
      -3.9967585992245575e-01 -5.9038865302892957e-02
      -6.1166896425534155e-02 -9.5312092466494602e-01
      5.4034854306028679e-01 4.6996441348557677e-01
      3.9254050968025547e-02 4.2940972825780285e-02
      5.6950862747610342e-01 3.4790457802777974e-01
      -6.4556940505736782e-01 -4.1577545496542223e-01
      1.6821486417655582e-01 -5.3131863871373058e-02
      -3.6265788335010984e-01 -1.6890983528788070e-01
      3.9197585751592845e-01 3.7075358596760571e-01
      1.1682000917906310e-02 3.4241388677812158e-02
      -5.1827801476241453e-01 -5.1698146156934599e-01
      -1.0047454676949759e-01 -5.7210998891440246e-01
      4.1247299588921615e-01 -3.3540852239819174e-01
      1.0624635522297143e-01 -3.2013830272733873e-01
      1.6667109749196676e-01 -2.0412472148116638e-02
      -6.9296855873982122e-01 2.8439028698022223e-01
      -5.6591082710674805e-02 -7.6146837591432120e-02
      1.8027831566887717e-01 6.7059385725603021e-02
      1.4443980612510451e-01 1.0792664333667147e-01
      -6.6791364303004225e-02 -1.4360025958248590e-01
      -2.0989278967214997e-01 3.1521390087842227e-01
      2.8017389613286359e-01 1.7315262821639762e-01
      -2.4895843689089178e-01 3.0205632726854875e-01
      4.5877661103558032e-01 -2.0859140426854728e-01
      -1.3984846924670902e-01 -3.2157275467600693e-01
      -3.3895591573009681e-01 3.5631111579143132e-01
      -5.6792450893985477e-02 8.4791871757646275e-01
      3.5855150430403621e-01 -2.4454361203878172e-01
      -5.7189638949737376e-01 8.0722288486270311e-01
      9.1705100428033759e-01 -5.7659637419907941e-02
      -1.6283226266456355e-02 -2.5446211633521965e-01
      -8.3755942217291782e-02 -1.4269639841561785e-01
      -1.1681543252761588e+00 4.1471748477067127e-01
      -8.3963484958751694e-02 -4.0342919174078201e-01
      4.4951204756945090e-01 -5.1527623389307131e-01
      4.5699881722635655e-01 -1.5529752702174532e-01
      -1.9317752917801356e-01 -1.8597392490891185e-01
      3.9626486904527919e-01 -3.2363874461342063e-03
      -1.0872522723185896e-01 -6.5540428914688298e-01
      -8.4724429690220970e-01 -3.9279542971314779e-01
      -3.0835334855508556e-01 5.1132038283487891e-01
      1.8899930567522630e-01 -5.2442467891933575e-01
      5.3441624533536770e-02 4.9309775853268140e-01
      -4.6397060022449599e-01 3.3926004884591177e-01
      3.9976305211545125e-02 6.1755978242850917e-01
      1.7320001038043070e-01 1.4862648849571106e-01
      2.0819540211683873e-01 -2.9793469397945905e-02
      2.4316694832690555e-01 -2.8084580166693141e-01
      -1.7977861685721905e-01 5.9146838157280418e-02
      5.6002509615391931e-03 8.3376256633329449e-01
      1.9489378088028803e-01 2.9400805779873425e-02
      2.7374717764713652e-01 9.2979005418462468e-01
      -5.8063472100844438e-01 2.9542381492498153e-02
      4.4373724649578641e-03 -9.7375876058322375e-01
      3.7212336389040596e-01 2.6117000528441903e-01
      -9.4244683251470363e-01 1.8844585976879852e-01
      -1.3650776648409909e+01 -9.0064421674468120e-01
      4.4954367055974720e-02 -1.9655763216195887e-01
      -4.5381100149125703e-01 -7.1364615005603416e-01
      -4.9401822753507574e-01 -2.5934907600024282e-01
      -9.4822262669701018e-01 -1.4308148060272968e-01
      -5.1500572930848643e-02 4.0464073786534893e-01
      -3.6970167462333120e-01 5.4775056950923684e-01
      -2.3493741511065022e-02 -4.9108781122311640e-01
      -4.4755132102245576e-01 -5.1609834440510605e-01
      1.2711225876184604e-01 -1.6463389865665454e-01
      1.4254482292441686e+00 -4.8498188567163919e-01
      -3.4769300041020669e-02 -1.2561657755228552e+00
      5.1226073367579084e-01 -4.9142157871522080e-01
      -5.0346818311483174e-02 -5.6093139958476250e-02
      5.7231101913486526e-01 5.7755473784213918e-01
      6.5137880984075247e-02 8.6956552447468319e-02
      -7.5069782170525928e-02 1.0577484918300045e-02
      4.8286034503127864e-02 4.2693774801159198e-02
      5.1224673464680470e-01 -6.0159100573442825e-01
      -2.0136337963500886e-01 -3.1651804587175758e-01
      -4.0469987699542093e-01 -2.8575866935048128e-01
      4.2102877993997284e-02 -5.8187040920655790e-02
      5.4832127189187500e-02 2.8386810451631609e-02
      -1.9397078013781217e-02 6.1493511019470992e-01
      -3.5571267189998479e-01 -9.2339990023939736e-02
      -1.4726298273628868e-01 8.6721584724542319e-02
      -9.6215411542649093e-02 5.7091795218300900e-01
      2.6131623475997728e-01 7.4164833176283695e-03
      -4.4387748109035147e-02 -1.5387672531768541e+00
      -5.0398807529074130e-01 2.5287159507856688e-01
      4.1315615281761808e-02 -1.8961594771434512e-01
      -1.4887327483774029e-01 -2.4877816442437850e-01
      2.6141876394520891e-01 4.8316400319648151e-01
      -8.3884046063553541e-01 2.8099046719987852e-01
      -2.7985325516301868e-01 5.0079452413444958e-01
      7.6453476187648617e-01 -7.0833486735250561e-01
      1.4753862064964471e+00 -4.8966514377510581e-02
      6.6213222177486863e-01 1.4757581503428913e-01
      -1.8085171081951418e-01 -3.3859107229792013e-01
      1.4370637683671084e-01 1.8771965904429250e-01
      -6.6540367993622840e-01 1.2858405667393394e-01
      -1.8205550889948713e-01 -2.2460532600608671e-01
      -4.4501917487594700e-01 4.7803442410045205e-01
      2.3757941906281393e-01 -1.5147099122409874e-01
      -4.8326831053172797e-01 -1.6737152671198050e-01
      -6.4954811744424101e-01 7.4314287991140426e-01
      1.5475755001507069e-01 1.2340686184627093e-01
      2.2301185160316817e-01 -1.1437513401040467e-01
      2.1374504804127131e-01 -4.1771199861024533e-01
      2.6355836475684128e-02 8.2323604125251498e-02
      7.7725176657632442e-02 6.4606763878560280e-01
      -4.2191090958853435e-03 -4.2945540597464776e-01
      -2.5832086751086086e-01 8.7585431646725831e-01
      8.3844641298658651e-01 -3.0369045174264792e-01
      1.0104587991214664e-01 -3.7664260304270558e-01
      -2.0978317008831715e-01 -1.3314937863594911e+00
      -3.8944008106292827e-01 2.0377147269221547e+00
      1.4646393093067936e-01 1.2567241871126922e+00
      -1.5999456848428578e-01 -1.6716213894334364e-01
      5.3630872704943244e-01 -4.9547206607914791e-02
      -7.4181832994379915e-01 8.6424488820694301e-01
      5.1514047210619662e-01 -2.5773723346590655e-01
      3.6784136895347114e-01 -6.4117793371723708e-01
      -3.9303091042379390e-01 -2.9507103708459215e-01
      -7.1267227125884904e+00 -1.8597258691703977e-01
      4.4523953368693653e-01 -2.8504469355446621e-01
      -9.0456423543800069e-02 3.7284863861681555e-01
      -2.8715359624009590e-01 3.3289002850105459e-01
      -1.9003754339755599e-01 6.8511471915229938e-02
      4.7790360198019971e-01 7.8869053074648532e-02
      2.2453212520809307e-01 4.2993406965538711e-01
      -2.6781234840008900e-01 5.1019694494777466e-02
      -3.3534136965531605e-02 1.1016804997485762e-02
      -1.8343039328136704e-01 2.3934197042215468e-02
      -7.0943583997692639e-01 -1.9163337767854932e-01
      -7.8660521094391078e-01 -3.9464731238557738e-01
      -3.5310960920588153e-01 -7.7289542892042729e-01
      -2.0490619652948591e-01 -6.4948572787870951e-01
      2.8009894054983991e-01 4.8697175041607355e-01
      2.9144004891451434e-03 -7.5657945923039455e-02
      1.1271646875277222e-01 7.7561593356977421e-01
      6.9435589436106904e-01 7.5509668399025747e-03
      -7.8878976242499677e-02 -1.1647622531222686e+00
      -1.3811417781435034e-01 -7.4901331694962914e-01
      2.2839849176783353e-01 8.9857019206405098e-02
      4.4075315473202856e-02 -6.7570909525950041e-04
      5.4076096989672628e-01 4.0045552661097494e-01
      2.8071862356363497e-01 4.9203126714841389e-01
      -1.9820057421208539e-02 2.0752797274724716e-01
      -2.4097856126917636e-01 4.1667131049269057e-01
      -2.2282801712357619e-01 3.8571266527151382e-01
      -3.1430766378526798e-01 3.4451214933186858e-01
      -3.1657859162985336e-01 6.5813246832623185e-01
      -5.4418865920336346e-01 -5.8892737882703605e-02
      -5.2692585504265288e-01 7.1847444359128418e-02
      -9.1270746521454685e-02 2.9102230672812559e-02
      2.1024423097574407e-01 9.3499907596868465e-02
      -1.9358007331566165e-01 -5.4422374296121390e-01
      -3.4206343007837375e-01 6.9329157146183396e-01
      9.4946062279383694e-02 1.0450024050330429e+00
      1.5164373438725707e+00 5.0085297312450183e-01
      5.0566526209457574e-01 1.6640451242389209e-01
      -7.4119562030777220e-01 -4.4989378469498159e-01
      2.3927706019927686e-01 1.5295251045358144e-01
      -2.8191180068730531e-01 4.8661092767681613e-01
      3.7567557838539434e-01 -7.7220473261512645e-01
      4.0498774790883185e-01 7.4185702269792797e-01
      -2.3259689197555114e-01 2.6754740624928353e-03
      -7.5346813597108397e-01 -3.0420153710113873e-01
      -5.9597036796846914e-02 -4.1170087313699250e-01
      5.7492874397537075e-01 2.6458025716313044e-01
      2.1611824139977751e-01 1.7789269832611976e-01
      2.6491125734633186e-01 1.7418921292497465e+00
      8.2317512196354664e-02 2.2253062601900062e-01
      -1.0358292283213442e+00 5.1277032511310028e-01
      -5.3310749118139367e-01 -4.9064597410759400e-02
      -3.3183104720944018e-01 8.7030072562625993e-01
      -2.2367469653861324e-01 6.8624084621951287e-01
      2.1969861140370880e-01 2.4052654495627254e-01
      1.0769231280573479e+00 -5.0885674234046141e-01
      -9.6265243664250377e-02 5.9733584888948443e-01
      1.0397037162597883e-01 -1.3937110302047542e-01
      1.3327042461591254e-01 1.1547975449175435e-01
      1.3767773461030652e-01 4.0949770735406787e-02
      5.1117991400076546e-01 1.8314288205084045e-01
      2.6551983667813095e-01 2.2726554028229301e-01
      -2.2280274049655924e-01 -4.4615984165353012e-01
      -2.5266854263290561e-01 5.9353500563427986e-01
      -6.9423291007504728e+00 -2.9392948868779306e-01
      4.3971889206535797e-01 -3.6433537279666423e-01
      1.6118805874364608e-02 -6.8386511091111213e-01
      2.4991739560213252e-01 1.4873353118120664e-01
      9.7867428347113081e-02 1.2101882500937625e-01
      3.0704130754063230e-01 3.5640029114413013e-01
      1.4174686151621765e-01 7.3712785132153558e-01
      1.5901263746409836e-01 3.4460978903467843e-01
      -4.0441910516782677e-02 -2.1540138705735210e-01
      -1.6524478752078814e-01 6.6932061247179309e-01
      -1.2745123829330879e-01 -3.0237773278009955e-01
      -5.1734525248215657e-01 -1.0094779021955100e+00
      6.3131911660373644e-02 -6.5557925507290671e-02
      -3.9307847813174418e-01 2.3899495359806691e-01
      2.5078837361607603e-01 1.6203702993337876e-01
      -1.9667612980482756e+00 -7.7938217823152051e-02
      -1.5873938472316362e-01 2.3864728677105609e-01
      -2.1823411057034908e-01 2.2475935469287578e-01
      -3.6801199922654382e-01 -3.2267616499091656e-01
      -9.1840322905420335e-01 -6.6469666189070464e-01
      -1.1813831645935637e-01 -4.4801639330827092e-02
      1.6236962061828372e-01 4.1458044273688471e-01
      6.8586179022279403e-01 4.3456376377053546e-01
      -1.1302370354447977e-01 -3.2504988558590776e-02
      2.2146569017634654e-01 -4.8743547557224681e-01
      -5.7136675149842409e-01 6.8801892391066299e-01
      2.6963355551494356e-01 9.5032593972727941e-01
      -6.3819123815379186e-01 1.7998138914844215e-02
      -4.3768566309218632e-01 2.9397658273003263e-01
      -1.1975860914173889e-01 -4.9003140613180896e-01
      -7.6532646479039901e-01 5.1167672680038434e-01
      -8.9651710793002515e-01 2.7901092723792559e-01
      -4.5437674459569373e-02 2.8105063696549404e-01
      -3.5265560062486018e-01 -3.4909325761121857e-01
      -1.5024577304370570e-01 6.1098098201617490e-01
      -6.9847003706601696e-01 1.1686641963844875e+00
      -7.7290859821556568e-01 2.3743590349058946e-01
      -2.1639123891058317e-02 2.5838476465804250e-01
      -4.6795621740610827e-01 1.9545401516634846e-02
      -8.4907751987119598e-02 -1.7310712669211326e-01
      -2.1245967537659244e-01 -1.3251992618012978e-01
      -3.1381262705592605e-01 1.1693714919074840e+00
      -1.1567918768864436e-02 7.1382988198364683e-01
      -5.1347256800055996e-01 -6.0472704107342001e-01
      -1.0070509128951008e+00 -9.1871565015051682e-01
      2.5315909656721813e-01 7.2692545073036616e-02
      5.4072539691406685e-01 1.3276908072405150e-01
      3.0155487563142732e-03 1.1101589065457729e+00
      4.5432302748708076e-01 -4.9700960003049216e-01
      3.4172413302258831e-01 2.0665669788232069e-01
      -3.1299487392933556e-01 -3.5179830794917855e-01
      -6.3581445552428095e-01 3.9432928117577931e-01
      -2.1828097405377989e-01 1.1834469314679736e+00
      -1.4807928993170247e-01 2.9058915391478163e-01
      -1.3045216191326861e-01 1.0425025782455355e+00
      9.7829751065626236e-01 -8.6120516898897925e-01
      -9.3883577678287797e-02 7.7626261935839769e-01
      -1.3080404904200352e-02 9.4174307859809414e-01
      2.1389678771138326e-01 -7.6165133097071472e-02
      1.4992975357280544e-01 -9.8968151669980065e-01
      1.3512753034479086e-01 2.2383765508782935e-01
      3.0829465263254513e-01 -3.8880516880048266e-01
      -4.6801963070071573e-01 -4.8291617308057799e-01
      2.2195493685556955e-01 1.6737436295309702e-01
      -7.7977351696835262e+00 -3.9368354265181249e-01
      4.5759623730580773e-01 -4.1522685187918312e-01
      2.5137695046170344e-01 -1.1139062759419365e+00
      2.9382336995090441e-01 2.5992796655686023e-01
      -1.2627114604458914e-01 2.3635237427313580e-01
      1.5704302698783063e-01 5.2470657070880666e-01
      1.8062909913371902e-01 8.2835031344404386e-01
      2.5537907507948654e-01 4.1590460197215162e-01
      -3.8295595812383060e-01 2.4023387354496423e-01
      -2.6408606425809505e-01 -1.9446122847870714e-01
      4.9100080275547117e-02 2.2901900222673499e-01
      -2.9739816580218392e-01 -8.6182530435191695e-01
      4.8696025277918353e-01 3.3554787939629248e-03
      8.4858361266977905e-02 9.2321735716577247e-01
      4.8709635684457309e-01 5.4757001927593507e-01
      -7.7992713702699301e-01 5.3731676870312239e-01
      -2.7528427468543004e-01 -7.7541040194591959e-01
      -1.4504749301144834e-01 1.3134879833932944e-01
      -7.4709522303512521e-01 -1.5875265366207769e-01
      -5.4855636526826979e-01 -4.0536715923379651e-01
      3.7522169581786935e-01 -3.3279521193629652e-01
      4.4317459896101374e-01 9.6554596854560326e-01
      9.1871733126047106e-01 5.9468279530568291e-01
      -1.6448872689415181e-01 7.7222006054123896e-02
      5.1723307171122523e-01 -6.5843112361772760e-01
      -3.2633295333370455e-01 6.1132060860719602e-02
      -3.2421735069487817e-01 6.1559128037091471e-01
      6.0286242473072915e-01 6.3135137169013100e-01
      3.6413559622656294e-01 2.4221533382241445e-01
      -2.3409077099764813e-01 1.9070156464962054e-01
      -8.8767030564701332e-01 -4.7553365951830467e-01
      -6.3324357016837240e-01 2.5956978248010087e-01
      -2.4741211880288122e-01 4.8159196913015645e-01
      -7.3105143312816090e-02 -1.7041056854677269e-01
      -6.5100273895055932e-02 6.2321447899576932e-01
      -3.5772968305002106e-01 1.1070003762815133e+00
      4.4733215245160429e-01 4.7720272332188218e-01
      4.8957956969144717e-01 -2.2199637043645659e-01
      -2.6556755151919403e-01 -1.3626839048420408e-01
      3.3687558240531451e-01 3.8131398353423751e-01
      -3.7384272602489799e-01 3.1677917070517099e-02
      -1.8358863467884887e-02 6.4516345394891184e-01
      -2.2067478281290687e-01 -3.8400962469646173e-02
      -6.0944321314379525e-02 1.5855531577103085e-01
      -9.1108641305801707e-01 -8.4843745805358417e-01
      3.2148642631658003e-01 7.5282572671588485e-02
      3.8438306100831043e-02 3.4027970051678180e-01
      5.5970567619480582e-01 7.7633257821985424e-01
      -1.3710586333153538e-01 -7.9171689774663179e-01
      6.3551158216721948e-01 2.8738931093860565e-01
      -3.4201488597749757e-01 3.8746321478142326e-01
      -4.7337839312676799e-01 -4.0119561184769997e-01
      -2.8032992183948430e-01 1.5022487144300705e+00
      5.0265421987483616e-01 -9.4123817601973764e-03
      4.2074956578457978e-01 3.3255129742270206e-01
      4.8738817814438629e-01 -1.4524043849282633e+00
      -6.8575083467114850e-01 -2.3099935222418069e-02
      -3.8243182741138332e-01 2.0654603791604531e-01
      5.2453289781307810e-01 -1.2843003924190899e-01
      6.6077318267037666e-01 3.1472834542197636e-01
      1.4783257714823350e-01 -1.1445520547252000e-02
      5.5900653422440320e-02 5.1770761538834387e-01
      -1.6850721671646526e-01 -5.0392154820143154e-01
      4.0153821866197831e-01 -6.9814416055519224e-01
      -6.2309110637273690e+00 -5.9335250750758239e-01
      3.3746731889439507e-01 -5.7999545349739690e-01
      2.2059245611625394e-01 -1.3277879954179275e-01
      3.9243901283053530e-02 -4.0210423526131506e-01
      -3.5533662764003110e-01 1.8866886007681807e-01
      1.3822174196475559e-01 2.0609589480643822e-01
      -1.7943013655389906e-02 6.4298884731797545e-01
      -2.7951952092827498e-01 2.1993167356501028e-01
      2.4188027885353094e-02 -2.7571429993666319e-01
      -4.3501545462122509e-02 -3.9819743986750955e-01
      5.1649603710309959e-02 1.2337021915044783e-02
      -2.9792480006138056e-01 -7.6354309752966254e-01
      1.9910808707794980e-01 -3.2791440730574944e-01
      1.9153863873478116e-01 -2.0996891765800968e-01
      2.0610284091391617e-01 3.8786248843276822e-01
      -4.4486185004608453e-01 7.4649665001548704e-01
      2.3946934223649344e-01 2.6668112664183785e-01
      -3.9073498043556032e-01 -3.7547447670072807e-02
      -4.8984515476544921e-01 -2.7005504420075976e-01
      -4.6020000153241131e-01 -3.5158159169581026e-03
      3.4844616919766629e-03 -5.5227901684759724e-02
      4.3272450464259865e-01 5.2988444364580556e-01
      3.1203656595153201e-01 3.7569931447972482e-01
      1.6833680877352053e-01 1.2909588358473839e-01
      1.9879206353476372e-01 3.7044798704956090e-02
      3.8074318377782530e-02 6.3233514573827954e-01
      -1.7307103574512792e-01 -1.3841397511548972e-01
      4.0105225158218807e-02 7.3165583687766811e-01
      4.7032768174706657e-01 -8.4264929484798790e-01
      -3.3387646702116580e-01 -4.4759989035136533e-01
      -4.5390334784210562e-01 4.3196812391797063e-01
      -5.9792571489382995e-01 2.2960408737899229e-02
      1.5277462598811475e-01 -9.6226535468125901e-02
      -4.5232541489374162e-03 -3.3050321984059672e-01
      -2.1141616557283810e-01 6.3676217774529209e-01
      -1.1894492914730215e+00 8.1814229707347597e-01
      -3.4811074688550106e-03 1.8888354889904821e-01
      4.0478512171992104e-01 -5.5436740881053626e-01
      2.8064951456932985e-01 -2.8501028127148448e-01
      -1.9335038730626194e-01 -3.2085304330257719e-01
      -1.2815669397212381e-01 -1.6845611767505063e-02
      -1.9509806238461375e-01 7.0050986078664224e-01
      9.4347056251225733e-02 -2.9377637824006011e-02
      -5.6888462084652258e-02 3.1184955751195254e-01
      1.0224701197353561e+00 9.5292963947192805e-02
      -5.2769597425316384e-01 3.5775711883593692e-01
      -2.5232930210952176e-01 2.3875146912502671e-01
      6.4514781800587229e-01 5.1682345370527150e-01
      -4.3814200274071319e-02 -2.6301578301780215e-01
      5.1830856604376074e-01 2.3685397150179696e-01
      -1.8803008805371266e-01 3.4060287049009957e-01
      5.0092587438140090e-01 1.0786868230292995e-01
      -1.6370975709860050e-01 1.0919184860471702e+00
      2.4982800348372022e-01 -3.0388301175922822e-01
      2.3474091663741803e-01 2.7906220624011518e-02
      7.8524243144337424e-01 -4.4548621304641395e-01
      7.9218075749270078e-01 8.3489044028437631e-01
      9.5774623318930330e-02 3.3297995899462313e-01
      -8.2295525515452121e-04 -2.3871324569969235e-01
      -1.7618303029534424e-01 4.8165274491361348e-01
      4.1446824365428642e-01 7.4657263765787921e-02
      -3.1831804362584204e-02 -4.0892105759328351e-01
      9.2813561104667971e-02 -4.8960126692778788e-01
      -2.0183553313056848e-01 7.1514293374397353e-02
      -7.5265345942349127e+00 -7.0707104608808125e-01
      6.2550325739470752e-02 -2.1743866742440593e-01
      -2.2940593553816002e-01 2.0187425352932653e-01
      1.9831030047816189e-01 -2.1639513597200336e-01
      4.0566977049537817e-01 1.3001937466531335e-01
      3.7836398186571682e-04 3.1322965758730018e-02
      -2.8830696681085517e-04 7.5143811642161873e-01
      2.3610855056446087e-01 3.7797071635371005e-01
      -1.6727499136106305e-01 -1.1897189518949830e-01
      2.2165056698245400e-01 -3.3702133137642637e-01
      -6.1880155837926620e-01 -9.3502750930655396e-03
      -3.1536067232458297e-02 2.8658807472655862e-01
      -7.1406554522235169e-02 7.1332712730372685e-02
      -1.6800362994734003e-01 -2.4411845209576566e-02
      -3.4728776573993753e-01 4.7754010140521080e-01
      -1.6261486751243470e-01 4.6220784287770761e-01
      5.2499639252401004e-02 -3.0842616839293935e-01
      -6.6914640279217141e-01 5.8464654239086485e-02
      9.8764309107091081e-02 -2.5813411760482796e-01
      1.4439544760657080e-01 5.8462266850592991e-02
      -9.6613288138399436e-03 -2.5447326307017637e-01
      1.1121842023346855e-01 2.6449984688384859e-01
      2.4776397278132239e-01 3.2506049734796083e-01
      5.1771263568391367e-02 2.6083051965125011e-02
      1.6061172464648973e-01 -5.2998583879368244e-01
      -2.4893341089845827e-01 -5.8463903841407643e-02
      -8.6274509408010194e-02 -1.3634336062327525e-02
      -1.9147950318922766e-01 -2.3785585095718831e-01
      -7.6629459397529187e-02 -5.6159706339634252e-01
      1.3508031760155356e-01 -3.3336538139484984e-01
      -2.0013594671267990e-01 -2.1433594437933545e-01
      -6.1884960932954780e-01 -7.6792788999674633e-01
      -5.6689578682759667e-01 -2.8400541435794668e-01
      5.4785831047041468e-02 -8.3802444313863700e-01
      -1.1301555463579861e-01 -4.9344948164858443e-01
      2.4227933093863566e-01 3.5369004064077569e-01
      -8.8311601709094434e-01 -2.6423270334741084e-01
      -3.4241552888829208e-01 -3.5000805522281070e-01
      1.5392212062102034e-01 -1.6910000108214404e-01
      -3.2905715268680230e-01 -8.5049922253227628e-01
      -3.0616890053547940e-01 2.3656868941764281e-01
      -6.4502689056808823e-02 5.1378976117845665e-01
      5.0683549714888176e-01 -2.5398326717164915e-01
      2.0168250794136469e-01 -2.3054389324918428e-01
      -1.1151737139967075e+00 -2.4023760697100338e-01
      -2.5159064535980963e-01 -2.1002135928020093e-02
      4.6893640703277795e-01 -9.4441044524107023e-02
      3.1380391174647132e-01 -7.4158092073176773e-01
      5.8654891992779856e-01 1.0531520308466627e-01
      -3.7438603747865490e-01 -3.8411525564904292e-02
      4.2323610761139069e-01 1.9988448686376856e-01
      -1.7297531428985535e-01 7.4862426274480823e-02
      -9.3990988100583317e-02 -7.0898182862792780e-01
      -1.7068051442448726e+00 -2.6945565206314903e-01
      4.3291532944732442e-01 4.6028562559768293e-01
      1.3570228268440463e+00 2.0941304684895781e-01
      7.5185998854485203e-01 3.7327343681690900e-01
      -1.8489078345485802e-01 -4.1034745886588614e-01
      9.2511434076306742e-02 -1.8958517200712147e-01
      -1.1598792536567107e-01 4.7805097658825424e-01
      6.4776371412035150e-01 -1.5091910094047367e-01
      -7.8525561258295240e-01 -2.2510390333570457e-01
      6.5143782681332987e-02 -2.0187668400603567e-01
      3.3569534854241528e-01 -2.0924745998111390e-02
      -8.3559792389669703e+00 -6.9955147661261174e-01
      5.4232283999265762e-01 -1.2800472112857658e-01
      4.0558337742246225e-01 5.6193349769221440e-02
      8.6795006250678888e-02 1.0949119245483648e-03
      -6.4587009573174681e-01 -1.8577744916042441e-01
      -1.3750693959549659e-01 1.3717479521412568e-01
      -2.9036753737704438e-02 6.1817900909856616e-01
      -2.4281176965415697e-02 -1.6175220130771183e-02
      -7.8073248990446631e-01 -4.5019645583511336e-01
      -7.1217152235946588e-02 -4.7154933205297977e-01
      3.9844377828080946e-01 6.1757123570562311e-01
      9.9833706486664375e-01 6.1287887016104925e-01
      1.0218980654530388e-01 -6.6855460141385492e-02
      -6.7967188165620085e-01 1.5315422620185315e-01
      -5.8903686751489448e-01 1.7577504710362946e-02
      1.1932493032328274e-01 1.9833634400852954e-01
      3.6748894432817347e-01 1.1981175968549276e-01
      -1.7954115916481985e+00 -7.7216442603359095e-02
      9.4433042501428019e-02 8.3285211947110782e-01
      -7.1457546572965458e-01 4.8923915074079255e-02
      6.1087045995111788e-01 -2.2572507124867586e-01
      5.8204294892327618e-02 -1.0995473168817095e-01
      9.7750465266986344e-02 8.1901093508258735e-02
      -6.1517648940459697e-02 1.2908128889598164e-02
      1.2924055693872596e-01 5.2235055471299430e-01
      1.2808398807692550e-01 -5.3510823300700583e-01
      -2.4077716342917369e-01 -3.4738223130075674e-01
      8.3866777432975131e-02 -3.8022107199373922e-01
      -1.3268576628855594e-01 -7.9924122020141231e-01
      -3.8797004453943640e-01 1.0052714610221286e-01
      8.4706016889086994e-02 6.5885568536774175e-01
      2.8166766609827899e-02 2.5065900651648748e-01
      -4.1535809071995916e-01 -4.1226212765646680e-01
      -2.7872404074684443e-01 -5.1546728082567539e-01
      6.7953461781108004e-01 3.1384130519317216e-01
      3.4689306656022351e-02 7.6165507542878597e-01
      -2.1272722114168370e-02 -4.0299792319263145e-01
      6.4120413056747150e-02 -3.3446916127155174e-01
      3.3775030022247771e-02 1.7537835280987617e-02
      1.3311661732014507e-01 -5.0602251512792218e-01
      -4.7051985594407969e-01 -1.0179581433170648e+00
      -1.3298672476779855e-01 -2.3422724209607129e-01
      2.7063967049288651e-01 -1.2327065555636615e-01
      -7.4919803855241669e-03 5.7703019311989241e-02
      4.4828461037666245e-01 -3.2690206805029504e-01
      -2.0536944186857803e-01 2.0113256792708578e-01
      1.8709092410589581e-01 1.2044480576310258e-01
      -2.3297158726112030e-01 -3.4899042411021569e-01
      -1.6164087487254408e-01 3.2538828743415560e-01
      6.8215895483016886e-01 6.0268696334387706e-01
      -4.8052255210675951e-02 3.3014236062162144e-01
      -1.2275118952591127e-01 5.1682748087193831e-01
      1.7336021093715606e-01 -2.6481858332817970e-01
      -2.1113766567350010e+00 3.1194108028407896e-01
      4.8620365540973522e-02 -5.6201567941616473e-02
      -1.4695976032136954e-01 -2.3908993656649802e-01
      -1.3439837855836481e-01 -6.1927759000249594e-01
      -2.2035118548169219e-01 3.1994579858726974e-01
      -1.7820465229140486e-01 2.7786291202288654e-01
      1.0701426999969456e-01 -3.1072346239339693e-01
      7.6759051517274601e-01 1.6612300983928577e-01
      2.6792801598698318e-01 -7.5916959993886735e-01
      1.5280409552271371e-01 7.1342225456865316e-01
      6.3953322979614048e-03 -3.0631900550263273e-02
      -7.3416881839458679e+00 -3.6235581525083077e-01
      6.0164194323654073e-02 1.0543919738732903e-01
      2.7071106983114224e-01 2.8895687574270540e-01
      3.5651316937400085e-01 2.6947737386685755e-01
      -4.7478127276693355e-01 -5.0548456725239520e-02
      1.1031119648008099e+00 -3.4632606601310278e-01
      -2.9043477915519889e-01 5.0781163422851772e-01
      8.2890830005624472e-02 -3.0874441106553491e-01
      -2.6427172443612246e-01 -8.5806963366924338e-01
      3.8067382132737038e-01 -8.5601833263348681e-01
      7.8003634504341515e-02 5.9143984668951564e-02
      6.3283410273151686e-01 1.2436652692536838e-01
      6.7494306389260894e-01 -1.4439628421713227e-01
      -6.6522644052606639e-01 7.0093586640700056e-01
      1.9147444551031295e-01 -5.7683669919824487e-01
      7.0962530030777404e-01 -8.2235976568273569e-02
      2.9734789372051328e-02 3.5392737730627716e-01
      -7.0220305950767425e-01 6.2087652712271635e-01
      -1.6969003509629477e-01 -1.0066396807450685e-01
      -7.0477272367625521e-01 7.5922160642701209e-01
      6.7330997308048934e-01 -5.5372977436767480e-02
      -5.8395515071652124e-02 -5.9558462927760503e-01
      1.8881513855303894e-01 5.0291090379434862e-02
      1.0830358460292902e+00 -4.9389064127916721e-01
      -4.9149971907187523e-01 -3.2012363803463012e-01
      6.5976120543429037e-02 -1.8911011936982780e-01
      5.3682653929044276e-02 -4.3936627457680849e-01
      2.0523396517224984e-01 -6.2817430570391011e-03
      -2.1291897833258353e-01 -1.8209422056064770e-01
      -8.6448693599384438e-02 -1.9187104710234776e-01
      5.5590197691841314e-01 -3.0518877453305904e-01
      5.0309616386551337e-01 1.6007100522677362e-01
      4.8479694148036878e-01 -4.9130445976145196e-03
      -8.0596035947006217e-01 -1.0872937598983170e+00
      2.8487911406427174e-01 -9.8822750557582639e-01
      9.6339407337891536e-02 1.2396810967353299e-01
      1.5377213822637319e+00 -4.9569200428415588e-01
      -1.1741458548831153e-01 1.9269314654247033e-01
      1.3075855110943765e-01 2.1812932722720926e-01
      -9.3679171131761926e-02 -3.3776502143966891e-01
      3.7022637202216285e-01 -3.3418270214252399e-01
      -4.4534157532794777e-01 -5.4334843358702145e-01
      3.1805060740648899e-01 8.3503875239735215e-01
      3.2664120444471045e-01 6.4534169257137952e-01
      1.3771963999438275e-01 1.6766563763174175e-01
      -7.6848269082767107e-01 -2.1753716974459619e-01
      9.6867208040471900e-02 5.2102398630394864e-01
      -1.4241825147377760e-01 -4.0219513957980163e-01
      1.1056931333144102e+00 4.6031743514493123e-01
      7.8132896217070480e-01 4.9098364498919245e-02
      1.0255558393419872e+00 -2.7933044771077908e-01
      -1.1056910277054764e-01 -2.2766879463312445e-01
      3.8452766342067846e-01 -2.2204637550099396e-01
      8.8611735479888409e-01 -1.0221390437073206e-01
      9.4762647701207159e-01 -2.5223430040476880e-01
      1.3781644215362467e+00 -2.9482888043873978e-01
      -7.5337313067068451e-02 1.8046646039508358e-02
      -3.4188873736542363e-01 -2.1084845602018223e-01
      -9.1518056505416764e-02 5.3766367943736175e-02
      3.6641511246619529e-01 3.3480896711066682e-01
      -1.0390690167667836e-01 4.0373418260561827e-01
      2.0037668337733408e-01 8.5762695528675148e-01
      -1.8722128040781419e-01 5.7084504519502527e-03
      -1.7920487691057418e-01 -2.3767735810489224e-01
      -7.2653079715264353e+00 -1.3333861102835507e+00
      -2.7757140246052803e-02 -2.8595477913331102e-01
      9.4762360662866030e-01 7.5392973780672501e-01
      -3.0186012519526417e-01 1.7630908863328537e-01
      7.4454006835197400e-02 1.9788297698294494e-01
      1.0231904152131135e-01 -1.6979075678976616e-01
      -3.3751547537462545e-01 -3.7126291544231299e-01
      -1.8448597761218022e-01 5.8765669280678952e-02
      -8.2783263151331432e-01 -1.2090984742918853e+00
      2.7067572985535016e-01 -1.6899482890530670e+00
      1.7478737757104471e-01 1.1356610732639789e-01
      4.8525895723086016e-01 -7.6526469622075644e-01
      -1.7008290792038039e-01 -4.9807016654430875e-01
      4.7687882982542801e-01 7.8917911181177069e-01
      -6.1091406874147089e-02 -5.0410918565538150e-02
      2.3433059046998655e-01 2.0701173707422443e-01
      4.6162708798451574e-01 1.1216044306470030e+00
      -1.9928971005530341e-01 2.5774997782173492e-01
      5.2123823904499537e-02 8.8755932027070494e-01
      -5.9631563555793810e-01 7.2959671563522499e-01
      2.8850959553204710e-02 1.9733646728718421e-01
      2.6406621677034570e-01 -5.2473901119850674e-01
      2.9951382990261427e-01 5.5092340963239050e-01
      1.5235249470781005e+00 -7.2180016803973557e-01
      -1.1285223378433111e-01 4.3941129910263527e-01
      1.4240004709421605e-01 -2.7024029504695690e-01
      -6.2692308712445396e-02 -4.8195567126079297e-01
      4.5857037138223550e-01 -1.3495334052754171e+00
      -2.9566375281140073e-01 -6.2392731922844546e-01
      -5.2103192420031100e-02 9.0129478181524947e-02
      4.5691981807635357e-01 8.2985590767646689e-01
      5.8824530092663663e-01 -6.4419663558448503e-01
      1.5919694967289377e-01 6.2008262880400034e-01
      -6.1496621108049410e-01 -1.4858155773372541e+00
      2.2762441913109124e-01 -4.2311478236082917e-01
      -7.7003082931023422e-03 3.1483156528447942e-01
      8.7358640244459018e-01 -5.9959380284098784e-01
      -2.4536586043968334e-01 4.8835444221991993e-02
      5.5643671935464889e-01 1.2051543335362953e-01
      -6.4910530563309943e-01 -5.8394972358068109e-01
      1.1263217242553920e+00 -1.4057433381192825e+00
      1.5886941035955435e-01 -6.9161033220412127e-01
      7.7654443877697252e-02 1.2208793845408572e+00
      2.3575985046447953e-01 -4.0683134502183227e-01
      8.2126053274039057e-01 7.7284589615886778e-01
      -1.1101753082256243e+00 2.1235170887803226e-01
      1.0105980635953007e-01 1.2160922058897572e-01
      1.0378251371470844e+00 -4.0985449421294456e-01
      1.3377047107358919e+00 1.4803211370521014e+00
      -6.7156827437533173e-01 2.0933444906936988e-01
      5.2605769147047687e-01 1.8177811481981146e-01
      -3.9639647673548950e-01 -2.8881770730724304e-01
      5.5883229664911782e-01 -6.5875965683455473e-01
      -1.6780882085307508e-01 5.6224500888950391e-01
      1.1252389775129155e+00 2.7288825029641943e-04
      1.3438201735931523e+00 -6.1452941127200011e-01
      -6.3925212169499390e-01 -2.3352942483285286e-01
      2.9924939549590525e-03 2.3294519459242666e-01
      -2.1660312490639416e-01 1.9933728229439596e-01
      4.3191009812878434e-01 2.2888626033009785e-01
      -1.3765080994954709e-01 -2.4608385376592914e-01
      4.2796914357143112e-02 -8.2776335944560575e-01
      7.5740215588033100e-01 1.8678335493089276e-01
      -3.9077505319546034e-02 -2.1579206632809719e-01
      -5.3714484834262324e+00 -5.1395386948148980e-01
      -9.4824255941174773e-02 -9.4572221293350378e-01
      -1.2058032251303698e-02 3.8243978675118688e-02
      -4.9967809415452114e-01 4.4616145189949186e-01
      -4.8764794847753262e-01 2.4814047177001664e-01
      3.7897889345073799e-01 -5.8333554787893527e-01
      -8.9394262123132628e-01 1.3704873071404058e-01
      -7.2031593636422225e-02 -4.6583974010153756e-01
      -5.4219464917346083e-01 -1.0063482386751017e+00
      3.5883392303776701e-01 -1.7430971312352963e+00
      2.4607362868191277e-03 5.5122160326374037e-01
      -6.0697868698250092e-02 1.0718907843194612e+00
      -2.2389171810675751e-01 -5.8863803974982420e-01
      -3.8993530036600282e-01 7.0833862914871637e-01
      1.6622346575072013e+00 -2.0665351539052028e+00
      4.9391271841521533e-01 3.4261566856795472e-01
      1.3244008044543104e-01 9.5921033571712200e-01
      -5.5195134675991120e-01 -9.3305931866473651e-02
      3.0375760337533042e-01 1.1100049460952282e+00
      -1.2934324144002440e+00 9.5221291682090051e-02
      -2.0417493372859506e-02 6.6168088612846218e-03
      1.1419591987441868e-01 -7.8025576330807522e-01
      6.6295300566884758e-03 6.4101735004160454e-01
      9.3328677577698915e-01 6.0283998117313131e-01
      5.7951763893605346e-01 -1.2354569080538014e-01
      -1.7613629479541268e-01 -2.3022969725641740e-01
      -1.0725977798599898e-01 -4.1784184209368008e-01
      3.2496503145067940e-01 -7.4590932054318260e-01
      -4.6136542974603517e-01 1.0723431420593788e+00
      3.9112379446790152e-01 -3.6481369232197824e-01
      5.5502758233180483e-01 -5.2827556842663037e-01
      1.2294586114087797e-01 -5.4273098163856816e-02
      -1.4078576350054497e+00 -6.2398319281296100e-01
      4.7121237883234701e-01 -8.7800010124417394e-01
      7.2630838929187369e-01 -2.5571296135849192e-01
      -9.6913376813468100e-01 1.6496103586880853e-01
      1.5831637305315909e+00 -5.4851134995647344e-01
      -7.1711987959988255e-01 -9.6413368777005326e-01
      2.8299951495832099e-01 7.8367396772040854e-01
      -8.7506847976216606e-01 -4.0989730901809740e-01
      4.4786930759386751e-01 -5.6576486409906757e-01
      2.4898203724957699e-01 -1.6118528219731743e+00
      7.9980033356448577e-01 2.8562467710007078e-01
      -3.2902202615177445e-01 4.1225135627814852e-01
      5.5223403703851437e-01 9.8586390885515585e-01
      -7.7747236000717734e-01 2.6263681028472013e-01
      -4.6913147261867559e-03 1.4270341755218111e-01
      -1.2839297900175024e+00 -6.2917741196340982e-01
      6.6974801932702366e-01 1.1114679104014047e+00
      -1.1478816715006690e+00 1.7741952292669602e-01
      8.9801137485854854e-01 -7.4541316022435811e-01
      2.8902658252581620e-01 -7.9397347095548590e-02
      9.0243002817541129e-01 -6.8124451988340684e-01
      1.7166834090258748e-01 1.9163480205405556e-01
      7.2798290464729376e-01 -6.7653246782335141e-01
      1.7058519995077268e+00 3.3319911092068660e-01
      1.7699467409231877e+00 3.6535852004616419e-02
      3.3873785223598540e-01 3.8861618487492167e-01
      -3.2614241883478323e-01 1.0638155939135663e-01
      2.7478695797913871e-02 7.8294938204594103e-03
      1.0557442666936019e+00 -4.4914989329879995e-01
      8.6961210438813574e-01 -3.7129491120958913e-01
      1.0706465190531171e+00 5.8781897107028386e-02
      -4.6056000200142250e-01 -6.2124155304729978e-02
      -2.0735709754444258e+01 8.5945240800890532e-01
      9.3359078642917059e-01 7.0163937061497172e-01
      -4.3871304015721307e-01 6.5816379108485124e-01
      3.6857015044335401e-01 2.0244757884155143e-01
      1.9476639582835167e-01 8.7861465301190295e-02
      -2.2485289047388621e-01 4.3168786798720610e-01
      2.6103018855092031e-01 -9.7118279705876853e-01
      -4.1288569761591710e-02 -6.3141003956179398e-01
      -8.3248046701484024e-01 -8.8495491013507688e-01
      -1.0201036953037350e-01 -8.5496781819677570e-01
      -4.5018764916706483e-01 9.7672414264472637e-02
      -5.3123274761154349e-01 -2.3198900952140522e-01
      -4.0601417112552790e-01 -2.4959175603450670e-01
      -9.4408860577808751e-01 -3.1281451318258402e-01
      1.4219060940470579e-01 1.1768630999828829e+00
      5.7346097643702754e-01 -4.5749229898137284e-01
      5.3745193843804706e-01 -5.5934764142304860e-02
      -7.5988242861627331e-01 -8.3080019602133837e-01
      1.2772913613983403e-01 2.1065138943560058e-01
      -1.0977145601229481e+00 4.4834234323953787e-01
      -8.8720720389463459e-01 4.3840494825047274e-02
      -1.7132390743209028e-01 -4.8221682328186577e-02
      1.9264225475725336e-01 -1.0372896870311306e+00
      7.2874410691934510e-01 -5.1189529067406481e-01
      5.6807662699729966e-01 -1.1514475183176848e-01
      2.7400329941506157e-01 -8.2963512173968124e-01
      3.2863151514730758e-02 1.9309533473447610e-01
      1.8740423058508537e-01 5.1363593081658152e-02
      -9.9129104274574353e-01 3.6204048149489365e-01
      4.2700399643318299e-01 9.9127225270746011e-01
      -6.0423636669820469e-01 -8.9893806209802629e-01
      8.2653492272251738e-01 1.0410346548489873e+00
      4.4671373939614194e-03 1.6841769834962186e-01
      -2.6753678515343610e-01 -5.8582514858863000e-01
      -1.3952429290029286e-01 5.6004694629918106e-01
      -4.0634078509493626e-01 4.6380649444133011e-02
      -1.5438840076693130e+00 -3.2605839963197181e-01
      5.6814621069506033e-01 -1.8058843146241088e-01
      1.9121266257501240e-01 -1.0438928063637543e+00
      2.2451996476170660e-01 -4.3907894132859382e-01
      -1.5898233484364765e-01 -7.8353197390640705e-01
      -6.2774299937755418e-01 -6.4522336212989173e-01
      5.7683746803694458e-01 -4.4458550467205743e-01
      4.0018290215813893e-02 -6.1286883502244793e-01
      -1.6370755668699469e-01 -2.2411529033605040e-01
      -4.7737907070280172e-01 -6.0393826984572324e-02
      -2.7042101052645884e-01 -1.0533915318671703e+00
      -3.0939725826690895e-01 -4.5766788250977403e-01
      -9.9528015197962927e-01 6.9364624818164788e-01
      4.1041160261455567e-01 -4.1305065790905066e-02
      6.3086972182474210e-01 2.3262691076970876e-01
      -4.6704424113245158e-01 6.6050815559653211e-02
      -8.5067374063262605e-02 -2.8809579107343827e-02
      -1.7656006860859885e-01 5.8438749351588201e-02
      1.1106266922425881e-01 4.1747475757204155e-01
      -7.9362771230716600e-01 -8.5684731752421051e-01
      -1.2077184315513755e-01 7.4768340117280585e-01
      2.5275812277960907e-01 -5.7141121377657131e-02
      -5.4791769223690223e-01 -4.0823639088559988e-01
      5.9698277593399807e-01 3.0577301952455926e-01
      -3.5097075206953166e-01 3.7863474085598448e-01
      -4.3210571874335124e-01 1.9511473405898603e+00
      7.9097169760623143e-01 1.0495797195568185e-01
      6.2017422244720521e-01 1.4829130665892575e-02
      -1.7314867848824534e+01 7.1278834244805056e-01
      -1.5795940655800908e-01 -2.4682657852657336e-01
      1.1004026114554953e-01 -1.2060134635538064e-01
      3.9837616695998439e-02 7.0578284297799873e-02
      3.5555801194827436e-01 6.0062788858097051e-02
      -1.9425673627642998e-01 1.6143298011867593e-01
      1.5905232562632296e-01 2.0318685215555110e-01
      -4.6753557782771085e-02 1.4525314924194798e-02
      -2.7189813809115582e-01 -1.9965341949941370e-01
      -2.5655994440050178e-01 1.7998395273465775e-01
      -1.6090342230577750e-01 -3.0203963606802031e-01
      3.2577300842908774e-01 1.0058096745262256e-01
      -1.2206848891563668e-01 -2.3525506257433274e-01
      -3.8978784190035076e-01 -2.7743345588187746e-01
      -1.2423889199823410e-01 1.3695001338161221e+00
      -7.2243074704135135e-01 -1.7856637253464980e-01
      -9.9064995706740475e-02 8.1270831301751423e-01
      -3.2113198246753161e-01 1.6752730415616330e-02
      -1.2604576124053798e-01 2.8219876818201794e-01
      -4.8962709932944981e-01 5.6220109709745031e-02
      -4.8629567505613125e-01 1.9516800190008482e-01
      -2.3448777190432049e-02 -3.5469752771692903e-01
      -3.5806506118256209e-01 -2.5284196194938452e-01
      6.9382163178258105e-01 -4.8519999181504493e-02
      -6.8858634413782260e-02 -7.1718437899412879e-01
      9.2315223437406252e-02 -3.7795539416604640e-01
      2.9058992302107911e-01 4.6093301261169789e-01
      -5.1607295123220565e-01 -4.5457297875967850e-01
      -2.7649397096043810e-01 7.5274329520091623e-02
      -1.2762091929243866e-01 -3.4311445016037423e-01
      -8.8359079146623984e-02 2.5311728287766816e-01
      2.2332367598759068e-01 -1.1204403937535194e-02
      -1.0304134713648475e-01 2.8051017928248417e-01
      -1.6875323437623843e-01 -5.3487658854873654e-01
      2.1144315142800499e-01 -8.2661039780605503e-02
      4.5408666677387804e-01 -2.5195143517144813e-01
      -1.7670687954875133e+00 3.4340505684120809e-01
      1.2441290178697948e+00 4.6457204609090613e-01
      -5.9464352518404140e-01 -4.6764829008849640e-01
      -6.6548052029423310e-01 -4.2209063731282703e-01
      9.4815652183080390e-01 -6.7354159482287412e-01
      -3.5398742009970957e-01 4.5216548135587825e-01
      3.9222266106918903e-02 5.6764349493555200e-01
      1.0077194862445968e-01 1.0284687831500547e-01
      -2.9763089940623805e-01 -1.1406769174383483e-01
      -1.0315350750859716e-01 3.9797724045207317e-01
      1.1891970567923443e-01 -8.2271963385366587e-01
      -1.8345888689744769e-01 -3.2813446273943982e-02
      4.8299838799796902e-03 -1.0042821808725340e+00
      1.1255137988578474e-01 1.9410709871621415e-01
      3.4448668038550023e-01 6.3572480889289074e-01
      -3.7718069479783450e-01 3.8099613781854480e-01
      -1.9801582460575040e-01 -3.7901197481359304e-02
      1.7243116504037323e-01 -2.0630504731366628e-02
      8.3342606048016077e-02 1.5101470299509523e-01
      -3.4719109398723891e-01 -2.4090847537529289e-01
      5.7676699930667874e-01 4.5035220751096261e-01
      4.0531758864574202e-01 1.5438155749880761e-01
      5.9520666193260609e-02 -2.4523154762973132e-01
      3.6449143111888577e-01 -4.7052909091343115e-01
      9.1999587063907012e-02 1.3887230507083581e-01
      -3.3510202275965728e-01 5.7812659265609123e-01
      3.3357170447683493e-01 2.3518442031335746e-01
      -2.2652794592337300e-01 -9.6572756771445348e-02
      -2.2304856954374273e+01 3.5499036259981204e-01
      4.4581823722713143e-01 1.7744548185999473e-01
      -6.4925044068549786e-01 3.6463504313732042e-01
      -1.1317399661890118e-01 -1.7029386948191885e-01
      1.0641227378585266e-01 2.9733848616650141e-02
      1.1224807398205144e-01 -2.8526046391268051e-01
      1.9616810495990231e-01 6.8763267862135158e-01
      -2.8527060200353149e-01 3.7548424952205528e-01
      -9.3730897023242421e-01 -2.4698783406372127e-01
      -1.6767423525951550e-01 -1.6729246417559582e-01
      -2.8068182622607664e-02 3.9406797890807049e-01
      -8.6617958481799429e-01 -1.1004306672282664e+00
      1.5382336690750151e-01 -2.4322180100568605e-01
      -6.0742848477363443e-01 9.7371828944930419e-02
      -3.0033395115481776e-01 1.1023928975028685e+00
      1.7085424484110986e-01 3.9312452994484826e-02
      1.4925319117972544e-01 1.0188215969795762e-01
      -6.1113674985460742e-01 1.5913889167354486e-01
      -5.6215261742044241e-02 5.2403276171562818e-01
      -2.9543889934002851e-02 -1.5535494127747856e-01
      -3.0579437274134769e-01 9.4400080842383743e-02
      1.3687913744952079e-01 -6.3354812156151763e-01
      1.5163085818088734e-02 -3.2140104428288691e-01
      -7.5820451582774215e-03 1.7336778860987684e-01
      1.4464145848112282e+00 -5.7784792991983558e-01
      4.0363252729556681e-01 4.5001253164298670e-02
      -7.9211421374473912e-01 1.1545661603103392e+00
      -1.0781150440805372e-01 -6.9110228602765125e-02
      1.0638566960019012e-01 -8.3628211544315889e-01
      7.5889675177013380e-02 -1.0449012286828462e-01
      -6.2671818587221248e-02 1.5677216043481687e-01
      -1.6226378838484010e-01 -1.0985219242331989e+00
      -5.3536900613128147e-01 5.9777550138468094e-01
      -7.3446147616003943e-01 -6.0576412500648869e-01
      6.5908048125356061e-03 2.3349215137986512e-01
      1.0406615207134932e-01 1.3238539623042911e-01
      -1.4547314714564887e+00 -3.2265836436544265e-02
      -2.1726500038518295e-01 1.5488341868773803e-01
      1.5709470467933415e-01 -7.2548547247439032e-01
      -1.3848426266246059e+00 3.0050078585404039e-02
      -3.5697847053608084e-01 -7.1263770275692429e-01
      -8.0230170465950468e-01 9.9696963872749747e-02
      3.6696360092683045e-01 -7.3413623626456703e-01
      1.6638179359306832e-01 -3.8995993433043374e-01
      5.6171144639166815e-01 -2.9572277618514536e-01
      -3.5086564332779041e-01 3.9870240782913504e-03
      7.6601659918203002e-02 -2.3335995785639052e-01
      1.2462112833308539e-01 7.8392583647646674e-02
      -4.2560743758177588e-01 -4.7480961098707775e-01
      9.2014999703230405e-02 -7.2744601373622764e-01
      5.3797082693379983e-01 2.3685267195880211e-01
      -4.7068779941928185e-01 5.6935139424685310e-01
      -8.9300971304942489e-01 -6.5339539318802919e-01
      -1.4973752761410548e+00 -1.9366151373027529e-01
      -5.5506563573543677e-01 -6.5673704187484760e-01
      6.9592878323833285e-01 -1.8950633749875481e-01
      -1.7856260364523333e-01 -9.7541707227844957e-02
      2.7146835712709261e-01 -1.6055039572889251e-01
      -2.0867228343723598e-01 -2.0103219067048095e-01
      6.4867050588547248e-01 -4.0069490900350024e-01
      -3.0536026254503923e-01 -1.2139813570612014e-01
      3.4771398977875034e-01 -5.0894712081353710e-01
      -1.0570719983497090e-01 2.0567129447885460e-01
      3.7615746869413064e-01 -4.0013612369438567e-01
      -1.7770244499315595e+01 3.8205323657066170e-01
      9.5759617094912639e-02 -5.4977088367287437e-02
      -4.0959315381933376e-01 -5.9325605506152734e-02
      -2.1605472565439432e-02 6.0156891191717154e-01
      2.6352083569946727e-01 2.0901837845922200e-01
      -1.1924668348810653e-01 -1.2638803957635583e-01
      -4.7691336044874473e-02 3.0881809306783670e-01
      7.1812646467927121e-02 2.6475099384656930e-01
      -3.8302583009400420e-01 9.3307323631499087e-02
      1.7812211431784103e-01 -8.5967764436033656e-01
      2.8500184702456449e-01 -4.0654575518585467e-01
      -5.3103320521135609e-02 -4.3943318605631260e-01
      5.3135601199289430e-02 -2.4461911419839175e-01
      -1.1534316481092741e-01 6.2502584115441018e-01
      1.3374585151813542e-01 4.6174072995286747e-01
      -1.4312684921410884e-01 3.0422829866957107e-01
      -4.3136872851211427e-01 1.4161250746102294e-01
      2.1241509331599920e-02 -3.3566024610447387e-02
      8.1322814390405590e-02 1.4893415467133261e-01
      -8.7544261387989014e-02 -8.1033369258961666e-02
      -5.2200434943173946e-01 -8.7831629505437395e-02
      2.9991089358872441e-02 -4.7901880075188541e-01
      -7.9171456845279847e-02 -2.3805528727373726e-01
      1.9866311715227913e-01 9.9370246677133817e-02
      1.4690777955779696e-01 -1.0830469634574662e+00
      9.5078637143300615e-02 -1.6723775686645254e-02
      -6.4511027451865335e-02 2.1786694099490672e-01
      1.9080695703678291e-01 1.8258987596249082e-01
      -1.1218280931282378e-01 1.1850479453274161e+00
      -1.6428512453140240e-01 4.1367271129858435e-01
      -3.5078020398531702e-02 -2.3468790573752527e-01
      3.8872954910465057e-01 -6.0158202748161393e-01
      -4.9845212356257340e-01 2.0914337296943569e-01
      -2.4338341669149565e-02 1.7924213917960899e-01
      -1.5353527434711358e-02 -5.6028788058032342e-01
      -2.4414890991246271e-01 2.6001899293058472e-01
      -1.1353891162454246e+00 2.4638364150158407e-01
      6.2857526103998829e-01 -2.4143562356288430e-02
      6.0599213871644075e-01 -1.4334856532415557e-01
      -9.3356548307502418e-01 -2.3359802154797166e-01
      4.9757257753474171e-01 -8.8341937331061593e-01
      -6.0413485026465497e-01 -3.1615023902023615e-01
      4.2409047542245931e-01 2.5332799411417778e-01
      3.4295123728678217e-01 -2.7005165084369476e-01
      3.9292798973343979e-01 1.6861378152372430e-01
      1.5303641363889883e-01 3.5218205052223880e-03
      -2.3951023153068382e-01 -2.2666433389431603e-01
      4.9155364229454385e-01 2.9186597102212786e-01
      -1.8479059632104267e-01 5.3028198722888575e-01
      4.2045941591287561e-01 -5.1221591362538343e-01
      1.0957611855558209e+00 1.2845362582911571e-01
      -3.8320586948823432e-01 4.5260379692476893e-01
      2.3956026458571075e-02 -1.2892032697282660e-01
      1.0446411446695365e+00 -3.5784072434425790e-01
      -1.9407531937034300e-01 -1.5494477645370470e-02
      6.6253258121999103e-01 -4.1691263399050732e-01
      1.5476164697418247e+00 -5.1317729280232993e-01
      1.8057470626505165e-01 3.6216562733962215e-01
      4.3266933635862483e-03 -2.4208307081559152e-01
      7.0710847330417925e-01 4.5924840877683470e-01
      -9.9015689604643486e-01 -1.3119614468068251e-02
      1.3283988451085443e-01 2.7716653964369853e-01
      -4.8515398811922385e-02 1.1029742569708907e-01
      3.4455445921781125e-02 -5.3142153574050188e-01
      -1.9416977474488068e+01 6.8419211976201444e-01
      1.0243327441714210e-01 9.5352975177708466e-02
      6.0787517904320121e-01 5.8410351618731349e-01
      2.0500261116011037e-01 1.7648783901616279e-02
      2.8385725392061717e-01 -5.8068902051040414e-02
      1.0989042008691235e-01 -2.6547725060354038e-01
      2.1406802196983674e-01 -5.9713305050515461e-03
      2.7417095671320518e-01 7.2121540363406844e-02
      -1.7453386792086234e-01 3.3168778065611859e-01
      -4.8301237671711759e-02 3.3826027516626839e-01
      1.2763693334319762e-01 1.5726995288674500e-01
      1.2383774535050623e-01 4.5123982519480338e-01
      -1.4254275718422066e-01 -3.6953319729731891e-02
      -2.6334869695308982e-01 -1.4528341677475537e-01
      -1.0339163683525090e+00 1.6779350617778790e-01
      1.6864995105889843e-01 1.4379142972953887e-02
      2.2351131659297541e-01 -2.7848934508540202e-01
      1.1535804214066236e-01 -4.7246182332009298e-03
      2.4805527086768125e-01 -2.5111491218663556e-01
      5.8701728899638109e-02 -2.3013972748655274e-02
      1.2482540637182786e-01 -2.1832783376475505e-02
      -8.2482241889680258e-02 -3.8593498784528463e-01
      -2.1875702021320687e-01 -2.9854157028984918e-01
      -4.3264246305684201e-03 -7.4599032147535063e-02
      6.1655096936147691e-01 -2.2882537627801336e-01
      1.2929115781746336e-01 6.2228109930976416e-01
      -1.8254450413601582e-02 4.3937898067795456e-01
      -1.6539767493772958e-01 2.5671437190971541e-01
      -5.1123566568367407e-01 9.2082882363114626e-01
      -5.0825243354722816e-01 9.9094013797127137e-02
      1.2886502403215594e-01 2.3612792732816856e-01
      -3.3405494218227577e-01 -6.6387375827182749e-01
      -3.3986199764565761e-01 6.0697541830744883e-01
      -2.3435675918293553e-01 8.4571277859374031e-02
      -4.6328365881913225e-01 7.5738963790205338e-01
      4.0102140114187351e-01 2.4512082689015394e-01
      -5.0959127144656380e-01 -2.5732664013674039e-01
      7.5399701365997240e-01 4.5773454481548032e-01
      9.8886163631180843e-02 -3.0555560364177675e-01
      -5.3406882943813383e-01 -2.0743057936458284e-01
      -2.7008428262605644e-01 -1.0288046134132334e-01
      -1.8371882633844214e-01 -1.1493964214025372e-01
      -1.5581659414492666e-01 -6.4409739448624526e-01
      7.9067930047465290e-02 8.2506771526131295e-01
      3.8794577701183885e-01 3.5588231514049701e-01
      6.1016837073230357e-01 9.6683475608402587e-03
      3.8359470845087401e-01 -2.9740430289155856e-01
      -3.4409535798105090e-01 4.8231986138705774e-01
      5.0853714086810564e-01 -1.0438512859451413e-01
      9.5547358672052485e-01 -3.7528507902152902e-01
      -9.7858739430862120e-03 -1.8083951306083426e-01
      -4.5382107317912324e-01 -5.3959919430085344e-02
      -3.4991701708052969e-01 3.7529470850601210e-01
      7.1324143438648666e-02 -2.8626850723704494e-01
      -3.3946519359195448e-01 4.8532350486387155e-01
      -4.4753872432052910e-01 -5.1715887445655617e-01
      9.5200165382074331e-01 -3.0507619998414337e-01
      -3.6778714687845507e-02 2.5821879765452821e-01
      -1.9854829544812577e-03 2.9386196538334186e-01
      2.9302558062752332e-01 -2.2836441342456680e-02
      -3.0711183753388505e-01 -2.4050695518986284e-01
      3.0976124934318761e-01 -4.2731084323730667e-01
      4.9636008363311994e-02 1.1910148090860458e-01
      -1.6190584514888393e-01 -1.6370376622049018e-01
      -1.7088544220613645e+01 5.4514233385280109e-01
      -1.0759411469990519e-01 -4.9283165859873371e-02
      9.9163579813558070e-02 1.1804358963218724e-01
      1.2113172056591429e-01 1.5197471014505351e-01
      3.2507839446360026e-01 -8.9695282973301260e-02
      1.1173472921288398e-01 -8.9988339219153307e-02
      1.4626436301995697e-02 -2.8543708393874551e-01
      5.3168022896333678e-01 1.2930360838891741e-01
      -3.8820508491038935e-01 6.8058084017179943e-02
      -3.1957572316583260e-01 -2.5756067353611528e-01
      -3.4784028199256169e-02 4.3612146458402423e-01
      -2.9243276089982589e-01 -4.2190218385210954e-01
      5.0730228109047615e-01 1.5467183979982263e-01
      -1.4275634118633834e-01 4.4929109499460573e-01
      -1.0645090991306497e-01 -2.7694166619144311e-01
      1.2440617572180497e-01 -2.2088778506249948e-01
      1.6276093339650036e-01 -2.9363463443983363e-02
      7.7586091827293702e-01 -1.2519412590727365e-02
      7.6751671676999492e-02 1.5201590453060013e-01
      1.2811567248779500e-02 1.2762815114555992e-01
      5.7308335341722660e-01 3.1101293947579439e-01
      1.7886349179655156e-01 1.6908314291509460e-01
      -2.7133679455939825e-02 -4.5291778499420027e-01
      -9.6079860914688495e-02 -2.7942902878067022e-01
      2.7477832753743475e-01 -1.7335942123214387e-01
      -1.6606792102386386e-01 1.1248058861082459e-01
      3.8953957194544259e-01 -1.3973322889802603e-01
      5.2176514401884574e-02 1.4029803932720428e-01
      4.7710764686843821e-02 8.9115944218057230e-01
      -6.4387552531831005e-01 1.1665947497614999e-01
      1.2784055825975563e-01 -4.8280887205897166e-01
      4.8886678187931909e-02 -9.7205025373515630e-01
      -3.4831208469667851e-01 -1.3036367487615509e-02
      2.7114232187771103e-01 -2.5236394561487369e-01
      8.7380271768822890e-02 -3.0970430984815583e-01
      -2.7756701042669929e-01 2.3460788053116186e-01
      -6.4133245224949642e-01 6.0156416915770772e-01
      5.0110827442443706e-01 2.1695708829553581e-01
      1.5849581902384738e-01 -2.4448745886756065e-01
      -1.8588697369324789e-01 -2.3309154364638932e-01
      -4.3224639255194225e-01 3.8449642639744680e-02
      1.3239433701139466e-01 2.0644021980013161e-01
      2.7867501531123923e-01 -5.3846473333479805e-01
      5.0255551174015853e-02 -1.7312605454665791e-01
      -3.8064637607487273e-01 -5.6291405311488060e-02
      2.1118985547788871e-01 1.5007029014805823e-01
      3.1635059997724563e-01 3.2022958692843007e-01
      -1.2416829889158708e-01 4.7629385730593188e-01
      2.7952019504578079e-01 -1.6159233725585759e-01
      6.1280878778065617e-01 -3.1721189520319037e-01
      1.8919578022191291e-01 -4.8159115777829209e-01
      -1.6703482319885601e-01 1.7176665235076499e-01
      1.3943579199965819e-01 1.4907234642315131e-01
      4.0461195442665236e-02 3.8037332013573004e-02
      -2.0630943914432562e-01 9.8077373126064946e-02
      -4.4315676194432502e-01 -4.8944715583365694e-01
      7.1805740873392573e-02 2.1043549698325259e-01
      -1.8873469178910376e-01 2.2555394493850765e-02
      1.0869878478796989e-01 2.7820568592257580e-02
      8.0524630720562346e-02 -6.0576955803359804e-02
      -3.9913139548392329e-01 -2.3939283924501270e-01
      3.7951886272272023e-01 3.6703173604284228e-01
      -7.7913004418473389e-02 -4.0510367332377284e-01
      9.5693821507951457e-02 6.4058993623039739e-02
      -1.3672266572908418e+01 1.3665380914022310e-01
      5.1211004215764644e-01 1.3153665579295223e-01
      2.3189859176479510e-01 -5.6287251581976605e-01
      7.6980065195470249e-01 3.4683147927354180e-01
      6.6457113121201894e-01 -1.4098993225138329e-01
      3.8395958805282349e-01 -3.9533941559246916e-01
      5.4071795201646004e-02 -3.3739799085055761e-01
      3.2455428337435976e-01 3.3457411947109744e-01
      9.0147032217857048e-01 1.4255618366072992e-01
      6.1737449307470105e-01 2.8354850523495895e-01
      -8.8983550777297160e-01 5.0094694623093683e-01
      -1.1829014043359912e-01 -7.7749208605264619e-01
      5.5767932571297640e-01 -1.7035283067974266e-01
      -5.4709313226450250e-02 -3.8598472250061683e-01
      4.8392045802171846e-01 -2.6213619592966886e-01
      -1.0551248968429068e+00 -1.0404411899435613e-01
      1.2391598104040136e-01 -4.7894954926056546e-03
      5.3759935989297443e-03 -4.1973594069262259e-02
      -4.6777880790747139e-01 6.8131999814355845e-02
      -2.5103196218072044e-01 -4.0104078761661738e-01
      -2.8259899896708973e-01 -2.9464196128111331e-01
      2.0679095342523116e-01 5.2849962940829685e-02
      -1.5068739909089623e-01 1.9233149072390784e-01
      -2.7629788745585993e-01 -5.2697498804613357e-02
      4.6175493018193792e-01 3.7146249115144547e-01
      4.2037358095192386e-02 6.6782624751067576e-01
      1.2437945070902144e-01 -4.9721096492803818e-01
      1.1322544480752464e-02 6.5288378992505569e-01
      1.2735321670310018e-01 6.6091487769067692e-01
      -4.4264616833461773e-01 -2.1875448104006601e-01
      -6.0566317142354287e-01 3.0799709745860127e-01
      4.3818432245475242e-01 3.7227706509488862e-01
      6.7751870400430014e-02 1.2563642182368229e-01
      1.3661425739717833e-01 -6.2241777416386113e-01
      -7.1531617945852433e-01 7.0645309442541759e-01
      -2.2052655157411541e-01 -7.1429594152320131e-01
      8.0224473012059860e-01 1.4763816702370799e-01
      6.0125669322862085e-01 -1.9446468978348730e-01
      6.6784460822998673e-02 -5.1719559836236084e-01
      -5.6035709209944484e-01 1.2427715061060943e-01
      -3.6995405604815879e-01 -4.6328308533545542e-01
      -1.5221443042920646e-01 1.9596805021256125e-01
      2.2658710597662074e-01 -8.5744295392561065e-01
      3.4086661922655631e-01 -2.4402479172766622e-01
      -8.5613677599583304e-01 -1.1357539354683617e-02
      3.6272641165162889e-01 6.2161527705981290e-01
      1.8223167580385374e-01 5.0393590858910298e-01
      3.4603675189388561e-02 5.6567591463285349e-01
      3.7315791891647271e-01 7.1015764992278768e-02
      -7.2393978833545514e-01 1.4348054961120202e-01
      5.9912300714403410e-01 3.7618564152668693e-01
      -1.7078572178359497e-01 -4.6575553837015837e-01
      3.5647542798475723e-01 -5.1445137865604296e-01
      -3.0348408903108909e-01 -1.7495228233463871e-02
      -3.4718727153569950e-01 7.7510160749496804e-01
      6.2344290697712586e-02 1.4960575386240431e-02
      3.4671387735154652e-01 2.2996962396063891e-01
      -9.1334891012403899e-02 6.4394649904206824e-01
      4.1332378393254021e-01 6.7527541167519176e-02
      -2.2126365555002897e-01 -3.0963143757946537e-01
      -2.5491087766892701e-01 1.3993556604912849e-01
      -2.7942301666074665e-01 -2.0648253541188816e-04
      2.0292354045791527e-01 5.1618632495473833e-02
      -3.6328333153559156e-01 5.7971549002661833e-02
      -8.5352932211945767e+00 -3.8912903342314037e-01
      -3.2521840382337922e-02 -1.4769888708354384e-01
      -6.6914873407899811e-02 7.3189975495073681e-02
      2.3458656011927037e-01 -2.3306046044742451e-01
      -5.0710568891437513e-01 3.3877978733573411e-01
      -6.9960746209726116e-02 3.3212514384939268e-01
      9.2047405212441452e-02 -4.9888926568965153e-02
      4.5395093126890426e-02 4.4053836868394057e-02
      3.6919039161895595e-01 3.2850731235606490e-01
      7.3831056303959086e-02 3.8960354276132803e-01
      -7.4662839800134606e-01 -2.7404586249935509e-01
      1.1015203973279966e-01 3.6129764449058344e-01
      5.4191437919957994e-02 2.9019109417174122e-01
      -5.0898368175241931e-02 1.8554988847393861e-01
      1.3067119461434040e-01 1.1787519307990402e-01
      2.7710773547902201e-01 2.4569905148534357e-01
      2.4845479906718562e-01 5.2164483223506986e-01
      9.2150096034278137e-02 1.8194772284606114e-01
      2.1046049839507749e-01 2.1360954669589649e-01
      2.1418698234773419e-02 1.1126562782447259e-01
      -3.5767897074729121e-01 -7.9384731589538154e-02
      1.4474660526653274e-01 3.9310936706639998e-01
      -3.9458048492112924e-01 1.9932071552086084e-01
      3.8342335490535018e-01 -5.1514446533295921e-01
      7.2849021350119703e-01 4.8629275174951303e-02
      4.2615886496925964e-01 -8.7157391796445743e-02
      4.4292184227944498e-01 4.6335872260276287e-02
      3.1758646945890689e-01 6.1712381675529414e-02
      -5.8710164835850887e-01 5.4694001468594799e-01
      3.4071254603037959e-01 2.2523181859032024e-01
      -4.3383153848754413e-01 1.4888458755042031e-01
      -1.6612179782692704e-01 -1.0454639607355902e-01
      -1.4016905939880622e-01 -1.6482929570552038e-01
      -5.3528245013456355e-01 4.4565311130895380e-01
      -8.4249442888890302e-01 2.8348689538485078e-01
      2.2362243028750155e-02 7.7289658802028149e-01
      5.8183082739951242e-01 1.0252426772328782e-01
      6.9764574012466973e-01 8.8705918871446643e-01
      -3.5006519465919766e-01 -4.2419041300184046e-01
      5.1582632888258456e-02 4.4862634868118749e-02
      -1.8624847639432576e-01 -9.8046964246913504e-01
      -9.6883566164341828e-01 -5.1325783540329917e-01
      5.0865589108133692e-02 6.0745254430164097e-01
      8.1874114618957008e-02 -3.9875442129604277e-01
      -1.5208250629525097e-01 -3.5970208795325836e-01
      1.1272187220197388e-01 1.3424427066140748e-01
      2.9253367728509544e-01 -3.0162509499888307e-01
      -1.6068947746334608e-01 5.1329329474965502e-01
      6.1663926654161094e-01 2.9813843251065758e-01
      6.4961246060381450e-01 1.3859081596463572e-02
      2.0687016094862790e-01 -2.2583317152996312e-02
      -5.7586939147096328e-01 -2.2753869409473215e-01
      -3.8474918167352830e-02 1.4888221893222570e-01
      -3.0427442378595049e-01 -6.0025916510476374e-01
      1.5468922508101229e-01 4.8141010376717785e-01
      -3.5034456398027958e-01 -1.9929011149933826e-01
      6.8971357726570348e-01 1.9932802435110233e-01
      -1.5509424225700269e-01 -2.7382295437762932e-01
      8.1066746698558914e-02 -2.2183608019187626e-01
      3.1076510594237938e-02 -7.0396677878108083e-01
      3.6573023775910790e-01 -2.2262744435345724e-01
      1.3837219205232454e-01 -5.8905922595555626e-01
      -5.2317016079826906e-01 2.9800567231781205e-01
      7.0171925537810237e-02 4.8394872909248959e-01
      -7.1856399671423983e+00 -3.2464692231332137e-01
      -8.2438268153936900e-02 -2.9143886107567074e-01
      5.6952524701112539e-01 -7.7010509375481859e-02
      2.4936865029747293e-01 -1.2729204643467615e-01
      -2.8225253634407588e-01 1.1133906825350411e-01
      -4.0041559164490004e-01 1.9962939892360965e-01
      -6.2414959481617800e-02 -5.4748234814995453e-02
      3.3732439550346793e-01 -4.6481731851446567e-01
      -3.8876744859343126e-01 5.1307022758732800e-03
      3.0678501026432636e-01 3.3867609850752317e-01
      -6.8768547751941245e-01 -2.2267633653138771e-01
      -1.8885592536347265e-01 6.1034605379187923e-02
      5.1263763291445351e-02 -1.4498484273196838e-01
      4.2745706619496698e-01 -5.5488011319018093e-02
      -1.7521826681362380e-02 -5.9985100185723977e-02
      -2.3882385662220443e-01 -1.4559181081866107e-01
      5.5726880142910863e-02 4.9192768853224045e-01
      4.6398852259447509e-01 -1.7849028239634152e-01
      3.8670863025949326e-01 -2.4494384433387009e-01
      -4.7136592436954328e-01 9.7128213862265361e-02
      -3.1780563906860093e-01 4.7899542996621813e-03
