<?xml version="1.0"?>
<opencv_storage>
<mlp type_id="opencv-ml-ann-mlp">
  <layer_sizes type_id="opencv-matrix">
    <rows>1</rows>
    <cols>3</cols>
    <dt>i</dt>
    <data>
      200 400 62</data></layer_sizes>
  <activation_function>SIGMOID_SYM</activation_function>
  <f_param1>5.9999999999999998e-01</f_param1>
  <f_param2>1.</f_param2>
  <min_val>-9.4999999999999996e-01</min_val>
  <max_val>9.4999999999999996e-01</max_val>
  <min_val1>-9.7999999999999998e-01</min_val1>
  <max_val1>9.7999999999999998e-01</max_val1>
  <training_params>
    <train_method>BACKPROP</train_method>
    <dw_scale>5.0000000745058060e-02</dw_scale>
    <moment_scale>5.0000000745058060e-02</moment_scale>
    <term_criteria><epsilon>9.9999999747524271e-07</epsilon>
      <iterations>1000</iterations></term_criteria></training_params>
  <input_scale>
    9.5295215540613881e+01 -2.4168433880490375e-01
    2.0141786272228057e+01 -4.8862824344785527e-01
    1.0117442963555947e+01 -7.4741359645448124e-01
    1.6571781693228640e+01 -5.3621100737746474e-01
    8.7770398592214647e+01 -2.3773513586839487e-01
    4.0726806125955662e+01 -3.4781736125059193e-01
    7.5339829226948929e+00 -7.5827117555689516e-01
    5.1894007340754227e+00 -1.1970072839814103e+00
    6.4433795570871997e+00 -8.6157418696171262e-01
    3.7590056849485677e+01 -4.2769422908049387e-01
    1.2663658306860711e+02 -1.6759641956291363e-01
    1.0102851559721408e+01 -6.2294542797368713e-01
    4.7966473486115087e+00 -8.3298427481493220e-01
    8.3145358366103999e+00 -6.2756492659643615e-01
    6.1338673701543144e+01 -2.7732352180455616e-01
    3.1922607863015628e+01 -5.9994995592311529e-01
    8.2817586652442561e+00 -1.5538243438783821e+00
    6.8941063026900791e+00 -1.7200491747342377e+00
    7.8691098411299745e+00 -1.1446353877466073e+00
    4.0962862184400521e+01 -4.1169558914264875e-01
    3.1372205829535979e+01 -6.2951262780198591e-01
    7.2682248946630077e+00 -1.7195224514479328e+00
    5.7820864859938466e+00 -1.7071186883597826e+00
    7.3224410863302172e+00 -1.1243191223685394e+00
    4.5663398575237672e+01 -3.8202580506536638e-01
    7.4157403210746864e+01 -2.5348707685420302e-01
    2.5759000686646985e+01 -4.1592896150663272e-01
    2.1006026287056621e+01 -5.5367855263756360e-01
    2.1939887503692361e+01 -4.8177750363599520e-01
    3.7287695100582482e+02 -8.2269063919720387e-02
    2.5751295930899449e+01 -3.4312043395442471e-01
    6.6250968073385250e+00 -6.0193133867582738e-01
    7.6544688872915216e+00 -9.8508739244598820e-01
    7.4117998026945013e+00 -8.9249793193641347e-01
    7.4135058944230707e+01 -1.8446807257939446e-01
    3.4318585769932461e+01 -2.3029462731721143e-01
    6.8453349046065304e+00 -5.8554538675964218e-01
    6.6956391944676357e+00 -7.8153050422805448e-01
    1.2313766409184700e+01 -5.4446501565747540e-01
    3.9346653265915404e+02 -1.0976812623062858e-01
    2.4156282750019216e+01 -4.3065760210531862e-01
    6.6610713379878854e+00 -7.5858959429328976e-01
    6.5856827728168632e+00 -6.3472238233779465e-01
    1.3296239859429678e+01 -4.5732451905423793e-01
    4.6737254983380114e+02 -5.8978043594204652e-02
    7.1625569143046235e+01 -2.6201062993744678e-01
    1.4449320886715247e+01 -6.6008651207933378e-01
    2.7470379186574981e+01 -4.4290864688517528e-01
    4.0075981082038112e+01 -3.1825122035270809e-01
    9.3701145969234392e+02 -4.4888210156967166e-02
    4.1093574748116644e+01 -4.8581158001656732e-01
    2.0541535026021517e+01 -1.2269869457141425e+00
    2.7888652149122322e+01 -7.3604397228706164e-01
    2.8405822661981190e+01 -5.6158582377380428e-01
    5.1966034622293319e+02 -1.2807032556409459e-01
    9.1984877652467478e+00 -6.5786084485626328e-01
    5.0478386892613791e+00 -2.0200653566409392e+00
    5.6881778230099442e+00 -1.2146454611689208e+00
    5.2740497344954926e+00 -1.0385834372323173e+00
    5.6710473783674487e+01 -2.0394341784163755e-01
    6.9199137303852876e+00 -6.3422205702583634e-01
    4.6146120998366023e+00 -1.9278914427021228e+00
    4.8053605544235838e+00 -1.2771615697256085e+00
    4.8300394944221070e+00 -8.4493521546723382e-01
    6.3055133288004441e+01 -1.3244631279250704e-01
    7.7069646949017168e+00 -7.8748542947836531e-01
    5.3784369866461574e+00 -2.0830216039485423e+00
    5.3899093692559026e+00 -1.2296987086741833e+00
    6.3813306057311099e+00 -8.3599864818981695e-01
    8.6570126959779415e+01 -1.3912257094354033e-01
    3.5530889799506035e+01 -6.3125460927629529e-01
    2.1580046938445975e+01 -1.3853843045606014e+00
    2.6025801652332206e+01 -6.9048773197571867e-01
    3.6338607914614251e+01 -4.4006769457951139e-01
    1.1816903475587296e+03 -7.3401912790489521e-02
    1.5066182552727770e+02 -1.6593852693545902e-01
    1.7335139275417450e+01 -7.3747437720007425e-01
    1.9660188691796019e+01 -6.5576270997243102e-01
    3.1876630592054330e+01 -4.4480976201989803e-01
    3.8278054057228945e+02 -1.1972322545523835e-01
    2.9525841709984412e+01 -4.1190308368905704e-01
    5.8304158970816182e+00 -9.9434790004806850e-01
    6.4316327988372937e+00 -1.0066042586324104e+00
    8.0974907719837521e+00 -6.7476072359618533e-01
    1.1612830868679922e+02 -1.5803130254434231e-01
    3.0402311955499204e+01 -3.7498518772989592e-01
    6.3190380880066028e+00 -8.0188572317040097e-01
    6.0192952948465059e+00 -1.0064907790642930e+00
    8.5847207115826585e+00 -6.7129632886392288e-01
    1.5984279517319820e+02 -1.2756789182088840e-01
    2.3312579032562933e+01 -4.7064129545855288e-01
    6.1664017348315268e+00 -7.6803542085290599e-01
    6.6981350710425200e+00 -1.0544949549137383e+00
    8.1723427609650265e+00 -7.4084039362977749e-01
    1.1194077646857889e+02 -1.5033971683100195e-01
    7.5765882659835881e+01 -3.3636230833243924e-01
    2.5190476800381493e+01 -5.1967442386691631e-01
    2.3681006016915227e+01 -6.0496718192597565e-01
    4.0572416273805736e+01 -3.5109451367110406e-01
    1.4669365552852753e+03 -6.1100545647404490e-02
    3.6255043551456147e+01 -4.8347309263164046e-01
    7.2059776237681952e+00 -1.3715032387748893e+00
    5.7185411637928505e+00 -1.7424081178840165e+00
    7.1583217054840897e+00 -1.6297672719742839e+00
    3.3486099470467302e+01 -6.1054418703973146e-01
    3.3051512232250026e+01 -4.8073812805164745e-01
    8.2870655914029641e+00 -1.3589810283469002e+00
    6.8734751664866574e+00 -1.7862104971128827e+00
    8.6260401078476807e+00 -1.5804073934319733e+00
    3.1797340843042051e+01 -5.7160307995528137e-01
    8.9263164418982413e+01 -2.1209828761139329e-01
    1.1108818571014556e+01 -5.8014349981499247e-01
    5.2763878970204638e+00 -8.5815348229172095e-01
    8.3470836413543115e+00 -5.9705036098179010e-01
    7.7354122623542381e+01 -2.2415763855511867e-01
    3.8376183130928723e+01 -4.0664929018772195e-01
    7.1896735456097352e+00 -8.5459226714179992e-01
    4.9531200779786211e+00 -1.1198055675704708e+00
    7.0870957481193013e+00 -6.7958851922483055e-01
    4.5194687866666648e+01 -3.4087518741347261e-01
    7.6802704755686662e+01 -2.8068388786897708e-01
    1.7088412203999738e+01 -5.5961407956532216e-01
    1.0084083905366647e+01 -7.1194628363339230e-01
    2.1509832683447712e+01 -4.5425767666872413e-01
    1.2695485046687860e+02 -1.8939805937019005e-01
    5.3604926934212176e+02 -7.2541761037618502e-02
    3.7465742788933156e+01 -3.1751646347637502e-01
    2.8019618439574117e+01 -4.4139551244929720e-01
    1.4921076284884530e+01 -6.7967758934422473e-01
    7.1038632330062114e+01 -2.5112207209881410e-01
    1.0460591247228753e+02 -1.0555690745421931e-01
    9.9924617329615941e+00 -5.0359099871567659e-01
    7.2030858131870383e+00 -7.1246684583625353e-01
    7.0730382509259178e+00 -7.8233457942241413e-01
    2.5020785489541691e+01 -3.9496924847785886e-01
    1.7155880072646823e+02 -1.0787523380609990e-01
    9.6363815698542545e+00 -6.4003612811150146e-01
    7.1677245236941980e+00 -8.1723369313747496e-01
    6.8487498115264538e+00 -6.1679005434157719e-01
    5.5157476038876055e+01 -2.3143433529966370e-01
    1.0297261347644863e+02 -1.5044487899341574e-01
    7.1445037776621767e+00 -9.0802857988503571e-01
    8.4087713932682675e+00 -9.5978279123173982e-01
    6.8627199464620690e+00 -5.2873124831782037e-01
    3.4429004416482336e+01 -2.8452114696920361e-01
    9.4718092623931830e+02 -6.0869372962358122e-02
    2.2599414882850013e+01 -4.8643006603284017e-01
    2.0318770075916753e+01 -5.2267924300014512e-01
    2.9117389665457669e+01 -3.6972299383258950e-01
    1.0463475833860097e+02 -2.0512310762133071e-01
    6.9714879793757439e+02 -9.8384628776576721e-02
    2.8000860644976957e+01 -5.4097936398977375e-01
    2.5536183779308686e+01 -7.5329731841297209e-01
    2.1218797445995531e+01 -1.3553849163944680e+00
    3.7152300467420282e+01 -6.2824087385079841e-01
    6.9915403957474737e+01 -1.7081826042058731e-01
    5.3586936837129562e+00 -1.0293881120539534e+00
    5.4483596773797185e+00 -1.3106282309546222e+00
    5.1744283226183239e+00 -1.9208585092072916e+00
    8.2510640303144118e+00 -7.4255927211539996e-01
    4.2614012796075812e+01 -1.6185999166492618e-01
    4.2908992820572278e+00 -1.0117370014872602e+00
    4.6786350554996305e+00 -1.2825661522908018e+00
    4.5151104438054475e+00 -1.6551861601219227e+00
    8.5128796243682103e+00 -5.2500763003562223e-01
    5.4701324112853747e+01 -1.8174986466168777e-01
    5.0448309807273661e+00 -1.1366234357618623e+00
    5.0697439814597596e+00 -1.1703597141721216e+00
    4.7127789074830790e+00 -1.5801632146964144e+00
    1.0675218751678139e+01 -5.4192486541171692e-01
    4.3794695362807124e+02 -1.1524707149472835e-01
    2.5139736760048010e+01 -5.9479702654128463e-01
    2.5153889406979463e+01 -7.6790155882273081e-01
    2.0971703929139046e+01 -1.0349765352246640e+00
    5.0100179496608369e+01 -4.0300061212185756e-01
    7.7342181661405152e+02 -5.3541495089242844e-02
    3.7403121866724632e+01 -4.1174416203383668e-01
    2.3289784790092426e+01 -6.2678272189311179e-01
    2.8350420682541294e+01 -5.0750710954725764e-01
    7.7653246999078135e+01 -3.3536557179144239e-01
    1.1247465932142704e+02 -1.2642379665963127e-01
    8.0170874845262272e+00 -8.1786362550273617e-01
    6.9090966461336674e+00 -1.1739945659998068e+00
    5.7196228589644749e+00 -8.2594769289979009e-01
    2.2646989875080855e+01 -5.0524786756517659e-01
    1.4942398688063611e+02 -1.2356772871143216e-01
    8.7551560636523504e+00 -7.7438525085491250e-01
    6.0185723688946400e+00 -1.0509238107128405e+00
    6.1104107890727981e+00 -9.0589262371423696e-01
    3.0589728547190163e+01 -3.9024628325626487e-01
    1.3531559091374751e+02 -1.3156614377336301e-01
    8.6773965857289976e+00 -6.2753258475877938e-01
    6.5260507678235085e+00 -9.0863780168628994e-01
    6.0702824991803439e+00 -9.8871223104484041e-01
    3.4274504459702605e+01 -3.7983067479162691e-01
    3.9581982669400065e+02 -1.0714316486180162e-01
    3.5937363461963564e+01 -3.8966168326099171e-01
    2.0067486418346864e+01 -6.8600361529327614e-01
    1.7347286283749714e+01 -7.4408265793187311e-01
    1.3551157204338026e+02 -1.7602594189442322e-01</input_scale>
  <output_scale>
    1.0526315789473684e+00 0. 1.0526315789473684e+00 0.
    1.0526315789473684e+00 0. 1.0526315789473684e+00 0.
    1.0526315789473684e+00 0. 1.0526315789473684e+00 0.
    1.0526315789473684e+00 0. 1.0526315789473684e+00 0.
    1.0526315789473684e+00 0. 1.0526315789473684e+00 0.
    1.0526315789473684e+00 0. 1.0526315789473684e+00 0.
    1.0526315789473684e+00 0. 1.0526315789473684e+00 0.
    1.0526315789473684e+00 0. 1.0526315789473684e+00 0.
    1.0526315789473684e+00 0. 1.0526315789473684e+00 0.
    1.0526315789473684e+00 0. 1.0526315789473684e+00 0.
    1.0526315789473684e+00 0. 1.0526315789473684e+00 0.
    1.0526315789473684e+00 0. 1.0526315789473684e+00 0.
    1.0526315789473684e+00 0. 1.0526315789473684e+00 0.
    1.0526315789473684e+00 0. 1.0526315789473684e+00 0.
    1.0526315789473684e+00 0. 1.0526315789473684e+00 0.
    1.0526315789473684e+00 0. 1.0526315789473684e+00 0.
    1.0526315789473684e+00 0. 1.0526315789473684e+00 0.
    1.0526315789473684e+00 0. 1.0526315789473684e+00 0.
    1.0526315789473684e+00 0. 1.0526315789473684e+00 0.
    1.0526315789473684e+00 0. 1.0526315789473684e+00 0.
    1.0526315789473684e+00 0. 1.0526315789473684e+00 0.
    1.0526315789473684e+00 0. 1.0526315789473684e+00 0.
    1.0526315789473684e+00 0. 1.0526315789473684e+00 0.
    1.0526315789473684e+00 0. 1.0526315789473684e+00 0.
    1.0526315789473684e+00 0. 1.0526315789473684e+00 0.
    1.0526315789473684e+00 0. 1.0526315789473684e+00 0.
    1.0526315789473684e+00 0. 1.0526315789473684e+00 0.
    1.0526315789473684e+00 0. 1.0526315789473684e+00 0.
    1.0526315789473684e+00 0. 1.0526315789473684e+00 0.
    1.0526315789473684e+00 0. 1.0526315789473684e+00 0.
    1.0526315789473684e+00 0. 1.0526315789473684e+00 0.</output_scale>
  <inv_output_scale>
    9.4999999999999996e-01 0. 9.4999999999999996e-01 0.
    9.4999999999999996e-01 0. 9.4999999999999996e-01 0.
    9.4999999999999996e-01 0. 9.4999999999999996e-01 0.
    9.4999999999999996e-01 0. 9.4999999999999996e-01 0.
    9.4999999999999996e-01 0. 9.4999999999999996e-01 0.
    9.4999999999999996e-01 0. 9.4999999999999996e-01 0.
    9.4999999999999996e-01 0. 9.4999999999999996e-01 0.
    9.4999999999999996e-01 0. 9.4999999999999996e-01 0.
    9.4999999999999996e-01 0. 9.4999999999999996e-01 0.
    9.4999999999999996e-01 0. 9.4999999999999996e-01 0.
    9.4999999999999996e-01 0. 9.4999999999999996e-01 0.
    9.4999999999999996e-01 0. 9.4999999999999996e-01 0.
    9.4999999999999996e-01 0. 9.4999999999999996e-01 0.
    9.4999999999999996e-01 0. 9.4999999999999996e-01 0.
    9.4999999999999996e-01 0. 9.4999999999999996e-01 0.
    9.4999999999999996e-01 0. 9.4999999999999996e-01 0.
    9.4999999999999996e-01 0. 9.4999999999999996e-01 0.
    9.4999999999999996e-01 0. 9.4999999999999996e-01 0.
    9.4999999999999996e-01 0. 9.4999999999999996e-01 0.
    9.4999999999999996e-01 0. 9.4999999999999996e-01 0.
    9.4999999999999996e-01 0. 9.4999999999999996e-01 0.
    9.4999999999999996e-01 0. 9.4999999999999996e-01 0.
    9.4999999999999996e-01 0. 9.4999999999999996e-01 0.
    9.4999999999999996e-01 0. 9.4999999999999996e-01 0.
    9.4999999999999996e-01 0. 9.4999999999999996e-01 0.
    9.4999999999999996e-01 0. 9.4999999999999996e-01 0.
    9.4999999999999996e-01 0. 9.4999999999999996e-01 0.
    9.4999999999999996e-01 0. 9.4999999999999996e-01 0.
    9.4999999999999996e-01 0. 9.4999999999999996e-01 0.
    9.4999999999999996e-01 0. 9.4999999999999996e-01 0.
    9.4999999999999996e-01 0. 9.4999999999999996e-01 0.</inv_output_scale>
  <weights>
    <_>
      -8.8548174818397674e-01 7.4234853685691216e-02
      2.1764489206567431e-02 4.9226546083770431e-02
      -2.6596843841405010e-01 -3.7083241950101382e-02
      1.4442871869706903e-01 1.9100892908979647e-01
      -7.1188558722941872e-02 1.4383787265796130e-01
      1.7853555525500370e-01 -4.7364944835227560e-02
      3.2957614221885929e-02 -1.0019557761680724e-01
      -7.5710127467308694e-02 -1.3537759431470622e-01
      -9.7211754375071568e-02 1.9169098694100470e-01
      6.6949865766227953e-02 4.6993748407783871e-02
      -4.2807715691793646e-01 -2.5096875602866797e-01
      -4.9112478635266889e-02 -9.3268819269637523e-02
      5.9182926069370402e-02 -1.3310248422606016e-01
      -1.6985471326291513e-02 7.7873144169989861e-02
      -2.8862703440838099e-03 -1.6248054771929296e-02
      -6.5644924469000165e-02 1.2866770871425867e-01
      3.6200215683066576e-02 -6.9704490968430580e-02
      7.5100698136319685e-02 -1.5064632822360260e-01
      -3.8822519089922719e-01 -3.2186505250928360e-01
      -7.7775044089560375e-02 -4.8279103340602217e-02
      -6.2593927720443379e-02 -3.5586226438283047e-02
      2.4714970150987760e-02 3.0695705431226260e-02
      -4.2806878772976099e-02 3.1310816779064804e-02
      3.4478778107226798e-02 -5.1617843466904761e-02
      -9.1773993641174306e-02 -2.1705974725836238e-02
      2.1784862634130905e-01 -2.5036470735909544e-01
      -6.0052050893195978e-02 1.5850732996697761e-01
      1.0664377941649428e-01 1.2249596146299203e-01
      5.2675944917785233e-01 1.3934317326707055e-02
      -6.5824249694801981e-02 6.4690503174699446e-02
      1.7734827891208174e-01 -2.1595181941488811e-01
      -2.1702984545614432e-01 1.3003325146216838e-01
      -4.2674673791043991e-02 -2.9579638433015004e-02
      -2.2471047028300994e-02 4.3086693187846463e-02
      -1.9571900586940411e-01 2.0796664370717786e-02
      -1.6748589438757837e-02 -8.8982460839391250e-02
      2.1097306779408131e-01 -1.2484103862281283e-01
      4.5922447554266076e-02 -4.6248909416580823e-02
      -2.2886992175810491e-04 9.5861558036432912e-02
      3.3626662900108413e-02 -4.9884945092110541e-02
      1.3692546861486940e-01 -9.9338147042437361e-02
      2.1216493824128277e-01 4.5050890400315707e-02
      -2.7592312677643760e-01 2.1516927571846565e-02
      8.5593628515640924e-02 -4.4758762501244227e-02
      -7.7194476138624877e-03 -1.5570178191749842e-01
      -1.2334638839690117e-01 1.9825286005873702e-01
      5.9098718392926991e-02 3.2465855316899644e-01
      -2.2452645507844726e-01 2.1313181010385115e-01
      -8.6296757358257398e-02 -1.6643621515139878e-01
      -1.0398797162216254e-01 -2.4423710346023147e-01
      -1.0087208137992661e-01 4.8719548335435187e-01
      -8.1726816375829558e-01 -3.2695249143029098e-02
      1.1649137380389192e-01 -2.2568768635906586e-01
      5.3107594641453655e-02 -1.3587147531854186e-03
      -7.9271960154620416e-02 4.0883050619464775e-02
      -7.1105900664416924e-02 3.8136673719987085e-01
      -4.9942599007827874e-02 -1.6012781502542213e-02
      -1.6955263804723786e-02 -1.0108489481386386e-01
      -6.9127908389701079e-02 2.3096915108749300e-02
      -4.7688910926829406e-02 -4.3615391571755938e-02
      4.9615481089665392e-01 -5.9938383068054712e-02
      -6.2571999126296365e-02 2.2515629778911853e-01
      1.4301212917759901e-01 1.2193084605484831e-02
      -8.4078050421040884e-02 1.4626776225640056e-01
      -2.9834826914815270e-02 1.8495699335088911e-01
      6.4769179366127860e-02 -4.0243049103610068e-02
      -4.6314561567543489e-02 -2.7729669382976104e-02
      1.3146997642122904e-01 1.7902718069448254e-02
      -1.6922441858730891e-01 3.4676286523995528e-02
      -2.0677610989722300e-01 1.9732499750805510e-01
      -3.3667524143039168e-01 -3.1353111341832385e-02
      6.6489239636981806e-02 -1.1422934441642495e-01
      2.2205130169989140e-01 -1.0485553722898149e-01
      5.8974646481349959e-02 8.0279201385535077e-04
      7.4530416085396789e-02 -2.1038319109293772e-02
      -1.1893045740895443e-01 -2.9743592239345495e-01
      -2.5181804508556233e-01 1.8011117592517953e-01
      -1.2122176664321592e-01 -3.9511425834587427e-01
      -2.0974675270769919e-02 4.1787114181349713e-02
      -3.9006628561640312e-02 4.0733384831869407e-01
      -3.3473397362053681e-02 4.1016488120359802e-02
      7.5875629096593761e-02 -1.0393077433888474e-01
      -1.8731231292141846e-02 2.8030666125178152e-02
      -2.9878721990856827e-01 9.8539781168036730e-02
      1.3527494752586566e-01 -2.0671863988680869e-01
      7.8993325897674257e-02 2.2476831038455725e-01
      1.0545193800828614e-01 2.7106751078113434e-01
      -7.5928495396659912e-02 -5.4391961126677747e-02
      -6.5290298462328178e-03 1.2608605349535221e-01
      -4.8087845673895034e-02 1.7464936976084067e-01
      2.9574722951203158e-01 -7.4879190063627851e-02
      -2.6724941321610782e-02 1.8650102582251593e-01
      -6.5571155612569917e-02 -6.5130921831290114e-02
      -8.6573075373845343e-02 7.8134881839458464e-02
      -4.8282201580131516e-02 -1.5313515538442507e-01
      1.5268595533604715e-01 4.0597101204540256e-02
      1.5600157009686680e-01 -9.3820743360303424e-02
      -1.2786565170515718e-01 9.4834578950539719e-02
      4.8619299985043614e-02 8.6487436065953008e-02
      -4.2456642605987371e-01 1.4724985921887594e-02
      -2.4205766857643865e-01 8.1530061080676130e-03
      -1.0286473533023738e-01 -1.1492986027844227e-02
      5.2804229940667670e-02 -1.2955717665852104e-01
      -9.9314514707365506e-02 -5.9758036167514676e-02
      1.5370829211121328e-02 -1.1432738150386433e-01
      1.3835405442435672e-01 2.0705826980512428e-02
      1.1131339812260992e-01 2.9410710815976765e-01
      -1.3667362391593771e-01 -1.0941079083345191e-01
      1.0045290551147742e-02 2.3829913242405062e-02
      -8.8631501376814758e-03 2.8933059793836081e-02
      -2.4298749148720813e-01 -1.9320364522525471e-01
      -1.0528352249018270e-01 -2.6759334068177865e-01
      -1.6453587086213722e-01 1.6313660733034510e-01
      1.8418552810430405e-01 2.6012296779358918e-01
      9.5701739962502932e-02 7.6512361443960411e-02
      -1.0184670435957799e-01 4.2331114693550061e-02
      -7.1767923723543958e-02 4.1789256414944582e-02
      -5.3117190164878127e-02 1.4628260831023096e-01
      3.0002985012317285e-02 2.5343723778020072e-01
      -9.7574871504325922e-03 2.3451017114792588e-01
      -1.8130711039364211e-02 -8.4834683319386289e-02
      -3.4405295291841698e-01 2.8767450235873882e-01
      1.3444390447213425e-01 1.5486038185817093e-02
      2.9998625809599172e-01 -5.8511133607718341e-02
      6.8993013415197785e-02 5.1102170373825938e-02
      -2.3892429811057203e-01 -1.1913277044509382e-01
      -2.3600473212363587e-01 -9.3492989304967966e-02
      1.0520756790730978e-01 -2.9667714743480395e-01
      -4.1275508241782172e-01 1.6689079985869393e-01
      1.8612007216865709e-01 -3.0911268596244788e-02
      3.0291635206388327e-02 2.4299464446635444e-02
      -1.8715490878237290e-01 -2.1236881198210940e-02
      2.1628601504786241e-01 -8.3708144600378176e-02
      3.0312643591650153e-02 -4.3873129095084257e-02
      -4.9837630199076555e-02 -5.5061977725143676e-03
      2.5120257726939671e-01 3.3594608749579861e-02
      4.9426367516926632e-02 1.2213417156006965e-03
      2.1813017827658765e-01 8.2445346437264606e-03
      7.8608910271283333e-02 8.0858620458845593e-02
      1.4932533708451096e-01 1.0647749277425875e-01
      -1.6331610204948371e-01 8.4658585915923720e-02
      -1.2000097098878014e-01 1.5361532887050233e-01
      1.5729316232171375e-01 8.8880865153956434e-02
      6.5199372698773336e-02 -6.1706351440416952e-02
      1.9402748098546665e-01 3.7027155724691861e-02
      2.5307282675901249e-01 1.5818286589322236e-01
      -9.8899222612453375e-02 4.9330855997182663e-02
      5.8344265462412843e-02 1.1314839355630107e-01
      -1.6054054676692627e-02 -7.2557090698796692e-02
      1.8024424827650118e-01 9.9716476323934988e-03
      -1.5822412225491109e-01 1.8163606957340522e-01
      5.0194597395455702e-03 -8.7502682280424696e-02
      1.2698449154479974e-01 -1.7395586196181090e-01
      -6.5735776196446855e-02 1.9889185784215516e-02
      1.7651655892029678e-02 -4.4454271366352209e-02
      -6.7869884035135525e-02 1.4261491830471488e-02
      4.3744675262955390e-02 -6.0976973561436013e-02
      -1.4823107239149214e-01 1.1785509034654007e-01
      -1.3697187126143837e-01 9.2479757221226755e-02
      8.9414807434472290e-02 -2.2921760749693421e-02
      -1.5854187748922130e-01 1.5314098415451652e-01
      -1.7203004292979404e-01 6.5405188005919782e-02
      4.6516366037868617e-01 3.6831256097381337e-01
      2.5043966209280183e-01 8.5325154817615947e-02
      8.5082734133890281e-02 -1.3510697207683214e-01
      -6.5810550892901271e-03 -1.8780936013306770e-03
      2.7091735621172802e-01 6.9137793193203859e-02
      2.9576148720423884e-01 1.0561774345707837e-02
      7.0413797348676574e-02 1.9035462602848288e-01
      6.6470601877172519e-02 -1.0201313442588553e-01
      2.3518346846627333e-03 -7.0308419744981249e-03
      -8.9366509452149370e-02 7.1171519406111175e-02
      -2.1522169545386879e-02 5.6857048613521199e-02
      3.2390044449814048e-01 -1.2040668604422408e-01
      -1.9036580635305861e-01 -3.6414202803603402e-01
      5.4386627159010246e-03 -1.8319185118502321e-01
      -1.1866486112425659e-01 4.8333923291876954e-02
      1.4063642679537575e-01 1.7869802630859291e-01
      4.9797394486655523e-02 3.1195024511438576e-03
      -1.2757194948265060e-01 -3.5185032584048294e-02
      1.5115713209095893e-01 1.9443935656338993e-02
      2.3476548875311656e-01 1.4135339130763666e-01
      1.0381998734897961e-01 2.5138269415273345e-01
      4.9355415924269223e-02 1.8719871477176941e-01
      2.0776712733024738e-01 4.1843034728491768e-01
      -8.3216759964267750e-02 2.5248937032881552e-01
      9.8870925081615990e-02 -1.3386529156828031e-02
      -5.2137023439619387e-02 1.4102811158410238e-02
      -1.3185344730299364e-02 -7.8054058544537688e-02
      -6.8743969292611548e-02 -4.2545660935300426e-02
      1.7053274913323216e-01 1.9342212975627368e-02
      -1.2222742501791350e-01 -7.7716934551865055e-02
      -5.6189587706616390e-02 9.0853246872406063e-02
      8.5193269264012994e-02 -4.2772215076880019e-02
      1.0271638245103365e-01 9.8507404329399348e-02
      -7.8967991418964420e-02 -1.4674291158768210e-01
      1.3294771168828726e-01 2.1427699722988466e-01
      -1.9088134343211657e-01 3.0214591277438127e-02
      -5.8325758740332785e-03 3.2817378513640458e-02
      -3.5111168420484640e-01 9.4279007788554678e-02
      -9.8305335283799222e-01 2.2710922430416927e-01
      -3.1920115577107933e-01 2.5431520199621421e-01
      9.0384769461964470e-02 -3.3671899303823366e-01
      6.0181380568606273e-02 -1.6893509267308149e-01
      6.5235944562597598e-02 -4.3072738991453028e-03
      1.3032151089710303e-01 1.5284898871623009e-01
      2.5902012255167495e-01 4.7685917726965003e-02
      -2.5935175116640152e-01 -1.5337846160390167e-01
      -1.2247977611260139e-01 -2.1477856521042440e-01
      -8.8624217756340957e-03 -5.5435168121863876e-01
      -3.7416608851149713e-01 1.9641394609698132e-01
      -8.7611448466012199e-03 4.2660821516563752e-02
      -9.1699207979493824e-02 1.7037465550034853e-01
      4.5284174854492822e-03 -4.7187464414714692e-01
      1.7692521099315728e-01 -2.3419448994201807e-02
      -6.4164529007660898e-02 2.6502183490449815e-01
      9.0916111219209603e-02 8.2575249467343140e-02
      -2.1871843300284696e-01 5.0764190142341840e-02
      -1.3826510036350731e-01 -4.5698483493078840e-01
      1.7892245492933778e-01 2.0209972978043920e-02
      -7.4505363508359485e-02 6.4276363881082890e-02
      2.5759405510590394e-01 2.5470531326782109e-01
      -1.7579570965499350e-01 -1.7933679006602737e-01
      1.3610855116208688e-02 7.6459788682748372e-02
      -2.1718020347892303e-01 1.6523282053562105e-01
      8.1038773203235097e-03 -2.7382633954021579e-01
      1.1391600815704933e-01 -3.5572968793791421e-01
      -1.8474720917666998e-02 3.7702412614871467e-01
      -3.7011849604338953e-02 2.2587032266296864e-01
      1.4758858612323830e-01 -1.2760066477811535e-01
      1.0662048828915041e-02 -3.2341872097529298e-02
      1.8424377053177299e-01 -2.1588110646040543e-01
      -2.3137114882101470e-01 -2.3928673618779361e-01
      -4.4605239986408265e-02 -1.2780913822492114e-02
      -2.9311399755561263e-01 1.9366151322285907e-01
      -2.7142551182368352e-01 1.0314597756336734e-01
      -2.7930049657200295e-01 -2.3029877806820497e-02
      1.0007846423518661e-01 6.1365156527641157e-02
      -6.1669878811826603e-02 1.1603100439826992e-01
      -5.5688723759303060e-01 -1.3588652978972438e-01
      -4.1980124120218183e-02 -5.4279265215263238e-02
      2.4692149181526005e-01 -1.0617974834679861e-01
      1.2859128337517198e-01 2.7892666241437875e-01
      -6.3011013666324625e-02 1.0552613185391885e-01
      -4.4039343898132785e-02 4.1205098559801603e-02
      -3.0040891783344936e-01 -1.7771403633462154e-01
      -2.3602486131247330e-01 -3.9267945404785121e-02
      4.2503686075629314e-03 2.4293853480394706e-01
      9.0905752242929641e-02 5.0915613702941598e-01
      6.0545389207083522e-02 2.5430891093660213e-01
      -8.1290544910948781e-02 4.4198413605935882e-01
      1.7867397259461443e-01 -1.4733802125958256e-01
      -1.2758655259042384e-01 -1.6371442144186218e-01
      -3.8875930980258308e-02 -1.4455823773044718e-01
      1.4305933734167378e-02 -1.5381280755984705e-01
      -1.3671330568282758e+00 7.1926357633625579e-02
      -2.9338645984713755e-02 2.0046183039774662e-01
      -5.6129793210158208e-02 -1.9899825077327524e-01
      8.4412158832733480e-02 6.2299143468875932e-02
      1.2585724043294996e-01 -9.4162582545683042e-03
      -1.1995441585567758e-01 -1.1954661900415153e-01
      2.3120402633588835e-01 -3.2120982657479946e-01
      2.1668491291062203e-01 -1.3950328044702817e-01
      1.1733253054610633e-01 -4.0888571037361571e-01
      -9.9061453413831657e-02 -2.0994038719284691e-01
      5.4225897528995516e-02 2.9460139356422599e-01
      -2.6783547721666218e-01 6.9868698860458308e-04
      -1.8801475090232521e-02 2.9672934069842716e-01
      6.6404000701992760e-02 1.1707193933504449e-01
      2.5250466564464868e-01 1.3722403023462121e-01
      2.6010506801055239e-01 1.7465007689606055e-01
      -1.5760479561872257e-01 9.9616692943337148e-01
      3.4201143884959553e-02 -3.1697376072953684e-02
      -7.8987952176910334e-02 -5.3553987103816175e-02
      -2.9608527323404565e-01 -1.4806089568772665e-01
      7.9063490433318694e-03 -3.0322011580432552e-02
      -7.2495464612079313e-02 -9.3264108194126231e-03
      -2.6530710801240889e-02 5.7577272865545398e-02
      7.4024388640580363e-02 3.9350065463516309e-01
      -5.3439939874543214e-03 -6.1636927293692245e-01
      6.0290781034097282e-02 2.9681123925301134e-01
      2.9823571603820702e-02 3.3037007575631015e-02
      -1.0044605271812368e+00 -4.3826774554437441e-03
      3.5296595557484883e-01 6.5258645313075209e-02
      6.7832293467505655e-01 -6.0854706172581569e-02
      1.1955520442181505e-01 -5.2462933766160118e-02
      9.4096060787861018e-03 3.1047811685658139e-01
      1.7967609143052490e-01 -5.9632442053842279e-02
      6.4984606969923253e-01 2.0029607119632194e-02
      -1.2874358477358261e-01 -1.2945027413154603e-01
      4.3829418027452721e-01 -2.6820278655372237e-01
      -7.2801815697693284e-02 -7.2138286100495261e-02
      1.0178102752019273e-01 -1.8696999180006807e-01
      1.4086967756936417e-01 -2.1275252221326261e-02
      -3.2352788804324140e-01 -2.6162661254693703e-01
      -3.1876446220339810e-01 -3.6357914809702885e-01
      -5.6829005789174214e-02 1.7496607660165053e-01
      4.1962388097189357e-01 -6.5153892405504926e-03
      9.7640933715402489e-01 3.9066730464601129e-02
      2.7909928961084118e-01 -1.8346107183335364e-01
      5.3792163155839984e-02 7.4290840724956633e-02
      9.0223032100955405e-02 -1.7079130696489697e-02
      -2.8720944435510105e-02 1.4439653239999518e-03
      2.1416597279183915e-02 -1.3499845918571051e-02
      4.2505423538309023e-01 9.0666249414050798e-02
      -7.3047379140902938e-02 3.1829366690743245e-02
      3.6850832743606454e-02 4.4877341439591895e-01
      -1.3968848110168144e-01 -8.9001464483938145e-03
      -1.9616510859697711e-01 -1.5849134394369052e-01
      -8.6189719369624218e-02 5.0504868174207095e-02
      2.1561333140377079e-01 -2.9867708216590849e-01
      6.5511069989152348e-02 7.1290675634036765e-02
      -3.1114383864554129e-02 2.9719078455629797e-02
      1.8262070570472164e-01 9.8595764319179130e-02
      1.6443188266456862e-01 1.2004302081271966e-02
      -6.9422837796436696e-02 1.1070558737926392e-01
      1.1270795256509472e-01 2.5170378994501841e-01
      4.4007263389269202e-01 -7.1949353400915805e-01
      3.2244848166903769e-03 -1.2378308830409766e-01
      -5.1943697772797358e-02 1.2998950837640413e-01
      9.1252938891908261e-02 -1.8616710626547253e-01
      4.9820207524510572e-02 1.4697406231719303e+00
      -1.1486785366731103e-01 4.7625383129053067e-01
      6.5687352226759299e-01 1.0263026736035978e-01
      1.8354698163172684e-01 2.7986347595749972e-01
      -4.2881248426228241e-01 -1.8296689907792055e-01
      4.8343518907526278e-02 1.3155276993843479e-01
      1.3249513428103818e-01 -4.1160261976719348e-01
      7.2008739690268830e-02 -2.8929845378657820e-01
      -3.1609105025173750e-01 4.4704340619824973e-01
      -7.2334779508119507e-02 3.2918386531054850e-01
      -3.6929807746405452e-01 2.7130731390420281e-02
      2.5484150128825733e-01 3.3893342997848978e-03
      4.2946530875170824e-01 1.7242671579697333e-01
      -8.6251839998188320e-02 9.6855245858138858e-02
      -1.1594962414318100e-01 5.1548525370957547e-02
      2.7781538812740225e-01 6.6901808993383638e-01
      -5.2230529541372817e-01 2.1673077934414964e-01
      9.7356615437491911e-02 -4.6058651579677434e-01
      1.3720446325278132e-01 -1.2987157954078832e-01
      -1.0416093712658257e-01 -3.8638606899528727e-01
      1.4535720368094177e-02 1.0104228224242609e-01
      -1.4781155738735824e-01 -2.3920181864338731e-02
      1.7735083274991559e-01 2.9607817360397376e-01
      4.0516046856500881e-01 2.5388997208946971e-02
      -6.2357774353686030e-02 -4.8780566758421233e-02
      -2.5574362695520492e-01 9.2364437690822601e-03
      1.3542878598584518e-01 -6.2352274376165195e-02
      3.0070386195834087e-01 1.3783764062448231e-01
      3.5382055263958011e-02 -8.4996297292952799e-02
      -1.2857919656373408e-02 -8.2388113111351358e-02
      2.5731736930170401e-01 6.6190023831030606e-02
      -1.9643051361625202e-01 -7.8701798732938325e-02
      3.7341569450512022e-02 -2.3259436800437360e-02
      -3.8438880856252566e-01 -2.0177865744612869e-01
      1.0738451812945470e-01 1.8996512057321911e-02
      6.1564810481684787e-02 -9.5079933200211478e-02
      1.3524716622279817e-01 -1.6016562142547658e-01
      -3.0870456240389993e-01 -1.2474294840020647e-02
      6.9716854239397262e-03 1.5619719853879693e-01
      1.0235945626771423e-01 -7.7334759839534237e-02
      -9.2896165465794434e-02 -2.6677222003543316e-01
      5.9090268329034827e-03 -1.0040942163274513e-01
      1.3846515297766360e-01 4.2960083495996321e-01
      2.9306734786170174e-01 5.6903335256965983e-02
      -2.1934395421115965e-01 -1.9863017985897657e-01
      1.7754560630889979e-01 -1.8923478092392840e-01
      6.1269289025137383e-02 1.4891091274267296e-01
      7.6976894514554112e-02 -4.7189326457231517e-01
      8.4238209007444526e-02 1.9882084183591336e-01
      -1.0533647716748406e-02 -1.9707271506917375e-02
      6.7259731904322620e-02 -8.3208376514901941e-02
      5.2614831979774002e-01 1.4259309431346958e-02
      -1.3620918654524822e-01 -7.6080185373047685e-02
      -4.5006427041349917e-01 -7.8817627931157166e-02
      2.6017399308371481e-01 1.6842426352172413e-02
      2.6249925630108034e-01 -2.6279391907532473e-01
      1.3665497175470120e-02 -1.1764468914307658e-02
      -7.5269587472340205e-01 -7.2052008452710570e-01
      5.3049504591331997e-01 -9.3577305897376201e-02
      -1.8443045763459406e-01 -1.3948538421779783e-01
      6.5529084081060307e-01 2.5801100434122745e-02
      -1.5101360786750789e-01 -3.5716458706467824e-01
      7.2633272910829659e-03 5.1636144507164439e-01
      -3.2626154963336464e-02 4.4458400941729359e-01
      -6.5951663914361011e-02 3.8512601174279334e-02
      7.0171567906184271e-02 1.4490404439710598e-02
      -2.1306596333138993e-02 -2.0204672951630473e-01
      7.1467041365496986e-01 1.7203384064448449e-01
      -3.7271178072106614e-01 1.1758321189549226e-01
      -7.5470769698703269e-02 -2.5895315542630154e-01
      3.7765525542445200e-01 8.7082809484528827e-03
      1.7990889003816413e-01 1.8346094541637642e-01
      -4.4865485967270989e-02 1.2907197288061109e-01
      -1.0277905497226299e-02 2.4517386449602460e-01
      -3.1960220968010689e-01 -5.3911126335251434e-02
      4.0099645425573299e-01 -1.0630472803520202e-01
      3.8234677453955096e-01 -1.9570421057223544e-01
      -1.3512428893408060e-01 7.3504873034013082e-02
      5.2400245423961746e-02 -8.9288029503301988e-02
      -4.9802885763331579e+00 -7.1792372708229496e-02
      -2.1423472084213729e-01 2.2064353555472366e-01
      1.2697787438132843e-01 -1.2703680900056155e-01
      -8.8102835743443270e-02 1.2328187531291761e-01
      -3.3269405059437249e-02 -1.4127037917932153e-01
      2.5463090112853476e-01 2.1456848871448234e-01
      7.1691759036478442e-01 2.3132488379318902e-01
      1.9433154616040921e-01 -5.3948723763629573e-02
      -1.5172120293399960e-01 1.0669070111956906e-01
      1.4499145006028821e-01 -5.7976497709328134e-01
      -4.3604140610383563e-01 6.0545603738215723e-03
      -3.5554652012233214e-02 1.3695549109405061e-01
      7.1018086527864649e-02 -1.7117422082891323e-01
      -7.1494030087105073e-02 8.2628393432009151e-01
      4.7281652091346896e-02 -8.1900402245295989e-03
      -1.5178364287750848e-01 -1.6291017765392102e-02
      -3.8003739427135634e-02 -2.7354298060899412e-01
      3.9831214551757538e-01 1.8077917124983833e-01
      -1.4781318612918168e-01 1.0082110395033969e-01
      -3.0423766534220531e-01 -1.5738441176051965e-01
      3.3795817270801182e-01 -3.1399180132490234e-01
      8.4319784333274968e-03 1.4385906588964109e-01
      1.7459176141629798e-02 1.0405566372695070e-01
      -1.5246615568677907e-01 2.8345938546993698e-02
      -1.7488509375160002e-01 4.1937854880446268e-01
      -1.6898078762444535e-01 4.5142249421586345e-01
      -1.0227572335252838e-01 1.6398465918279405e-02
      -2.9078249487951396e-01 -2.3430326181211872e-01
      -6.3494316496838477e-01 -2.1535980688984729e-01
      1.9495610056942500e-01 2.3534518517792011e-02
      -1.6591078854881029e-02 2.1006302576679789e-01
      3.3583306217198716e-01 2.8288864570922462e-01
      -2.0488634922716084e-01 -1.3396154461394830e-01
      -1.5390502074866605e-01 -2.2845298464934302e-01
      1.1709492792305952e-01 -3.6547585653754106e-01
      3.0201380675767903e-01 4.2713729827485020e-01
      -2.7627360999800399e-01 1.3967043826818062e-01
      -7.4264546804696935e-02 1.5041685377508052e-01
      1.4664721323584948e-01 -1.9211725681670003e-01
      5.9994605953806263e-02 3.2851892413237140e-02
      -3.7839243296557040e-01 1.6668000458044098e-02
      -1.5618071870428776e-01 -2.6016103507621770e-02
      9.9371335018705001e-02 -1.9101168867222665e-01
      1.1180696586994453e-02 -1.3404067666081854e-01
      -4.1176526000439584e-02 2.7854802617062385e-02
      1.2826805012947809e-01 3.0288662117243942e-01
      -1.5719060952736214e-01 5.7628811668546220e-02
      2.0058663704516439e-02 -4.5921323307400197e-01
      1.2872041496611497e-01 5.9898648143801114e-01
      1.8720259293683875e-01 2.4228803361600074e-01
      -4.0378010395465214e-01 5.9207598499192082e-01
      3.0106495229839644e-02 2.9359393639774978e-01
      -1.3219886395133668e-01 1.2489336255558252e-01
      3.2389410673578184e-01 -2.0167658705757853e-02
      1.2604467394323285e-01 1.0871181808443384e-01
      2.4495962752352546e-01 2.2224548632039653e-01
      -4.9080508659510202e-01 2.6514750470508097e-01
      -3.6087525246138458e-01 2.6770130389741165e-01
      -6.7846696521496261e-02 -2.2071170584813560e-01
      -3.0576014930417277e-02 1.5294882536542467e-01
      -2.0571055200382393e-01 -3.1690365687665645e-02
      -1.5171048013258567e-01 9.1750267959151616e-02
      -3.2064919624036486e-01 -2.1452061528359562e-01
      1.4441439456276109e-01 7.6549664175815005e-02
      1.0595615354202784e-01 -6.5952017041635030e-02
      1.9025620725011314e-01 -2.0237871990770714e-01
      -1.5231416472071976e-01 7.0247805218543541e-02
      1.8605811958574428e-01 -1.1324269544212771e-01
      -6.2190565636463657e-01 4.8048989566572796e-02
      -6.5835448785246831e-01 -4.9837516065856508e-01
      -1.6745813966652870e-01 8.8725173560764967e-02
      -7.1595732067557968e-02 -9.2154280467055746e-02
      -3.9699806334471710e-01 4.7965239987986297e-02
      2.0273136599098440e-01 1.2576655952046248e-01
      1.0913250387050882e-01 -5.6237602231843091e-02
      4.2540829085339502e-02 -1.9591172082356184e-01
      2.0438510666904669e-01 4.1097661459655849e-01
      1.4294858109736697e-01 2.6748238886980052e-01
      1.2121797703626154e-01 5.1845392224438791e-01
      2.7897359962327511e-01 -1.0855998748347035e+00
      -1.1032545028946740e-01 4.6386751328195513e-01
      -9.3270736969637003e-02 2.7684711765345810e-01
      -6.5899874728746867e-03 -3.6497883637512114e-02
      -5.5859006649740472e-02 2.3684292189215236e-01
      -4.2706024251951819e-01 2.2971564939861749e-01
      9.0128226914765991e-02 -2.5763507387770901e-01
      -5.4105115727860489e-02 4.8309740486129821e-01
      -2.2807122037605101e-01 -1.6330673998968664e-01
      -7.0754342030041950e-01 2.8077802383635057e-02
      -2.9115188902124256e-01 -9.3055335266948314e-02
      4.8010084619976134e-01 -1.4695501882762030e-01
      3.5421160825980777e-02 -9.2004830444655780e-02
      -8.7056425399313547e-02 -3.3224831282148044e-02
      -1.1046449634878454e-01 3.0847964305960065e-02
      1.6400759912174837e-01 -4.2921313784294639e-02
      1.7917907192516927e-01 3.3584253479138221e-01
      8.5653770871110313e-02 2.1549202407479975e-01
      2.3446655528992855e-01 7.0631103450082416e-02
      -1.5202915278954046e-01 4.7511737869843867e-01
      -4.0791018412647112e-01 -4.5615089850061802e-01
      2.1205756087528727e-02 1.3658725454203868e-01
      1.1144007318271634e-01 -5.7957318466657137e-02
      -1.9425133077341783e-01 4.4327869712348156e-01
      6.7013198971634297e-02 1.2636214428807421e-01
      3.8024317788839435e-01 7.1459749070204082e-02
      -1.1485944152602665e-01 -5.3488533620143032e-02
      1.0681184750303651e-03 -3.8930191957663057e-01
      -4.2007591092151753e-01 6.6926934040932107e-01
      1.2918636091294963e-01 1.1086152357320131e-01
      -2.9308905494065340e-01 1.5780569138107053e-01
      3.4349070917159230e-01 -7.3180195018266447e-02
      -3.3472289461636867e-01 -2.1658766408118016e-01
      -3.8252367522696770e-02 -6.5964445954128079e-02
      1.2412256818942670e-01 -3.0415865007187676e-01
      -2.3720864843628644e-02 1.9760412305131947e-01
      -2.1936562256783634e-01 8.3658895596813887e-02
      -7.7063441633834259e-02 -1.6233330622774661e-01
      1.8086335040235665e-01 1.1526092137178857e-01
      -1.7562683972078219e-01 -8.1132020326533971e-01
      -5.1438230816574104e-01 -2.8862234917596341e-01
      -1.6284061013413328e-01 -8.3707853313214564e-02
      -1.3580458042615090e-01 1.0097562636397377e+00
      1.2195976268033119e-01 -1.4349241103465077e-01
      4.1599944343455059e-01 -2.7744355231726381e-01
      2.1043671247668205e-01 -4.1505234902603599e-01
      -1.4056189571072111e-01 1.8193937005098501e-01
      5.3183209663247563e-02 -2.5043402959136069e-01
      9.7951144387201330e-02 -1.7881191850901432e-01
      2.4468891709293276e-02 4.0594905256916794e-02
      2.2372992571635700e-01 1.0835282301602384e-02
      -3.6756184433124311e-01 4.2813716795085371e-01
      2.5203341531739587e-01 1.7724192732583810e-01
      -2.7426987510114575e-01 2.2463537390771690e-01
      2.4524979960999890e-01 -3.6825889273756096e-01
      8.8894017148280519e-02 -1.8650148173333915e-02
      -3.5053452565653259e-02 -2.3588502721075816e-01
      -1.2723241493979245e-01 -7.9076364085063616e-03
      -8.9285931712482880e-01 -1.7055571113619417e-01
      -1.3073448001001636e-01 1.5573845217459675e-01
      -1.1829229809193993e-02 -7.1949859509725669e-02
      -1.4671047529962142e-01 -7.7800864035618811e-02
      1.1825530759909188e-02 -2.5255166683527678e-02
      1.6383420911418883e-01 -6.2074194029784022e-02
      -2.3214526250564077e-01 3.4881482018983431e-02
      1.4440554050316487e-01 -7.6435241248033218e-03
      1.2720450735291583e-01 -1.8735618496457274e-02
      3.6776765150305829e-01 3.3424185849779892e-01
      4.4333663906165299e-01 -1.0367669866974563e-01
      -2.1524320060682103e-01 2.5204336870749522e-01
      2.1104434784959419e-01 5.6736477771825868e-02
      -2.3130052919077205e-02 2.5083301719447310e-01
      -9.8229554179989645e-02 -2.1580174426923601e-01
      6.1932668193981348e-02 -3.0984092858843193e-01
      2.6211832330391077e-01 -1.6191884654958291e-01
      1.8225902472516861e-01 -3.0211101088191034e-01
      -1.9206863068499688e-01 4.7409322722781321e-03
      1.0742740636901718e-01 -2.1200852084708729e-02
      4.4003307491983237e-02 8.0374748619511119e-02
      -7.7614702605156544e-02 2.4866744948471767e-01
      2.4225842523187907e-01 1.8811519928535139e-01
      -1.6817098877336911e-01 -1.5373555712860630e-02
      -1.1513514726471773e-01 -3.7410769864530807e-01
      3.7269063939655310e-02 -1.3475123421390209e-01
      -4.4542094123362234e-02 5.1182703942868543e-02
      2.2596544221391842e-02 1.5801271666738204e-01
      -1.6145001042588963e-01 3.3234240819125860e-01
      -4.1594142729830025e-01 -5.6653256612832492e-02
      1.3741714955663226e-01 2.4756693905439595e-01
      1.4589094526234583e-01 -2.3268521296522135e-01
      3.3593770470742329e-01 -1.1688679683845651e-02
      -4.9776901182767924e-02 -1.9732098102139836e-01
      3.1382762986838902e-01 -2.2753628164579470e-02
      8.7195122829156133e-02 -1.3398538891815234e-01
      -3.6800161978662073e-02 9.9082120790891220e-03
      -3.0442856224285414e-01 3.9841014450745488e-01
      1.1200033657469560e-01 6.9554021721147954e-02
      -1.3983035452930875e-01 -1.4984846684224249e+00
      -3.5695885287711476e-02 1.8608914439948654e-01
      2.0304578713351958e-02 -4.7268614136224574e-02
      8.9594617162485402e-02 1.6038083386054094e-01
      2.1035253917477298e-01 2.2066430209117999e-01
      3.0965323374118997e-01 -1.5466945428779239e-01
      -2.4570239752953849e-01 2.9268450981111620e-02
      -1.9525599879450939e-01 3.0537472639663898e-01
      1.5299212169807383e-01 4.4399333868345403e-01
      -6.4366274388627145e-02 -5.3195430144762057e-01
      -1.3283244444296366e-01 -2.9592203590041738e-01
      4.6270699206628123e-02 -1.5642002586865017e-01
      -1.5257258705048868e-01 -1.3850344677466270e-01
      -1.6696962717183525e-01 3.2232601109995949e-02
      -1.8165413484248880e-01 -9.9873940676399556e-02
      2.5976893666292716e-01 2.7173440744732630e-01
      2.3508892822084446e-01 1.4068514969559154e-01
      -1.7965008385079623e-01 -2.9973388896880926e-01
      8.7970737231676990e-02 -3.9910614681187029e-01
      -6.2635342572679747e-02 1.9112042034008661e-01
      -8.3338232654906780e-02 2.5751215506943259e-01
      -4.3651915288530069e-01 3.6352311333740744e-01
      -1.5825314293410717e-01 -2.0085337025380831e-01
      -7.3753551297416425e-02 1.3642332075167385e-01
      -2.1290662596427537e-01 -9.8735599623759621e-02
      1.5636701285017934e-01 1.1875082327959371e-01
      1.1706257977773062e-01 2.5408995163717490e-01
      1.0940817238589302e-01 -2.8244331543673867e-01
      -9.2673392919726344e-02 1.6843567745902457e-01
      3.2343303523494032e-01 -1.4031922525289708e-01
      -1.7307731437647411e-01 -3.0252158756413340e-04
      -2.3567528774494204e-01 4.8959698679001740e-01
      6.5719161949015892e-02 2.1359713243525108e-01
      1.5656337778222704e-01 -2.4840615057454715e-01
      4.6496442249727335e-02 -3.2090673693066513e-01
      4.5093516670342981e-01 -7.6143532280884274e-02
      -1.9867688277531531e-01 9.1748901654191889e-02
      -1.2006651775763669e-01 -2.6977184033083224e-01
      2.4924280813640849e-02 4.5446401100266776e-01
      -8.7459876495093666e-02 1.3991517812177001e-01
      -1.6449608301560001e-01 5.9608547150256663e-01
      9.0995854464570036e-02 -2.5865768848300208e-01
      9.6549737566719404e-02 8.1455338106014163e-01
      -5.2277771554892459e-02 -7.8869752184995381e-02
      -1.0294424114566146e-01 1.1155089099072560e-01
      -7.7803884259073267e-02 1.2465175901712371e-01
      -3.8594392399126687e-01 -5.1443761445889885e-02
      2.3389556962975605e-01 -1.3709943111342926e-01
      -1.7160628037240636e-01 -7.7193484899586340e-01
      2.0189212100574239e-01 4.2217772816732085e-01
      -1.8448553132050860e-01 -1.5708949822758836e-01
      1.3700764073021793e-01 -1.8011130669771078e-01
      -1.5701721877002875e-01 8.1692144616852411e-02
      -2.6529456731794976e-01 -9.6390739696470190e-02
      -1.2763279596701238e-02 -2.5092051629114976e-02
      -2.1398399960789051e-02 1.7041798269290750e-01
      2.9453317950456126e-01 -5.0390415175921924e-02
      1.7450536168067288e-01 -2.5342183115439781e-01
      -3.1692669531776414e-03 -2.4031557644845217e-02
      1.1675089532736969e-01 -8.3654541512264438e-02
      -2.4370038875603700e-01 4.5119593533081183e-02
      -1.0064440205094465e-01 1.0861725083443667e-01
      1.6101214840575659e-01 -1.2700092626763659e-01
      -1.0170826171186455e-01 -1.6638441742220544e-01
      4.6035582566665061e-02 3.4693712990298353e-01
      -7.3333123366185837e-01 2.7024386638255632e-01
      4.7322626955862382e-02 -1.6552575514473075e-02
      2.7190795662549762e-02 3.0442180460478302e-01
      1.3005601401805716e-02 1.4148475820720649e-01
      -3.9326186267093072e-01 1.0962489934026756e+00
      -1.2441768592080735e-01 -1.2410124906141876e-01
      -4.5237802105057073e-01 -2.7038243296936576e-01
      1.8672484353906291e-01 -3.6787193457970557e-01
      -3.2271619165275595e-01 2.2258288000657997e-01
      6.8082189497447473e-02 -3.0432837048170697e-03
      -3.0490314304432897e-01 9.2773995667226647e-02
      -1.6123698937522829e-02 -7.5216220071496454e-01
      -3.1364647558511549e-01 2.2276592100073628e-01
      2.0522377632004707e-01 -2.5761590550319757e-01
      1.3859621163025326e-01 8.6097379025957876e-02
      5.0567944387349816e-02 -2.5857813356671916e-01
      8.2639430830457161e-02 -5.1492274249307288e-02
      -3.1956878019069011e-02 1.0255527598602687e-02
      4.4352944324010470e-02 -3.2350512859984326e-01
      2.1135748092562596e-02 5.1743855503567734e-02
      9.5165591975451588e-02 -2.5780042450323581e-01
      -1.3370204100821009e-01 2.0533683646477576e-03
      1.0831967253402587e-01 -2.2787735181805810e-01
      -6.0983597240755172e-01 5.2140200885474317e-02
      -1.1196786997764922e-01 3.2942335757397906e-01
      3.9714097903533765e-02 8.3400795842471967e-02
      -8.9976800440311373e-03 2.7989407952655498e-01
      2.2930723759207167e-01 -3.8184679681939476e-02
      3.2275254194458564e-01 -1.0323371702844353e-01
      -1.8831269702100445e-01 1.0745550950983843e-01
      5.5724473314911739e-02 -6.1236282380207431e-02
      1.8044737674759354e-01 1.1349772075817054e-01
      -1.5380569088518748e-02 -2.1659461903488664e-01
      -1.7673779048240507e-01 -5.3033707728612725e-02
      1.0552777192948376e-01 1.7479299339948570e-01
      9.6318068018272224e-02 -2.6149577904475957e-01
      -4.9311420364081988e-02 -1.4433880357737422e-01
      1.3001090632907414e-01 2.1965336851938783e-01
      -1.3865233052744619e-01 7.5230479568322917e-01
      -2.4643177299538147e-01 6.1439510574704738e-02
      -2.4736509347413499e-01 2.6828250598149239e-01
      4.1442917862169648e-01 1.4581432169629201e-02
      2.0363272603332003e-01 -1.4675522823749229e-01
      4.5041018567366281e-01 -4.5062021504238381e-02
      -2.6466350929986943e-01 3.9562737066340836e-01
      -1.2124312821353367e-01 -9.2307537544629836e-02
      4.3133058064913035e-02 3.0210446744207653e-01
      6.7713733429901346e-01 -3.2025246565808310e-02
      -4.0929324941697452e-02 -9.9280538145304159e-02
      1.7313968989603282e-01 2.7409363401907422e-01
      -9.0220214753333944e-02 1.0205280690152654e-01
      1.8003022047666434e-02 1.0691308923442548e-02
      3.6737895370495426e-02 5.7832222290685034e-02
      -1.1426956214647563e-01 5.9972914856839414e-02
      7.7728870807337409e-03 -1.1011271294267888e+00
      -3.9151302194185167e-01 -3.1463102641642393e-01
      4.1140200739117688e-01 3.9143737922637473e-01
      3.9454028267400509e-01 -1.7871274167714529e-01
      -3.9795413455196098e-02 1.5782123001268164e-01
      -3.5248825556069029e-02 -1.7288838525583494e-02
      5.0129553751989386e-01 -8.5496060441888552e-03
      6.2421382510479899e-02 1.2732198903709297e-02
      2.9691480018597605e-02 9.0339775889494545e-02
      -3.0885726816365172e-01 1.5933859431263347e-01
      -6.4696787334646830e-02 -1.1772372944609451e-01
      3.2851460494943543e-02 2.1240224477038555e-01
      2.7422148064186408e-01 1.8554343737873635e-01
      1.8406472377408553e-01 -2.5074705337580822e-01
      8.2075704219645856e-03 -1.2023114602602551e-01
      -1.3243081802319984e-01 -5.2654733630505379e-01
      1.3288797468861965e-01 4.0984514315409823e-02
      -1.0814405478674417e-01 4.0590139412780041e-01
      2.1392588391177353e-01 5.2849400380494960e-02
      2.2415227768315929e-01 -3.3990364332303241e-01
      -9.9698097393817423e-02 -2.8154658351116002e-01
      -3.0915761396978508e-01 -2.2843612480843897e-01
      8.6534226403980841e-02 -1.0107854585933620e+00
      -1.3697801013705471e-01 -8.8025951437317826e-02
      -2.6098043570494456e-01 2.2859762152408394e-02
      2.3778097803906162e-01 2.7799571203484807e-01
      1.3667124688268549e-02 -2.4451848949123828e-01
      -6.5770169232566497e-02 -2.4620329270180544e-01
      1.3205461120849080e+00 -3.6384151805691395e-01
      5.3030306561013284e-02 1.4717640658596845e-01
      -1.5820959947834773e-01 8.7167812914307682e-02
      -1.9401663302403439e-02 2.5449618332410157e-01
      -1.5425818831787466e-01 6.5319045324911240e-01
      6.1292702300750859e-02 9.5692922378764991e-02
      5.4923315317229618e-02 -2.6827340809306671e-01
      -4.6884544881611040e-01 1.4055885309222155e-01
      -1.0073301713352693e-01 1.7363020927757236e-01
      4.2993912016979167e-03 1.8500236370970749e-01
      -5.7741996675079632e-01 1.2929131347939352e-01
      3.3282214824837930e-01 1.8959961758062760e-01
      3.4942335340848374e-01 -3.7827287433410948e-03
      -3.0021361553950637e-01 -2.6973882832361579e-01
      -2.4979755753384716e-01 -2.7664569582239973e-01
      -6.1265349130538542e-02 -4.8608426402392199e-02
      -4.9922610836959636e-01 1.6492724212727371e-02
      1.0796016341480486e-01 5.6682267667104680e-01
      -8.5695332144791664e-02 1.4085492127964558e-01
      -2.7237342791194230e-01 3.1463276060941660e-02
      -4.2810079495131804e-02 2.2310707606280528e-01
      -1.5199391031749701e-01 6.3802610823657335e-01
      -5.1248945666207052e-02 2.1717858750570848e-02
      1.1271280645552408e-02 -6.9440546134247633e-02
      -3.6778048594798600e-02 3.5584625179822998e-02
      -1.3529998558396250e-01 -8.6892073932903338e-02
      -8.6406183384140370e-02 -8.3684336968375614e-02
      9.5014383421693116e-01 -3.0315354302932761e-02
      5.8218528421306134e-02 3.1881733784191124e-01
      -8.0224040304410119e-02 -3.6693353774297960e-01
      6.7467725651849608e-02 5.5290507489021276e-03
      2.5754510447540763e-01 3.2440858315059951e-01
      6.8565462583401598e-03 -1.2206617462366767e-01
      -3.0354451773613611e-01 5.0736964228816128e-02
      -1.7946900001170221e-01 1.0114083317343757e-02
      8.4624101195586693e-02 -5.4768920040956542e-02
      8.1482656410153995e-02 1.6977627628308342e-01
      -1.2518682095937253e-01 1.1228659567843084e-02
      6.1239868135490726e-02 8.9063262479834510e-02
      5.1296523977611852e-01 -1.3685033019139356e-01
      -5.7777010155386366e-01 2.0778347517000995e-01
      -3.5702822706991599e-01 5.1321036104471349e-02
      -1.9365973192153260e-01 1.2681265418991632e-02
      -1.0329542318448020e+00 -1.0710506248304454e-01
      1.5775297487094148e-01 -1.6896997094384580e-01
      4.0154876403160350e-01 -4.6340187143066404e-02
      7.2351807516162506e-02 1.6714761355807414e-01
      -2.8430514454582976e-02 -2.3904721854272043e-01
      1.8547190758084492e-01 2.4976112203421375e-02
      -2.8970868946178624e-01 -2.7839027210738178e-03
      2.8097707271391831e-01 -1.1841948725513290e-01
      1.3090082302488579e-01 -2.4868991832059698e-01
      -6.2965971358544548e-01 -1.0567475764910085e-01
      -7.1321892964533773e-01 -2.7843545667352843e-01
      4.6830462018404018e-01 1.3061068338852747e-01
      5.2201745710345870e-01 -1.7662040630068201e+00
      -5.2969281896898401e-01 -1.3781518385257202e-01
      1.8075423641294736e-02 9.8460974331175538e-02
      5.4058881885853040e-02 1.8078091437907456e-01
      8.5586883027188554e-01 5.0244998088352788e-01
      4.4745520322953364e-01 2.3196069204004521e-01
      3.0218599531764950e-01 -1.0148294283621086e-01
      -1.0462402534930069e-01 -3.1504210000379762e-03
      -1.1631126369687228e-01 -2.3903036153281904e-01
      -6.9411696297094205e-01 -9.2145345078274515e-02
      -1.6050682269292074e-01 -2.8227748911928700e-02
      2.5910663797521810e-01 -1.2716021131226460e-01
      8.3975020282756718e-02 1.6346161375470930e-01
      2.9874507028715980e-01 -1.0537099763397648e-02
      -1.8582700802654897e-01 -3.4339248271351835e-01
      3.1479258769411134e-01 2.3623081478107286e-01
      4.5686670978266182e-02 -1.0917824002537596e-01
      2.5600087108113984e-01 2.5937797266158741e-01
      -6.4540129905387333e-01 -3.2347610786552794e-02
      -1.6875614216466575e-01 -2.9133517392902369e-01
      2.0864988396931849e-02 -1.5262702303128961e-02
      1.3642633563089121e-01 1.1232791868542449e-01
      2.0745570020356041e-01 1.0070534615204484e-01
      -1.7036435092101270e-02 -2.5321984687367138e-01
      1.1721594958315651e-01 -7.9252270394424881e-02
      1.2479512084106323e-01 -1.5541540273150850e-01
      -1.5580066990807356e-01 3.2592113260778342e-02
      -2.0391804883018683e-01 -6.5928035474171448e-02
      2.0169824524860372e-01 -2.4611635111496896e-01
      1.4208276344335824e-02 -9.4456740320797025e-02
      2.1322436567569822e-04 6.6894338117588159e-02
      8.5938727261740247e-02 -1.4954946179255175e-02
      -4.0130346477847872e-01 3.6188836215015091e-01
      -4.8142150200185412e-02 -1.2279647987924565e-01
      -5.2211926987139869e-02 -1.5971162992588148e-01
      4.7008993453620480e-02 -1.3451830134582024e-01
      5.3827471231746270e-02 3.2495107866467310e-01
      -3.0309931403870463e-02 1.7906633386836557e-01
      1.3706597502036715e-02 -4.3582323883465557e-01
      2.5593029335691425e-01 1.0340245856273068e-01
      -2.8766021194278202e-01 -5.7000714236387329e-01
      -8.2034784933316021e-02 -1.2984611683948800e-02
      1.8810722813203520e-02 -5.5269533072778702e-02
      -6.1105074805680943e-03 -1.3272418028078858e-01
      1.8271827948839549e-02 2.8603351809267430e-01
      2.1995000856375974e-01 -9.5469001527680605e-02
      -1.3895877464881540e-01 -6.5795491776900514e-02
      2.7030599890829632e-01 -1.2427962805336358e-01
      7.7559963890075065e-02 6.1760214349468212e-02
      -4.0375921163262621e-02 -4.1668160333924509e-02
      2.5425684101141416e-01 1.6109793673388645e-01
      1.0222584552335484e-01 -8.6669428485664987e-02
      -1.5832867189998256e-01 1.1821497201885911e-01
      -2.8652627013927987e-02 -1.9076263453079823e-01
      2.7587352725144965e-01 1.6811775479636171e-01
      -8.5358970659438163e-02 6.8163898922873625e-02
      -2.3052570446890092e-01 -1.8368672643787654e-01
      6.9043148099354093e-02 2.1453003191523234e-01
      1.9531839773823512e-01 -9.2483367497564247e-03
      3.7685196710884432e-02 -8.7200823507985928e-02
      -2.6792592799389663e-02 -1.7410788208279265e-01
      5.4481354302740427e-03 -1.2647167767427814e-01
      6.0281629813709998e-02 9.6532523794202144e-02
      1.0901565781615723e-01 1.1305457983729432e-01
      -1.0538246031279340e-02 -5.3525853384380415e-02
      1.3711679173766156e-01 3.8865865299430369e-01
      6.0451406304626469e-02 1.2812341955208185e-03
      -3.0884335519219153e-01 3.2179797581795677e-01
      -1.0348373014227043e-01 -1.3423259440121693e-05
      -1.7932495350917346e-01 -3.4380321117260743e-01
      -1.6621405920842086e-03 1.2287318325832082e-01
      1.4510707158223274e-01 -2.2382862498935560e-01
      4.6786365452417378e-02 6.7659074633479821e-01
      -3.4501343592273520e-01 1.5517633533274229e-03
      1.2768446646009712e-01 1.6139914656572099e-01
      -4.9712333466562203e-02 -1.0964501411000908e-01
      1.7358217777253826e-02 -6.0498010972698503e-02
      -1.4164420369669850e-01 2.3117467049124624e-01
      1.0703346635968759e-01 -4.7651402484193101e-01
      1.4098896013771661e-01 -1.0728092697231019e-01
      8.6616696656445752e-02 1.2007567099486448e-01
      -7.0946483094769391e-02 4.6876165110445726e-02
      5.7658200944435922e-01 -8.9626698553080406e-02
      -5.9352313874959886e-02 4.6655129689318026e-01
      -1.1625814483950904e-03 1.3198510351098841e-01
      4.6657440144945739e-01 1.9023109905248938e-02
      -1.2021444055959405e-02 9.3125516890221402e-02
      2.7982945291927627e-02 -2.4763100954541553e-01
      -2.8887712103358026e-01 -1.6819704227515740e-02
      3.4576098775033659e-01 7.8037204142841876e-02
      -2.3259144159761669e-01 9.9081366695421280e-02
      4.2533228958726366e-01 4.9701542956735324e-02
      8.7470648545454985e-02 1.6955870745104520e-01
      -7.3482199244649424e-02 3.5327070870507765e-01
      3.7465265850027019e-01 7.2895300612366792e-02
      1.5485674326279908e-01 -2.8886004802714162e-02
      8.3116708059862460e-02 1.1149036736440134e-01
      -1.3729493314722796e-01 -7.3205700159631931e-02
      -2.6967044159598547e-01 -8.9335036057438269e-02
      -9.8712204212815624e-02 -1.9021745720929337e-01
      -4.4929994689384106e-02 5.0921565352888776e-02
      -3.5436920014131283e-02 1.5659725343013869e-01
      1.9251865709408666e-01 2.2263291726629550e-01
      1.2567672627354687e-01 -1.5333429642912408e-01
      3.0040550007459220e-02 2.4868777445054738e-01
      2.5559296318209818e-02 1.3164497991601121e-01
      8.0102678925446300e-02 -3.1081502991876266e-02
      2.7839680416129442e-01 1.5947644592259611e-01
      2.9992375635592528e-02 -7.4872212132262875e-02
      -3.8485485007204501e-02 2.2630977242483830e-01
      1.5549046288220666e-01 1.5887891416460401e-01
      -1.7810129573849603e-01 -5.7005578271747043e-02
      8.9721085446064897e-01 2.8448803349561269e-01
      -7.4200266625466846e-02 2.0884605628939787e-01
      1.0205768523011857e-01 3.1424916735838515e-01
      4.1880420519670156e-02 1.7323947471484032e-02
      -7.7552485264639814e-02 -1.5555940534755736e-01
      2.8551636309231015e-01 -1.2076549384923346e-01
      -1.5842664196674963e-01 -1.2210414150649725e-01
      4.9339634592537340e-01 -2.0420699287883706e-01
      6.8713869788185389e-02 1.3783706197500095e-01
      2.3147391252206317e-01 -9.0744098502699391e-02
      -6.5758118896971945e-02 -1.2554731355147122e-01
      8.3456740125910395e-02 3.9908539420706289e-02
      -5.0949772113961699e-02 -1.2121571152479721e-01
      -1.3450974163855092e-01 -2.4809575632196684e-01
      2.0077831624578726e-01 -3.2213443234538564e-02
      -1.1564396867724994e-01 -7.6800891445241673e-02
      -3.8941197584336251e-03 2.9322329794083479e-01
      6.2351647827283800e-02 -1.0521032820630034e-01
      1.7256692455756780e-02 -6.7252018664543972e-02
      1.0064723446080401e-01 4.0974048276613585e-02
      1.2720455418152794e-02 -3.9081885906791965e-02
      9.6628063261613426e-02 2.2701405311806300e-01
      7.8875558331197582e-02 4.4459408365462594e-01
      5.1362074472405683e-01 -1.7721226827499936e-01
      -8.0229202864491728e-03 -1.9220373519470115e-02
      -1.6468938696081376e-01 4.8253784429214922e-02
      -5.1877089998584272e-02 1.2445104293931607e-01
      9.1294038675603734e-02 3.3990744133344714e-01
      6.9109077622633741e-02 7.3232610167951157e-02
      -2.5711165607055425e-01 2.4583998062331194e-01
      -3.8915387833305733e-02 -2.1729137329649176e-01
      4.2549041244924243e-02 2.8190819535317924e-01
      8.4207743242907251e-02 3.1813035165101816e-01
      2.4142006890530671e-01 1.5266164366834206e-01
      -2.2826779561334738e-02 -2.3139088497075647e-02
      -6.9579336461089991e-02 1.6867130120508550e-01
      -3.1597433120687052e-01 -3.4365664821971759e-02
      6.1934183826708924e-03 -5.9667806295116373e-02
      -4.2313339205151895e-01 -8.9629408082516890e-02
      -7.7311561335194914e-02 7.8945393515616372e-02
      1.7689978661261602e-01 -4.0692126518864069e-01
      -1.9567170124598608e-02 -2.0012101184764881e-02
      2.8957012538713478e-01 2.4167640254828382e-01
      1.2475955792786650e-01 4.6485897926943104e-02
      -1.5373610786632072e-01 4.9838150224807518e-02
      -2.3317182108603446e-01 8.8416808268849872e-02
      -3.7731965334807105e-02 -3.2484033344750217e-02
      -2.9007786980210969e-02 -1.8987039678414994e-01
      2.8053721067352782e-03 -4.7327981363607788e-02
      1.4677081181769636e-01 6.6526349597842815e-02
      -1.2847938978411344e-01 -2.4779004332769652e-01
      6.9293229578237803e-02 1.0429692469859096e-01
      -8.9379393609376176e-02 2.5166932871534483e-02
      -5.5264371596274564e-02 1.9726157226725605e-01
      1.0346300752265465e-01 -2.4052329096355493e-01
      4.9800702301878060e-02 -1.1486287842374367e-01
      2.9222878250988893e-01 -9.2867994127796880e-02
      8.8032185994032466e-02 -8.3263396287825715e-03
      1.0897267647519420e-02 1.9158579107038620e-01
      -3.6836734225165535e-02 -3.9233930721888757e-02
      7.3885123571870867e-02 3.1816194008568327e-01
      6.2380194733896011e-01 -4.3127700891482552e-02
      1.6702863044833938e-01 -3.5416596366550263e-01
      4.4239592100724236e-02 2.4902319883893995e-01
      -5.2865574351513803e-02 1.8218348715648626e-02
      -8.9874789615911638e-02 -7.2445940101987724e-02
      1.6139272163286830e-01 3.6752651195678672e-02
      -2.1585857019328741e-01 1.2303265587316742e-01
      -2.2444124127761539e-01 -1.2413548258410939e-01
      9.5732020319440655e-02 -1.6663782690235873e-03
      8.3110796184028210e-02 -5.3704529714180840e-02
      1.3208157944939783e-01 4.6847343282124089e-03
      6.9192205624246228e-01 3.6365063062633779e-01
      -4.8055844412876740e-02 4.7292376651923783e-02
      1.1996010745247186e-01 -4.2001639350987226e-02
      -1.2629501931768230e-02 1.0098171297072440e-01
      3.1767123488398769e-01 2.6072548684797647e-01
      4.6554223842291287e-01 -1.1305265685221776e-01
      1.9904652100386274e-02 8.2845606220149207e-02
      2.8117102533771449e-01 1.2676009968967419e-01
      -4.3765646001251567e-02 3.5290762529138472e-02
      1.3830428903957870e-01 1.3600469687186531e-01
      3.1234798787780887e-02 -8.6519203903447223e-02
      2.5694663176063570e-01 9.1187621310225384e-02
      -2.0677193490776380e-01 8.2612731119412596e-03
      -7.5114705313124863e-03 7.8102881408389613e-02
      9.9082471926743090e-02 8.2668043299808827e-02
      -2.6119487460486861e-02 -1.1188345890755000e-02
      1.8049104211155045e-01 -3.4880291160163185e-01
      3.3418503386007878e-04 1.2946117197009999e-01
      -2.5087870687243313e-02 -1.1077832436363441e-01
      5.4977985572381455e-02 1.8153076224384468e-01
      -2.7721110960767054e-01 1.5583215084218296e-01
      6.3627342684971777e-01 1.2191965640860590e-01
      -2.9656543480213704e-01 3.3389648636499536e-01
      2.4426857561599033e-01 3.3988692466564957e-01
      2.2236360273338075e-02 -4.9106003876606165e-02
      5.3069078829335668e-02 1.0631658062126625e-01
      3.0215594627361259e-01 -6.8222601211744921e-02
      -6.7852965742159974e-02 5.3469336901093574e-02
      2.1508082911703480e-01 1.3335895315387702e-01
      -8.6301339983443262e-02 -1.3287352320843102e-01
      -2.9999761923611495e-01 -1.1545467114437030e-01
      -4.1820592320920148e-02 2.2411824260854283e-02
      2.9421287294267695e-01 3.9987323311947748e-01
      7.0887712430319780e-03 -1.9902085210612522e-01
      2.6590433671380581e-01 7.2567146596138513e-02
      -2.8817661163460323e-01 1.3589008692645480e-01
      2.7436370718988823e-01 8.4020706659178324e-03
      -5.2539262961243380e-02 -6.5188296385498487e-02
      -8.3664165513538377e-02 -7.0915778900747045e-02
      7.6220852161584002e-02 2.3096435898808454e-01
      1.3666594526838724e-01 -1.1378023769089403e-02
      -1.3273882682955196e-01 -2.7482502497713729e-01
      -3.2405094715814362e-02 1.5067165121391590e-01
      5.1459310043794532e-02 -2.8741802099034675e-03
      2.7030466856089497e-01 4.3115315032188795e-02
      -1.6385889760342734e-01 5.2226366525207113e-01
      -9.7896570562317556e-02 -1.6686851528774482e-01
      3.5099145179252729e-02 2.8683058643100157e-01
      3.6308518502543291e-01 1.7565747548496602e-01
      -3.8472866953406015e-01 -1.1626425542313726e-01
      -3.0851523613962917e-02 3.2124320981971155e-02
      1.9471777068594648e-01 -2.4903016408451448e-01
      -1.8616212835155235e-01 3.1073970953154378e-01
      5.5608246027663850e-02 5.4276597123113141e-02
      4.6872121178301376e-02 9.4791872292928361e-02
      -9.3478295945044504e-02 -1.5536569814964762e-03
      1.7197071980833190e-01 -5.2367664414126193e-02
      -9.4550079784154320e-02 1.1065979298794378e-01
      -7.3865714803326724e-02 1.3188538908570904e-01
      4.5146220603151083e-01 7.4991057328178123e-02
      -4.5108910303144323e-01 1.3947479454617592e-01
      1.8422357306845792e-02 -1.4834134106655691e-01
      -1.8716299126808569e-01 -2.1705018615256960e-01
      -2.7405781236257637e-03 3.0024612430063387e-02
      -4.5911886151233310e-02 -2.9875509941871864e-01
      -1.7633890675848618e-01 -1.7325793727795380e-01
      3.3051591789135654e-01 1.3983183409451874e-01
      -4.5371880460874153e-01 -1.7369026479590061e-02
      4.8026620573772905e-01 -2.1779166709011887e-02
      4.5821650263401084e-02 -1.5353220373568463e-01
      -1.0464368115125339e-01 1.1909394831619131e-01
      -2.3339645391203356e-01 3.0897182972797826e-01
      -1.0552554941687906e-01 -2.3600529143956625e-01
      4.3730915463853583e-02 1.1256922993332484e-01
      3.2636434823917093e-02 4.6382074953118621e-02
      1.4132555455083101e-01 -1.3251514184340485e-01
      4.1042576264028852e-02 1.5870720737338512e-01
      -1.6323271578299778e-01 -3.3787312826429838e-01
      1.6000333709455303e-01 4.3408615161245841e-02
      1.5225375229771673e-01 3.0675425253634370e-01
      -2.4614488164947895e-01 6.1332299174840225e-02
      6.7717602322837203e-02 -1.1085918191273079e-01
      -1.8881667118676743e-01 -1.7875963768602007e-01
      -2.8482175973841051e-01 -1.8231196143845801e-01
      1.6527895568709598e-02 -1.6147422276095866e-01
      -4.4779335481439442e-01 1.6772643919560909e-01
      -1.7478450360157726e-02 8.0206832758148860e-01
      1.3038933595636470e-01 -5.6539766296535593e-02
      2.6919665801387233e-01 -3.8097817172153692e-01
      2.1983615944690435e-01 2.2079401057591319e-01
      1.6563021785106716e-02 1.4280196112466323e-01
      -2.4761371467827187e-01 1.3794117120333885e-01
      -7.7800319860870035e-02 7.7210968360917828e-02
      -6.1656308319786260e-02 4.0301242150828459e-01
      2.8608101801395041e-02 1.4855272187821369e-01
      -2.5728755969766132e-03 -1.4205025532094076e-01
      -1.0267781576708918e-01 -1.0500761117035264e-02
      1.5084649465513316e-03 -2.3845961452830211e-01
      1.9014165462676819e-01 1.3376066910928788e-01
      -4.7911350346773747e-02 -1.8806738593752745e-01
      1.4717970149076712e-01 -1.4449472668400068e-01
      -4.4870507591889562e-02 3.6058525540592190e-01
      -3.6272524073772988e-02 9.1020869253144211e-03
      1.9298617179264330e-01 1.1744524751383593e-02
      -1.5685733125392845e-01 -7.4557739113164948e-02
      9.9945962814295256e-02 5.5751230673150867e-02
      1.8994479159099675e-01 7.6858213964466793e-02
      2.0912472244581862e-01 -2.2337264279336147e-01
      4.6217923688762687e-02 -1.9801575985689429e-01
      1.0966747390504906e-01 -8.8089145820203135e-02
      6.9016396721939058e-02 -5.8062672800210025e-01
      3.9285998818320572e-01 -2.7032532479522625e-03
      -6.6171262194836000e-01 1.4826270847138032e-01
      1.7518111880752174e-01 2.0232056609268464e-01
      2.1611507364062940e-01 2.3719857715141554e-01
      -2.3729983559021206e-01 2.1679057804857313e-01
      1.5017928360593297e-01 3.3341964253699446e-01
      4.0841637109648027e-03 1.1917201880033802e-01
      -2.0485648960015597e-02 1.1138081597801593e-01
      1.3704843898282704e-01 -9.6963857296560652e-02
      -2.9645096340698340e-01 6.1564699981605790e-02
      8.9529712175552972e-02 1.6107836609328988e-01
      2.5355005467337355e-01 1.6755819252917694e-03
      -4.9055094633503032e-03 -4.1385131893486402e-02
      -3.3540622876295417e-04 -2.0791383263540273e-02
      1.1164309677225258e-01 -1.9629742112630846e-01
      1.3262143025386380e-01 -2.4564603693118747e-01
      2.4375888793528594e-01 -1.3979476164575080e-01
      -2.7356449663225139e-02 8.6783372321590085e-03
      -1.8964429458156233e-02 -2.1233396146687339e-01
      -7.9076648467969343e-02 1.0863182538167977e-01
      2.8714462316758126e-02 -5.5299694068258992e-02
      -1.4524339711405806e-01 -3.5247792421203789e-01
      1.2970577741717493e-01 -4.0242658522025149e-01
      1.1677965283417403e-01 -1.2762991321537931e-01
      5.1866943511185226e-01 2.2546652166111888e-01
      8.2709872863981349e-02 -3.6176918976198985e-01
      2.9835138503254438e-01 -1.7416968993898665e-01
      1.0828960121149197e-02 1.0890915504552309e-01
      -7.1759429883732739e-02 -8.4243917658671688e-02
      -2.0124837098563450e-01 -1.0014881478695699e-01
      -7.8022296911192043e-02 -2.0207609206513302e-01
      5.7103741601858118e-02 5.7120062921758301e-02
      -1.1919003974364088e-01 -1.9579371149973765e-01
      -1.2512261336563582e-01 3.3805471892456107e-01
      -1.7019418748971116e-01 -6.9449604671474596e-01
      2.8854244235617971e-01 -6.7405461397588851e-02
      -6.0347682103792662e-02 -1.1441131521464462e-01
      -3.4539420753720834e-01 -2.9371338886545795e-02
      1.3659030030095048e-01 -1.8583082166639805e-03
      -2.5649648941407294e-01 2.7685855493907483e-02
      -3.4541841118751898e-01 3.9127838115028069e-02
      1.4969703526916789e-02 -2.0656142158964955e-01
      3.9566957265626618e-02 1.0893484211832093e-01
      -8.4264359045739146e-02 2.1428698397057669e-01
      -1.4747722330326551e-01 1.8160119369410790e-01
      4.5202271465467340e-02 2.7991903453750422e-01
      -1.2233559089769509e-01 -2.6546573919131561e-01
      -2.6521141080698241e-01 1.1741542318848044e-01
      2.6626783153754396e-01 1.0617902767674476e+00
      2.2962117627134291e-03 2.5658132842410419e-01
      2.7180190839592777e-01 -8.8637688289918984e-02
      -5.2437288499288436e-02 3.3521910623804031e-02
      1.5972659036987275e-01 5.2098420879425962e-02
      -2.7261109060121758e-01 2.6016691036356766e-02
      -1.2776265469163620e-01 1.2616413045020742e-02
      -4.8047334849337951e-02 -2.5540923983955362e-02
      -1.9340876542038804e-01 -2.9827605281927336e-02
      2.1249501489387704e-01 -2.3237961647928182e-01
      -1.6550340722976234e-01 -6.4462724058168872e-02
      8.0398596740853492e-02 1.7964364818881745e-01
      1.6416748457259436e-01 -1.9222249928335833e-01
      -2.3074386523761323e-01 2.8656185831097097e-03
      2.5972059627253800e-02 1.0441405851211520e-01
      1.3922628497834932e-02 -2.7679548412228118e-02
      1.4136563333086932e-01 1.2366612567452849e-01
      1.2310911794144265e-01 -7.3990881963273636e-02
      -3.0121159620851617e-01 -3.5656115118022434e-02
      -1.2972072062522391e-01 -2.5603691621759433e-01
      2.7534005496960442e-02 4.6095981909233086e-02
      6.2889807987187282e-02 6.4098707630374480e-02
      -2.7665909790260349e-03 -6.3216844324839053e-02
      5.3377136691419573e-02 -2.7521404519180598e-01
      -6.1949396157432626e-02 1.9282927568613412e-01
      -5.1269061906863658e-02 6.4765886834154004e-02
      5.8322067527247634e-01 4.0667087093120703e-02
      8.4346554465245804e-02 -1.3280337940694031e-01
      -6.6669907484047289e-02 -1.6340657561119073e-02
      -1.7608235170083354e-02 -1.6479740589706771e-01
      1.3111760167236081e-02 -5.5521327868298043e-01
      -1.6060118473988974e-01 1.7183703247042478e-02
      1.2627992569730435e-04 -1.2488645625705252e-01
      3.6124432006124974e-01 -3.8494784063674924e-02
      2.2330004913997470e-01 -2.1631699813594776e-02
      -3.8551464597459012e-01 7.6428026627911039e-02
      -9.1979784888685551e-02 -1.3085155260860271e-01
      -6.8646105991619655e-01 7.4979861222372449e-02
      2.9075466561468011e-01 9.0459839355279612e-02
      -1.6749117963913682e-01 8.6651458388041072e-02
      -1.1490018047477667e-01 1.9416470086486479e-02
      -2.8681814636357222e-01 -2.3030925850214254e-02
      -3.8391955019457868e-01 4.0753803461658311e-01
      5.0787955626998260e-01 -1.3465259774012497e-01
      -2.5168431223436211e-01 3.4155406872891439e-02
      1.1012166910554544e-02 -1.7205610304431151e-01
      -5.7600047379814563e-02 7.1567970410182258e-02
      -4.1183566904243302e-01 1.4812720396520326e-01
      -1.9590873060675734e-02 5.4608174056981851e-01
      1.4810326245263145e-01 -2.0145589861957619e-01
      1.2783965069957565e-01 -1.9827789818833202e-01
      -1.4811779590204088e-01 1.1006444456543073e-01
      5.2517804663935330e-01 1.5003871060772567e-01
      9.1224126576829156e-02 6.8213748540426900e-01
      -1.4187639671385363e-01 -1.9420983951175011e-01
      2.7117151774799098e-01 -5.1308410903127011e-01
      9.7733386506803438e-02 -2.4885623322685624e-01
      -2.1728593388749402e-02 9.8768470618440865e-02
      -4.3646053700920889e-01 -2.1203286566199936e-02
      1.8220192920184654e-02 2.1574461793371968e-01
      4.5292568934811722e-01 1.2629655263331890e-01
      -8.3095219020635311e-02 2.8621376028779157e-02
      1.4261616638288514e-02 -6.0980607674172571e-01
      -2.7285097605014319e-01 -3.2416725496083854e-01
      5.3759242385897174e-02 -2.1997782738095559e-01
      1.9865263195151528e-01 5.5189125115523933e-03
      2.2215077336203712e-01 6.5623426484671302e-02
      -3.4560249871097948e-01 1.5147649839447125e-01
      6.5663890816236248e-02 2.0680400784617620e-01
      -8.0933403251264274e-02 3.9109936646409785e-02
      3.5652452395641926e-01 -7.4219511189250131e-02
      1.6872736738830083e-01 4.0990834626720418e-01
      -1.7517662337790746e-01 4.6773999570698860e-02
      4.6773782687625845e-02 5.6663330027286718e-01
      4.1023337641355434e-02 8.9013978941803004e-02
      3.2894796515175095e-01 6.4508872602909495e-02
      4.7571229853615099e-01 -1.8714305753101526e-01
      5.7550940318892206e-02 -8.8617380569678086e-04
      1.6245975602266741e-01 4.8537156726902057e-02
      -3.7318157007966928e+00 -4.7286879552112365e-01
      -7.9683406086571273e-01 4.0893585953426664e-01
      1.9597410499811724e-01 -3.2310310164421002e-01
      -1.0391811355196007e-01 -4.5557270678415390e-02
      1.4151859064171429e-01 -1.0535912764691927e-01
      -2.1398254782267676e-01 1.7926828874314393e-01
      -7.1668882531811107e-01 -3.7913533199306559e-01
      -2.2388303755003888e-01 1.4966735980065191e-03
      -8.5364162273157490e-02 8.9139381731716830e-02
      -6.3506397139573026e-02 -6.9384872079512594e-01
      1.3521427724838250e-01 2.0928671056012063e-01
      -1.4065680414015111e-01 1.8183161139656542e-01
      2.1940889277718120e-01 6.8851905595272211e-01
      -1.1324199213378847e-01 3.2941974476179865e-02
      -5.7948051281700580e-02 2.6891650520280830e-01
      -2.3093731667449802e-01 -3.5550621527869869e-01
      1.9604764553162976e-01 7.6899160656576107e-02
      8.9901519518874429e-02 5.0804693407975732e-01
      1.5668418295841549e-01 -1.3439954212040228e-01
      -3.6850150810527188e-01 1.9683274932316452e-01
      2.5984867802840544e-01 -8.1363013827806419e-02
      1.0850170808852305e-01 -1.0990135215601243e-02
      -3.8507057888192819e-01 2.7254432706228710e-02
      3.2902592647357609e-01 1.5097121665823507e-01
      -4.1554096896613041e-01 1.9613038434684429e-01
      -3.0002790922665867e-01 -6.7505792834038514e-01
      3.1064410770184059e-01 -2.6725315197132704e-01
      -6.0489979083860217e-02 6.4967516506784073e-01
      7.1354689432511087e-01 2.0322711547632935e-01
      4.5957353483680480e-01 -1.7837264388162044e-01
      -2.4322423941702634e-01 6.7027462255244072e-02
      -1.4468648266166723e-01 -1.0834748856781104e-01
      3.6730535058456082e-02 6.0611373855027573e-02
      3.3164381419045247e-01 1.8988023738590640e-01
      -9.4998621284813276e-02 -2.4366265355386421e-01
      2.8528536839335307e-03 2.4322272807424103e-01
      4.3817445549541888e-02 3.1642532790678740e-01
      1.7001644508052294e-01 -1.9221356805867829e-02
      3.1461856652226056e-01 -3.4990613555420637e-02
      -6.5934522716441990e-01 5.4318059521533339e-02
      2.3855480043041064e-01 7.2184909481892726e-02
      3.9740718866176236e-02 1.0444440079922790e-01
      2.0581256872689754e-01 1.5303028137665325e-01
      -5.5712030518189647e-02 5.9344787108253938e-01
      -1.1955829577189325e-01 -7.7338958302760952e-01
      1.1054878913601138e-01 -7.9758002757569404e-02
      1.5484283974435456e-01 1.9702314317189168e-01
      2.7062405498080849e-01 -5.1536017790501454e-01
      -1.7901579107525933e-02 2.8606470171489246e-01
      9.2143633992659291e-02 -1.6148828322240352e-01
      9.6562756968139735e-03 1.5352537545231235e-01
      -1.8097073901479764e-02 2.0573266266179285e-01
      -3.1358025533148048e-01 5.3768961055029163e-01
      -6.1625496382477940e-02 -3.4250587357567719e-01
      3.0593858909800004e-01 -3.6138653681325315e-02
      -1.5412690895982903e-01 -2.7258768627149238e-01
      -1.0432220818145872e+00 4.4013582851752220e-02
      1.3895882885578756e-01 -1.8630698871774742e-01
      -1.7691215131456048e-01 1.4514962344497673e-01
      5.3765853415987483e-02 3.7514991724719632e-01
      3.3693562602999949e-01 -2.0576753087604036e-01
      8.1069105249778721e-03 -1.7152734047252105e-01
      -2.5747651375662350e-01 2.0508829169665560e-01
      -4.0274274195227627e-01 -1.6971464697008443e-02
      -1.0477646098857311e-01 -5.6814715293501038e-02
      -2.7174011806125342e-01 -1.1466529661270185e-01
      2.0725027734964055e-01 9.7181146056741122e-02
      5.1916407617919630e-02 8.5039101120847893e-02
      -1.3479190150360038e-01 -3.4466100161690250e-01
      -5.8110285285018992e-01 -2.1950199954083294e-01
      -1.6228149780195678e-01 1.2993939594416321e-01
      -6.6736493243822331e-02 9.0768656437549411e-01
      -1.9911342919365876e-01 4.8120008193197207e-02
      5.2411321297798186e-01 -3.7903100301830633e-01
      2.9090892070947472e-01 -2.6376459665761304e-01
      7.4313227668508411e-02 -3.1330977864339943e-01
      -2.9314853475063318e-01 -6.8545527543694140e-01
      -7.3895135458662952e-03 1.9357211029734073e-01
      2.3126457016217861e-01 3.8287698752610805e-01
      -1.6016617852682086e-01 -5.8391203137235947e-01
      1.9562236835446770e-01 8.8051444514437649e-01
      1.4840801676655699e-01 3.2431322258678102e-01
      -8.6853822054742391e-01 -1.8138021548667033e-01
      -7.5872932786735334e-02 8.1524507733955115e-02
      -2.4845519393242785e-01 -9.1807125433521236e-02
      -3.5341611185375066e-01 -5.1971973776403146e-01
      2.5800789208357901e-02 -1.7101119924154271e-01
      -4.1249236018001445e-01 4.8361533310940419e-01
      5.4101123652834582e-01 -3.0407690114534114e-01
      -2.0120264489453792e-02 -4.1927660344709428e-01
      7.2236903817743203e-01 -5.8134507065979624e-01
      4.0474459676658081e-01 -1.4595789623669869e-01
      6.7158452638744537e-02 4.4014606388734850e-01
      2.2446364791087120e-01 1.5928969434965592e-01
      1.1459835488833361e-01 1.3238580448394004e-02
      -2.9524342801116210e-01 6.3259517775702823e-01
      8.1021500476725627e-02 1.8481125927613962e-01
      -3.2268548803041019e-01 -3.0914040599162967e-01
      1.6705758630159995e-01 2.3757881676642048e-01
      -6.2894293263049383e-01 -2.6411823146488250e-01
      -5.5817812298497138e-01 3.0040241403276979e-01
      6.8160974301935029e-01 1.3177018182788405e-01
      -2.3266088480712974e-01 1.8603769816089345e-02
      3.9609859698219722e-02 -6.7635677425198881e-02
      2.3685310850260780e-01 -3.3895290139279038e-01
      -4.5235903111103215e-01 -1.4121158096565059e-01
      -1.3268974187550295e-01 -9.4490654340423197e-02
      -3.8073990961087788e-02 -2.7591718227538399e-02
      2.3173073850906692e-01 -4.2127325514175079e-01
      2.5482422675778005e-01 7.4581217903579120e-02
      6.8507948683933312e-02 4.5745525050812114e-01
      8.2603002006616882e-02 -1.9027220615224122e-01
      4.1782048922959281e-01 -2.1395016447534446e-01
      2.2554850968027126e-01 -4.6315712198500759e-02
      -1.9406996804724244e-01 9.5912598770992452e-02
      -2.6485057205977747e-01 4.9793554108280985e-02
      3.0425427468168120e-03 -2.7991561143290308e-02
      1.0147307168735552e-01 -1.1181571791964093e-01
      2.0231711042708045e-01 -5.0379791805575569e-01
      -3.8340139442361609e-01 -1.9582238753438258e-01
      -2.1151122744824472e-01 1.7961277350871518e-01
      -1.4055257386011119e-01 6.0113870272021008e-01
      -2.1183404851872870e-02 1.8584858926880371e-01
      -4.3576381206130299e-01 -2.2744474649686330e-01
      -1.5817066861034754e-01 1.0913489345316912e-01
      2.2555250671920887e-01 -1.4610401417805957e-01
      -3.9326724755585707e-01 -2.5886783332120716e-01
      1.1502532929959684e-01 -7.3768049056395181e-03
      -1.6624833433719793e-01 5.2698157604877816e-01
      -7.3273782084060032e-02 1.9429189502672151e-01
      2.6352124398757915e-01 -2.5812930388472222e-01
      -2.6936512851698739e-02 3.0508623327069351e-01
      -3.0283983512598572e-01 -3.3297021485725170e-01
      1.6693029096695416e-01 5.5399167016565512e-02
      -2.3088127096136152e-01 4.1144327056618113e-01
      2.0338302363931646e-01 2.0883022473594522e-02
      -1.1384191522356149e-01 9.2790102417061626e-01
      -1.8775099817687982e-01 1.6951011342386463e-01
      -6.6608465421212804e-01 5.8737648985829416e-01
      2.0256490974989688e-01 -5.0436165210671202e-01
      -9.8338916036267043e-02 3.1043552323268203e-01
      -1.4483535555117669e-01 3.1045952386204442e-02
      -6.5968501143722311e-02 4.9926299339861979e-02
      -1.4362798456303399e-01 6.7924732331831272e-02
      6.4940616448505262e-01 1.1424698904256740e-01
      -1.1354531389862485e-01 2.4518137663765449e-01
      -4.6814819602761844e-03 8.6681543465083902e-02
      1.4058078290543702e-01 -1.3769114315742045e-01
      -1.5661707247210478e-02 -1.1881955681935451e-01
      4.9059010517109564e-01 1.2530779923969057e-01
      1.4390204531457007e-01 5.0824899847029870e-01
      -1.2434012700045655e-01 6.7424373145552163e-02
      -2.5471449608354249e-02 -2.0003588476663040e-01
      -1.8156377053880238e-01 -9.9734599607886679e-02
      3.2861573392775761e-01 -8.5016557520136732e-02
      2.0599145278641928e-01 -3.6567920202556115e-01
      -1.7064060686521082e-01 -4.1404629107055994e-02
      8.1432920388747343e-01 -1.3877748733259920e-01
      -1.1033221423256200e-02 3.2173533085007050e-01
      6.8407600063761315e-02 4.8049404525276125e-02
      2.0936478904709968e-01 2.6608682149808843e-01
      -1.2692010902725728e-01 -5.1378367410260306e-01
      -4.0781482554717918e-01 1.8876094418953773e-01
      3.7047897044007716e-01 5.4657068821521182e-01
      2.1012505632842240e-01 2.2890070380950014e-01
      4.0721390828901605e-01 2.6244252638723053e-01
      3.9744458763432516e-01 5.4995836512244427e-02
      1.3635157378940671e-01 4.1043134088880812e-01
      -1.3519784809623550e-01 7.7719852727968086e-01
      4.1854391426247362e-01 -4.8992070351318051e-01
      -4.9684596542514996e-02 2.7583319415040979e-02
      2.5909016313680266e-01 -2.3880389169646896e-01
      1.0855408906169278e-01 -1.9352787942341784e-02
      -6.7795692352399284e-01 -4.1999373101077417e-02
      -1.8501002460690918e-01 2.2946966720982198e-01
      -2.0154862244198221e-01 2.0789794421291749e-01
      -8.1840695101393102e-01 2.1403150829452183e-01
      1.3074542947535719e-01 2.6700871384353081e-01
      -3.8700841119666783e-02 -4.9840449722188346e-01
      -7.9095419805626799e-01 -1.1950268888130286e-01
      -1.4299848743437429e-01 -2.1960147442882391e-01
      1.6102811290600255e-01 -4.8685663880032676e-01
      -1.6442421046504568e-01 5.6460296349317873e-01
      -6.8432286893766070e-02 -1.5649011862019024e-01
      -8.4256924779229983e-02 3.4113386360889864e-01
      1.7399781574588726e-03 -3.2386807869854345e-01
      -5.4997087760624522e-02 2.4676857309923472e-01
      8.8220297130260417e-02 -7.7086276096387185e-02
      2.8854498167978454e-01 -2.5478888176123654e-01
      2.1398719798002278e-01 4.7564093082077563e-01
      -4.6957864491387885e-01 2.0776504294288432e-02
      -1.8830987966401584e-02 6.8149790335683269e-01
      2.7198717429888425e-01 3.1952490342361106e-01
      -6.3442176409863799e-02 3.9828805850180932e-01
      -9.3672868750305074e-02 -5.2365549200154504e-01
      -2.3901252369322545e-01 -9.5823999422229147e-02
      -4.1017023233758154e-01 -3.1707400105727673e-01
      1.0977470253574628e+00 3.5757863995566175e-01
      -3.0324808225421891e-02 -4.6632226478472462e-02
      2.9006995481589845e-02 3.5907835086093028e-02
      -5.9228147769211548e+00 -4.2746196283997939e-01
      -6.5320909196530685e-01 7.3848128686594863e-02
      3.2677667047874293e-01 -3.3898641764029658e-01
      2.8999504779477997e-01 2.4790278225814735e-01
      1.2592999088341539e-01 -3.1905372552262085e-02
      -3.6351902782345430e-01 9.4615659846583391e-02
      -1.3402200431395916e+00 -2.8143837258136711e-01
      2.5062447272922356e-01 3.3597823425932433e-01
      -2.3789928088904544e-01 -2.5516446454658354e-01
      3.4464636133384080e-01 -2.8194480124307036e-01
      4.5727513775762735e-01 -4.5224206386087112e-01
      -5.3014722522647974e-03 2.7952701419429193e-01
      -1.7826018695632137e-01 5.3465493300687317e-01
      -1.0075104434155172e-01 1.9887262028247840e-01
      -4.6413576908419496e-01 1.4431551611096844e-02
      3.7359407709171788e-01 6.0743688610925307e-02
      3.1201421344262897e-01 -4.5048980997270849e-01
      1.7943240741099617e-01 -3.8487266466648664e-03
      -1.9272040780562441e-01 3.9462571124499313e-01
      1.4591808503748954e-01 -5.1391148896045780e-01
      2.1146022650036891e-01 -5.8825661080966492e-02
      -8.9490626028777817e-02 2.3235851973517233e-01
      -9.1295780337903781e-02 -1.9035249279734245e-01
      -4.5307563718404070e-01 4.0536140224559175e-01
      -3.2022549006266282e-01 1.0408748823517457e-04
      -2.1977480065183497e-01 2.3448921193741815e-01
      2.3126162790542359e-02 7.4991796940519578e-02
      -4.8892852670805981e-01 8.6890114304297017e-01
      6.1571456927441504e-01 -2.9214526136287847e-02
      -7.9902571283993640e-02 -1.9498214408419834e-01
      1.7602902976551740e-01 6.1973008646960578e-02
      7.6223571408874452e-02 2.7477537681478525e-01
      -8.7165152739761054e-02 3.3404488438412527e-01
      -8.4469286907416050e-02 -2.3720035010279622e-01
      9.0404298058183785e-02 -3.6096566558446321e-02
      9.2375019159592134e-02 5.1853902363689697e-01
      1.0053108001252205e-01 4.9775522953706330e-01
      3.1965481821042979e-01 7.1090541774259438e-03
      8.1110179591610168e-02 -2.7933962759594966e-01
      3.0650891147951068e-02 1.1631003187327661e-01
      3.3345798025969381e-01 4.4454500317310125e-01
      -3.9841886342027227e-01 -6.4807969487288355e-02
      1.5222238229781196e-01 -4.8979376565438959e-01
      4.0531645462783331e-03 3.3198430156136244e-01
      -5.8216021484920104e-02 3.3759190729284583e-01
      2.9795201747519168e-01 -3.8478983326756616e-01
      6.5486179216545135e-02 4.5590629936838073e-01
      7.7191362244711281e-01 -2.3048929951437536e-01
      2.3458214824379567e-01 9.4509592781940222e-01
      -5.8148968686907061e-02 2.3701041843539550e-01
      -1.3693128136516267e-01 -1.2622088010359422e-02
      -4.5373308925216743e-01 -1.7459720646705465e-01
      -6.8015398998249141e-02 1.5195835668490379e-01
      4.0783362021656977e-01 -1.8841452434827674e-01
      1.7219885018956747e-02 -1.8550597287398597e-03
      -9.6099109925916737e-01 -1.7828554034742633e-01
      -4.9888278328385766e-01 1.9156476942799033e-01
      -5.3068204744113168e-01 7.6279367952203830e-02
      -3.5119499372429662e-02 2.4523104737731130e-02
      2.5126322079906915e-01 -1.6663571415473666e-01
      -1.7965154397754174e-01 2.5597512502132019e-01
      -1.6192554546424476e-01 -7.9506325280161438e-02
      -6.2725328618894693e-01 -1.9065902113388908e-01
      5.6028681714775597e-02 6.1336169696442233e-02
      4.4652579704426726e-01 -2.1060508030488759e-01
      2.0571881811457307e-01 -3.2540227207456740e-01
      -1.5834556219877710e-01 4.8509488896328674e-02
      2.0236928698308210e-01 -3.9845308402388691e-01
      -8.7112362106166914e-03 2.1061115921162588e-01
      -1.0104552129338478e+00 3.6975277398631247e-02
      3.2114169540610077e-01 -2.3517809696056652e-01
      -1.7044977497673325e-01 2.7103240237380383e-02
      3.2425029512307933e-02 3.8824174548175883e-01
      -5.4265329717068567e-01 -4.1833113151037871e-01
      3.3384800035203499e-01 4.4366528642422726e-01
      -2.5227345028804199e-01 -1.2744531201877782e-01
      2.9591823340572199e-01 -8.6557616501242537e-02
      1.2893034943293172e-01 5.9304863663950746e-01
      -7.0149458450947902e-02 5.3457336274065048e-01
      4.8368419526678730e-01 -4.5349798178553929e-01
      1.0563621878382339e-01 3.6485642140020574e-01
      -2.8988013901450055e-01 1.3652787728942242e-01
      -3.7573334686180593e-01 1.1091759187137636e-01
      3.1468999889139387e-01 -1.2703724117403206e-01
      -1.9380185195734309e-01 2.4179913678051682e-01
      -4.2403138799940338e-01 -1.1290695172349641e-01
      6.1709957037778054e-02 -1.0143517850984671e-01
      1.6625436456643983e-01 1.2885983430898149e-01
      -3.5686520395395399e-01 -3.4096119580309781e-01
      -8.1012093897376874e-02 -3.1581276833350413e-01
      6.1796121390168846e-01 -2.3467039274438070e-01
      1.1177919828206191e-02 5.1846022814185211e-02
      4.1103234839572483e-01 2.3018109714131780e-02
      1.0202961771770772e-01 9.0877083317361593e-02
      9.9595407224198421e-02 -1.8669955425607873e-01
      -2.1314906053562890e-01 6.5768642843860148e-01
      1.6505552741460888e-01 7.2971990825270805e-01
      -2.7293827227296519e-01 7.8825942343797389e-02
      1.1570603804360056e-01 9.1655787334166863e-02
      -2.4047321098683641e-01 -3.5936689991364917e-01
      2.6804908653403059e-01 -1.8878880637680687e-02
      6.7232230388842140e-01 -1.8057886791669690e-02
      1.1224976513862012e-01 2.0040945861245590e-01
      3.0591404250927978e-01 1.0023159037543446e-01
      3.2709070417760411e-01 -9.8006902693655182e-02
      6.1712841082550589e-02 6.0003500410309163e-02
      -1.1839101269545226e-01 3.0454338328039798e-02
      4.8801355120352852e-01 -2.4636227772888111e-01
      -8.1014558857338725e-01 1.3518474671029404e-01
      -2.4999523858935235e-01 6.9309429052082691e-02
      -4.8284943444168971e-01 -6.3079051451574247e-02
      2.7283857848389387e-01 1.7336027864888837e-01
      1.3111272177950248e-01 -5.6984724759351069e-01
      -1.5530853669812308e-01 -8.9696336426794601e-02
      9.7306272969419516e-02 2.9258073836654859e-02
      -2.5993430602477308e-01 2.3658785968491447e-01
      -4.9522378218423180e-01 -2.5011432528775457e-01
      1.1224246276039901e-01 -7.4349065534382430e-01
      1.5191611862987325e-01 1.1202460922026397e-01
      -2.6788126404502949e-01 -2.6807438322632610e-01
      -9.4353621292837364e-02 -1.2761911551103869e-01
      1.0573526554674367e-01 -2.7186226679623965e-01
      -1.9107871470813966e-02 2.1522824431180851e-01
      -5.8435114483522854e-01 -2.5708336581658974e-03
      -4.1824403760409667e-01 -1.8849252663033805e-01
      1.6170633956179906e-01 1.5614701825580643e-01
      -2.8399261482965371e-01 -3.0063197104479267e-01
      -2.4574215985299899e-01 -4.4714096108795304e-01
      1.4492762693754010e-01 -3.0259927824442956e-01
      -6.8990229884895907e-02 -1.9276883865792550e-02
      -4.9805884344531015e-01 4.3888136411170020e-01
      -1.0183053834618969e-01 -1.9018398198860781e-01
      -2.0753128476431820e-01 5.4615687043385167e-02
      3.3884909926104095e-01 -2.9168411030794478e-01
      -3.2310309850480577e-02 5.1154630334379482e-02
      -2.8151603576530435e-02 -4.5132369832169505e-01
      1.2345494674361278e-01 3.6310309455551404e-01
      2.7988021733429985e-01 -3.3234871006670419e-01
      -7.2729757323356042e-02 5.3595100175509580e-01
      1.5347055085498604e-01 -1.7998365866061983e-01
      1.3228134342134221e-01 -1.3551739050339323e-01
      3.7361720342853932e-01 -3.1551079866337289e-01
      2.3596821838680596e-01 -1.0367604434838590e-01
      1.7650342638680619e-01 3.4078149593395790e-01
      4.7195328090326233e-01 -2.2362914225224344e-02
      -1.4126285273573427e-01 -8.9098669103578915e-02
      3.5230952507122174e-02 1.1468423980120190e-01
      2.9470478802261163e-01 -7.8485092016971847e-02
      -3.6938286924182342e-02 5.4922725551633252e-02
      5.4346002921825032e-01 8.5742070757931485e-02
      3.0462897159419616e-01 -2.5290693819052612e-01
      1.2090728841974942e-01 1.5703901726818034e-01
      3.2244875024738506e-01 1.3386965254420982e+00
      3.7279830034270933e-02 -1.7256304617152043e-01
      1.2688100463034169e-01 -3.7722023269673062e-02
      -1.7034159843117791e-01 -2.8109981467972783e-01
      -1.5834214855961662e-02 -1.6191669596381653e-01
      2.2536046453835029e-01 -1.5040252815157712e-01
      -2.2195895459264722e-01 3.1482463189212517e-01
      1.0667188244696815e-01 3.9573054155115295e-01
      1.7926492605135716e-01 5.3705235062209165e-02
      3.9960909115335425e-02 -4.4965858017398508e-01
      3.7490628139058729e-01 -1.0497070407969435e-02
      -1.8837317296646799e-01 5.0206201357416402e-01
      1.0726266173248553e-01 -1.5635852661703288e-02
      3.2143718466587745e-01 2.0432425332328963e-01
      4.1918980401809906e-02 -2.9962825307813818e-02
      8.6076771336919031e-02 1.7248891965679131e-01
      -1.5162118359404256e-01 -7.1863048899494042e-01
      4.7681811164559862e-01 -3.6683037433920213e-01
      -3.4550733465923278e-01 -3.1379963330975913e-01
      -2.7900649869538946e-01 2.2842980334132224e-01
      3.4127552937608663e-01 -4.4197046009397978e-01
      -4.5454688897435003e-01 -2.7039089824522539e-01
      3.0305919690234318e-01 -1.4310210592382718e-02
      -7.3875282664396069e-01 1.2916037017510107e-01
      -6.2542274173058832e-01 3.7077494868218908e-01
      -3.8473176824864508e-01 1.2215948830219533e-02
      -1.4652691844136546e-02 -6.3839098192367527e-01
      -1.5599904495513403e-01 9.1083468917447744e-02
      -4.7473323321430193e-02 1.6394166053484061e-01
      5.2814406260432278e-01 -5.4318976297252219e-01
      2.0741346745877920e-01 9.8795207243784122e-01
      -8.0160863213576850e-02 -5.0465837118706158e-01
      2.7264569397504151e-01 -2.1880834499256865e-01
      3.5435317280456302e-01 -6.8490972536391817e-02
      -2.8120108322900339e-01 3.4103444546273670e-01
      1.1223179228308174e-02 7.8116358925707910e-02
      3.0467623938927157e-01 -6.1321195806463218e-02
      -3.5652238344479753e-01 4.8412356154448505e-01
      -2.6331427801166546e-01 1.2724703248949110e-01
      -1.0136234480524467e-01 4.0268108902774896e-01
      -5.9655065172739649e-02 -2.1656411887082233e-01
      -7.0529299857047131e-02 3.3246045592041018e-01
      4.0332066827624843e-02 1.2859991687537903e-01
      -1.2362018877019026e-01 1.5615345704660114e-01
      -2.3732263096713231e-02 -3.0956346339631635e-01
      6.0334692965515402e-01 3.7713276310364108e-01
      -4.4737847848457901e-01 -2.8216428321151921e-01
      -1.6805473391395051e-01 1.5580803204198329e-01
      -4.2765019920084564e+00 2.3581666623048886e-01
      1.0436419216083184e-01 9.8696843431651748e-02
      -2.5986312173803239e-01 5.5948942933826615e-02
      2.2257640552398561e-01 -6.2039313259623363e-01
      -5.5638130842610933e-01 5.9712371012572929e-02
      1.7915836563629584e-01 -1.0286801141362860e-01
      -6.6429542495545701e-01 5.7246156619702303e-02
      -2.4729438123106462e-01 -5.1090152772811392e-01
      6.0139082784984821e-01 3.8501318693748454e-01
      3.5544196657523863e-01 7.3521126232662867e-02
      1.9121118906189282e-03 -2.3515766799885460e-01
      3.4570536520663241e-02 6.6280147529934455e-02
