<?xml version="1.0"?>
<opencv_storage>
<mlp type_id="opencv-ml-ann-mlp">
  <layer_sizes type_id="opencv-matrix">
    <rows>1</rows>
    <cols>3</cols>
    <dt>i</dt>
    <data>
      200 400 62</data></layer_sizes>
  <activation_function>SIGMOID_SYM</activation_function>
  <f_param1>5.9999999999999998e-01</f_param1>
  <f_param2>1.</f_param2>
  <min_val>-9.4999999999999996e-01</min_val>
  <max_val>9.4999999999999996e-01</max_val>
  <min_val1>-9.7999999999999998e-01</min_val1>
  <max_val1>9.7999999999999998e-01</max_val1>
  <training_params>
    <train_method>BACKPROP</train_method>
    <dw_scale>5.0000000745058060e-02</dw_scale>
    <moment_scale>5.0000000745058060e-02</moment_scale>
    <term_criteria><epsilon>9.9999999747524271e-07</epsilon>
      <iterations>1000</iterations></term_criteria></training_params>
  <input_scale>
    1.3099198070637806e+02 -2.1379624621971954e-01
    2.8532200985047531e+01 -4.4215719728315295e-01
    1.4033325744340388e+01 -6.7265863434473427e-01
    2.3278180469994069e+01 -4.7734933550942360e-01
    1.3364374996837316e+02 -2.1289685836893935e-01
    6.0555571976607141e+01 -3.2140517909289928e-01
    1.0377015499625159e+01 -7.2447535953592634e-01
    7.0551547459785313e+00 -1.1612072308487520e+00
    8.8262476843603626e+00 -8.2808030389068810e-01
    5.5841463935652705e+01 -3.9480677325450175e-01
    1.8845726877023182e+02 -1.3457544508168243e-01
    1.4128752531836108e+01 -5.9375677008449501e-01
    6.6241008151804639e+00 -8.1484888708473657e-01
    1.1499078920462232e+01 -5.9458853760590391e-01
    9.5026182539867733e+01 -2.4406865464809968e-01
    4.8408498332767373e+01 -5.2946599728019206e-01
    1.0959479426750757e+01 -1.2953594415884289e+00
    9.2202005340809006e+00 -1.4324944886979645e+00
    1.1001613039078341e+01 -1.0254095576868971e+00
    6.3059419508635436e+01 -3.6522581381025349e-01
    4.4554215982683317e+01 -5.7839778140166953e-01
    9.1783566206482963e+00 -1.6381807788690372e+00
    7.3245313847774502e+00 -1.6329243295060190e+00
    9.4078562056059400e+00 -1.0641817079661022e+00
    6.7326706309420686e+01 -3.4795536793352166e-01
    1.1114000942582318e+02 -2.4305623106013605e-01
    3.9238637593513928e+01 -4.0453237006104198e-01
    3.3513635069796656e+01 -5.2077491540124721e-01
    3.5339443618309531e+01 -4.5595978713993895e-01
    9.5239297295116148e+02 -6.9841839976928818e-02
    3.7642881276422969e+01 -3.2592762853351392e-01
    8.6271210103608524e+00 -5.7054195482623493e-01
    1.1175887293403173e+01 -9.5988135751988679e-01
    9.5111152374749874e+00 -8.3942844593351795e-01
    1.3328195672230834e+02 -1.6581184839519697e-01
    5.4388004401271523e+01 -2.1357498096312319e-01
    8.7927445056415667e+00 -5.6074571566437470e-01
    8.6362196814370371e+00 -7.3456126864128302e-01
    1.8170410405023205e+01 -5.2034086465139473e-01
    7.7943082213161460e+02 -9.0889016778417028e-02
    3.2665369507312739e+01 -4.0317307293050975e-01
    8.2411656461736893e+00 -7.2364213597517479e-01
    8.5220774804485018e+00 -5.9740263878248556e-01
    1.7331092803915869e+01 -4.2595487100883778e-01
    7.0933030322871423e+02 -4.2789957609579175e-02
    1.2239330572663184e+02 -2.3306529155502348e-01
    2.0482956005313433e+01 -6.6323659387486522e-01
    3.9758456027848794e+01 -4.1841391422632623e-01
    5.2220707551745818e+01 -2.9828442917421061e-01
    2.2039996489000278e+03 -4.5912559234457487e-02
    5.8688593998682954e+01 -4.3820491046874255e-01
    2.9418728593220717e+01 -1.1393912822160728e+00
    4.0988168946289221e+01 -6.6643875052549617e-01
    4.0545510522867730e+01 -5.2835162944309222e-01
    1.0565417972450107e+03 -1.0684863489590068e-01
    1.2255483548037308e+01 -5.8594441713375722e-01
    6.8248166026922545e+00 -1.9759519793690310e+00
    7.4271510162859657e+00 -1.1249809849775927e+00
    6.9036220196037332e+00 -1.0070578190175994e+00
    8.9891901507086018e+01 -1.8606766536681976e-01
    9.3435102125128591e+00 -5.7419268312571303e-01
    6.0375418166697266e+00 -1.8090760189636943e+00
    6.1344770523365222e+00 -1.1762233533921180e+00
    6.3445191807658281e+00 -8.0197209637192168e-01
    1.1051654521815824e+02 -1.2325741842649239e-01
    1.0219367107038925e+01 -7.1883723800653199e-01
    7.1803738679452866e+00 -2.0011787652470279e+00
    7.0337863007961650e+00 -1.1613621699871897e+00
    8.4525000328624031e+00 -7.9711242392878745e-01
    1.5561731093400209e+02 -1.3138558418547733e-01
    4.9604969338726733e+01 -5.6345799645339301e-01
    3.0517464463126796e+01 -1.2633319929025701e+00
    3.7744824653011740e+01 -6.3685038729355126e-01
    5.1339101259637452e+01 -4.0286419402422352e-01
    3.1639952435956320e+03 -6.4643128412135417e-02
    2.4797925833154676e+02 -1.4241748608490692e-01
    2.3265046389593476e+01 -7.1768719273333592e-01
    2.6723126508284192e+01 -6.2650270873724268e-01
    4.1061514439353367e+01 -4.1516780679564036e-01
    6.7860270230044227e+02 -1.0444395270061009e-01
    4.0173743540893184e+01 -3.7699214403100062e-01
    6.9049483825081976e+00 -9.4851405872139383e-01
    7.8528551033599561e+00 -9.3217139642457791e-01
    1.0064304902574596e+01 -6.4796952532573215e-01
    1.9915309615943892e+02 -1.3462287454600877e-01
    4.1978713935781052e+01 -3.5035798362038240e-01
    7.8669862229704011e+00 -7.7718425568490945e-01
    7.3780680843122051e+00 -9.5408772271178544e-01
    1.0752187149314430e+01 -6.3324590329301977e-01
    2.8349235060354732e+02 -1.1996935247712784e-01
    3.2323581868243487e+01 -4.4865351872130005e-01
    7.6184207008520533e+00 -7.4693668387435885e-01
    8.1620818660415875e+00 -1.0030363168699492e+00
    9.9556756448654760e+00 -7.0017446248380799e-01
    1.6214057642910905e+02 -1.3105625243680477e-01
    1.1121613314812525e+02 -3.0815237030073495e-01
    3.5545306643939291e+01 -4.9411690810558706e-01
    3.3585219482869547e+01 -5.6053141127657613e-01
    6.1986555343059614e+01 -3.2209282657258304e-01
    1.0436831394159090e+04 -5.5515079256337460e-02
    5.1821302758340735e+01 -4.4512522121299969e-01
    9.1315953279234723e+00 -1.2967102129228523e+00
    7.2370211402164850e+00 -1.6744114472956966e+00
    9.0551380238365837e+00 -1.5552928602401122e+00
    4.7474850723642348e+01 -5.5504768815318928e-01
    5.0301528103431693e+01 -4.3110840453546828e-01
    1.1241939701974262e+01 -1.1748830468329374e+00
    9.5714694851266753e+00 -1.5357235873151800e+00
    1.1660228545808463e+01 -1.3369212643025072e+00
    4.8488201741217196e+01 -5.0667745713713941e-01
    1.3903681698862923e+02 -1.8367323684820053e-01
    1.5395889106981063e+01 -5.4550809656165167e-01
    7.0938683271375043e+00 -8.3063633788371838e-01
    1.1575993054734029e+01 -5.6603099150751035e-01
    1.2596194591695934e+02 -1.9573266238975201e-01
    5.5142723326452987e+01 -3.8322532279532645e-01
    9.7365958921450630e+00 -8.2063990061483105e-01
    6.6495655055982903e+00 -1.0815377356001867e+00
    9.6534449714405017e+00 -6.5809122937832376e-01
    6.5096221658465737e+01 -3.1665071424432767e-01
    1.0770290995455001e+02 -2.5340925652225882e-01
    2.3196628807401240e+01 -4.9583107090329326e-01
    1.4064764602129699e+01 -6.4166659776514767e-01
    3.0817307197851900e+01 -4.0484321597614126e-01
    1.8672224541446823e+02 -1.6785338474603032e-01
    1.0868230025880009e+03 -5.8837711355428153e-02
    5.1494850853101269e+01 -2.9911680724142281e-01
    4.1298578419456419e+01 -4.1956798106953691e-01
    2.1135775436190414e+01 -6.8703122562692975e-01
    1.2654988965857872e+02 -2.3233099434418022e-01
    2.0921632861634941e+02 -9.6084810408122764e-02
    1.3310081524194999e+01 -4.7062100314541838e-01
    9.6795717869541669e+00 -6.7002286774507624e-01
    8.8844531530257349e+00 -7.4180056347220635e-01
    3.6005727049563447e+01 -3.7206316322478056e-01
    2.8692950888071232e+02 -9.2282017223833751e-02
    1.3489905774092751e+01 -6.1532105015019778e-01
    9.4440399674194442e+00 -7.6437944270067382e-01
    8.7935625793954735e+00 -5.9086052131254907e-01
    8.6978346699170643e+01 -2.0933484912672295e-01
    1.6857671823159271e+02 -1.3653237878806404e-01
    9.1449096285688736e+00 -8.6047765377044050e-01
    1.1623118425880502e+01 -9.0411528809149611e-01
    8.8311594940219962e+00 -4.9588631090631569e-01
    5.3630711193999510e+01 -2.6540040432094458e-01
    4.4280416588322450e+03 -6.9379045568352948e-02
    3.8104130143326785e+01 -4.6512084914177487e-01
    3.3320899998878481e+01 -4.9969122629052470e-01
    4.4639886789272502e+01 -3.4756939607513371e-01
    1.6841740181962317e+02 -1.8096092804980649e-01
    1.3022635457907061e+03 -9.4513459348673126e-02
    4.0048311232261597e+01 -5.0777164104726047e-01
    3.6695083252717453e+01 -6.8764128151159887e-01
    3.0070024703129913e+01 -1.2467711870718228e+00
    5.2095201264536769e+01 -5.5781668756771940e-01
    1.0114289851921133e+02 -1.4961406337265887e-01
    7.0044757853684549e+00 -9.8053274119903788e-01
    6.9930582536208039e+00 -1.2031636828522778e+00
    6.9074070109389218e+00 -1.8582645799314046e+00
    1.0822862727686099e+01 -6.7455151616138065e-01
    6.6680536701041035e+01 -1.4552489967279272e-01
    5.6885842455446944e+00 -9.7338815154792258e-01
    5.9209979318147816e+00 -1.1631759898944376e+00
    5.9111287621464879e+00 -1.5600847760939844e+00
    1.1745993408605031e+01 -4.7226316034274762e-01
    8.7308731479865614e+01 -1.6438389269685774e-01
    6.7295157103019871e+00 -1.1133941471324069e+00
    6.6350272025968913e+00 -1.0793149169467102e+00
    6.3529924450624300e+00 -1.5467184163624059e+00
    1.4928323680102206e+01 -4.8736149587640776e-01
    7.2314761297064240e+02 -9.9864873862453241e-02
    3.6338294100197785e+01 -5.6220739727894875e-01
    3.6486776496903410e+01 -7.0529144097049523e-01
    3.0219214663887396e+01 -9.7015669159637130e-01
    7.3481079083918274e+01 -3.5927893423594737e-01
    1.6892780535866445e+03 -4.6657026945182985e-02
    5.6872404171744797e+01 -3.7483786334121327e-01
    3.2324671193527507e+01 -5.8845412748150860e-01
    3.9216600103114018e+01 -4.7679628555380843e-01
    1.0892032963417456e+02 -3.0383114098988662e-01
    1.6555662638793123e+02 -1.0367552534482057e-01
    9.7562469259717766e+00 -7.7292459145912351e-01
    8.4746163581418301e+00 -1.1103009889677451e+00
    6.9650549624997726e+00 -8.0041112964140215e-01
    3.0649509243272337e+01 -4.8058898056146471e-01
    2.2377390130579923e+02 -1.0659783625997767e-01
    1.1085398517943725e+01 -7.4142545107598146e-01
    7.4852369802518641e+00 -9.9820510748381563e-01
    7.4636859252246381e+00 -8.7155440675309370e-01
    4.2533438935058619e+01 -3.5894599491011603e-01
    1.8841126083423191e+02 -1.0808735149090989e-01
    1.0567185854680684e+01 -6.0154006153290895e-01
    8.1001099718014267e+00 -8.5550601328602849e-01
    7.1585544205202840e+00 -9.4856962294606884e-01
    4.6586943168283284e+01 -3.4521882393182923e-01
    6.5846481668932665e+02 -9.8670063963259225e-02
    4.8064210614909271e+01 -3.6925782826128301e-01
    2.6493236391203531e+01 -6.6154343261632065e-01
    2.3259921041438357e+01 -7.2309587611862225e-01
    2.4415037704110611e+02 -1.5894056851411420e-01</input_scale>
  <output_scale>
    1.0526315789473684e+00 0. 1.0526315789473684e+00 0.
    1.0526315789473684e+00 0. 1.0526315789473684e+00 0.
    1.0526315789473684e+00 0. 1.0526315789473684e+00 0.
    1.0526315789473684e+00 0. 1.0526315789473684e+00 0.
    1.0526315789473684e+00 0. 1.0526315789473684e+00 0.
    1.0526315789473684e+00 0. 1.0526315789473684e+00 0.
    1.0526315789473684e+00 0. 1.0526315789473684e+00 0.
    1.0526315789473684e+00 0. 1.0526315789473684e+00 0.
    1.0526315789473684e+00 0. 1.0526315789473684e+00 0.
    1.0526315789473684e+00 0. 1.0526315789473684e+00 0.
    1.0526315789473684e+00 0. 1.0526315789473684e+00 0.
    1.0526315789473684e+00 0. 1.0526315789473684e+00 0.
    1.0526315789473684e+00 0. 1.0526315789473684e+00 0.
    1.0526315789473684e+00 0. 1.0526315789473684e+00 0.
    1.0526315789473684e+00 0. 1.0526315789473684e+00 0.
    1.0526315789473684e+00 0. 1.0526315789473684e+00 0.
    1.0526315789473684e+00 0. 1.0526315789473684e+00 0.
    1.0526315789473684e+00 0. 1.0526315789473684e+00 0.
    1.0526315789473684e+00 0. 1.0526315789473684e+00 0.
    1.0526315789473684e+00 0. 1.0526315789473684e+00 0.
    1.0526315789473684e+00 0. 1.0526315789473684e+00 0.
    1.0526315789473684e+00 0. 1.0526315789473684e+00 0.
    1.0526315789473684e+00 0. 1.0526315789473684e+00 0.
    1.0526315789473684e+00 0. 1.0526315789473684e+00 0.
    1.0526315789473684e+00 0. 1.0526315789473684e+00 0.
    1.0526315789473684e+00 0. 1.0526315789473684e+00 0.
    1.0526315789473684e+00 0. 1.0526315789473684e+00 0.
    1.0526315789473684e+00 0. 1.0526315789473684e+00 0.
    1.0526315789473684e+00 0. 1.0526315789473684e+00 0.
    1.0526315789473684e+00 0. 1.0526315789473684e+00 0.
    1.0526315789473684e+00 0. 1.0526315789473684e+00 0.</output_scale>
  <inv_output_scale>
    9.4999999999999996e-01 0. 9.4999999999999996e-01 0.
    9.4999999999999996e-01 0. 9.4999999999999996e-01 0.
    9.4999999999999996e-01 0. 9.4999999999999996e-01 0.
    9.4999999999999996e-01 0. 9.4999999999999996e-01 0.
    9.4999999999999996e-01 0. 9.4999999999999996e-01 0.
    9.4999999999999996e-01 0. 9.4999999999999996e-01 0.
    9.4999999999999996e-01 0. 9.4999999999999996e-01 0.
    9.4999999999999996e-01 0. 9.4999999999999996e-01 0.
    9.4999999999999996e-01 0. 9.4999999999999996e-01 0.
    9.4999999999999996e-01 0. 9.4999999999999996e-01 0.
    9.4999999999999996e-01 0. 9.4999999999999996e-01 0.
    9.4999999999999996e-01 0. 9.4999999999999996e-01 0.
    9.4999999999999996e-01 0. 9.4999999999999996e-01 0.
    9.4999999999999996e-01 0. 9.4999999999999996e-01 0.
    9.4999999999999996e-01 0. 9.4999999999999996e-01 0.
    9.4999999999999996e-01 0. 9.4999999999999996e-01 0.
    9.4999999999999996e-01 0. 9.4999999999999996e-01 0.
    9.4999999999999996e-01 0. 9.4999999999999996e-01 0.
    9.4999999999999996e-01 0. 9.4999999999999996e-01 0.
    9.4999999999999996e-01 0. 9.4999999999999996e-01 0.
    9.4999999999999996e-01 0. 9.4999999999999996e-01 0.
    9.4999999999999996e-01 0. 9.4999999999999996e-01 0.
    9.4999999999999996e-01 0. 9.4999999999999996e-01 0.
    9.4999999999999996e-01 0. 9.4999999999999996e-01 0.
    9.4999999999999996e-01 0. 9.4999999999999996e-01 0.
    9.4999999999999996e-01 0. 9.4999999999999996e-01 0.
    9.4999999999999996e-01 0. 9.4999999999999996e-01 0.
    9.4999999999999996e-01 0. 9.4999999999999996e-01 0.
    9.4999999999999996e-01 0. 9.4999999999999996e-01 0.
    9.4999999999999996e-01 0. 9.4999999999999996e-01 0.
    9.4999999999999996e-01 0. 9.4999999999999996e-01 0.</inv_output_scale>
  <weights>
    <_>
      2.1585071572311167e+00 -7.2098692930559261e-02
      -1.5075935924210834e-01 4.1335236355130665e-02
      1.6644922838339984e-01 -1.0294014910635745e-01
      -1.8454952167107605e-01 -9.6878038224101487e-02
      3.7150604598606973e-02 -4.0575206533499115e-02
      -2.9216247066610055e-02 -4.5142205172809077e-02
      -1.5999136680000978e-01 1.5435242004650421e-01
      -6.5714394113951455e-02 2.9401011997773568e-01
      2.3683264088459208e-01 5.1769804884910467e-02
      9.7895678907579553e-02 2.5427616000605235e-01
      -2.2773649627000934e-02 1.4697634388749606e-01
      -1.1160368606201940e-01 1.4463950101771306e-01
      1.6647012873295966e-01 -1.0313345444649492e-01
      -6.7741916515819567e-02 9.4122536495284931e-02
      -4.7595750559627130e-03 -6.5018707982214957e-02
      -1.6492945141129539e-01 -7.9395317144309224e-02
      -1.3419719999654395e-01 -1.5957397582286018e-01
      -1.5282481740041858e-02 5.1632236250112942e-02
      2.6634919692245901e-01 5.5723670453605226e-02
      3.4819477204102522e-01 -4.4076106591686072e-02
      -8.8147268449696184e-02 -1.0104040330938815e-01
      7.9735189502492892e-02 6.7195205568378019e-02
      1.0528540304105587e-01 4.4686422358216354e-01
      -1.9643664931971114e-01 -1.1308109265303970e-01
      -6.2566925917497710e-03 -1.4233911992478738e-02
      -8.9780834954610547e-02 1.0404550714029120e-01
      2.1408719765627043e-01 4.1268328264299320e-01
      -9.3436187156149195e-02 -2.5846450616825445e-01
      -5.7557586017755313e-01 3.7571235089980379e-02
      -5.9555550987701175e-03 -1.5061350153918771e-01
      -2.6562375447487985e-01 -1.1824055343980822e-01
      3.6999095685714072e-02 -3.9932078223896295e-01
      2.6704978726504434e-02 3.7726184688657066e-01
      3.6633919149464324e-02 -2.0254787602894272e-02
      -2.3362828682381005e-02 1.8301590612106951e-02
      -1.9223001720156053e-02 1.4910253092656728e-01
      6.2515858537694841e-02 9.3171327754595482e-02
      8.5161866405165251e-02 -6.5748806913498992e-02
      2.6305582918434173e-02 -1.3169024651563130e-01
      2.7989151237712634e-01 2.6990266778992793e-02
      7.6341743904755205e-02 2.7173274488093736e-03
      2.5959069331570822e-01 2.3613365876433326e-01
      -4.5492114907286933e-02 -9.2009014637361775e-02
      -2.5041547316874258e-01 1.6304176864421849e-01
      -7.5063341796988842e-02 1.7988354228675896e-02
      -2.6604595630358312e-02 -9.9941180782375391e-02
      -8.9231684219164248e-02 -1.5652883242223697e-01
      -4.0614188906742710e-01 -5.4617238894467464e-02
      1.3153248821314709e-01 1.5487428019263891e-01
      -1.9460998379597055e-01 -1.5990293396058772e-02
      -3.4122184655225679e-01 -5.2941247192818544e-03
      -4.9919284635503208e-01 -9.4221541049925139e-02
      1.5951393250781906e-01 1.5959175910889301e-01
      4.7642867272745991e-02 -9.2146910310567084e-02
      -4.2016176535801135e-02 -2.4556547941475945e-01
      -1.7836218712255494e-01 3.6326473004537851e-01
      -2.6117439923122304e-01 -2.7898073440466303e-01
      8.0298604721053393e-02 1.6859911075567388e-01
      -3.1491706374368073e-02 -2.5166608150679259e-01
      -1.2322467001378799e-01 3.9409005019398133e-02
      -2.0891642031209162e-01 2.7960368955471526e-01
      1.4230453243314903e-01 -8.1381855376881085e-02
      2.4442885410273296e-01 -3.8088250196775519e-01
      -2.6108765266166434e-01 2.3496995382037908e-01
      1.7023197500530526e-01 1.3897020400208468e-01
      -1.3635250620828954e-01 3.0532107793153263e-01
      9.6186687316308778e-02 7.5573109523702969e-02
      -1.5148028793419091e-01 2.4124296521675664e-01
      1.7408529933301181e-01 4.9305798167724867e-02
      -3.7065380470357574e-02 5.6523355148748993e-03
      -3.4273050458282828e-02 2.8514096246531572e-02
      -3.8176570150806961e-03 3.4727634197369756e-01
      7.6428964231300814e-02 6.8905167674810627e-02
      -7.8988268068407599e-02 3.3300609167398895e-02
      -6.6796359247243864e-02 -4.5068013269391521e-01
      7.5553171788583354e-02 -1.1973107674844248e-01
      3.2002328509641832e-02 -2.2688676997874088e-01
      9.4036393688122943e-02 2.7830654499000795e-01
      -8.7741776898760658e-04 1.6041591033327390e-02
      -2.2735242312503682e-02 1.7723953482890298e-01
      -2.1947336058685549e-01 1.4114190846990063e-01
      -1.2125666984404990e-02 2.1838130858525932e-02
      -1.9106376078477458e-01 1.8471332391337567e-02
      -1.6428186273840922e-01 1.0606214143310894e-01
      2.7026318304831848e-01 -1.7396985263163536e-01
      6.2434287093443966e-02 -1.4760227894052469e-01
      -6.1696528032917211e-02 -1.4794687248338886e-01
      -2.3963740894841815e-01 -7.3205248302385478e-02
      -1.4131397833461048e-01 2.2901974240580655e-01
      -2.0740314783860968e-02 -1.3858103576221986e-01
      -1.1076468936446794e-01 1.2257994175687049e-02
      2.8038771676702892e-02 5.7069444721035145e-02
      -1.5917037384212990e-01 -1.4924429358845867e-01
      1.2009651674183388e-03 2.6647636163314303e-01
      4.2708544272382035e-02 -1.3214582011534409e-01
      8.1116314230287909e-02 -7.0725139701264636e-02
      -3.9926745655802634e-02 -8.4282746700414288e-02
      -1.9975806269354823e-01 1.8875471046605258e-01
      -1.0309535098160746e-01 -1.7129754873227737e-02
      -1.0080103751939916e-01 -2.2282587988649358e-01
      -8.5588681864728747e-02 -6.2832698989262331e-02
      -1.3884945163745024e-01 -1.3486158072555982e-01
      -3.9251351902498774e-04 -4.9967862550269436e-03
      -3.2513205148016838e-01 8.5022169108006557e-02
      1.4239672598916933e-01 -1.6693666619794115e-01
      1.0446631607335988e-01 -8.8240962010987675e-02
      6.5949624060858678e-02 3.4610129413850466e-01
      -3.9643264065221284e-02 -1.5687474653202288e-01
      -4.0692665991364341e-02 -1.3186977165270181e-01
      2.1004766288957208e-01 3.3510485140815005e-01
      2.1351024628701375e-03 -1.1378981768690714e-01
      1.2865028701707892e-02 -1.7113254712445560e-03
      2.9119323672968253e-02 6.9618525284560098e-02
      -1.6403371630032009e-02 1.0648630709951580e-01
      -1.3895167572467820e-01 5.9753642455467682e-03
      -5.8155771025829139e-02 5.9887985896651501e-03
      1.2501734601812969e-01 3.1252704673596143e-02
      -6.0791596450151114e-02 -1.3126882864170805e-01
      -1.0273467459722914e-01 1.9549873205057789e-02
      -3.1010582919875653e-02 -3.3902977409116859e-02
      4.1456596547820260e-02 -6.4015518333997296e-02
      1.6503616416395364e-01 -1.4980092083494526e-01
      -5.9390709749105812e-02 -2.4090848472425730e-01
      -3.4500007367209366e-02 -1.6329384129304289e-01
      -8.6151205463448538e-02 -2.1154017356049939e-01
      -1.4645810554018861e-02 -5.3843218397496000e-02
      -1.5934682295002153e-02 8.3956549321188040e-02
      -2.5164661792584211e-02 1.7843036491418892e-03
      4.6882235411003631e-01 -1.6620153426253181e-01
      4.8284464122091288e-02 -2.5215223001039277e-01
      -8.5209796511698715e-02 2.2073264902750883e-01
      3.5594765295832921e-02 1.1586918573117300e-01
      -2.3282272813176091e-01 -1.7895538897771696e-02
      8.1118457035339717e-04 -9.3609903154877758e-02
      -4.1186102827888996e-02 6.0445005216059021e-02
      -6.1377348469550251e-02 1.5013281803702408e-01
      3.9441206120318165e-02 -3.3114742585732782e-01
      7.6331949329312837e-02 1.7864543048504485e-03
      -4.4050734999810720e-01 -9.8739831596848446e-02
      1.5303629552158055e-01 -4.3812601842830642e-03
      5.0477173648065192e-02 1.9546566400779800e-02
      1.3252529807423993e-01 -2.2302200813556709e-02
      5.8825769522851810e-02 1.1634113858618889e-02
      -3.1072243117275026e-02 -8.5851798031722409e-02
      -1.3807901331479372e-01 1.1008421889732192e-01
      3.1045921945240973e-02 -1.2423378407417642e-02
      -1.9281629107858986e-01 -1.3353706856245448e-01
      -9.0158404957033367e-02 -9.1774533151080598e-02
      1.1899937979746227e-01 2.0885999579493353e-01
      8.1821601806454421e-03 7.9985733364296638e-02
      7.9556645063108541e-02 3.6672325039422726e-01
      -1.1529411816970864e-01 2.8742825121773374e-01
      4.2815521435898729e-02 -3.4809930798799654e-02
      -2.2778114142779655e-02 5.6860666507623878e-02
      -1.3242631851841885e-01 -2.5013225495489250e-02
      -6.9016776956048007e-02 -8.8626417914297352e-03
      -3.4239617709495011e-02 -7.1459694119167874e-02
      2.4281368318894264e-01 9.9909883052203871e-02
      8.5477003440344035e-02 3.8989953230703499e-02
      1.3101681903426673e-01 -5.6429214799438306e-02
      -9.2981741122696818e-02 1.5573433417461008e-01
      1.6631126183700812e-01 1.5085599782106071e-02
      2.0361326752931140e-02 -3.6759468209292895e-01
      3.3257171723685147e-01 -2.7133071296561301e-01
      -2.3465170706257751e-01 2.3283029035461603e-01
      1.0601836575910980e-02 1.5330800863312388e-01
      7.3356682580400734e-02 4.4393036856644946e-02
      6.8782912689565434e-02 -7.4403222377979930e-02
      -1.5591468311847095e-01 -2.7043428421845095e-01
      -5.4857972756895003e-02 -1.8163377251499972e-02
      1.0810023667448838e-01 -3.4498833413674873e-01
      -1.7983583080834888e-02 1.1585078525720069e-01
      3.5825022539903641e-02 -1.9695782166555198e-01
      -1.8911172417982191e-02 3.3512609291526822e-02
      -7.7142252852251597e-02 2.0286670656955177e-02
      -7.3153433191398762e-02 4.2027887558478617e-02
      1.8245169060133062e-01 -2.4101589355897376e-01
      1.4428350955314387e-01 -1.8423757519161893e-01
      3.5294967185739691e-02 9.9004660611929501e-02
      1.1012968949397513e-01 -4.0000032058059284e-02
      2.1430018136382981e-01 -6.0311948392963938e-03
      -1.5910977817113953e-01 9.2647855277688679e-02
      -1.3510973485642611e-01 -1.6522281889428456e-01
      -3.6318112092031452e-01 -2.2502203597927628e-01
      1.1740685406371557e-02 1.0930189338895526e-02
      -1.0376448718579563e-01 -1.3984081925411268e-01
      -2.8522776214418105e-01 2.6161655692468000e-01
      5.9810860113492445e-02 6.1813525311264772e-02
      9.1774913550559487e-02 -1.2276750731548806e-01
      5.1349900246133472e-02 3.1162494639703092e-01
      1.1973599537705429e-01 8.6554671439617991e-03
      -7.1775119032142190e-02 -1.5131980413403501e-01
      2.8757857855612146e-01 -1.2400782183137572e-01
      -1.9508917820281679e-01 3.3207007156026191e-01
      -1.3873943980798326e-01 2.2492000658031377e-01
      -2.7503477015904287e-01 -1.1299299892177347e-01
      6.2001167903926818e-02 1.2062041077191710e-01
      -7.4900950751246442e-01 -1.2974782273752246e-02
      4.4170691752462042e-02 -1.4153096247864094e-01
      2.5100052588912858e-01 -6.4262189152171120e-02
      4.4495053090111378e+00 3.4934701305649951e-01
      1.2470939337837635e-01 1.9489018360580970e-01
      -2.5208410114597546e-01 -8.6993271670685421e-02
      -1.6236017708070004e-02 -9.4486629226286922e-02
      -1.3395267395866439e-02 -8.3986906436979411e-02
      2.5965370791288955e-01 -4.6499396988758220e-02
      3.2142146180890124e-01 4.1855794351959547e-01
      -1.5781563474074618e-02 5.6992693469960520e-01
      -4.6955691839963465e-01 -1.1600880079612516e-01
      -6.7915649855851579e-02 -1.4355786580466010e-01
      -3.9013924311483894e-01 3.3253566411019025e-01
      2.5821455851756436e-01 2.6021784267057080e-01
      -1.7772348599593454e-01 -3.5387684259808311e-01
      5.7024668634737596e-02 4.1003247497432049e-01
      -1.2749348808947711e-01 6.1283005757723608e-02
      -2.2688314025429760e-02 -5.8615686859935690e-01
      -2.7452920685194288e-01 3.1321353647252398e-01
      3.3035207778204623e-01 8.5072263074524257e-02
      -2.8527806573524040e-02 -2.1015547788665484e-01
      2.6772801247095407e-01 -6.3310770089024512e-02
      8.0175869445544265e-02 -8.1315824284981839e-02
      -1.5412457527469850e-01 -1.6987241650587896e-02
      -1.8628384995214692e-01 4.4868368891123267e-01
      5.8089217694756147e-02 -1.1446425036776635e-01
      1.4634700519004046e-01 -1.0820521456377080e-01
      4.2685190511577359e-01 7.6250873480424586e-02
      2.1260310485970477e-01 2.1686799271771184e-01
      9.4192783959469631e-02 5.0056609241808980e-01
      9.8808806998547855e-02 -4.8759323638466898e-02
      -2.4143512247839513e-01 3.4064990835368882e-02
      -1.1053335741777912e+00 5.4263432012630779e-02
      -1.8124266912111120e-01 2.1803230454557412e-01
      -2.6932697404933995e-02 -2.3232664444501466e-01
      -3.8018325500414889e-02 -4.5727932613313239e-02
      2.2218663942884120e-01 -1.0083632947758869e-01
      -1.2632527858515991e-01 -4.9872600275665833e-02
      -1.5994224118656530e-01 -2.5527811515071528e-02
      -8.4263949931166524e-02 -4.2796270210860438e-01
      9.9321472927085905e-03 1.6937121837184410e-01
      -1.2445152274819021e-01 8.6595981898120442e-02
      2.8439149463995694e-01 1.0642794379923919e-01
      -2.2086350985884340e-01 1.7226295400260475e-01
      4.2134044180108726e-01 5.5911998485145657e-02
      9.0097254720893166e-02 -4.4348589351470631e-02
      1.2228216137158203e-01 -5.1837744998846864e-02
      3.2929348455421109e-01 -3.1897729622542648e-01
      -2.3193281420727109e-02 -1.5712581300963771e-01
      3.4492685106872584e-01 3.3242086179210573e-01
      -1.5927235895620123e-01 4.5860980313730865e-01
      1.3108160465902788e-01 2.5019953089071378e-01
      -4.8495449235483490e-02 2.5532407103950766e-01
      -2.3598983227140519e-01 3.5510293783145142e-01
      -1.0872905812142743e-01 -1.4392569029959526e-01
      2.6825046153183971e-02 2.0510621694014350e-01
      -2.1677816945698627e-01 7.0891057878156027e-02
      -3.1272058394292540e-01 -2.8288760367419685e-02
      -6.0724185655858125e-02 3.4658352703410535e-02
      6.5079320835054549e-02 -6.1378985552097765e-01
      -4.5103092524607140e-02 9.4814085449203907e-04
      1.3931282645535259e-01 -4.1724231196715797e-02
      2.2478742756031952e-01 -2.3091699816542258e-02
      1.6418206798829685e-01 1.0103788906291611e-01
      3.2238893324933210e-01 -1.3284100507858537e-01
      1.2875648038170254e-01 -1.3015381523613190e-01
      -1.3235147313127196e-01 -2.6627614190864585e-01
      1.9680000028777817e-01 1.0533311125257776e-01
      -2.7880893668600926e-01 -1.7806886865840964e-05
      1.8925276230631469e-01 1.5817110968464023e+00
      -2.4841107535115825e-01 1.0688090004095287e-01
      3.7801836266285127e-01 1.8894992305629998e-01
      -2.3984798777610164e-01 -3.2058143614530071e-01
      1.5619172253784516e-01 1.8762196120138064e-01
      -1.7299171491588938e-01 4.6565008861894477e-02
      -7.3225435173823739e-02 -2.5189653736348894e-01
      -4.2917447128397784e-01 3.2374722848633231e-01
      2.2819802172234392e-03 4.1712088997878684e-02
      2.6670903524419743e-02 1.6004591717405645e-01
      6.9926354088683818e-01 -2.7306894382903407e-01
      4.2852984907719788e-01 1.0630129654109464e-01
      7.2617080702791756e-02 3.6782286946432152e-01
      1.1011216975953197e-01 4.0581378749471209e-01
      9.9304155582668571e-02 -5.6756659230902708e-02
      -2.9360198208777905e-02 -7.9034158707560387e-01
      -5.0578334329265999e-02 -1.2653211283338095e-01
      1.5823889349491797e-02 9.6008436958115555e-03
      -2.5434230327665486e-01 2.1989867751293274e-01
      -1.9070475274527404e-01 3.0296719673920648e-02
      -1.7500907307130533e+00 1.9997505150647948e-01
      -1.1940851310802991e-01 -1.3247398486669390e-01
      8.2160929945756425e-02 -2.5600597214818982e-01
      -4.8293102880082928e-02 8.1579193212269738e-02
      -1.5431010671585071e-01 5.6033688433709143e-02
      1.8695349596633975e-02 -8.5107026492408658e-02
      1.1078329702548362e-01 -2.0647667436760331e-01
      -5.5364505668588838e-02 2.2559993804926789e-02
      -1.7002980248321695e-01 -1.7003348926747885e-01
      1.3313312505330316e-01 1.2857327105861510e-01
      6.9212051659760201e-02 -8.0058288596554311e-02
      1.7705401915339281e-01 -1.4690622780959292e-01
      3.2939600074050578e-02 6.3486019306995350e-02
      -9.9466428180123301e-02 2.5108963691387770e-01
      7.4997400873929365e-02 2.1618312995364783e-01
      -4.8803025061532987e-02 7.6716958921820167e-03
      -1.8202515267761757e-01 -1.4300851781595228e-01
      -2.3832808861942617e-01 1.8501250258633564e-01
      1.1310751909590294e-01 2.7184533734560490e-01
      8.0533585433973778e-02 7.7321049433661515e-01
      -2.1219477379235904e-01 -4.6459890282156656e-02
      1.5471022289873895e-01 -1.6918250555342906e-01
      3.0734419123322157e-02 2.3675011230704446e-01
      -9.7513012943099796e-03 1.7844772005963389e-01
      3.1155379461892462e-02 -3.7968076435482195e-02
      4.2804902737894626e-02 -8.1603654291064559e-02
      -8.1331028981926623e-02 -1.3578599495450774e-01
      2.4872395054738450e-01 -4.7443058373890307e-01
      6.9671842018862618e-02 -4.4135082437995188e-01
      -2.6001010754450105e-01 1.3893253704276229e-01
      1.8186336403282757e-01 -1.2919723380670586e-02
      -2.5046708819736946e-01 1.2248109815432100e-01
      2.5867192843299786e-01 9.6938564393074592e-02
      -8.1668130134562839e-02 3.8743846626219249e-02
      -9.6289233423652712e-02 2.2901976609814270e-01
      2.9583039793130785e-02 3.3360813850361126e-01
      1.0856385526632178e-01 3.8305249427266574e-01
      3.1985251143742721e-01 -3.1695251281746445e-01
      -1.4286479120371417e-02 -2.0261353995486794e-01
      -1.7936432840787328e-01 -1.7373074986871392e-01
      -9.0954765032170949e-04 -2.1419419687375479e-01
      3.3775619423923441e-03 -1.3202498146112598e-01
      -5.4490329700355453e-03 1.4525041155386106e-01
      -1.6420669452839506e-01 1.4034492470711754e-01
      7.4391797385921749e-02 -7.8956566164761863e-02
      6.1107450693757177e-02 3.7117428892257394e-02
      2.4317691522811491e-02 2.4014958592736871e-01
      2.7438886960858572e-01 -6.4598028436667954e-02
      -1.7583359907860016e-01 -1.1104406766369337e-01
      -9.1552750705552813e-02 -1.7460695425443573e-01
      -4.0629854897596657e-01 -5.7563508022382148e-01
      4.3492801205291409e-01 1.5784916434414837e-02
      -3.1160753692565674e-01 -3.3227312581547414e-01
      4.2296685728694335e-02 -3.2144636000152910e-02
      -9.8013598304352217e-02 1.9614449090341421e-01
      4.1594930070801051e-01 -1.1723173983707456e-01
      3.5840210603891004e-02 9.6503100579546669e-02
      1.2510586775703644e-01 -1.0347735145247719e-01
      -3.2847494787158642e-02 -2.8144448105283701e-02
      2.0346434770480601e-01 -2.5091474130403475e-02
      3.7487869390917472e-02 -2.1840763349711600e-01
      -8.8282745471108842e-02 4.0390005745334290e-01
      -7.9643242736767275e-02 -2.8134183207945274e-01
      -3.3804324226287075e-01 1.0840422520166988e-01
      2.3017216723535332e-02 -1.0743929823865209e-01
      2.1257775123756992e-01 -2.9852224389623644e-01
      2.8216451297794529e-02 -5.3470350063532712e-03
      -8.3210485208500204e-02 -3.2252225754951576e-02
      -4.6764124503561828e-02 -3.8574032555961209e-02
      2.8570627057446157e-02 -2.5897457178701216e-01
      2.8367627003200746e-01 -8.0618285918536259e-02
      1.2428854681449462e-01 -1.2638588326681427e-01
      6.1429981036939078e-02 -2.1899358566702926e-01
      5.3170218111029066e-02 -3.9984049445286191e-01
      -2.2561442777239699e-01 1.2247448802137052e-01
      -9.7274352913048368e-02 -7.0863329222749760e-01
      8.4605043845893801e-01 -2.3003315225146724e-02
      -8.8986852513942311e-02 -1.3008436324191458e-01
      1.6120014776596248e-01 -3.5968691721951468e-02
      1.5862843416911349e-01 -1.0441873839855094e-01
      1.0184225247006480e-01 5.2779253334796417e-01
      2.1534023728491765e-03 -9.8334884676622450e-02
      -2.4210009035111540e-01 5.6729253660886041e-02
      2.2987263003428640e-02 1.3451913481249034e-01
      8.9878268768816577e-02 6.7630528475019089e-02
      -5.6531806674665584e-02 4.2628467445019420e-02
      -4.5685043382872043e-01 -7.6960550730821475e-02
      -3.9566503600141467e-01 -9.5213904644954814e-02
      -1.1053109709452792e-01 -3.9205333855003729e-02
      3.3139944169002650e-01 -3.1313447482502260e-01
      -7.5005501191546892e-02 -2.1407871350874333e-01
      -1.4657865840180093e-01 -1.5688879292303509e-01
      3.8352129664455953e-01 2.7182618656594434e-02
      3.3817043767905772e-02 -7.6695630073854409e-02
      -6.4133291580001459e-02 1.3941741324319401e-01
      2.3035238060464095e-02 7.7517191143336925e-02
      8.3043820024737147e-02 2.1914511335523043e-01
      1.3387681106472152e-01 -3.0697326216318854e-01
      1.1732839311964691e-01 -1.6785368291580513e-01
      4.4872148990035471e-01 -3.7855131921862095e-01
      2.1473207025453095e-01 1.7450580369651820e-02
      -3.4228048699968322e-01 2.8141416039942344e-02
      2.8294782493438145e-02 4.0196650705834441e-01
      -2.1810411106541330e-02 1.3837663321396118e-01
      2.9509648159201096e-01 1.1506367017742197e-01
      -3.9966217909681344e-03 -6.5972370842222539e-01
      -1.5802614086090425e-01 -1.4404113898946877e-01
      -6.8254807646124460e-02 -6.5387891198495640e-02
      4.6143495027551530e-02 -1.8063235394512400e-01
      -1.0019514961732540e-01 4.0520235038625652e-01
      1.1253303998507025e-01 -1.7933262225765323e-01
      -1.5166185715656881e-02 4.2016544990769911e-04
      -2.1707051453669310e-01 7.3836910107987638e-02
      5.1208105707941671e+00 6.1861008709964485e-02
      -4.8512199130377508e-03 2.8531938463868828e-01
      -2.2312267235622855e-02 -1.7814389834609973e-01
      -3.2287469556530507e-01 2.1545713550465842e-01
      -3.2030675038912748e-01 -3.2744886374531057e-01
      -5.5370137600096636e-01 3.3070879300194800e-01
      1.4891444968825468e-03 -5.1208492766404809e-02
      4.8324387844211636e-01 -2.1474151966664123e-01
      -7.3093504167832113e-01 -4.0841147761313640e-01
      4.4237325451022304e-02 3.5940754418416067e-03
      3.0986188480366134e-01 8.0814433335568772e-02
      3.1951491141322153e-01 1.0205442156793620e-01
      1.1738830548170270e-01 -2.5646279763703728e-01
      -5.9682604720600121e-02 -5.4368444819433426e-02
      4.3862351723051463e-01 1.1672569407086253e-01
      -2.1641093192708402e-01 -6.8653085743325415e-01
      7.3168140265282539e-02 -4.9789892421906312e-01
      -8.8590673792816738e-02 1.0359522984904559e-01
      -8.2789821973186684e-02 3.0764680797476296e-01
      -2.5169009942066756e-01 -2.4369532208037820e-01
      -5.6364665578324175e-02 -3.0409802325477969e-01
      -1.1555709268535648e-01 -2.4768628384916130e-01
      8.2958556744050102e-02 -5.7186694624339389e-02
      3.5017856164409072e-01 1.3855219271103919e-01
      -1.5784140449119208e-01 3.5899292085870010e-01
      -1.6062775932349058e-01 -2.1932642635558919e-01
      -2.4381253848662396e-01 -3.2237230025472041e-01
      5.7092927188956359e-02 -1.3740325806418345e-02
      -1.3209223228125647e-01 1.8473491975121226e-01
      -6.1019337067516680e-02 1.2315687230376356e-01
      2.4538226074157984e-01 2.0445337803144506e-01
      1.7960317142266699e-01 -1.3582864381655413e-01
      2.9310164169780922e-01 -2.3264374616005395e-01
      4.6644082883836278e-02 -9.7867602971464102e-02
      -1.2276378177681084e-01 -2.6409459142528591e-01
      4.4691409124913658e-04 -2.3308809416939281e-02
      -2.1510711290301396e-01 -4.2988456271939313e-02
      -1.4286391707477042e-01 -2.0868311854347354e-01
      -1.6346343310240669e-01 1.0821856243652014e-01
      -5.8253644230905052e-02 2.7521978337856667e-01
      -8.1825406894984923e-02 7.9389744736756238e-02
      -3.3614027657558931e-01 -2.5724172996697425e-01
      -4.5362110165301495e-01 -1.0363842050223626e-01
      2.4774313608650650e-01 -2.3075183651732584e-01
      -2.3298492853403019e-01 4.2721493489903707e-03
      5.7381201968588347e-01 1.0676998401951782e-01
      -2.3588734446067328e-01 1.7615562450525846e-01
      -1.3105260844514316e-01 -9.8151328145081901e-02
      -6.9761644848379527e-03 -6.5784669399273202e-02
      1.6558229419828960e-01 6.5362363156011224e-03
      -4.2080869851908391e-02 8.2398792424054665e-02
      -5.4509827010200552e-02 2.3881013064204912e-01
      8.8578239210203025e-02 3.3355800291705234e-01
      -1.5590003397446751e-02 8.8103476592962610e-02
      9.5139735088155972e-02 2.3396546755261222e-01
      -4.5649651613736014e-01 1.5750776053357676e-01
      -3.4696647747109330e-02 3.8001469487998990e-01
      -4.4090420802962466e-01 4.5745135552083643e-01
      2.3514989057480579e-02 -2.2742985611388258e-01
      -1.5491274677236191e-01 -2.3399196689827687e-01
      -4.8765326272806310e-02 -5.1998310028626316e-02
      -4.0865256616704504e-01 -1.2193769723979736e-02
      -3.7795659948163945e-01 2.9529823662678700e-01
      2.3210105782217272e-01 -2.6667324152842797e-01
      -1.1406201267313914e-03 -6.6252550698849733e-01
      -4.5538509361535745e-01 1.9494505748306395e-01
      -2.3313338337963641e-01 3.3966796147240734e-02
      -6.6498288162256725e-02 3.9534482021254541e-01
      2.1294336670801342e-01 5.3103583505163532e-02
      4.6728999055557774e-01 -3.8878167963950133e-01
      -7.5992177796673624e-02 6.4758211202097501e-02
      -3.5619539339365280e-01 1.7319102144708060e-01
      4.1152256582005766e-03 -2.6883948328492027e-02
      -4.1609352846420955e-01 1.2243644222742664e-01
      6.3508668172538307e-02 2.9229960682051759e-01
      -3.9062720513440458e-01 -8.7354403404123226e-04
      4.7649644949477271e-01 -4.4330059507813524e-01
      1.0491556114712637e-01 3.3467098959404375e-03
      3.1920004638876054e-01 1.3016749217950518e-01
      1.1577818726821114e-02 -3.4869916545470248e-01
      -5.0250405598539279e-02 -1.6344250242386193e-03
      -1.3056943945142904e-01 -3.7608393557028295e-02
      -1.1480674950292422e-01 -7.0855474210590597e-01
      -7.1963522581646594e-02 -3.8149616895893396e-01
      9.4590358119220327e-02 -3.0735113981128825e-02
      6.6642160022421326e-01 -9.4473263351229131e-02
      1.1691390364562428e-01 1.1925957457387593e-01
      -3.7704600993131182e-01 9.8549058022689897e-03
      -1.0860423160388652e-01 4.5171268352985389e-01
      1.4344761477978080e-01 8.7595978399323413e-02
      -3.8419160927629109e-01 2.3637228591140644e-01
      6.9438901203685910e-01 2.4981416561433470e-01
      -6.8586407960637336e-02 2.2470987757510658e-01
      -2.3405221456686282e-01 -2.3590167778116022e-01
      9.6830176138878760e-02 -1.2405575535832236e-01
      9.2936836612876939e-02 2.1647135125202160e-01
      -3.2557978987249253e-01 -6.6382734632152759e-02
      4.7542157658195958e-02 -9.8131667131461445e-02
      2.9051986804960528e-01 8.6496602502788192e-02
      1.7966539440286266e-02 1.0224641541982521e-01
      5.5664282217440658e-02 2.1825801246213311e-01
      2.4781409771216838e-02 -7.9101588149742080e-02
      -1.4795510317674027e-01 2.8057589241697389e-01
      -1.1048840838627584e-01 4.3767645905474090e-01
      1.9958073392394646e-01 3.0702278945115874e-01
      6.5026488825192047e-02 -2.1229631493785689e-01
      -1.0339209608525983e-01 -5.8281033577046992e-01
      -5.0810968729772428e-02 5.0361741973353744e-05
      3.6441155528230240e-02 -9.8305911031931897e-02
      3.2158819379130599e-01 -5.7454683130497758e-02
      -3.2234165627697670e-01 -8.4003023796500681e-02
      7.7434483093959991e-02 4.4360480188478685e-02
      -2.3035483670906953e-01 -9.6134923183992171e-01
      5.2557024595080291e-02 -2.0476315343240618e-02
      -2.0435958294006468e-01 2.5625225841772528e-02
      -1.2492049948731333e-02 4.8866432409343885e-01
      3.0728350651992364e-01 -1.1041352973593549e-01
      -1.6962981955235823e-01 1.4026514171995451e-02
      -1.4171975480587301e-01 -1.5883373559838393e-01
      -8.8451090537545282e-02 6.7566516029597401e-02
      1.7373321639845218e-01 1.1243657075150464e-01
      3.2445393840908882e-01 -2.9116970639870166e-01
      1.5851691163863055e-01 -2.9645008309578808e-01
      -3.5695489286976098e-03 3.0251058699448402e-01
      2.9999136314313879e-01 -3.0259488334260237e-01
      3.5418603166596195e-02 -1.6984241439084033e-01
      2.4526923151749502e-01 4.5379483839191236e-02
      -2.3450443935595114e-01 2.6384929013455993e-01
      -7.3527756187649534e-02 -2.1775898018358128e-01
      -2.1174976010974828e-01 -7.1056430531139886e-02
      -3.1834481148732291e-01 -3.6067570648956666e-02
      -5.7953245135883118e-02 -1.2265729629034408e-01
      2.0266372709658387e-01 1.5877574171584874e-01
      -1.2423067884155531e-02 2.7083936559877575e-01
      -9.8989016793529450e-02 -1.1817882138861452e-02
      3.8047115352601135e-01 -1.5996284387077855e-02
      1.5538539222856934e-01 2.9262304758110891e-01
      1.5982150171920656e-01 3.4457147099279084e-01
      -6.6961007053051969e-01 4.6860524208370335e-02
      -2.2225866666835201e-01 6.5261242630610047e-02
      1.3673731518787474e-01 -7.0286557348982190e-02
      5.4546138585700600e-02 2.4196080588553165e-01
      1.5931553247654306e-01 -1.1954157199408930e-02
      -3.0353022683457378e-02 6.1787282538244982e-02
      1.6648128574425763e-01 -8.5173288617147250e-02
      4.5030991676267576e-02 -2.7619487377799612e-01
      2.5362593112912057e-01 -4.6579869501103294e-02
      3.7597627569614815e-02 6.2744045771380957e-02
      1.0399201426890346e-01 2.3099828758199770e-01
      -3.0183190852091180e-01 9.5302799963446372e-02
      2.0979768615782407e-01 -1.0189503162282634e-01
      2.9178314690632704e-02 1.0723513505500126e-01
      3.5542170409697899e-02 2.4610557415370545e-02
      1.5833067881084673e-01 -3.8090790954145864e-01
      -2.1795636979744747e-02 2.2342558074404842e-01
      -3.5357807195539187e-02 4.7504342128719240e-01
      -2.0881054316973097e-02 -6.3530357039914595e-02
      -3.6505415145546369e-03 -1.0034504374741392e-01
      -4.3130890341896611e-01 1.7475491511534424e-01
      7.5636671116522308e-02 -8.0289624239463883e-02
      3.2744689633319488e-02 -6.2945084198788237e-01
      1.1967771747401384e-01 3.1876830884778046e-01
      2.7759777819836423e-01 3.9747684120292598e-01
      6.5366579442101236e-01 5.9920054116633747e-01
      -2.9659278603166622e-01 1.4506212951501204e-01
      -8.6156033916010857e-02 -1.9199714713597316e-01
      -2.1628756190777410e-01 4.5399639097869315e-01
      6.1175079625184266e-02 1.9844852825836853e-01
      -1.1094491262587430e-01 -4.3704563612299002e-01
      2.5691242387029387e-02 1.8306411131860170e-01
      -2.7434849620233542e-01 -3.9990757309164537e-01
      2.5062447162292989e-01 -2.5505291241944750e-01
      3.4820762005642741e-01 2.2406844221585029e-01
      3.2829248146860818e-01 2.2044895541395254e-01
      -6.4805639839067775e-01 -2.0176776260969118e-02
      3.0070088796684069e-01 8.8421232054797239e-03
      -1.4142740624501307e-01 8.4996511987684153e-02
      4.5595171723499396e-02 1.0490458390324077e-01
      -7.3150264289702796e-02 1.9318799142483919e-01
      -8.5547612265152381e-03 -6.0559879544527039e-02
      1.2465549128128282e-01 -1.4743303733965268e-01
      -2.2444477149390027e-01 3.3110263649077587e-01
      1.8544202012415645e-01 1.4968240727352963e-02
      -1.3886875320979519e-01 2.7174619316080617e-01
      -3.3045820327819680e-01 -1.3165399417464163e-01
      8.3345625890714189e-02 2.6079658054413984e-01
      -4.6252107127515490e-01 -1.2819018883788968e-01
      -2.6135416265434452e-01 2.2674936831125203e-01
      -1.2512172488892237e-01 7.9496427569082598e-03
      -5.7827307828968486e-02 -5.0142299513541329e-03
      -2.3831590319642507e-01 2.9876020772873463e-01
      2.5012429564629085e-01 1.6158080567684482e-01
      -2.3513247084085992e-01 2.6766113797176100e-01
      2.5822511441135843e-01 -1.1985606106960320e-01
      2.8566144756725448e-01 1.4891637727514032e-01
      3.8564581377606594e-01 -3.6821090275063562e-01
      -1.7358663057329554e-01 1.9682971260122886e-01
      -1.4843636090267834e-01 -1.6573293054437202e-01
      5.0272301896014415e-01 3.2408483166203045e-01
      1.0972921561542735e-01 1.4621032628564751e-01
      5.9271326599333332e+00 2.8806459038479754e-01
      -5.8297225451987303e-02 3.3503021178841458e-01
      1.1903693560850645e-01 -7.4093776962617333e-02
      -3.4483263855192064e-01 -3.2329113740118021e-01
      2.8243922238375161e-02 1.5724631523516018e-02
      -1.2770971445140913e-01 -2.6590955281020839e-01
      -1.6735394391816566e-01 3.3735393309577982e-01
      -5.7453458165094208e-02 5.0059995581270500e-01
      -2.9633602455753127e-01 -1.2875512660844390e-01
      6.6336191164569930e-02 -4.1190918593647191e-01
      -6.8377460636749557e-02 -2.3754515404505447e-01
      -6.7947709182792193e-02 9.7240072443416356e-02
      7.4293354975934298e-02 -2.4700712341719906e-02
      -1.5747189588401636e-01 -3.7067454723013554e-01
      -8.1529795550865661e-02 1.6435485620301318e-01
      9.4831230276659961e-02 -1.1096996772469629e+00
      3.1129978503101032e-02 1.4883425571196843e-01
      -7.5727785912742582e-02 6.5874718761433179e-02
      -5.6753264566874284e-01 3.9310951108130737e-01
      -1.6594774233490966e-02 -2.2327724041965805e-01
      3.0554900200026763e-01 -1.2064289045565278e-01
      6.8676856675625492e-04 3.7800239017262691e-02
      1.6845147819645484e-01 -7.7341532635197566e-02
      4.2879508592815874e-01 -9.2195881836099683e-02
      -1.1568918202772315e-03 -2.1105903877892954e-01
      -2.7362100473340301e-01 7.0599109550322864e-02
      -5.8607408752583315e-02 2.5724547820140359e-01
      1.2177066510662796e-01 -4.1648268774042213e-03
      -1.1458595025071336e-01 6.5371180595751574e-02
      -2.3874151208554345e-01 -2.2427516198070793e-01
      -3.4161067514934923e-01 -3.0554688589623141e-01
      -6.7190067544954796e-03 -7.6670648502616220e-02
      -1.7921919723617075e-01 2.4356374802915454e-01
      -8.7400987450155197e-03 -1.3837275426205392e-01
      -9.6943601946948843e-02 -1.9388154869429763e-01
      -6.2703218533873145e-02 -1.9795274969830695e-01
      1.1689440314818379e-01 -4.2121957095084428e-02
      2.3628991886652567e-01 2.4623532691366717e-01
      -9.5236767626001209e-02 -6.8090697064191089e-02
      2.0529866580241709e-03 -9.8430268626398240e-02
      9.6410689945259129e-02 1.9867870899629894e-01
      -2.4910788241546855e-01 -8.9886535991254932e-03
      1.7189837728003277e-01 8.7262405126451257e-03
      -2.6046385230945451e-01 -1.2926705013808493e-01
      -9.3833163472081038e-02 1.3539840194214692e-01
      2.5701459722460740e-01 1.3860104771099124e-01
      -1.3924274463540504e-01 -1.0430292324103181e-01
      2.0945062953993249e-01 1.8544919959296188e-01
      1.7986580453352527e-01 -3.5915699074228075e-01
      8.5633254988896776e-02 2.1481719281807932e-01
      -1.1985137925632230e-01 8.8146645512714683e-01
      -1.4526087783505065e-01 5.8970051834952686e-02
      2.5265218064858444e-02 -5.7821303789821510e-01
      2.2903468754015810e-01 1.1876972317306589e-01
      -3.6244304059435448e-02 2.5983054911582937e-01
      -1.8514092338035920e-01 9.6380062750542062e-02
      -1.0112827223353511e-01 -4.4796246072259883e-02
      -7.8347586368234412e-02 -3.4127212731341561e-02
      -2.0606514747264970e-01 2.2925438514351779e-01
      -1.9611956130055919e-01 2.7928938539972102e-02
      4.0862322751714066e-02 1.0679778538805636e-02
      -5.3619903143929080e-02 -1.5187899346183209e-01
      -2.2986157524606979e-01 -3.5331471110753472e-02
      2.8341942500640865e-01 -1.0619177725963035e-01
      -5.8598385648660614e-02 -4.1331360493940672e-01
      9.4851383878096718e-02 2.3256141528887872e-02
      1.5820615658710413e-01 9.9099620684039783e-03
      1.4025941187267402e-01 -5.7805948428423626e-01
      2.9668729338707184e-01 -7.4841312460696488e-02
      -3.0234824055573914e-02 1.5776126677855715e-01
      -1.2170628086213374e-01 2.5903094225754077e-02
      -1.1382214164074636e-01 4.8660486838646799e-01
      -4.6848188837151541e-02 -7.3024199903423376e-02
      -1.6653216577479985e-01 -1.3710102998847234e-01
      2.3009525464005583e-03 -6.9120664625213629e-02
      -3.7132390526691199e-02 -1.4489183680636947e-01
      -1.5556067611477101e-02 1.7985265994402458e-01
      -1.6717653910675412e-01 4.3719387609624322e-01
      -8.3390078307905888e-02 -2.1546601836817624e-02
      1.4873449284474716e-01 3.0658299637979081e-01
      -9.5057169985622983e-02 6.0060867625819629e-02
      -2.5445278811869657e-02 -1.5883270181473025e-01
      -2.9344626178102927e-02 5.7779884910778978e-01
      -2.4058810616523343e-01 1.4490115466660769e-01
      4.9124039704148054e-02 5.5310892835445831e-02
      1.1296653078383392e-02 -1.2206723160047039e-01
      -2.2180551158135128e-01 -1.2920844643217974e-01
      2.7895733230915015e-01 7.8019700948773751e-02
      -1.0567626691898201e-01 -2.2238978701383100e-01
      -8.6355457676778654e-03 1.6058232143857734e-01
      -8.1234509675305447e-02 -2.6134356012364768e-01
      -2.1420863251406327e-01 -1.5741265718238093e-01
      -1.3546509956484451e-01 6.9278442010003771e-02
      -1.7409891292277657e-01 8.5212107862187830e-02
      -1.9075522302186735e-02 -4.3920087630842139e-02
      -1.0807756588649593e-01 2.4338203678549228e-01
      1.1327927072487794e-01 -1.8891094124352226e-01
      7.9198721995343960e-02 4.0935073012233508e-02
      1.6617861013161225e-01 -6.1386293629045165e-02
      -2.3904033604964610e-03 -9.5161310389969764e-02
      -1.8002948218295734e-03 1.1662798603778404e-01
      -1.6758677336944791e-01 -1.1652439067372153e-01
      -1.7278994075168988e-01 -3.5049177390349649e-02
      -3.8762945750668804e-01 2.3330903704419873e-03
      -2.9131049969224881e-01 3.2142159480629033e-02
      -6.6347987127640770e-02 2.1245960681142782e-02
      -1.1349769622444578e-01 -4.9963008491452399e-01
      -1.0753682267589521e-01 1.8881415720968439e-01
      1.2349957945564101e-01 -2.3211210943008614e-01
      6.9393540554279043e-02 -1.6368022912509991e-01
      -1.0367050104805731e-01 1.8096263307951965e-01
      7.0221312550337492e-02 -9.9897294175226220e-02
      1.4386573421266249e-01 3.8387747334096223e-01
      -1.4706513594708410e-02 2.1070437410514470e-01
      2.6784646026807685e-01 -9.1661021688837732e-02
      2.3512996396616842e-01 1.9635835623172404e-01
      1.2225172287689993e-01 1.4999946072001066e-01
      -2.3413252212300317e-01 -1.3063450669085741e-01
      1.3282382125029002e-01 -1.2064465023173164e-01
      1.4840521244420332e-01 -9.1516464187004709e-02
      2.0231797952199562e-02 -1.7196648364643005e-01
      -2.3079045024720170e-02 2.2838310156360625e-01
      7.3029137211961567e-02 -7.1928515855273784e-03
      -6.8389290954369839e-02 -7.4464917694668398e-01
      -5.1067165169910340e-02 -2.6994209473429476e-01
      1.3799646158048540e-01 2.7762501134487486e-02
      -7.7893705336071706e-02 9.2666242346486405e-02
      -2.1009464132869157e-01 -2.2126749611518082e-01
      -1.7206572420939395e-01 6.6968855716637701e-02
      2.0821366891494664e-01 1.9313669884500555e-02
      4.2306616483091398e-02 -3.8476482529831123e-02
      -5.9425294887834441e-02 -2.2291558093004699e-01
      -4.0856464292682457e-02 2.8548437989112350e-02
      3.5281474526919737e-02 -6.5454424959981133e-02
      2.2073419456731300e-01 7.4528735460798301e-02
      -2.0931825323835224e-02 -5.6127764446396680e-02
      1.0060189299370485e-01 -1.1199612594185394e-01
      -6.2764587217553167e-02 -3.1803137833929140e-01
      2.1567848172678480e-01 -3.5635766200301044e-01
      1.7569360969936693e-01 -1.2534670193808556e-01
      1.7116898256491042e-01 2.7404092663619026e-02
      -8.3967525307260246e-02 6.7711267352271676e-02
      2.4611229572653312e-02 1.5244258013084627e-01
      1.0404760302594213e-01 9.6986353730937724e-02
      -2.6633177856220663e-01 -8.9392012653587746e-02
      1.4420656182675787e-01 -1.7739372371375111e-02
      -8.6648601167024317e-02 1.5660090443589508e-01
      -6.4837238718950474e-02 2.2269442847302637e-01
      1.1685935289018443e-01 2.0959458883460463e-01
      -6.5735008368937364e-02 -1.1283584367056519e-01
      -1.8697848477570081e-01 -1.9946017347701017e-01
      1.0586675063852051e-02 -5.8097593202197401e-02
      -1.1283021599924252e-02 3.1805289371015683e-01
      6.2945708017120142e-02 3.1788408441354200e-02
      -2.3024780966701841e-01 3.1318068979830754e-01
      6.0060886210907571e-01 -2.7069194304262661e-02
      -2.1189007787815842e-01 1.0098638190853335e-01
      3.2310353203950024e-02 -4.9264184173695658e-02
      -4.0800270993136006e-01 1.7244394464338811e-01
      -1.9472130244787214e-01 -3.2957096256832397e-01
      1.5977961454343736e-01 -4.6395783227046267e-02
      -7.9241940531640978e-02 -1.1871684281597306e-01
      -1.5624144072593699e-01 -5.0715449575778948e-01
      1.9256317665561717e-01 -2.2659649697728798e-01
      1.7298032290229703e-02 6.4559881820378962e-03
      -4.8609804838274574e-02 1.4746690223317305e-01
      -1.5871875909164448e-01 1.8001933920800237e-01
      1.9953226946925029e-01 -5.6952471746973321e-01
      -1.0542976311815649e-01 -7.6246926377533122e-02
      -6.9166864255765223e-02 8.1878353973933601e-02
      3.4496906283500450e-01 9.5500292689079905e-02
      -5.1488606566541820e-02 1.0898658092860317e-01
      4.9847079305633357e-01 1.3561710562024954e-02
      2.4561859020384508e-02 2.0989745243339408e-01
      -3.0951716599300316e-01 -4.6016808939057553e-02
      -6.1908401095382670e-01 8.8729243739170544e-02
      4.4047502934760549e-02 -2.8725371910108977e-01
      3.5953871122596327e-02 1.1411396608919472e-01
      -1.3418290222130078e-01 -1.8127216829034475e-02
      -2.7883294995923436e-01 3.5292470805867215e-01
      -1.1035574426306387e-02 -5.7184996404441475e-02
      1.0123451130823978e-01 -2.5803321403599488e-01
      8.9092745336592907e-02 -6.2521365651055483e-02
      2.4823592433514099e-01 -2.8039265134096943e-02
      1.4058675806691368e-01 8.6820991532309197e-02
      -1.6809210725831092e-01 1.4942956428025999e-02
      9.9942305726170758e-02 -4.6439393512440358e-01
      -8.9355912653414013e-02 -8.2139615937679933e-02
      -2.2613947064636983e-01 1.6213699466607623e-01
      -2.1766652314352479e-02 -6.4363191629359329e-02
      -3.3985453473916592e-02 3.5378560919038321e-02
      -1.1416920615502868e-02 2.4093010005433763e-02
      -1.8696452635392663e-01 -2.0803586940288263e-01
      5.6251599150777931e-01 -4.3031719980796002e-01
      1.1524656433559732e-01 -2.0264670019238315e-01
      -2.5124683474427384e-01 -1.2014296423505054e-01
      -3.0463345133208052e-02 7.2793330741895390e-01
      1.2973243768146062e-01 -1.4071022239811623e-01
      8.2083680095550206e-03 7.9077939470309958e-02
      -1.4027706404526957e-01 7.6905777338090772e-02
      3.2716511149783547e+00 -2.2748576739995760e-01
      -1.7047270262001396e-01 2.0785423806934272e-01
      1.2852121248362883e-01 -1.2009853016156435e-01
      4.3228513409427932e-01 -6.9251548182838935e-02
      6.6520114948870057e-02 6.0832407514732782e-02
      1.2535402074279747e-01 -2.6369481851769450e-01
      -2.5085070028608580e-01 -1.8460096437135615e-02
      2.9119918244648407e-02 4.7399574249180049e-01
      -4.0740992128974621e-03 2.2174833092965443e-01
      -3.7883939293227274e-02 -2.2885746717015013e-01
      3.1617219863509446e-02 -1.6503744776037946e-01
      2.9584407295602799e-01 2.0993379035996762e-01
      -9.5714461976617426e-02 8.7808309907795812e-02
      -1.1059867429040469e-03 -2.4363711203825869e-01
      -6.1727957697619976e-02 2.2466425609395504e-01
      3.4036835119854342e-01 -1.0701124979294534e-01
      -7.5296132732344520e-02 -1.5195475482373108e-01
      7.9119286637116260e-03 1.7032317730182403e-01
      2.3819756461301084e-01 -1.0995921876377443e-01
      -2.9730327629403425e-01 2.4027383078183029e-01
      5.7629310549711092e-02 -7.8330864363198666e-02
      -9.8786540048886651e-02 -4.1971250704831928e-04
      -1.7497625632323682e-01 2.7317936438628604e-01
      -7.1739392173790939e-02 -4.9265675328058867e-02
      1.2434222264906679e-01 -1.0648282873063269e-01
      1.2005522236525991e-01 -7.3254708367582383e-02
      -1.3238280007618528e-01 1.3974444897806282e-01
      3.0197645072544795e-02 1.3173022214412872e-01
      -1.0299697199089859e-01 3.9105226442444144e-02
      1.9892100700146145e-01 1.1346841245062874e-02
      -3.5066647153120210e-02 -1.4220950646153204e-03
      -2.0855789431955332e-01 2.0746514298666516e-01
      -7.7410038013001517e-02 6.5055620674203301e-03
      1.1379602045256133e-01 -3.9538651039289718e-02
      -3.9767000345317954e-01 -7.5331518448498433e-02
      9.7333407397087096e-02 3.2367252126804968e-02
      1.8421495522657744e-01 1.8013326334647498e-01
      6.9359502613060411e-02 2.2197064716897028e-01
      2.7673366000426664e-02 9.8147371909919581e-02
      -1.4216273124189038e-01 -7.0580169370470403e-02
      -5.6897257899770119e-02 1.3850785988643109e-02
      -1.0752342170584187e-01 -9.2323954056857088e-02
      8.1094721397253183e-02 -5.0157715763114863e-01
      -2.0246941305215246e-01 -1.2173423840665093e-01
      1.5624784279414305e-01 -1.5403454942428407e-01
      5.2614092595879502e-01 2.5123324313284695e-01
      9.0514223796715365e-02 -2.2039582886618567e-01
      -7.3937270943138678e-02 -1.1694555011977543e-01
      5.0629142874021982e-02 -2.6123159154525899e-01
      1.0208057802839339e-01 7.6337149469173646e-03
      4.9595219533387254e-02 2.1568085235898027e-01
      1.6268545468457346e-01 -5.9789584864004090e-02
      4.6993991775744495e-02 -8.5551550733112658e-02
      1.0913068299810312e-02 -1.1452754172141869e-01
      1.8298459655734586e-01 6.8684445113869189e-02
      -1.6926099913408069e-01 1.7836882188581907e-01
      -1.1155932768165171e-01 -1.5492304706092891e-01
      3.0884678095685408e-01 -1.0577976939956220e-01
      5.3287282618196645e-03 1.4796550340728221e-01
      -9.7409093578733466e-02 -7.5682033147286026e-02
      2.2358557777777316e-01 2.6688456664595284e-01
      1.5025636561133920e-01 7.3544220448376232e-02
      -1.8403985546425784e-02 -2.2917457390191764e-01
      -1.9882467839299175e-01 3.0400029967311482e-01
      -1.5376681299183828e-01 -2.1490568331108503e-02
      -6.7370605834411332e-02 -2.1398905832606963e-01
      -3.0047619508296614e-02 3.5452526998041428e-01
      -1.6049726001867382e-01 9.2208159554522862e-01
      2.7267306079741827e-01 -2.6854109318622182e-01
      1.9907412176671713e-01 -1.2525210605255871e-01
      -4.7629906695726407e-02 2.8171769602816482e-01
      -1.4755864482059805e-01 1.5496051997135898e-01
      1.4264678597949298e-01 1.3834316300026797e-01
      -6.9469927957378261e-02 7.8717039789299587e-03
      2.8857124879046148e-01 -2.6242111846972910e-01
      -1.2501100898070722e-01 5.4345577326046036e-02
      -2.2858495600275980e-04 -4.6511273235761058e-01
      4.1462407559364656e-01 1.2682159989872713e-01
      3.0722252770170155e-01 -4.4753016786987243e-01
      -1.0398596112446272e-01 6.1657683579785003e-02
      7.9148163504528649e-02 -1.5027637557586718e-01
      7.9698603677712698e-02 -3.7049347841926268e-02
      3.1374823525470180e-01 -7.1189316916128995e-02
      3.6092170296715027e-02 6.7211637269799465e-02
      6.8833325587562472e-02 -1.9771004164948885e-01
      1.8770118946864980e-01 -4.2844460965011788e-01
      6.3168558166542668e-02 -1.8158781540146057e-01
      -3.3452934115334415e-01 -1.7176403407770219e-01
      -1.6754748071742022e-02 -2.9157683818367186e-01
      1.3515859272150801e-01 -1.6924193946045194e-02
      -3.5498725081725141e-01 2.2984360601608475e-01
      1.1728950425033807e-01 -4.0551685129405275e-02
      -8.1396592308057250e-02 -1.7100848127255805e-01
      1.8928300274253623e-01 4.0221883037900460e-02
      3.7748560974380230e-02 -2.2940202423433431e-01
      4.1754530460219159e-02 4.4916974735387118e-02
      1.3249133662699142e-01 2.5571621377131804e-02
      1.5353761593893370e-01 2.2828743996677378e-01
      -2.5610714545952276e-02 -9.3151279130013406e-02
      -3.0665082602491184e-01 4.5877137482107221e-02
      -2.8199124305452816e-01 6.5940717670959326e-02
      1.9690109935656215e-03 -1.0477722897807122e-01
      -7.0481143329615303e-02 -1.3148239519370100e-01
      2.8312178442434423e-02 -1.8517065497473004e-01
      -1.2251423020488865e-01 1.1582619538300516e-02
      4.5865504540864140e-02 1.5465146569338734e-01
      1.7901687599676502e-01 1.9510412384375853e-01
      1.0218259010275485e-01 1.9455086195853621e-01
      -1.8084150395307844e-01 1.0624045800435601e-01
      -3.1749177010991218e-02 2.4787343672950388e-01
      1.1743327707508557e-01 1.3676448984066095e-01
      -9.2074283898496256e-02 -1.1889815806862550e-01
      -5.4355390847262331e-04 2.2182841629455405e-01
      1.5227485611859334e-01 9.2406493252274347e-02
      1.8305762066526951e-01 -4.1861768970088459e-01
      -4.1243982787133947e-02 1.0119590365142998e-01
      -2.4426346052330525e-01 2.1885974596509741e-01
      1.1861302089938643e-01 4.4688035169061016e-02
      -2.6106746466845460e-01 1.5985257578917175e-01
      1.6227535465964140e-02 2.2537052229744325e-01
      -2.2923220888797134e-02 1.9936429377890785e-01
      1.1712211889112772e-01 6.4709389185856434e-02
      -6.9968330541287066e-02 2.0283944423532529e-01
      1.6898641121933655e-01 1.8579142704564319e-01
      3.3384313307985303e-02 7.3968475190999430e-02
      5.2247286819740488e-02 -2.9231130346246141e-03
      -1.0241493777596282e-01 -2.1077080064419035e-01
      9.4679314887246652e-02 -1.1000057568085884e-01
      -2.6679915406119448e-01 -1.5158894409809845e-01
      -7.1162947101948648e-01 -1.5857782682953056e-01
      1.5772557948270938e-01 -1.1776740560634479e-01
      1.6526046761402052e-01 -5.4556261195606928e-02
      -1.5920035780735983e-01 5.8702253357371080e-03
      -1.2158106628036484e-02 -8.3040278360628772e-02
      -3.4384065182766677e-01 2.1182224597446209e-01
      6.3923594798839078e-02 1.9559251734961348e-02
      -4.3609892256296601e-01 -3.9381025969002165e-01
      1.8309526373822196e-01 -1.1135422933779227e-02
      -3.5502616673739530e-02 -1.3609484408187913e-01
      -1.5235840211641977e-01 1.9452057527720948e-01
      -2.9965187608992838e-01 -9.3890355700909922e-02
      1.2395403118699963e-01 1.5944689775316717e-01
      1.3101173610611640e-02 3.1515965462186810e-02
      1.2995977686997928e-01 -3.1549930562878331e-01
      -3.4558468128770120e-01 -5.3434116105972949e-02
      5.0548936166877299e-02 4.1408038375606310e-01
      -2.8884483437694075e-01 1.7723428695098312e-02
      1.6252516282929011e-01 2.6803225723376595e-01
      3.9397647075955174e-02 -1.4017691271036814e-01
      -2.8311029426884099e-01 2.8711961546698129e-02
      3.4755506926033332e-02 1.0382636768577874e-01
      4.3822696691094504e-01 -6.3381957386915877e-02
      -2.1491333934161877e-01 5.7070787754550531e-02
      -5.3014000403840474e-02 2.5497520879412211e-01
      1.9509219455409071e-01 -5.2639921359938571e-02
      -1.5999330864291696e-02 -4.1916869075645825e-02
      5.7736676260737731e-02 -1.1567404736918337e-01
      -1.1501279686361623e-01 -2.3932270166217254e-02
      2.3220028362444756e-01 -2.2098903235084635e-02
      4.0349501980923901e-02 -2.0824069223298552e-01
      -2.3659884887182236e-01 1.2748379570680768e-01
      1.9449653806353073e-01 2.3559269728014660e-02
      -6.2145913321371138e-01 -2.0913814512693024e-01
      2.5260306343555933e-01 -3.5297567360717014e-02
      1.8953689104331645e-01 1.1421121728955970e-01
      2.5297766688275606e-02 -8.6233738339921664e-02
      8.3488780856739969e-02 -8.8671325432404732e-02
      2.7160099298622492e-01 -1.6405491231744582e-01
      4.6841810915888640e-02 2.4376387058649832e-01
      2.4314295973387182e-01 1.5941491391695312e-01
      4.6613624159347500e-02 2.6052469989023549e-02
      2.1006890773545381e-01 8.5341150734896787e-02
      -1.4922312974599802e-01 -9.1110577135334006e-02
      -3.8873818525286978e-02 -9.2324681585134058e-02
      -9.2958898095866299e-02 -6.6500314762459559e-02
      3.4997975084406639e-03 -1.4176964164055525e-01
      2.1602272426352504e-02 -2.9737039850392050e-01
      8.7614318208446826e-02 1.2825890703831958e-01
      5.2560410294281967e-01 -2.0986664648349665e-01
      -2.2418679442626047e-01 1.2882987009317658e-02
      1.8867237694166497e-01 -4.8860110962192921e-02
      1.2653110973050807e-01 -1.3888283188174461e-01
      -1.1308629038945894e-01 -5.7969267904721289e-02
      2.1894813678496841e-01 -6.2600959046971355e-02
      -1.8219017913390478e-02 -6.2973079840284885e-02
      1.9783197192704806e-02 -1.8563139126628096e-02
      -1.6198963702430294e-01 1.7181917321628662e-01
      4.9498744013764993e-02 -6.0670795577831567e-02
      4.0522935377075936e-02 1.0331814382653498e-01
      -1.4647898849315183e-01 1.3149847440767651e-01
      1.5208855176937880e-01 -3.8431755052668624e-02
      -1.7761710923143362e-01 2.4313639055524895e-02
      -2.6914296661584403e-02 2.5712453621192982e-02
      -1.3975545939443620e-01 1.1116049386140950e-01
      -8.5604270462240076e-02 8.4108373910890960e-02
      -5.3452169700914189e-02 -3.1385669187889276e-01
      5.0557222692670871e-02 1.3701697473273192e-01
      -4.3162253435569309e-01 -1.2418568420686051e-01
      2.6654484422353700e-02 -1.3936946780726220e-01
      7.7727584282150070e-02 -6.0325246399099391e-02
      3.9742213744131498e+00 -2.1112274746227197e-01
      1.7899837811955496e-01 1.6539997381366350e-01
      1.1085786997617307e-02 -1.1210093574764513e-01
      -1.6713308785805847e-01 1.1838864784143374e-01
      2.2237191210480867e-01 -9.8266305444642307e-02
      1.2680650559025547e-01 -6.7612890046072807e-02
      -4.1729174890001208e-01 1.4599667762544460e-01
      -2.5771057222370891e-01 5.6987850961530062e-01
      5.9367600431305534e-01 1.4438769354061803e-01
      6.4371237289856179e-02 1.9836909236991512e-01
      3.7732623752270336e-02 -4.3740934520220723e-02
      -1.1005225114831851e-01 3.2609101979556337e-01
      1.9483134835846662e-02 -2.0169946522023940e-01
      -4.5499750108660042e-01 -1.9011757791435230e-01
      -4.1009956877815201e-01 8.8692760419665589e-02
      2.9472252960954626e-01 -7.7356074031966301e-02
      6.9718353284191195e-02 7.7428024771149948e-02
      -4.1303321542167992e-01 7.9613588158018063e-03
      6.2481746493687396e-01 -1.1046898880347403e-01
      1.4520528040325018e-01 4.2204328480396047e-01
      4.9235569698849013e-02 -2.0044800552782596e-01
      -3.6087872444480829e-01 1.5607904925966060e-01
      -1.7815479887147428e-01 -3.6623735101185134e-03
      2.0110474328492448e-01 -2.1029891607327164e-01
      7.6870594591506081e-02 -7.2682132742299704e-02
      3.2301346738657810e-02 1.6241584712769006e-01
      -1.9061765974610573e-01 -1.8020621820039801e-01
      1.9570220796398953e-02 -2.1395622248160973e-01
      -1.3828099502172175e-01 2.2177550541000912e-01
      -3.4949190708559746e-01 -3.9782281465919084e-02
      -3.5999300321718469e-01 -3.9066689308913655e-01
      -5.2840805182925732e-01 -4.6821401818823563e-02
      6.0533640833737502e-02 6.7492074824481427e-02
      7.3437843659488897e-02 3.5916777162853492e-02
      2.6018611466588369e-02 1.0149285724507084e-01
      1.3037731937969860e-01 -1.8549122350541616e-01
      -2.0789001364338999e-01 5.5138773506612025e-02
      8.9661795956820049e-03 1.0559836868995558e-01
      2.2662604256174698e-01 1.1256133388526583e-01
      -1.3748931771741732e-01 -3.1983433586306848e-01
      -6.8484453288291891e-02 1.0510599510104905e-02
      3.9180827124730111e-01 4.9372686233522985e-02
      -3.5194033826874312e-03 -3.7104661016195625e-02
      -4.3593658004686994e-02 1.0812584800246409e-01
      5.8600229909992134e-02 -3.7300712929257079e-01
      2.4037895424690062e-01 -4.0105770517212924e-02
      1.9014354503935202e-01 -1.9428168133051840e-01
      3.1326974138022573e-01 3.2962421565826056e-01
      1.2700107353341464e-01 -1.1624197361950173e-01
      -5.4651756520768910e-02 -2.4045287976707147e-01
      -5.3108596560307079e-02 2.2126323992843649e-01
      -1.3060625540065515e-01 8.2535054622972975e-02
      2.0958032373051116e-01 6.8707784958968697e-03
      -1.0665848015949589e-01 -3.9414747087829251e-02
      -2.5048864675278643e-01 -8.7508239931823970e-03
      -1.3475042395655684e-01 2.0077834398157215e-01
      2.1021583436879815e-01 -8.9126937619145891e-02
      -1.8298991230773159e-01 -3.4593677812400958e-01
      -5.4933242619016796e-02 -5.2666545668815079e-01
      -1.3869834945207260e-01 1.4525294313921824e-01
      2.3436941048679411e-01 2.4374816917175074e-01
      1.3828242822270698e-01 3.4856904820555190e-01
      7.2404374806855534e-02 -1.7029386424954368e-01
      -1.7791724620013835e-01 3.1194651882669128e-01
      -9.2272090508870669e-02 -4.5236101097374742e-01
      -1.0144032623812906e-01 3.6096100913390933e-01
      -1.0694499845899329e-01 2.6229618685010442e-01
      1.5510805782679365e-01 5.4869688927761828e-01
      -1.4761239118912045e-01 -2.7391131042179235e-02
      8.5284846113377610e-02 -2.8131317586032684e-01
      -1.8121899412775908e-01 -1.5391337220196741e-01
      1.7825312965130660e-01 1.0110632582829621e-01
      -2.7009366317797734e-01 1.8702841721099117e-01
      7.7913582060660680e-02 -5.2551727083498907e-03
      -3.0990029647936731e-02 -1.1052139696688687e-01
      4.1221038296075110e-02 -4.6230393387654424e-02
      -2.6082451547373166e-03 2.9789850010176905e-01
      8.8892250754452590e-02 8.5518411917155168e-01
      -2.3777406694969022e-01 -3.1283805515846602e-01
      1.1691588853936480e-01 8.0166362621387367e-03
      -2.7457102817144452e-01 6.9433503785332959e-02
      1.4777584511134625e-01 -5.1443193555050712e-02
      -1.3084220503443092e-01 1.4673356594230810e-01
      1.7133799790202006e-01 1.2711091193236806e-01
      -4.1208738462033177e-02 3.0553395049052437e-03
      -2.7253439843419514e-01 1.2571270345636507e-01
      2.3082175115835543e-01 1.8138965653278966e-03
      -3.6958928048668277e-01 -2.4263032124641478e-02
      1.1389937070885184e-02 -2.6303469720373657e-01
      1.9379974684529917e-02 -1.2859497073927065e-01
      -2.5270180284620009e-01 1.7726775641460776e-01
      -3.1923563515911613e-01 -1.4741964488671766e-01
      -7.9687670653225226e-02 2.9425893347601245e-02
      1.7069492734234129e-01 1.4686878090893804e-01
      2.2945082529675299e-02 -1.0330363821461092e-02
      -1.9025502346409859e-01 -3.1373520028212709e-01
      2.0793717421179334e-01 -5.9485882671600612e-02
      3.2515294138417428e-01 6.0287068796031032e-02
      -6.4815478753495206e-02 -3.5494227922106014e-01
      -1.6982146777387200e-01 2.2023538813833701e-02
      -2.2811995012756017e-01 2.9461709968857952e-01
      -1.7834792916241127e-01 -1.2211541442750157e-01
      -1.1236633174432871e-01 9.8545425010966373e-02
      1.1809391212212404e-01 -1.9789726792233375e-01
      -1.6523104766215488e-01 -1.7742635408930893e-01
      -2.6397876140666748e-01 7.1777943642457390e-02
      2.0933965451337727e-01 1.1205280879796345e-01
      -1.7199977331990493e-01 -2.7586941772202439e-01
      -2.8570804603931080e-02 -2.4151596989827911e-02
      -1.0266886362247610e-01 6.3871656356377482e-02
      1.3662351625747318e-01 1.4922877475109905e-01
      -4.2275891317389035e-02 -1.3858224083035781e-01
      1.8944788110966337e-01 1.9064216168363815e-01
      -1.5649189685111253e-02 -2.2447073501085679e-01
      3.2147766065936623e-01 2.0735863909061950e-01
      2.0765875951336824e-01 -7.3213297225713583e-02
      -4.7936960960980463e-01 3.1199282831189384e-01
      4.0737109942818150e-02 -1.2514612788515811e-01
      -3.2376130557205860e-03 -1.2929790690378213e-02
      1.4645283945888080e-01 -2.8142805449790326e-01
      1.7121175876429304e-01 3.1836180903831966e-02
      -2.8650085940896580e-01 6.7721458681745755e-02
      -1.0565949963432580e-01 -5.9566145746091842e-02
      -5.1575617572688491e-02 -6.3884696780159489e-01
      2.0245188306533277e-01 -4.3024671907436796e-01
      -2.9506953661052888e-02 -1.7375767560902322e-01
      -2.6326422332645022e-01 -7.0349328943602268e-02
      8.1815016842265026e-02 2.1146957112213476e-02
      -8.0698540385455805e-02 -1.5073605954038774e-01
      2.3835608391344851e-01 1.1409503654025967e-01
      -8.8468902249859416e-01 6.9790757484771662e-02
      1.3725758658894083e-01 -2.0418014127652741e-02
      -6.9255462713122509e-02 -1.2764715662336981e-01
      5.9960114947335927e-02 -3.6636138198714703e-02
      2.6149774304056334e-01 1.9691090046187104e-02
      -1.1847052906148892e-01 -1.8765602939992004e-01
      -2.0311591057069084e-01 2.8368529574148985e-02
      1.3750214457859367e-01 -2.3042353179227429e-01
      -3.9574838772199883e-01 -1.0673468710176318e-01
      1.9763986396882718e-01 4.2985808131014974e-01
      1.3451945694783843e-01 1.8346611331725288e-01
      -8.0276212022420773e-02 -4.1580265867896476e-01
      3.1944991716366977e-01 1.9075532102326987e-04
      -1.6616322358989372e-01 -1.8368296116580066e-01
      -2.2485311671285380e-01 9.5653550153660907e-02
      1.6194996924892854e-01 -6.7311439855044425e-02
      -4.0587615122073470e-02 -1.0840131897999603e-01
      -2.0132833396982502e-01 -5.5819671405150068e-02
      9.3217894949244359e-02 -3.8246848566342456e-01
      -8.2670250578575563e-02 -1.1789104533767862e-01
      -1.7641718357669345e-01 8.0699848622571027e-02
      1.1660509981036360e-01 2.4082241173235738e-01
      -2.5417718750932283e-01 -6.3336752882635808e-02
      -2.1102297089445712e-01 -7.8481925419619757e-03
      1.1317980440686794e-01 -6.6245664641497240e-02
      -1.3727139394104937e-01 -8.1405961307562724e-02
      -1.1089915795925809e-01 -2.1829234079826423e-01
      8.4315684274672800e-02 -3.6769907154039098e-02
      -2.6463027981338400e-01 -2.9479794297834633e-01
      7.0233083475846258e-03 -2.6834544388226517e-01
      -1.1597494481762291e-02 -1.2613185853859435e-01
      -1.6925486321495467e-01 2.1939380072262071e-01
      -2.3425403837178488e-01 -2.3796767159696997e-01
      2.9904201646200401e-01 2.9839562532150796e-02
      1.6090196761397726e-01 7.7417363149733104e-02
      -8.9509844074899772e-02 -9.4343708104295803e-03
      -4.9573878024100002e-02 -4.2701647061288157e-02
      1.2667701361241340e-01 5.4682592083960624e-01
      -2.9365062776079881e-01 6.3430676727721543e-05
      2.7941701489943505e-01 -1.2211520417276052e-01
      2.2120647023970777e-01 -2.4310403933429875e-01
      1.2158297418270265e-01 -1.3837935067532219e-02
      -3.8187816557640830e-01 1.3478194490976589e-01
      -5.2971326566932075e-01 -2.1223789569970675e-01
      3.3492161426341122e-01 2.2910362678535318e-02
      5.1249663498777694e-02 -1.1861911848195926e-01
      5.8430474785185128e-02 -3.8602465228772942e-01
      1.5414322902009668e-02 -1.0976840572189933e-01
      -3.3498731500087769e-01 1.2049719519175184e-01
      -3.4449474285578713e-01 -5.9384616685656068e-02
      2.1914652622849357e-01 1.0439440466596922e-03
      -3.4744770202026994e-02 1.7716060757341565e-01
      -6.4901558789327671e-02 -1.5650253201671452e-01
      -3.6047745919131963e-01 5.0602927188268516e-04
      9.5045587478471028e-02 1.2051565352554992e-01
      -2.4562928885588395e-01 -2.7136177241152620e-01
      6.8911867604937532e-02 -3.8306894470826469e-02
      4.0942318937901040e-02 -1.7956639514640593e-01
      -9.8501840620586659e-02 -9.7099855408331479e-02
      -1.0276221333736903e-02 2.9268832659807525e-01
      2.1310103989562229e-01 1.6707243349913881e-01
      1.6585945864195403e-01 -1.3904810668742702e-02
      1.0224609801840095e-01 -1.0151049064587633e-01
      -6.8318662853204559e-01 9.7139784728063491e-02
      6.7032449349504697e-02 2.7761790713554585e-02
      9.6781795161702378e-02 -2.7995386932638894e-01
      -2.2790147323609664e-01 4.6835112211512309e-01
      -1.4402788730378749e-01 -3.4515105248935857e-01
      -8.2022565750491161e-02 -2.1256670275995745e-03
      -1.9844621613437449e-01 2.7053778126967704e-01
      5.1444537025593959e+00 1.7778510169235640e-01
      1.2737517100216327e-03 3.9546659482430596e-01
      -3.6899379315692543e-01 2.5549100177294870e-01
      -1.7063011288641411e-01 2.4684252087501871e-01
      8.8918728855367668e-02 2.7985837745006276e-01
      -5.8309314737190532e-01 5.6044640859580441e-01
      -6.6538672988308831e-02 -4.9726674272924037e-01
      -4.3423753770487700e-01 3.0927075025192141e-01
      8.1910540016867359e-02 3.5684992039334268e-01
      5.3884699566009525e-02 -2.3945024779628954e-01
      -4.8540217102130168e-01 -4.3919611495233285e-01
      6.2104528334302600e-01 -7.3911952429595668e-02
      1.4620376845744759e-01 -2.0123171471568088e-01
      -2.2934076455803218e-01 -1.2620102795646612e-01
      1.8737245932132615e-01 2.7949680288456469e-01
      5.1029057393835023e-02 -4.2073963169259282e-01
      -3.9960085813160934e-01 6.2251806440264268e-01
      -7.8932744673391328e-02 -3.6920808117099330e-02
      -3.2191218229077068e-01 -2.7160693240718353e-01
      -3.5998662253067754e-01 3.5556474013632328e-01
      1.9086130820926869e-01 1.3701369487776799e-01
      4.9022870158114856e-01 -1.6009971184226018e-01
      -2.1630483750922583e-01 3.8769871058482747e-01
      2.7045827286585739e-01 -1.7462960393484223e-01
      2.8243206072774912e-01 2.9601803122892556e-01
      3.0181390896389332e-01 1.2082126187642382e-01
      1.4404439771851926e-01 -1.3968488548844415e-01
      4.1267885400265936e-01 2.9765404490543257e-01
      5.3396649136818508e-01 -2.3916541357709424e-02
      -4.7822667222746257e-01 -6.3113403431823156e-01
      -3.8341751833544774e-01 4.1821972789533107e-01
      2.8975209336205504e-01 4.1755426858855055e-01
      3.2280013756496362e-02 -3.4020050470669527e-01
      1.1482598106327961e-01 1.1933230056053705e-02
      1.4738315221913728e-01 -2.2761191597224853e-01
      -9.0994556720888728e-02 1.8378590989762039e-01
      -3.5975160500097594e-02 7.5630260546117919e-02
      2.6900383449120285e-01 -4.0323726776667534e-01
      -9.9123894108678667e-01 -1.2895010140299717e-01
      -2.6560644816302165e-01 4.0266098928083049e-01
      -3.0983222947579719e-01 -5.7330430867131500e-02
      1.9737622620702089e-01 -4.7396569215428591e-01
      2.0373150647930602e-01 -6.5933332639674713e-01
      9.8970016327204341e-02 -3.2173515255049234e-01
      5.3531388548426728e-01 -4.6122202347053293e-01
      3.3220491489234349e-01 -1.6779019833886119e-01
      3.8385311157755037e-01 -1.4118625269562041e-01
      1.4668000285544844e-01 -1.3180219666060267e-01
      1.0481697787403571e-01 -8.7831229318562343e-01
      -2.8722101313513392e-02 -7.2641161921199474e-02
      1.6579626871309905e-01 -4.2978606971948435e-01
      -5.4451180216332018e-01 4.1948421558270849e-01
      1.3065817455750750e-01 -7.6059693211529583e-02
      1.9153817828369132e-01 -1.7082855661948937e-01
      -1.1698565691480133e-02 5.0794356516814754e-01
      3.1560870274971148e-01 -2.8301715341943590e-01
      6.1263875844169452e-02 -1.2541640899024700e-01
      -5.8944055175641330e-01 -4.1171364125822157e-01
      -4.1762655981717284e-01 1.7666224371406757e-02
      1.6539376599198688e-01 -1.0003837821894331e-01
      1.5685915968301381e-01 3.1468596408314370e-01
      -5.1472618655494115e-02 -1.6126220013490461e-01
      -6.8112165669206179e-02 1.2486851142138511e-01
      4.6447318777953756e-01 -2.6849828360255312e-01
      3.5773573545358400e-02 -4.0324079614207625e-01
      2.7419725096250212e-02 1.0242607189195935e-01
      -8.2311889860169379e-02 5.6991630984751884e-01
      -1.4096108615668657e-01 3.9632139152436480e-01
      -3.8908633174463841e-01 1.1022668167077321e-01
      -4.9765245108006140e-01 -3.4477617033050689e-01
      8.8286484466499018e-02 -5.2453602165150721e-02
      2.6201723861064696e-01 7.4556508768486907e-01
      6.4503847131182990e-01 -5.1545145975662210e-01
      2.1836901423030641e-01 -1.0720435494452569e+00
      2.0928252149650964e-01 -3.8648809506333237e-01
      3.2879148056399332e-01 3.8890487085926562e-01
      1.6440664552276854e-01 2.0469333461363190e-01
      -1.9901796657038887e-01 6.8277110799547780e-01
      -7.1032796000652071e-02 -8.7199635242579066e-02
      -3.2711253999064183e-01 -1.5643872353497548e-01
      7.4095888984000741e-02 5.4849323862316879e-01
      4.1230256408870247e-01 -1.0118399255778056e-01
      -3.7388153815333219e-01 3.1443787544363616e-01
      7.1285131466703192e-02 4.5473116293027338e-01
      -2.1478777487615078e-01 1.6251129138322792e-01
      -6.0190541705618572e-01 6.5876632038454827e-02
      -2.9071056395398348e-01 2.5017897368801757e-02
      1.2775172801415088e-01 1.5959907203965107e-01
      2.2402942760694763e-01 -8.5278830064553246e-01
      -4.3179198794270138e-02 3.1443185164773796e-03
      3.4983866098076916e-01 8.3744550370922280e-02
      4.2095525488061525e-01 3.5441866358690766e-01
      2.8489366294555257e-01 -3.0313511594067799e-01
      1.7365288106676882e-01 -6.9526020986631451e-02
      -3.8608025831524534e-01 -1.2148447344454230e-02
      1.9323335392205210e-01 -3.0722670408969399e-01
      3.3450828430637007e-02 7.1220034857282821e-01
      1.5776193201317390e-01 1.5102595900529042e-01
      -1.1937255896157389e-01 2.1049681804274403e-01
      -8.7161134733718212e-02 2.3568519774061328e-01
      -5.9216188205147124e-01 3.8249488793133252e-01
      -3.2954360648924247e-01 2.6116611436224180e-01
      -6.1149993151981526e-03 8.3599642458230747e-02
      1.2112457119917411e-01 -7.3377665625215704e-01
      -1.8366493233514986e-01 2.4040711387871616e-01
      1.8872079528537217e-02 1.0165787723350164e-01
      -1.9581730276974324e-01 -1.2865097357322411e-01
      -1.9972774884601077e-01 -3.9164678428735916e-01
      3.2961476237680010e-01 -3.2758625353040460e-01
      -1.0998533013221728e-01 6.4826464108361598e-02
      -6.5222713091096673e-02 -9.6215207536096220e-02
      1.8424208116619590e-02 -4.8372017851848671e-02
      1.5140356454041037e-01 2.9608465531783486e-02
      3.5457414752074291e-02 -2.7824189528808363e-01
      6.2932324792863328e-02 2.3612954309785306e-01
      5.9835381409840318e-03 1.0599888006227286e-01
      -4.4519855171374306e-01 -1.8031299520228317e-01
      3.3955192542463736e-01 5.2778188236469500e-02
      -1.3883078283440112e-02 -2.0925398404890641e-01
      3.8689470230604062e-01 3.3275186860826395e-01
      -1.0591380253761776e-01 2.8147846969971729e-01
      -7.6690795412411439e-01 2.2537448831422618e-01
      -2.5392640509703956e-01 7.2735393041032470e-01
      2.4572152839113182e-01 -8.5105935016154555e-01
      4.8889335249589999e-01 -1.2327833680372044e-01
      3.2897739699710499e-01 2.6857922229887771e-01
      -3.9749303743189490e-01 2.6090809609390152e-02
      1.6027222363220980e-01 -4.6337720976312960e-02
      -4.7550523887422586e-01 -5.0745779927717304e-02
      1.4442711867763458e-01 3.1426412782101237e-01
      2.2336641975278018e-01 -2.0582568850220548e-01
      1.6255459537598754e-01 -4.8634217871462160e-03
      2.4668711610606081e-01 1.2344170244427245e-01
      8.6902192712644599e-02 1.2081764796611154e-01
      -5.9897388758779468e-01 -1.9897459339408624e-01
      -1.2492375084904354e-01 -3.9621116753230504e-02
      3.2849190796758104e-01 -5.7494033446488357e-01
      -6.3015873797682975e-03 6.3999512170734485e-01
      -1.7508746463950059e-01 4.6790457893098159e-01
      9.7978926411324552e-02 -4.0043863870533997e-01
      2.2961140953016147e-02 2.0413702351643462e-01
      -1.6427672066264692e-01 -1.9561588228357912e-01
      -5.4853293742290377e-01 -4.6956324925531490e-01
      2.2173306629761771e-01 2.6972610625785376e-01
      4.2580270204715637e-01 5.0031655506492211e-02
      -1.3654080098259905e-01 -5.7719366679177475e-01
      2.4199669514548536e-01 -2.4347425034281467e-01
      -9.6113809255815391e-02 1.2665293723430807e-01
      -1.8206446266387563e-01 -3.6089533433786897e-01
      3.5860244742926300e-01 7.2533586536912026e-02
      -1.4910773629626431e-01 3.9298249110333772e-01
      6.6962350854663455e-02 6.3951977215870026e-01
      -1.0827588676554607e-02 8.0113017805374886e-02
      4.8952221313912475e-01 4.2093989543771876e-01
      -7.0019010304929935e-02 4.8672632477634770e-01
      6.8316586198948662e-02 -5.1076898164439354e-02
      2.0002976877269477e-01 -2.5634714589657479e-02
      3.9833990314212692e-01 -3.9968340875522879e-01
      3.4698903026664407e-01 -4.8644627352934650e-02
      -6.5907151995356031e-02 -8.6464808760771936e-02
      -2.6980429253780325e-01 -2.9710028088468782e-01
      -1.4685058470117590e-01 5.2832060713984574e-01
      -3.6909198336470231e-02 5.1459632052381865e-01
      2.3890636995254788e-01 2.2974133160815580e-02
      4.6505799720066382e-01 1.7423583346354690e-01
      -5.7553528346548012e-02 -5.7513700461630887e-02
      9.1543641644333776e-02 9.1773784143627302e-02
      1.7686520635228462e-01 9.1552476966684462e-02
      7.4084381344013354e-03 5.5206056535129200e-01
      6.4340835049367651e-01 4.5368896350513138e-02
      1.6835337487137425e-01 2.2470293907345673e-02
      9.4940428007619884e-02 -1.2766765508378694e-01
      2.5540265550707614e-01 6.4808574909954800e-02
      1.4819886298493395e-01 2.0724770158317862e-02
      -7.7326261875956051e-02 -9.9745346563279227e-02
      4.5515088807442555e-01 3.4409966971590017e-01
      1.4914878993640535e-01 3.5358864523869216e-01
      1.2106129322434270e-01 -1.2452243609240575e-01
      1.0466933506560323e-01 1.7496108773472843e-01
      5.3478985203718382e-02 -2.4205884960463973e-02
      -3.1578494258248702e-01 -4.5700395792839237e-02
      1.5594990505303480e-01 -8.0023837468112119e-02
      2.5372243399845132e-02 1.6987779479640813e-01
      5.1841113157591552e-02 -4.7755043973481581e-01
      2.2076452848377576e-01 3.8960996291106986e-01
      8.8358199828602445e-03 -3.0546596746132998e-01
      1.5934746906572350e-01 -1.4107520029112811e-01
      3.3755561438338810e-01 2.2878219424362808e-01
      -7.4462248756127281e-01 -7.6097827322354511e-02
      2.6115243083690015e-01 -4.5435811134244225e-01
      1.6212033291679681e-02 3.0462961252751962e-02
      2.0583141791907777e-01 2.3333328254047256e-01
      -2.3478941578097590e-01 3.7180208578500649e-02
      8.9731550592340925e-01 -4.0627016241584418e-01
      -1.6010328524339160e-01 -2.4114320320151064e-01
      4.2122579906806323e-01 -5.6702666049983275e-01
      -1.8443270779180643e-01 -4.1498476769683212e-01
      5.3990753388629598e-01 5.0306744132631964e-01
      6.2665420477427225e-01 -1.8282110031423981e-01
      7.9941594289109991e-02 3.7492726872697374e-01
      7.5427209226293384e+00 -3.6887563709922147e-02
      -7.4519134979936091e-02 -8.4782605306357867e-02
      -7.1204663797710677e-03 1.9742344402951748e-01
      -1.0743617592399585e-01 -2.7058875773558040e-02
      4.9616588032069316e-02 -6.2753941586086681e-01
      -9.7566832732420716e-01 -6.1175331346545680e-02
      3.6482908273289433e-01 -2.4831340235178809e-01
      1.0274696530228776e-01 -9.3022780948133099e-01
      6.9652493743431507e-02 -4.1528157906837515e-01
      2.5738284325753447e-01 -1.2370218221421680e-01
      -5.4619716453271044e-02 -9.5783185397542117e-02
      4.2129040193768047e-01 5.9921055735066731e-02
      -1.1227638202649960e-01 5.3590337622821538e-01
      3.5296900977168283e-01 1.0960509904364360e-01
      3.9657722304096843e-01 -3.9179314135168619e-02
      -3.9719118519524488e-01 -3.7506404338155019e-01
      -9.7949320050928948e-02 -3.3399681008144599e-01
      -3.1853217951763657e-01 -8.6566307605104267e-02
      -4.9650037716234552e-01 5.3734281291278763e-01
      -3.8567972030590320e-01 -1.1031137469388845e-01
      2.1439946197552190e-01 -4.1309793233847197e-01
      4.7258275108425674e-01 -4.3031342760108121e-01
      1.5079316403020554e-01 4.7082669772116420e-01
      -3.4090646791147809e-02 -2.4363971086012001e-01
      8.2668085101585215e-02 8.8595157037805166e-03
      -5.7002106299246069e-01 -1.3626602945678393e-01
      -1.1370331485842791e-01 -3.3272178025922666e-01
      -1.0195371437830815e-01 -4.7212160259606645e-01
      5.0767401857082083e-02 5.3130268727674845e-02
      1.6164602926929211e-01 -6.3258281189907742e-02
      2.9535842240862715e-02 5.3430842336129458e-01
      2.4682567100918992e-01 -6.1261933344757893e-02
      1.2009526474783101e-01 2.9152278848689250e-01
      -1.6718694188872557e-01 -1.6571683281283084e-01
      -4.2569494198045503e-02 -2.5720929018382138e-01
      2.3556271936883089e-01 4.8233291106165470e-02
      -1.1071347371774634e-01 -8.8658577070052327e-02
      2.3937663995366679e-01 -2.8606892487543467e-01
      -3.7830084254732882e-01 2.0817622265033614e-02
      -2.7814753038192885e-01 -5.6469568440571360e-01
      1.7504667911892574e-01 -4.4769337572272395e-02
      2.0483479745243080e-01 -3.6267248078273157e-01
      -1.2294150928496698e-01 -1.7911685433085620e-01
      -5.4036171468805116e-01 1.3925391385626290e-01
      -3.2611799205372112e-02 9.3744996164661892e-02
      -4.2422654523820108e-01 2.7737628752090754e-01
      1.0588862927902438e-01 -1.7223670301802399e-01
      1.0503331631752473e-01 -2.9956746959388386e-01
      2.2471231208961881e-01 -1.5162444027990626e-01
      -3.0380333841468987e-01 -2.8363787522728279e-01
      -1.2678401418693197e-01 7.9625335028399402e-01
      -1.4024244454181153e-01 -9.2098827435748223e-02
      -8.1827921416117083e-02 -1.1360646974880624e-01
      5.8196736682244642e-02 4.9184713874341507e-01
      -9.3537647634995228e-03 -5.6556052016059163e-02
      7.8919960137299927e-01 1.4581278533250380e-01
      2.1586756047381830e-01 2.8879870687228665e-01
      -4.9445926500390835e-01 2.5452225962676034e-01
      -1.8309828416375315e-01 1.5663052113687895e-01
      1.8590440914606633e-02 8.1938888598373449e-02
      -9.4890483554178534e-02 3.3304975713071322e-01
      -1.6316924477853140e-01 2.4613453603273389e-01
      -1.2511605088442157e-01 3.1109003746787678e-01
      4.2924153955006283e-01 -5.8513375150015323e-01
      -4.8067467099867159e-02 4.7061506592356800e-01
      1.7249063914868562e-01 -1.4309761925873080e-01
      -6.1388882874718345e-02 1.5277183733390295e-01
      2.8144086796199708e-01 3.3426740758161433e-01
      -1.8117472418671421e-01 -7.2550366426645668e-02
      -6.1742070766132184e-01 -6.0648531328152921e-01
      1.0700338982558877e-01 -1.9430789099064796e-01
      -3.2510819762250509e-01 1.5200679707309678e-01
      3.4570744786035895e-01 1.2910621059502305e-02
      -7.2914303156402804e-01 -1.3616650897660432e-01
      2.3116756326681412e-01 -4.1020701830008494e-01
      -3.7368245571380332e-01 -1.8784630781909106e-01
      -3.1120887766977484e-01 -4.6335557473810024e-01
      5.0371720335829873e-01 -4.9183123650445310e-01
      -2.7374917892613887e-01 1.9860166653825123e-01
      -2.6002841632495000e-01 -2.4453831355354158e-01
      -1.3322067872054658e-02 2.7383736086770327e-01
      5.0851545553103179e-02 2.9776440556913375e-01
      -4.8312023713010033e-01 6.3472884679858260e-02
      1.1249029585204123e-01 -2.1221826712116840e-01
      -1.5773231347193908e-01 5.0798225434156713e-02
      3.9172312872212553e-02 3.9998181709977321e-02
      -1.9255727120327061e-02 -3.0526204050589872e-01
      -6.4883392104272603e-02 2.4175164291363893e-01
      -2.0103262686023995e-01 2.7039993840891441e-01
      -6.5461191198091698e-02 1.3670120115182818e-01
      1.3584084314671435e-01 -3.3470602274136174e-01
      1.8318908118851795e-01 3.1292382946752795e-01
      -1.9269599176261124e-01 -1.9953983872777983e-02
      -8.2726119841706566e-02 -2.1549679447667117e-01
      -1.2637061005926961e-01 -1.4901772491659263e-01
      1.3149537510241016e-01 -9.2201674526712532e-02
      -7.0844477393318658e-02 5.7482602480737111e-01
      2.3278722105293190e-01 -2.8881045570314584e-01
      3.2024687381161615e-01 -2.0203593757338903e-01
      2.5150708878850597e-01 1.8760031522361534e-01
      6.4078626601196154e-01 2.5443671866389816e-01
      2.5030122932520310e-01 2.3761748720895418e-01
      -6.4481084395683785e-02 3.0160192937059149e-01
      1.6549130556054870e-01 4.5380027099631692e-01
      -1.6469343368180428e-01 8.2587414471263273e-03
      2.3289513214924677e-02 2.6755813550797113e-02
      -2.5674435674448459e-01 -3.7092071447894248e-01
      -5.2160402679352874e-02 -5.5752865278531780e-02
      -7.5700087347304046e-02 3.6394840978740367e-03
      -1.7291978814872366e-01 1.0330164640915622e-01
      -1.4637868092225287e-01 -5.5952600749130709e-03
      7.1249145965728830e-02 1.4342893025514494e-01
      -1.7510268988006297e-01 8.1452017970401636e-02
      -3.7444341886866511e-01 -6.0637237518604337e-02
      -3.3776528162752856e-01 1.1935914975463062e-01
      5.2257736923931410e-02 1.6266181712450892e-01
      -2.9084077787090629e-01 1.3647046017705716e-01
      1.7504543311392579e-01 1.3542905503508773e-01
      2.6814956297743742e-01 1.9806451569527470e-01
      -4.0356321814978679e-03 -1.1786012320729794e-01
      -1.7907986827358398e-02 -3.2431373327775559e-01
      3.0305811405489026e-02 3.6701389378815047e-01
      -1.4491397324998390e-01 -9.4528004491988248e-03
      -3.3257760319574198e-02 -4.5989070720363268e-01
      6.6292683979893308e-01 -7.9419063472412610e-01
      -5.8901127270595530e-02 1.5669233360767959e-01
      1.5563908777686747e-01 -9.5632207930836655e-02
      -2.9953288838085408e-02 -1.9092933620128355e-01
      1.2229773595364261e-01 4.5863656096957169e-03
      1.1796399037142111e-02 -3.0619265399173673e-02
      8.1225334971164770e-02 3.1268697567237269e-01
      -3.1124969837652944e-01 -5.2163017592611816e-01
      -1.4253567088985558e-01 2.3990100442653856e-01
      -4.6610321884335243e-01 1.6780286777019984e-01
      -1.0084386805254346e-01 -2.6718250958033762e-01
      -2.8321798957420974e-01 -1.5259054151130633e-01
      1.8900302431629837e-01 1.9631759532160201e-01
      -3.8413298680853813e-01 -6.9322922547696356e-02
      -6.7998102903757107e-01 1.3965231681064163e-02
      -5.4731559866975621e-01 3.6586687786214178e-01
      4.0796295316160003e-01 2.7998388280241461e-02
      9.8319315657888467e-03 5.9484934768553133e-01
      -1.4019391366621353e-01 1.7915218023044813e-01
      1.0248895679729331e-01 1.7023029650553076e-01
      -9.2639687959930911e-02 -1.7735256080297648e-01
      -7.5882829539785215e-02 -4.1108363424190941e-01
      3.7426551082768705e-01 1.4020636310426651e-01
      3.2601520814954571e-02 -4.3155286837969126e-02
      1.1626105054760601e-01 -6.0177832956573784e-03
      6.3161356568156080e-01 -3.7844085010402556e-01
      1.2258335410702355e-01 4.8552496352185899e-02
      -4.2295215498867875e-02 2.4099393671691910e-01
      3.5638300173418201e-02 1.3125659940931497e-01
      2.3593560753384948e-01 -1.0498552364761655e-01
      -1.6389971452387291e-02 2.6200978848276180e-01
      -9.2500812671609561e-02 2.5416671822591103e-01
      1.9212337847884525e-01 -1.3305253960033629e-02
      1.3534016628272871e-01 -4.5456463559429816e-01
      -4.7372655567630206e-01 -1.4300374680687650e-01
      2.1580774962325611e-01 -2.7965627008261523e-01
      2.5473351661557231e-01 2.0310391195202518e-01
      -2.5872126453943078e-01 3.8235801798415658e-01
      9.0011523654745476e-02 1.6914868368293492e-01
      -3.6746710549580791e-01 -9.8328645822639060e-02
      2.9831788230244843e-01 1.4941270931020098e-01
      -8.9589948173427678e-02 2.3935519974370198e-01
      -1.1808370205866209e-01 -8.6866525570507475e-02
      -1.8131203637167284e-01 1.4536361808047307e-01
      -9.2990235521649145e-02 -2.5780019899671364e-01
      1.3382327019162412e+00 -1.2454836916077969e-01
      -4.3106547461850625e-01 -3.0381350733239670e-01
      -8.5700570016231919e-03 3.6019861298807791e-02
      4.9979845551596647e-01 2.8193464663976825e-01
      1.2039864624217042e-01 1.9603236066352329e-02
      1.0046886770661768e-01 -8.8349720433660586e-02
      -2.9478406489619607e-01 -1.6062695953940762e-01
      -3.0211189414281640e-02 1.6076974878932004e-01
      -1.0808028686876869e-01 5.8338056529124438e-01
      1.4318728669408154e-01 6.9556974763381199e-02
      -3.0444957235406084e-01 9.4974028922105887e-03
      -3.1070701814963159e-01 -7.2793801164811045e-02
      -2.8070919514008363e-01 -1.0623208164158429e-01
      8.0549671449855684e-02 1.5805785423650509e-01
      7.1197769820721110e-02 -2.2963266005062030e-01
      6.5692576803711475e-02 2.2901307512942393e-01
      3.1947271987985554e-01 4.0915144088640881e-01
      -2.9191203363268159e-01 1.9502177929833434e-01
      1.6292587065807738e-02 1.8896192770282910e-01
      9.9435065453366930e-02 -2.2955929035944794e-01
      4.5409262531700335e-02 -1.4786821981420495e-01
      9.6509080311904444e-02 8.7372367963804168e-02
      4.6362717397067538e-01 9.8725356992581864e-02
      -2.8526919004834905e-01 -6.4459348301405997e-02
      8.0418028500021355e-01 -1.0658966782211543e-01
      -1.6504508908016546e-01 -1.2778208828862586e-01
      7.4622517688974210e-01 -4.2853345060836233e-02
      3.0095666949026025e-02 -3.8446649533084143e-01
      2.7820523010690512e-01 -6.6496417311034270e-02
      2.5545009812893621e-01 2.8832766742702465e-01
      -2.4579600183481248e-02 -6.4044041880015182e-02
      5.5523591808840465e+00 3.2954718511560227e-01
      -8.9875210326787348e-03 2.8661483992484399e-01
      -8.9911100494534310e-02 1.5432563399090932e-01
      -2.4059976476418540e-01 -6.0785129023261386e-01
      -6.1820059927047193e-02 -1.5638528004650357e-01
      9.1831614648033588e-01 -9.0964712566568606e-01
      -9.1456555615624463e-02 1.1149218144964575e-01
      2.9619365567773509e-01 4.6860974385386739e-01
      -3.1405831514399990e-01 2.9430499315749681e-01
      -3.1845957995080632e-01 -6.4564548347678763e-01
